  0.100000000000000E+001  0.109467582328142E+002  0.196847446063027E+000  0.364003376505398E-001 -0.693147180559945E+000 -0.547337911640711E+001
  0.100000000000000E+001  0.111395245822713E+002  0.233673476541395E+000  0.232476414811821E-001 -0.693147180559945E+000 -0.556976229113564E+001
  0.100000000000000E+001  0.112024045839335E+002  0.168553725049613E+000  0.587893332872076E-001 -0.693147180559945E+000 -0.560120229196677E+001
  0.100000000000000E+001  0.112186721325855E+002  0.103681458113264E+000  0.313933989205805E-001 -0.693147180559945E+000 -0.560933606629274E+001
  0.100000000000000E+001  0.114414643998307E+002  0.863679045078682E-001  0.142568376016186E-002 -0.693147180559945E+000 -0.572073219991533E+001
  0.100000000000000E+001  0.114712327186301E+002  0.827547610626904E-001  0.129410486110864E-001 -0.693147180559945E+000 -0.573561635931507E+001
  0.100000000000000E+001  0.115038895171533E+002  0.154804693759910E+000  0.113850566699513E+000 -0.693147180559945E+000 -0.575194475857663E+001
  0.100000000000000E+001  0.116411601323201E+002  0.203345892248857E+000  0.228155905344306E-001 -0.693147180559945E+000 -0.582058006616006E+001
  0.100000000000000E+001  0.116939449579377E+002  0.144082388987599E+000  0.613106796623911E-001 -0.693147180559945E+000 -0.584697247896884E+001
  0.100000000000000E+001  0.119765364293759E+002  0.282863632997230E+000  0.106346148051630E+000 -0.693147180559945E+000 -0.598826821468793E+001
  0.100000000000000E+001  0.140455433513121E+002  0.276557452543837E+000  0.397471090712806E-001 -0.693147180559945E+000 -0.702277167565604E+001
  0.100000000000000E+001  0.119915697757760E+002  0.213434249390176E+000  0.162864748594499E+000 -0.693147180559945E+000 -0.599578488788798E+001
  0.100000000000000E+001  0.120124440182861E+002  0.218544620475063E+000  0.797907370688581E-001 -0.693147180559945E+000 -0.600622200914303E+001
  0.100000000000000E+001  0.121297754708530E+002  0.182578112759995E+000  0.121113128930843E+000 -0.693147180559945E+000 -0.606488773542648E+001
  0.100000000000000E+001  0.122695504389103E+002  0.227477309192150E+000  0.668848556029511E-001 -0.693147180559945E+000 -0.613477521945515E+001
  0.100000000000000E+001  0.123965285206536E+002  0.667816389447555E-001  0.922150593002233E-002 -0.693147180559945E+000 -0.619826426032682E+001
  0.100000000000000E+001  0.126380381039488E+002  0.968526663702953E-001  0.111942334645763E+000 -0.693147180559945E+000 -0.631901905197442E+001
  0.100000000000000E+001  0.130132928531017E+002  0.123751359917699E+000  0.758028550708902E-001 -0.693147180559945E+000 -0.650664642655087E+001
  0.100000000000000E+001  0.130253254092934E+002  0.242131493024281E+000  0.313380805947565E-001 -0.693147180559945E+000 -0.651266270464672E+001
  0.100000000000000E+001  0.131476222681588E+002  0.214797394552465E+000  0.551866023189492E-001 -0.693147180559945E+000 -0.657381113407939E+001
  0.100000000000000E+001  0.132144300708577E+002  0.168140671766728E+000  0.179607233034878E+000 -0.693147180559945E+000 -0.660721503542883E+001
  0.100000000000000E+001  0.132860276924632E+002  0.207407648707849E+000  0.177473919274687E+000 -0.693147180559945E+000 -0.664301384623162E+001
  0.100000000000000E+001  0.177002418972189E+002  0.303253147707333E+000  0.516394862450436E-001 -0.693147180559945E+000 -0.885012094860946E+001
  0.100000000000000E+001  0.138959522220700E+002  0.122403411508916E+000  0.109749128253794E+000 -0.693147180559945E+000 -0.694797611103501E+001
  0.100000000000000E+001  0.153129240351486E+002  0.762682552376530E-001  0.726900311813768E-001 -0.693147180559945E+000 -0.765646201757431E+001
  0.100000000000000E+001  0.154401087092968E+002  0.867369367316888E-001  0.125299457984399E+000 -0.693147180559945E+000 -0.772005435464840E+001
  0.100000000000000E+001  0.147750447210848E+002  0.338233167751520E+000  0.141764503030768E+000 -0.693147180559945E+000 -0.738752236054239E+001
  0.100000000000000E+001  0.147357552350004E+002  0.278742719776303E+000  0.494195644942860E-002 -0.693147180559945E+000 -0.736787761750022E+001
  0.100000000000000E+001  0.158674424530024E+002  0.412652553759105E-001  0.122842981161954E+000 -0.693147180559945E+000 -0.793372122650121E+001
  0.100000000000000E+001  0.143326721833610E+002  0.282112849219713E+000  0.778452550935962E-001 -0.693147180559945E+000 -0.716633609168052E+001
  0.100000000000000E+001  0.146930935883386E+002  0.186916381172026E+000  0.101300354738984E+000 -0.693147180559945E+000 -0.734654679416930E+001
  0.100000000000000E+001  0.163340852465418E+002  0.155233826294231E+000  0.229427881392636E+000 -0.693147180559945E+000 -0.816704262327091E+001
  0.100000000000000E+001  0.166289518564048E+002  0.132104404287097E+000  0.130636510154159E+000 -0.693147180559945E+000 -0.831447592820238E+001
  0.100000000000000E+001  0.107514721074906E+002  0.251408397691825E+000  0.672945163682522E-001 -0.693147180559945E+000 -0.537573605374530E+001
  0.100000000000000E+001  0.106092230400095E+002  0.212964372278302E+000  0.151454167468478E-001 -0.693147180559945E+000 -0.530461152000475E+001
  0.100000000000000E+001  0.105871084962717E+002  0.185571766057190E+000  0.584182946637786E-001 -0.693147180559945E+000 -0.529355424813583E+001
  0.100000000000000E+001  0.105786638071382E+002  0.199189584915197E+000  0.600703650729037E-001 -0.693147180559945E+000 -0.528933190356912E+001
  0.100000000000000E+001  0.105497721918322E+002  0.136840530939026E+000  0.600129604610668E-001 -0.693147180559945E+000 -0.527488609591610E+001
  0.100000000000000E+001  0.103956594430250E+002  0.201173462330055E+000  0.203475073405082E-002 -0.693147180559945E+000 -0.519782972151251E+001
  0.100000000000000E+001  0.103636442222195E+002  0.126750132010146E+000  0.125331281535972E-001 -0.693147180559945E+000 -0.518182211110974E+001
  0.100000000000000E+001  0.102961455784554E+002  0.124517179158752E+000  0.106884977266330E-001 -0.693147180559945E+000 -0.514807278922770E+001
  0.100000000000000E+001  0.102126546925606E+002  0.204115352714589E+000  0.947870627050419E-001 -0.693147180559945E+000 -0.510632734628032E+001
  0.100000000000000E+001  0.101911097291260E+002  0.107223267269794E+000  0.376530375491305E-001 -0.693147180559945E+000 -0.509555486456299E+001
  0.100000000000000E+001  0.100985251400213E+002  0.166990116581973E+000  0.438211955280307E-002 -0.693147180559945E+000 -0.504926257001064E+001
  0.100000000000000E+001  0.100138225797817E+002  0.937104384304319E-001  0.846916249074860E-001 -0.693147180559945E+000 -0.500691128989086E+001
  0.100000000000000E+001  0.987004845706904E+001  0.158485300830574E+000  0.128645229307905E+000 -0.693147180559945E+000 -0.493502422853452E+001
  0.100000000000000E+001  0.986333348974644E+001  0.206467188839632E+000  0.475260479484806E-001 -0.693147180559945E+000 -0.493166674487322E+001
  0.100000000000000E+001  0.986232777135716E+001  0.131611466105519E+000  0.134316493891144E-001 -0.693147180559945E+000 -0.493116388567858E+001
  0.100000000000000E+001  0.986085669426662E+001  0.146483542098831E+000  0.388649725298131E-002 -0.693147180559945E+000 -0.493042834713331E+001
  0.100000000000000E+001  0.985494086673368E+001  0.133129768551804E+000  0.293108080917565E-001 -0.693147180559945E+000 -0.492747043336684E+001
  0.100000000000000E+001  0.975303048507493E+001  0.615846337367043E-001  0.151050045826043E+000 -0.693147180559945E+000 -0.487651524253746E+001
  0.100000000000000E+001  0.974211181576764E+001  0.229252836303674E+000  0.166228641481019E+000 -0.693147180559945E+000 -0.487105590788382E+001
  0.100000000000000E+001  0.961519686070055E+001  0.154352351550026E+000  0.217930789965195E-001 -0.693147180559945E+000 -0.480759843035028E+001
  0.100000000000000E+001  0.949428942629701E+001  0.133156180867689E+000  0.228091682800242E-001 -0.693147180559945E+000 -0.474714471314851E+001
  0.100000000000000E+001  0.948627885257908E+001  0.168118167472795E+000  0.112972507194372E-001 -0.693147180559945E+000 -0.474313942628954E+001
  0.100000000000000E+001  0.948016400876437E+001  0.112362555235374E+000  0.171278142336630E-001 -0.693147180559945E+000 -0.474008200438218E+001
  0.100000000000000E+001  0.947553187302815E+001  0.130013278280389E+000  0.266162654543463E-001 -0.693147180559945E+000 -0.473776593651407E+001
  0.100000000000000E+001  0.941958064986692E+001  0.170055577755842E+000  0.130086434846404E+000 -0.693147180559945E+000 -0.470979032493346E+001
  0.100000000000000E+001  0.939163194443110E+001  0.105195205174556E+000  0.140098401966311E+000 -0.693147180559945E+000 -0.469581597221555E+001
  0.100000000000000E+001  0.930256086959922E+001  0.122016096284284E+000  0.328475231859740E-001 -0.693147180559945E+000 -0.465128043479961E+001
  0.100000000000000E+001  0.927998326361405E+001  0.145780414325980E+000  0.518217052566953E-001 -0.693147180559945E+000 -0.463999163180703E+001
  0.100000000000000E+001  0.911659258730495E+001  0.170181592406065E+000  0.482127432932459E-001 -0.693147180559945E+000 -0.455829629365247E+001
  0.100000000000000E+001  0.903063973292427E+001  0.135940831382800E+000  0.721617548869909E-001 -0.693147180559945E+000 -0.451531986646213E+001
  0.100000000000000E+001  0.894967520521927E+001  0.205700104647178E+000  0.615880434803882E-001 -0.693147180559945E+000 -0.447483760260964E+001
  0.100000000000000E+001  0.887623039814266E+001  0.118278925810093E+000  0.460581287373505E-001 -0.693147180559945E+000 -0.443811519907133E+001
  0.100000000000000E+001  0.883750125951862E+001  0.100800151738737E+000  0.393699677387123E-001 -0.693147180559945E+000 -0.441875062975931E+001
  0.100000000000000E+001  0.882626754059688E+001  0.127521554909103E+000  0.104335303784545E+000 -0.693147180559945E+000 -0.441313377029844E+001
  0.100000000000000E+001  0.871405961243357E+001  0.175174614176949E+000  0.534519039385464E-001 -0.693147180559945E+000 -0.435702980621679E+001
  0.100000000000000E+001  0.868766481534630E+001  0.157811797763248E+000  0.212896186365813E+000 -0.693147180559945E+000 -0.434383240767315E+001
  0.100000000000000E+001  0.867525209328934E+001  0.151171714811065E+000  0.284134104654770E-001 -0.693147180559945E+000 -0.433762604664467E+001
  0.100000000000000E+001  0.860386344994863E+001  0.242119884093094E+000  0.176243451246020E+000 -0.693147180559945E+000 -0.430193172497431E+001
  0.100000000000000E+001  0.852818244309081E+001  0.155164367566603E+000  0.313220150862040E-001 -0.693147180559945E+000 -0.426409122154541E+001
  0.100000000000000E+001  0.851435727501185E+001  0.191378472279405E+000  0.620806089987507E-001 -0.693147180559945E+000 -0.425717863750592E+001
  0.100000000000000E+001  0.839549735655387E+001  0.108292606342866E+000  0.814546207214173E-001 -0.693147180559945E+000 -0.419774867827693E+001
  0.100000000000000E+001  0.834379318110635E+001  0.230996644236503E+000  0.118405328963280E+000 -0.693147180559945E+000 -0.417189659055318E+001
  0.100000000000000E+001  0.767781203539575E+001  0.107970149062643E+000  0.124491747083705E+000 -0.693147180559945E+000 -0.383890601769788E+001
  0.100000000000000E+001  0.753479025719588E+001  0.117722616240767E+000  0.995513368568061E-001 -0.693147180559945E+000 -0.376739512859794E+001
  0.100000000000000E+001  0.745937312142047E+001  0.196253463174098E+000  0.162001839528538E+000 -0.693147180559945E+000 -0.372968656071023E+001
  0.100000000000000E+001  0.743006873988227E+001  0.197253381033067E+000  0.104425709911899E+000 -0.693147180559945E+000 -0.371503436994113E+001
  0.100000000000000E+001  0.732974638674481E+001  0.142145063424756E+000  0.671734828518248E-001 -0.693147180559945E+000 -0.366487319337241E+001
  0.100000000000000E+001  0.729515444714198E+001  0.112158759233919E+000  0.952515474012701E-001 -0.693147180559945E+000 -0.364757722357099E+001
  0.100000000000000E+001  0.709770726837411E+001  0.217376370780896E+000  0.147480616799992E+000 -0.693147180559945E+000 -0.354885363418705E+001
  0.100000000000000E+001  0.662580928312097E+001  0.118232895151606E+000  0.133215735220047E+000 -0.693147180559945E+000 -0.331290464156048E+001
  0.100000000000000E+001  0.655074786580022E+001  0.168387873517645E+000  0.159552794538276E+000 -0.693147180559945E+000 -0.327537393290011E+001
  0.100000000000000E+001  0.653318422429066E+001  0.132789440543390E+000  0.839585343215208E-001 -0.693147180559945E+000 -0.326659211214533E+001
  0.100000000000000E+001  0.646580900719719E+001  0.217042548972239E+000  0.120086293311391E+000 -0.693147180559945E+000 -0.323290450359860E+001
  0.100000000000000E+001  0.636674620265424E+001  0.615552140361963E-001  0.151087970803258E+000 -0.693147180559945E+000 -0.318337310132712E+001
  0.100000000000000E+001  0.614258120322429E+001  0.167694608926344E+000  0.176342005380304E+000 -0.693147180559945E+000 -0.307129060161215E+001
  0.100000000000000E+001  0.540478470614077E+001  0.191528081673840E+000  0.141597217669546E+000 -0.693147180559945E+000 -0.270239235307039E+001
  0.100000000000000E+001  0.539903076701963E+001  0.502343370958005E-001  0.157960932564441E+000 -0.693147180559945E+000 -0.269951538350982E+001
  0.100000000000000E+001  0.437097224649993E+001  0.220450551720531E+000  0.214786863647002E+000 -0.693147180559945E+000 -0.218548612324996E+001
