  0.100000000000000E+001  0.110648450531044E+002  0.214269035542937E+000  0.320971433710942E-001 -0.693147180559945E+000 -0.553242252655220E+001
  0.100000000000000E+001  0.111091412053765E+002  0.224460239856064E+000  0.642612137951705E-001 -0.693147180559945E+000 -0.555457060268826E+001
  0.100000000000000E+001  0.111538121143274E+002  0.228045556415695E+000  0.982923426167318E-001 -0.693147180559945E+000 -0.557690605716368E+001
  0.100000000000000E+001  0.112728257580647E+002  0.165903848907839E+000  0.198708687673299E-001 -0.693147180559945E+000 -0.563641287903236E+001
  0.100000000000000E+001  0.113520529969789E+002  0.981086520995909E-001  0.102238263916674E-001 -0.693147180559945E+000 -0.567602649848945E+001
  0.100000000000000E+001  0.115872868305097E+002  0.232214668697176E+000  0.117742049462046E-001 -0.693147180559945E+000 -0.579364341525486E+001
  0.100000000000000E+001  0.117770284815955E+002  0.197149499568686E+000  0.438325538600092E-001 -0.693147180559945E+000 -0.588851424079777E+001
  0.100000000000000E+001  0.119761979093515E+002  0.239962386690704E+000  0.145223380700742E-001 -0.693147180559945E+000 -0.598809895467573E+001
  0.100000000000000E+001  0.121094442440722E+002  0.246951336726737E+000  0.366595570416958E-001 -0.693147180559945E+000 -0.605472212203610E+001
  0.100000000000000E+001  0.122254903442988E+002  0.723736213791943E-001  0.233272594585926E-002 -0.693147180559945E+000 -0.611274517214940E+001
  0.100000000000000E+001  0.122527068458558E+002  0.183475194927026E+000  0.433723635659471E-001 -0.693147180559945E+000 -0.612635342292791E+001
  0.100000000000000E+001  0.123157006066911E+002  0.816464450964756E-001  0.452347619360111E-001 -0.693147180559945E+000 -0.615785030334557E+001
  0.100000000000000E+001  0.123645713497406E+002  0.708468123308992E-001  0.247586370176780E-002 -0.693147180559945E+000 -0.618228567487031E+001
  0.100000000000000E+001  0.124083629965634E+002  0.464983547125624E-001  0.125200942284579E+000 -0.693147180559945E+000 -0.620418149828170E+001
  0.100000000000000E+001  0.124660022742487E+002  0.270102463970292E+000  0.346453430952351E-001 -0.693147180559945E+000 -0.623300113712433E+001
  0.100000000000000E+001  0.140014854962272E+002  0.232042007863459E+000  0.104351165151264E+000 -0.693147180559945E+000 -0.700074274811359E+001
  0.100000000000000E+001  0.140287291099710E+002  0.545524322950479E-001  0.511818765599624E-001 -0.693147180559945E+000 -0.701436455498549E+001
  0.100000000000000E+001  0.125395892671906E+002  0.250243411230855E+000  0.362215461897119E-001 -0.693147180559945E+000 -0.626979463359531E+001
  0.100000000000000E+001  0.141109817438645E+002  0.176429542021965E+000  0.264281723328146E+000 -0.693147180559945E+000 -0.705549087193224E+001
  0.100000000000000E+001  0.127724870472509E+002  0.105496660779233E+000  0.662058927486580E-001 -0.693147180559945E+000 -0.638624352362546E+001
  0.100000000000000E+001  0.129249130444924E+002  0.192598774353434E+000  0.915808070486504E-001 -0.693147180559945E+000 -0.646245652224620E+001
  0.100000000000000E+001  0.129876336007602E+002  0.186086561311651E+000  0.598798962142359E-001 -0.693147180559945E+000 -0.649381680038008E+001
  0.100000000000000E+001  0.130260193148349E+002  0.846749948921959E-001  0.466500760194397E-001 -0.693147180559945E+000 -0.651300965741745E+001
  0.100000000000000E+001  0.132973484450709E+002  0.175332429311224E+000  0.111556814736222E+000 -0.693147180559945E+000 -0.664867422253546E+001
  0.100000000000000E+001  0.134146638353304E+002  0.256168633959503E+000  0.115943250814337E+000 -0.693147180559945E+000 -0.670733191766521E+001
  0.100000000000000E+001  0.138548368746656E+002  0.367015365928449E-001  0.191881325480234E-001 -0.693147180559945E+000 -0.692741843733279E+001
  0.100000000000000E+001  0.149158983403824E+002 -0.343460314788098E-001  0.145987193492517E+000 -0.693147180559945E+000 -0.745794917019121E+001
  0.100000000000000E+001  0.151977514462834E+002  0.226357316581137E+000  0.147491955783404E+000 -0.693147180559945E+000 -0.759887572314172E+001
  0.100000000000000E+001  0.142160885849806E+002  0.253688270912571E+000  0.634121362781434E-001 -0.693147180559945E+000 -0.710804429249030E+001
  0.100000000000000E+001  0.154411849281308E+002  0.285492814723077E+000  0.138870551934093E+000 -0.693147180559945E+000 -0.772059246406542E+001
  0.100000000000000E+001  0.158093554238247E+002  0.228513528181095E+000  0.203399020642379E+000 -0.693147180559945E+000 -0.790467771191234E+001
  0.100000000000000E+001  0.158674424530024E+002  0.412652553759105E-001  0.122842981161954E+000 -0.693147180559945E+000 -0.793372122650121E+001
  0.100000000000000E+001  0.144518533479897E+002  0.241086818642903E+000  0.368965561446595E+000 -0.693147180559945E+000 -0.722592667399484E+001
  0.100000000000000E+001  0.163180217338567E+002  0.838307918273218E-002  0.224146081792336E-001 -0.693147180559945E+000 -0.815901086692835E+001
  0.100000000000000E+001  0.143898028123383E+002  0.142063042194756E+000  0.664815299612122E-001 -0.693147180559945E+000 -0.719490140616913E+001
  0.100000000000000E+001  0.107139163521195E+002  0.189870974189197E+000  0.138093289436812E+000 -0.693147180559945E+000 -0.535695817605974E+001
  0.100000000000000E+001  0.106092230400095E+002  0.212964372278302E+000  0.151454167468478E-001 -0.693147180559945E+000 -0.530461152000475E+001
  0.100000000000000E+001  0.105129439537158E+002  0.152221957410435E+000  0.573497216199061E-001 -0.693147180559945E+000 -0.525647197685788E+001
  0.100000000000000E+001  0.104888346656067E+002  0.184929727372380E+000  0.104474570684661E-001 -0.693147180559945E+000 -0.524441733280337E+001
  0.100000000000000E+001  0.104804868597960E+002  0.133643727908014E+000  0.124900566882931E-001 -0.693147180559945E+000 -0.524024342989801E+001
  0.100000000000000E+001  0.104758020297887E+002  0.132287203073808E+000  0.435628901474274E-001 -0.693147180559945E+000 -0.523790101489434E+001
  0.100000000000000E+001  0.104675740600706E+002  0.122655567940783E+000  0.234598184881130E-001 -0.693147180559945E+000 -0.523378703003528E+001
  0.100000000000000E+001  0.104021511896160E+002  0.130511054388748E+000  0.412180931962173E-001 -0.693147180559945E+000 -0.520107559480798E+001
  0.100000000000000E+001  0.103633020112276E+002  0.173584460141796E+000  0.152622109678436E-001 -0.693147180559945E+000 -0.518165100561382E+001
  0.100000000000000E+001  0.103570921321236E+002  0.888955464826997E-001  0.333066278874183E-001 -0.693147180559945E+000 -0.517854606606179E+001
  0.100000000000000E+001  0.103197392666007E+002  0.999900061615133E-001  0.188167766100477E-001 -0.693147180559945E+000 -0.515986963330036E+001
  0.100000000000000E+001  0.102709833424643E+002  0.232371899258108E+000  0.888476822483888E-001 -0.693147180559945E+000 -0.513549167123213E+001
  0.100000000000000E+001  0.102341889488231E+002  0.118651127334369E+000  0.599916836886212E-003 -0.693147180559945E+000 -0.511709447441156E+001
  0.100000000000000E+001  0.102280721798529E+002  0.198783568468434E+000  0.863153977913913E-002 -0.693147180559945E+000 -0.511403608992644E+001
  0.100000000000000E+001  0.101498368466720E+002  0.183542815210118E+000  0.578276680797220E-002 -0.693147180559945E+000 -0.507491842333599E+001
  0.100000000000000E+001  0.100920599797506E+002  0.113997700982841E+000  0.617104374535746E-001 -0.693147180559945E+000 -0.504602998987528E+001
  0.100000000000000E+001  0.100740195080953E+002  0.102919750634924E+000  0.186080363850308E+000 -0.693147180559945E+000 -0.503700975404764E+001
  0.100000000000000E+001  0.100252800707884E+002  0.126670292630584E+000  0.116544673462503E-001 -0.693147180559945E+000 -0.501264003539420E+001
  0.100000000000000E+001  0.997861949164479E+001  0.929583794412419E-001  0.637214207371846E-001 -0.693147180559945E+000 -0.498930974582239E+001
  0.100000000000000E+001  0.992398134954898E+001  0.118414640542582E+000  0.156370328123580E-001 -0.693147180559945E+000 -0.496199067477449E+001
  0.100000000000000E+001  0.988421426061015E+001  0.176783397482867E+000  0.660900086128502E-002 -0.693147180559945E+000 -0.494210713030508E+001
  0.100000000000000E+001  0.984802643718280E+001  0.502018528900940E-001  0.157940122453039E+000 -0.693147180559945E+000 -0.492401321859140E+001
  0.100000000000000E+001  0.980780162744150E+001  0.184143225768814E+000  0.111183318724924E+000 -0.693147180559945E+000 -0.490390081372075E+001
  0.100000000000000E+001  0.975742253400244E+001  0.146891503533657E+000  0.168983922726423E+000 -0.693147180559945E+000 -0.487871126700122E+001
  0.100000000000000E+001  0.971527268927550E+001  0.173476901237096E+000  0.531934477172528E-002 -0.693147180559945E+000 -0.485763634463775E+001
  0.100000000000000E+001  0.967197136842403E+001  0.205244085221082E+000  0.146252170471238E+000 -0.693147180559945E+000 -0.483598568421202E+001
  0.100000000000000E+001  0.961685967904950E+001  0.191398642847842E+000  0.519730811909537E-001 -0.693147180559945E+000 -0.480842983952475E+001
  0.100000000000000E+001  0.958925415844588E+001  0.169414354343346E+000  0.538930113348926E-001 -0.693147180559945E+000 -0.479462707922294E+001
  0.100000000000000E+001  0.947824517352820E+001  0.150461049744024E+000  0.269235115057198E-001 -0.693147180559945E+000 -0.473912258676410E+001
  0.100000000000000E+001  0.946359897595992E+001  0.189711883590256E+000  0.152378877136897E-001 -0.693147180559945E+000 -0.473179948797996E+001
  0.100000000000000E+001  0.945312211060869E+001  0.133618586100490E+000  0.150925846792081E-001 -0.693147180559945E+000 -0.472656105530434E+001
  0.100000000000000E+001  0.936921363796822E+001  0.785769568202095E-001  0.549002002592585E-001 -0.693147180559945E+000 -0.468460681898411E+001
  0.100000000000000E+001  0.930698348573263E+001  0.905369975526347E-001  0.862816670750550E-001 -0.693147180559945E+000 -0.465349174286632E+001
  0.100000000000000E+001  0.929511320054443E+001  0.155533845299085E+000  0.179446080311782E-001 -0.693147180559945E+000 -0.464755660027222E+001
  0.100000000000000E+001  0.927211976969856E+001  0.178532400616936E+000  0.113576107717050E+000 -0.693147180559945E+000 -0.463605988484928E+001
  0.100000000000000E+001  0.907066245236497E+001  0.174640405878543E+000  0.270747905670410E-001 -0.693147180559945E+000 -0.453533122618249E+001
  0.100000000000000E+001  0.906261106192510E+001  0.180461685759963E+000  0.192153862713358E-001 -0.693147180559945E+000 -0.453130553096255E+001
  0.100000000000000E+001  0.903063973292427E+001  0.135940831382800E+000  0.721617548869909E-001 -0.693147180559945E+000 -0.451531986646213E+001
  0.100000000000000E+001  0.892486844250399E+001  0.158693547757176E+000  0.292546884724026E-001 -0.693147180559945E+000 -0.446243422125200E+001
  0.100000000000000E+001  0.890769748285914E+001  0.164490877832915E+000  0.151375317215937E-001 -0.693147180559945E+000 -0.445384874142957E+001
  0.100000000000000E+001  0.888941290639772E+001  0.100828881461956E+000  0.130691394965459E+000 -0.693147180559945E+000 -0.444470645319886E+001
  0.100000000000000E+001  0.887854202964410E+001  0.194955267632760E+000  0.171380288260509E+000 -0.693147180559945E+000 -0.443927101482205E+001
  0.100000000000000E+001  0.887428916857527E+001  0.184530129163020E+000  0.437485560661706E-001 -0.693147180559945E+000 -0.443714458428764E+001
  0.100000000000000E+001  0.878621109034936E+001  0.149057815097306E+000  0.392616766268675E-001 -0.693147180559945E+000 -0.439310554517468E+001
  0.100000000000000E+001  0.875891280165306E+001  0.128720434662697E+000  0.366784614340287E-001 -0.693147180559945E+000 -0.437945640082653E+001
  0.100000000000000E+001  0.874906003791992E+001  0.186087859090707E+000  0.839325608024035E-001 -0.693147180559945E+000 -0.437453001895996E+001
  0.100000000000000E+001  0.867525209328934E+001  0.151171714811065E+000  0.284134104654770E-001 -0.693147180559945E+000 -0.433762604664467E+001
  0.100000000000000E+001  0.857637245984595E+001  0.184011362199333E+000  0.614745794996210E-001 -0.693147180559945E+000 -0.428818622992297E+001
  0.100000000000000E+001  0.855839157465040E+001  0.137469457578961E+000  0.120155603616376E+000 -0.693147180559945E+000 -0.427919578732520E+001
  0.100000000000000E+001  0.833848808378680E+001  0.145997402595914E+000  0.113368710545808E+000 -0.693147180559945E+000 -0.416924404189340E+001
  0.100000000000000E+001  0.826776764917853E+001  0.179163939790055E+000  0.735534029048270E-001 -0.693147180559945E+000 -0.413388382458926E+001
  0.100000000000000E+001  0.780796212546278E+001  0.161339898836925E+000  0.651653867886890E-001 -0.693147180559945E+000 -0.390398106273139E+001
  0.100000000000000E+001  0.768887322335210E+001  0.199349847268079E+000  0.832296869249822E-001 -0.693147180559945E+000 -0.384443661167605E+001
  0.100000000000000E+001  0.760375059151139E+001  0.212904685890746E+000  0.167681439842610E+000 -0.693147180559945E+000 -0.380187529575570E+001
  0.100000000000000E+001  0.734167437952008E+001  0.119127908728111E+000  0.118162208873827E+000 -0.693147180559945E+000 -0.367083718976004E+001
  0.100000000000000E+001  0.698942448797146E+001  0.194082002933514E+000  0.870680777987399E-001 -0.693147180559945E+000 -0.349471224398573E+001
  0.100000000000000E+001  0.674262149817979E+001  0.158918376942861E+000  0.124212803772372E+000 -0.693147180559945E+000 -0.337131074908990E+001
  0.100000000000000E+001  0.640089482648590E+001  0.188492048854371E+000  0.603125035136312E-001 -0.693147180559945E+000 -0.320044741324295E+001
  0.100000000000000E+001  0.610307294177418E+001  0.157803557047843E+000  0.212904495624461E+000 -0.693147180559945E+000 -0.305153647088709E+001
  0.100000000000000E+001  0.539903076701963E+001  0.502343370958005E-001  0.157960932564441E+000 -0.693147180559945E+000 -0.269951538350982E+001
  0.100000000000000E+001  0.437097224649993E+001  0.220450551720531E+000  0.214786863647002E+000 -0.693147180559945E+000 -0.218548612324996E+001
