  0.266899809393506E-002  0.237968706815526E+002  0.384405682296207E+000  0.000000000000000E+000 -0.118984353407763E+002
  0.266899809393506E-002  0.344000503416583E+002  0.317971322673562E+000  0.000000000000000E+000 -0.186523816084125E+002
  0.266899809393506E-002  0.287868849099386E+002  0.297475521078023E+000  0.000000000000000E+000 -0.158457988925527E+002
  0.266899809393506E-002  0.250780175043476E+002  0.338532911141947E+000  0.000000000000000E+000 -0.138291171669700E+002
  0.266899809393506E-002  0.255020598172757E+002  0.383934201193395E+000  0.000000000000000E+000 -0.140411383234340E+002
  0.266899809393506E-002  0.259035515696436E+002  0.383915877318918E+000  0.000000000000000E+000 -0.142418841996179E+002
  0.266899809393506E-002  0.265918926218624E+002  0.457147729795696E+000  0.000000000000000E+000 -0.145860547257273E+002
  0.266899809393506E-002  0.248788906389329E+002  0.384342736742365E+000  0.000000000000000E+000 -0.137295537342626E+002
  0.266899809393506E-002  0.282818255113599E+002  0.457147729795696E+000  0.000000000000000E+000 -0.154310211704761E+002
  0.266899809393506E-002  0.245362295339249E+002  0.338343711053584E+000  0.000000000000000E+000 -0.135582231817586E+002
  0.266899809393506E-002  0.217912559660321E+002  0.384405260905790E+000  0.000000000000000E+000 -0.108956279830161E+002
