  0.579732035349987E-002  0.203827418432577E+002  0.298857673549002E+000  0.000000000000000E+000 -0.101913709216288E+002
  0.579732035349987E-002  0.284821445648034E+002  0.297488277651696E+000  0.000000000000000E+000 -0.158502743904486E+002
  0.579732035349987E-002  0.341693443350457E+002  0.364195444536080E+000  0.000000000000000E+000 -0.186938742755697E+002
  0.579732035349987E-002  0.252697949060765E+002  0.288473709515011E+000  0.000000000000000E+000 -0.136024263651514E+002
  0.579732035349987E-002  0.193979682840393E+002  0.298857695973451E+000  0.000000000000000E+000 -0.969898414201967E+001
  0.579732035349987E-002  0.219071715635171E+002  0.298857673574636E+000  0.000000000000000E+000 -0.117117595264426E+002
  0.579732035349987E-002  0.283478249831038E+002  0.291844215409309E+000  0.000000000000000E+000 -0.157831145995988E+002
  0.579732035349987E-002  0.222230309962111E+002  0.299297757815638E+000  0.000000000000000E+000 -0.118696892427896E+002
  0.579732035349987E-002  0.238296896140288E+002  0.310497035950873E+000  0.000000000000000E+000 -0.126730185516984E+002
  0.579732035349987E-002  0.179098528337570E+002  0.298857689948180E+000  0.000000000000000E+000 -0.895492641687849E+001
