  0.187983575561434E-002  0.205754341387074E+002  0.298766916671200E+000  0.000000000000000E+000 -0.102877170693537E+002
  0.187983575561434E-002  0.271114415294114E+002  0.457147729794522E+000  0.000000000000000E+000 -0.155703879808607E+002
  0.187983575561434E-002  0.207643522001648E+002  0.299109125806325E+000  0.000000000000000E+000 -0.115458149528746E+002
  0.187983575561434E-002  0.208031387590593E+002  0.298062718713506E+000  0.000000000000000E+000 -0.115652082323219E+002
  0.187983575561434E-002  0.219852641896860E+002  0.298766771377706E+000  0.000000000000000E+000 -0.121562709476352E+002
  0.187983575561434E-002  0.349884655404841E+002  0.352660643641783E+000  0.000000000000000E+000 -0.195088999863971E+002
  0.187983575561434E-002  0.275368947668875E+002  0.291844215409309E+000  0.000000000000000E+000 -0.157831145995988E+002
  0.187983575561434E-002  0.208912561161083E+002  0.298766916671017E+000  0.000000000000000E+000 -0.104456280580542E+002
  0.187983575561434E-002  0.209006439650109E+002  0.299061944342115E+000  0.000000000000000E+000 -0.116139608352976E+002
  0.187983575561434E-002  0.213381916890031E+002  0.310599400630927E+000  0.000000000000000E+000 -0.118327346972937E+002
  0.187983575561434E-002  0.210823325135165E+002  0.310599396973172E+000  0.000000000000000E+000 -0.117048051095505E+002
  0.187983575561434E-002  0.277397148109548E+002  0.384405682296075E+000  0.000000000000000E+000 -0.158845246216324E+002
  0.187983575561434E-002  0.211852551058320E+002  0.299295230860282E+000  0.000000000000000E+000 -0.117562664057082E+002
  0.187983575561434E-002  0.230187593978125E+002  0.310497035950873E+000  0.000000000000000E+000 -0.126730185516984E+002
  0.187983575561434E-002  0.199911287744187E+002  0.298766916671199E+000  0.000000000000000E+000 -0.999556438720936E+001
