  0.919579055443565E-002  0.208073188439593E+002  0.387666632650535E+000  0.000000000000000E+000 -0.104036594219796E+002
  0.919579055443565E-002  0.243985946540150E+002  0.388027098036329E+000  0.000000000000000E+000 -0.121992973270075E+002
  0.919579055443565E-002  0.246650975772848E+002  0.388018192880760E+000  0.000000000000000E+000 -0.123325487886424E+002
  0.919579055443565E-002  0.261267580846330E+002  0.383934201333581E+000  0.000000000000000E+000 -0.139157530884357E+002
  0.919579055443565E-002  0.362265858059003E+002  0.315651801333687E+000  0.000000000000000E+000 -0.191279149718566E+002
  0.919579055443565E-002  0.276233440768148E+002  0.347105805491773E+000  0.000000000000000E+000 -0.146640460845266E+002
  0.919579055443565E-002  0.211648789765007E+002  0.387720706567233E+000  0.000000000000000E+000 -0.105824394882503E+002
  0.919579055443565E-002  0.207819847987383E+002  0.387666632650535E+000  0.000000000000000E+000 -0.103909923993691E+002
  0.919579055443565E-002  0.206937712511902E+002  0.387666635129004E+000  0.000000000000000E+000 -0.103468856255951E+002
  0.919579055443565E-002  0.202633472626301E+002  0.387720706567196E+000  0.000000000000000E+000 -0.101316736313150E+002
