  0.454375194308810E-001  0.306182428114738E+002  0.203621456226099E+000  0.000000000000000E+000 -0.155687183424552E+002
  0.454375194308810E-001  0.186799663197453E+002  0.165066177537502E+000  0.000000000000000E+000 -0.933998315987265E+001
  0.454375194308810E-001  0.183236155009802E+002  0.173922591849188E+000  0.000000000000000E+000 -0.916180775049008E+001
  0.454375194308810E-001  0.342630409220750E+002  0.132813886191365E+000  0.000000000000000E+000 -0.173911173977558E+002
  0.454375194308810E-001  0.184580515094972E+002  0.174157043406126E+000  0.000000000000000E+000 -0.922902575474858E+001
  0.454375194308810E-001  0.326905099523120E+002  0.195754124453827E+000  0.000000000000000E+000 -0.166048519128743E+002
  0.454375194308810E-001  0.227422244350647E+002  0.173923063885001E+000  0.000000000000000E+000 -0.115149532537583E+002
  0.454375194308810E-001  0.317933282510091E+002  0.195762862308503E+000  0.000000000000000E+000 -0.161562610622228E+002
  0.454375194308810E-001  0.314358491684300E+002  0.195762862487219E+000  0.000000000000000E+000 -0.159775215209333E+002
  0.454375194308810E-001  0.163346334236323E+002  0.174156566820794E+000  0.000000000000000E+000 -0.816731671181615E+001
