  0.112452472032198E-002  0.282360630865546E+002  0.457147729794522E+000  0.000000000000000E+000 -0.155703879808607E+002
  0.112452472032198E-002  0.344000503416583E+002  0.317971322673562E+000  0.000000000000000E+000 -0.186523816084125E+002
  0.112452472032198E-002  0.244997454778210E+002  0.347154443962720E+000  0.000000000000000E+000 -0.135399811537067E+002
  0.112452472032198E-002  0.248788906389329E+002  0.384342736742365E+000  0.000000000000000E+000 -0.137295537342626E+002
  0.112452472032198E-002  0.353511170685464E+002  0.315651801333687E+000  0.000000000000000E+000 -0.191279149718566E+002
  0.112452472032198E-002  0.288721606853878E+002  0.338343711053752E+000  0.000000000000000E+000 -0.158884367802773E+002
  0.112452472032198E-002  0.250476525361613E+002  0.358662705504642E+000  0.000000000000000E+000 -0.138139346828768E+002
  0.112452472032198E-002  0.301555683229817E+002  0.290076636637638E+000  0.000000000000000E+000 -0.165301405990743E+002
  0.112452472032198E-002  0.252512893472790E+002  0.383934201333581E+000  0.000000000000000E+000 -0.139157530884357E+002
  0.112452472032198E-002  0.254229996992671E+002  0.352881129723018E+000  0.000000000000000E+000 -0.140016082644297E+002
  0.112452472032198E-002  0.255020598172757E+002  0.383934201193395E+000  0.000000000000000E+000 -0.140411383234340E+002
  0.112452472032198E-002  0.258553065247390E+002  0.347154308053302E+000  0.000000000000000E+000 -0.142177616771657E+002
  0.112452472032198E-002  0.246721542544653E+002  0.380180018463998E+000  0.000000000000000E+000 -0.136261855420288E+002
  0.112452472032198E-002  0.280236435152837E+002  0.338310497855114E+000  0.000000000000000E+000 -0.153019301724380E+002
  0.112452472032198E-002  0.262935983491810E+002  0.349308210532867E+000  0.000000000000000E+000 -0.144369075893867E+002
  0.112452472032198E-002  0.265918926218624E+002  0.457147729795696E+000  0.000000000000000E+000 -0.145860547257273E+002
  0.112452472032198E-002  0.248874970766815E+002  0.383615136206914E+000  0.000000000000000E+000 -0.124437485383407E+002
