  0.292404496384098E-002  0.287986485432523E+002  0.203621456226099E+000  0.000000000000000E+000 -0.155687183424552E+002
  0.292404496384098E-002  0.253762537139951E+002  0.203622337050974E+000  0.000000000000000E+000 -0.126881268569975E+002
  0.292404496384098E-002  0.289868022071302E+002  0.165838092137533E+000  0.000000000000000E+000 -0.156627951743941E+002
  0.292404496384098E-002  0.292965202172810E+002  0.195762877917888E+000  0.000000000000000E+000 -0.150293301346639E+002
  0.292404496384098E-002  0.293629589491814E+002  0.195443057122081E+000  0.000000000000000E+000 -0.150625495006142E+002
  0.292404496384098E-002  0.262169413192526E+002  0.199613455015833E+000  0.000000000000000E+000 -0.134895406856497E+002
  0.292404496384098E-002  0.337910691636289E+002  0.177742370704851E+000  0.000000000000000E+000 -0.180649286526435E+002
  0.292404496384098E-002  0.293096882512679E+002  0.181878203793837E+000  0.000000000000000E+000 -0.158242381964630E+002
  0.292404496384098E-002  0.257232607157861E+002  0.204069757984574E+000  0.000000000000000E+000 -0.128616303578930E+002
  0.292404496384098E-002  0.294928014101940E+002  0.171966525531309E+000  0.000000000000000E+000 -0.159157947759260E+002
  0.292404496384098E-002  0.319455223878250E+002  0.160468385564160E+000  0.000000000000000E+000 -0.171421552647415E+002
  0.292404496384098E-002  0.267609955303621E+002  0.203622107142371E+000  0.000000000000000E+000 -0.137615677912045E+002
  0.292404496384098E-002  0.276467076846343E+002  0.193894848045867E+000  0.000000000000000E+000 -0.142044238683406E+002
  0.292404496384098E-002  0.275974602388295E+002  0.195493264325828E+000  0.000000000000000E+000 -0.141798001454382E+002
  0.292404496384098E-002  0.297711929173883E+002  0.196159941842651E+000  0.000000000000000E+000 -0.160549905295232E+002
  0.292404496384098E-002  0.298114311937575E+002  0.174847846373014E+000  0.000000000000000E+000 -0.160751096677077E+002
  0.292404496384098E-002  0.321112904233016E+002  0.177824612562010E+000  0.000000000000000E+000 -0.172250392824798E+002
  0.292404496384098E-002  0.323397600308180E+002  0.120327072373628E+000  0.000000000000000E+000 -0.173392740862380E+002
  0.292404496384098E-002  0.274694526761708E+002  0.193894848045819E+000  0.000000000000000E+000 -0.141157963641088E+002
  0.292404496384098E-002  0.308311695472359E+002  0.179021733512005E+000  0.000000000000000E+000 -0.165849788444469E+002
  0.292404496384098E-002  0.273887117835754E+002  0.195571581063758E+000  0.000000000000000E+000 -0.140754259178112E+002
  0.292404496384098E-002  0.268571155356369E+002  0.195291296323383E+000  0.000000000000000E+000 -0.138096277938419E+002
  0.292404496384098E-002  0.366803204349625E+002  0.101128704417836E+000  0.000000000000000E+000 -0.195095542883102E+002
  0.292404496384098E-002  0.305157599329449E+002  0.195870268612318E+000  0.000000000000000E+000 -0.164272740373015E+002
  0.292404496384098E-002  0.238678479947244E+002  0.203622107149398E+000  0.000000000000000E+000 -0.119339239973622E+002
