  0.636157081052433E-002  0.302469379262191E+002  0.144932259739272E+000  0.000000000000000E+000 -0.151234689631096E+002
  0.636157081052433E-002  0.311329967745349E+002  0.153568877298621E+000  0.000000000000000E+000 -0.160872253246815E+002
  0.636157081052433E-002  0.398695218955669E+002  0.990329946313697E-001  0.000000000000000E+000 -0.221816641405747E+002
  0.636157081052433E-002  0.311818342932528E+002  0.144932254489953E+000  0.000000000000000E+000 -0.161116440840405E+002
  0.636157081052433E-002  0.332770948827513E+002  0.144798343140661E+000  0.000000000000000E+000 -0.180410686749204E+002
  0.636157081052433E-002  0.333184251034988E+002  0.133519996149486E+000  0.000000000000000E+000 -0.180617337852941E+002
  0.636157081052433E-002  0.313593674656385E+002  0.144932254378827E+000  0.000000000000000E+000 -0.162004106702333E+002
  0.636157081052433E-002  0.313906398612057E+002  0.144932260183150E+000  0.000000000000000E+000 -0.162160468680169E+002
  0.636157081052433E-002  0.389907495390156E+002  0.130850688581605E+000  0.000000000000000E+000 -0.215581674948311E+002
  0.636157081052433E-002  0.376044414468331E+002  0.130243902709590E+000  0.000000000000000E+000 -0.202047419569613E+002
  0.636157081052433E-002  0.424018978926203E+002  0.140008532912560E+000  0.000000000000000E+000 -0.239066963171717E+002
  0.636157081052433E-002  0.386291924057916E+002  0.196663119927699E+000  0.000000000000000E+000 -0.213773889282191E+002
  0.636157081052433E-002  0.423188121174044E+002  0.193976926164402E-001  0.000000000000000E+000 -0.238651534295638E+002
  0.636157081052433E-002  0.375249887566254E+002  0.111763569501922E+000  0.000000000000000E+000 -0.208252871036360E+002
  0.636157081052433E-002  0.374969630096512E+002  0.103671926808819E+000  0.000000000000000E+000 -0.208112742301489E+002
  0.636157081052433E-002  0.356767473082070E+002  0.144810101066545E+000  0.000000000000000E+000 -0.192408948876483E+002
  0.636157081052433E-002  0.393645781535007E+002  0.117319250018957E+000  0.000000000000000E+000 -0.217450818020736E+002
  0.636157081052433E-002  0.309296408053989E+002  0.144943458005025E+000  0.000000000000000E+000 -0.159855473401135E+002
  0.636157081052433E-002  0.382671045711161E+002  0.111838947554331E+000  0.000000000000000E+000 -0.211963450108814E+002
  0.636157081052433E-002  0.427850530876888E+002  0.375808545726709E-001  0.000000000000000E+000 -0.240982739147060E+002
  0.636157081052433E-002  0.333410429625197E+002  0.132808548638864E+000  0.000000000000000E+000 -0.180730427148046E+002
  0.636157081052433E-002  0.291795788400580E+002  0.144932261363438E+000  0.000000000000000E+000 -0.145897894200290E+002
  0.636157081052433E-002  0.290632601894897E+002  0.144932260183150E+000  0.000000000000000E+000 -0.145316300947449E+002
