  0.349966163667408E-002  0.327811291078024E+002  0.129372528574680E+000  0.000000000000000E+000 -0.172148938666949E+002
  0.349966163667408E-002  0.334784571575889E+002  0.138748868017175E+000  0.000000000000000E+000 -0.182155860230296E+002
  0.349966163667408E-002  0.388430771176349E+002  0.130850688581605E+000  0.000000000000000E+000 -0.215581674948311E+002
  0.349966163667408E-002  0.310716646273362E+002  0.129560096888775E+000  0.000000000000000E+000 -0.155358323136681E+002
  0.349966163667408E-002  0.331294224613705E+002  0.144798343140661E+000  0.000000000000000E+000 -0.180410686749204E+002
  0.349966163667408E-002  0.301163709220226E+002  0.129370086819776E+000  0.000000000000000E+000 -0.158825147738050E+002
  0.349966163667408E-002  0.368407904155039E+002  0.128293445951503E+000  0.000000000000000E+000 -0.205570241437657E+002
  0.349966163667408E-002  0.353477204708469E+002  0.129191227174327E+000  0.000000000000000E+000 -0.191502176796586E+002
  0.349966163667408E-002  0.336429888648900E+002  0.129372584885218E+000  0.000000000000000E+000 -0.182978518766802E+002
  0.349966163667408E-002  0.369480475208224E+002  0.113888715242557E+000  0.000000000000000E+000 -0.206106526964249E+002
  0.349966163667408E-002  0.452231290882109E+002  0.429192589683110E-002  0.000000000000000E+000 -0.253911481256574E+002
  0.349966163667408E-002  0.304625121433030E+002  0.129560129216153E+000  0.000000000000000E+000 -0.160555853844452E+002
  0.349966163667408E-002  0.381657094010917E+002  0.134726575037901E+000  0.000000000000000E+000 -0.212194836365596E+002
  0.349966163667408E-002  0.381514914975350E+002  0.109317938109534E+000  0.000000000000000E+000 -0.212123746847812E+002
  0.349966163667408E-002  0.354518411247091E+002  0.138748729443131E+000  0.000000000000000E+000 -0.192022780065897E+002
  0.349966163667408E-002  0.355290748868262E+002  0.144810101066545E+000  0.000000000000000E+000 -0.192408948876483E+002
  0.349966163667408E-002  0.319026834315107E+002  0.144932239534015E+000  0.000000000000000E+000 -0.174276991599905E+002
  0.349966163667408E-002  0.355801009907632E+002  0.132800989512188E+000  0.000000000000000E+000 -0.192664079396167E+002
  0.349966163667408E-002  0.428620441994890E+002  0.137121837393686E-001  0.000000000000000E+000 -0.242106056812965E+002
  0.349966163667408E-002  0.371739036729536E+002  0.166756856873329E+000  0.000000000000000E+000 -0.207235807724905E+002
  0.349966163667408E-002  0.419412585586284E+002  0.855965052289111E-001  0.000000000000000E+000 -0.232913686827958E+002
  0.349966163667408E-002  0.320652262044138E+002  0.134847984910284E+000  0.000000000000000E+000 -0.175089705464421E+002
  0.349966163667408E-002  0.318607125445245E+002  0.129372584211647E+000  0.000000000000000E+000 -0.167546855850560E+002
  0.349966163667408E-002  0.332222954254501E+002  0.133118858553601E+000  0.000000000000000E+000 -0.180875051569602E+002
  0.349966163667408E-002  0.321610757810185E+002  0.144932239611170E+000  0.000000000000000E+000 -0.175568953347444E+002
  0.349966163667408E-002  0.373773163352446E+002  0.111763569501922E+000  0.000000000000000E+000 -0.208252871036360E+002
  0.349966163667408E-002  0.321233738753547E+002  0.129372625719572E+000  0.000000000000000E+000 -0.168860162504710E+002
  0.349966163667408E-002  0.321885521144372E+002  0.129372625719624E+000  0.000000000000000E+000 -0.169186053700123E+002
  0.349966163667408E-002  0.356173205701355E+002  0.144798660567129E+000  0.000000000000000E+000 -0.192850177293029E+002
  0.349966163667408E-002  0.343193082864967E+002  0.129574695179760E+000  0.000000000000000E+000 -0.186360115874835E+002
  0.349966163667408E-002  0.422542254712395E+002  0.140008532912560E+000  0.000000000000000E+000 -0.239066963171717E+002
  0.349966163667408E-002  0.423084100292442E+002  0.731999308764161E-001  0.000000000000000E+000 -0.239337885961741E+002
  0.349966163667408E-002  0.332439423374831E+002  0.144798343142274E+000  0.000000000000000E+000 -0.180983286129767E+002
  0.349966163667408E-002  0.446020724338317E+002  0.370124898510132E-001  0.000000000000000E+000 -0.250806197984678E+002
  0.349966163667408E-002  0.323997191783420E+002  0.129372584211647E+000  0.000000000000000E+000 -0.176762170334061E+002
  0.349966163667408E-002  0.441844781325267E+002  0.854635831594108E-002  0.000000000000000E+000 -0.248718226478153E+002
  0.349966163667408E-002  0.428317715952266E+002  0.323578221889427E-001  0.000000000000000E+000 -0.241954693791653E+002
  0.349966163667408E-002  0.326489000676965E+002  0.132800442600621E+000  0.000000000000000E+000 -0.178008074780834E+002
  0.349966163667408E-002  0.442083391140817E+002  0.745556308784556E-001  0.000000000000000E+000 -0.248837531385929E+002
  0.349966163667408E-002  0.329359788425640E+002  0.129372584885252E+000  0.000000000000000E+000 -0.179443468655171E+002
  0.349966163667408E-002  0.383502864338227E+002  0.149556182592196E+000  0.000000000000000E+000 -0.213117721529251E+002
  0.349966163667408E-002  0.343083574393111E+002  0.129372584885218E+000  0.000000000000000E+000 -0.186305361638907E+002
  0.349966163667408E-002  0.441286272679217E+002  0.401571732336503E-001  0.000000000000000E+000 -0.248438972155128E+002
  0.349966163667408E-002  0.448234165879157E+002  0.104922149187102E+000  0.000000000000000E+000 -0.251912918755099E+002
  0.349966163667408E-002  0.449606362928994E+002  0.137384576724064E-001  0.000000000000000E+000 -0.252599017280017E+002
  0.349966163667408E-002  0.330344337549088E+002  0.144932222221342E+000  0.000000000000000E+000 -0.179935743216895E+002
  0.349966163667408E-002  0.426373806663081E+002  0.375808545726709E-001  0.000000000000000E+000 -0.240982739147060E+002
  0.349966163667408E-002  0.379890257912477E+002  0.129560272641517E+000  0.000000000000000E+000 -0.211311418316376E+002
  0.349966163667408E-002  0.345591379515557E+002  0.184900203069892E+000  0.000000000000000E+000 -0.187559264200130E+002
  0.349966163667408E-002  0.454938838891008E+002  0.267511203076756E-002  0.000000000000000E+000 -0.255265255261024E+002
  0.349966163667408E-002  0.381194321497353E+002  0.111838947554331E+000  0.000000000000000E+000 -0.211963450108814E+002
  0.349966163667408E-002  0.300784034864915E+002  0.129560097059285E+000  0.000000000000000E+000 -0.150392017432458E+002
