  0.215703139266111E-002  0.359566948919744E+002  0.111763630630781E+000  0.000000000000000E+000 -0.204953485090321E+002
  0.215703139266111E-002  0.322658259635872E+002  0.116119663664140E+000  0.000000000000000E+000 -0.177322495405690E+002
  0.215703139266111E-002  0.389611052201237E+002  0.990329946313697E-001  0.000000000000000E+000 -0.221816641405747E+002
  0.215703139266111E-002  0.323029543253426E+002  0.116367428490561E+000  0.000000000000000E+000 -0.177508137214467E+002
  0.215703139266111E-002  0.321473843291289E+002  0.116373634598070E+000  0.000000000000000E+000 -0.176730287233398E+002
  0.215703139266111E-002  0.376960816196941E+002  0.118290869357388E+000  0.000000000000000E+000 -0.213650418728920E+002
  0.215703139266111E-002  0.377265356023147E+002  0.114274268447222E+000  0.000000000000000E+000 -0.213802688642023E+002
  0.215703139266111E-002  0.330378897549870E+002  0.116334598977938E+000  0.000000000000000E+000 -0.181182814362688E+002
  0.215703139266111E-002  0.403109516517985E+002  0.115301985964318E+000  0.000000000000000E+000 -0.228565873564121E+002
  0.215703139266111E-002  0.376796096287245E+002  0.131151890587806E+000  0.000000000000000E+000 -0.213568058774072E+002
  0.215703139266111E-002  0.362553199797654E+002  0.106412979523398E+000  0.000000000000000E+000 -0.203217885820949E+002
  0.215703139266111E-002  0.381324623759222E+002  0.103464584544155E+000  0.000000000000000E+000 -0.215832322510060E+002
  0.215703139266111E-002  0.360987782108052E+002  0.103682555467533E+000  0.000000000000000E+000 -0.202435176976149E+002
  0.215703139266111E-002  0.362444151033075E+002  0.102983973183010E+000  0.000000000000000E+000 -0.203163361438660E+002
  0.215703139266111E-002  0.339980611355555E+002  0.114292153023285E+000  0.000000000000000E+000 -0.185983671265531E+002
  0.215703139266111E-002  0.445854461732653E+002  0.495550842977286E-002  0.000000000000000E+000 -0.254526787952159E+002
  0.215703139266111E-002  0.340684749214314E+002  0.103671324660079E+000  0.000000000000000E+000 -0.192283660529279E+002
  0.215703139266111E-002  0.364131594188911E+002  0.166756856873329E+000  0.000000000000000E+000 -0.207235807724905E+002
  0.215703139266111E-002  0.316121606406336E+002  0.111771169677929E+000  0.000000000000000E+000 -0.174054168790922E+002
  0.215703139266111E-002  0.449073631417762E+002  0.116292286140310E-001  0.000000000000000E+000 -0.256136372794713E+002
  0.215703139266111E-002  0.347136573699165E+002  0.102511394880879E+000  0.000000000000000E+000 -0.195509572771705E+002
  0.215703139266111E-002  0.421921959855031E+002  0.958244804540628E-001  0.000000000000000E+000 -0.242560537013348E+002
  0.215703139266111E-002  0.350056419066721E+002  0.117569218740505E+000  0.000000000000000E+000 -0.196969495455483E+002
  0.215703139266111E-002  0.412262557783123E+002  0.108764856833252E+000  0.000000000000000E+000 -0.233142394196690E+002
  0.215703139266111E-002  0.446458341136229E+002  0.559639566467741E-002  0.000000000000000E+000 -0.254828727653947E+002
  0.215703139266111E-002  0.440681768560618E+002  0.389160481015092E-001  0.000000000000000E+000 -0.251940441366141E+002
  0.215703139266111E-002  0.440626723338532E+002  0.104922149187102E+000  0.000000000000000E+000 -0.251912918755099E+002
  0.215703139266111E-002  0.352961004134240E+002  0.117975207931693E+000  0.000000000000000E+000 -0.198421787989243E+002
  0.215703139266111E-002  0.414511142656102E+002  0.735523844554096E-001  0.000000000000000E+000 -0.238855128413883E+002
  0.215703139266111E-002  0.373586878956729E+002  0.111838947554331E+000  0.000000000000000E+000 -0.211963450108814E+002
  0.215703139266111E-002  0.421012999454265E+002  0.137121837393686E-001  0.000000000000000E+000 -0.242106056812965E+002
  0.215703139266111E-002  0.345972195647628E+002  0.111753693097352E+000  0.000000000000000E+000 -0.194927383745937E+002
  0.215703139266111E-002  0.369788802933109E+002  0.129288140899535E+000  0.000000000000000E+000 -0.210064412097004E+002
  0.215703139266111E-002  0.440353706151115E+002  0.682330933899228E-001  0.000000000000000E+000 -0.251776410161390E+002
  0.215703139266111E-002  0.345446245958434E+002  0.108340304434752E+000  0.000000000000000E+000 -0.194664408901340E+002
  0.215703139266111E-002  0.344113955704984E+002  0.108521375504302E+000  0.000000000000000E+000 -0.193998263774614E+002
  0.215703139266111E-002  0.373554883257674E+002  0.117289010369411E+000  0.000000000000000E+000 -0.211947452259286E+002
  0.215703139266111E-002  0.319270311723405E+002  0.116074588957837E+000  0.000000000000000E+000 -0.175628521449456E+002
  0.215703139266111E-002  0.372442833355569E+002  0.119808322759754E+000  0.000000000000000E+000 -0.211391427308234E+002
  0.215703139266111E-002  0.416466068834586E+002  0.135041075502686E-001  0.000000000000000E+000 -0.239832591503125E+002
  0.215703139266111E-002  0.319241587530900E+002  0.116387230319676E+000  0.000000000000000E+000 -0.175614159353203E+002
  0.215703139266111E-002  0.372282815371853E+002  0.129560272641517E+000  0.000000000000000E+000 -0.211311418316376E+002
  0.215703139266111E-002  0.442134790879063E+002  0.155664328950904E-001  0.000000000000000E+000 -0.252666952525364E+002
  0.215703139266111E-002  0.455957338030385E+002  0.562091666740191E-001  0.000000000000000E+000 -0.259578226101025E+002
  0.215703139266111E-002  0.307117780194764E+002  0.116075034929776E+000  0.000000000000000E+000 -0.153558890097382E+002
  0.215703139266111E-002  0.307078835528210E+002  0.116075034728664E+000  0.000000000000000E+000 -0.153539417764105E+002
  0.215703139266111E-002  0.302478305852036E+002  0.116075034728681E+000  0.000000000000000E+000 -0.151239152926018E+002
