  0.111747266942476E-001  0.540934848735976E+002  0.118388454201712E+000  0.000000000000000E+000 -0.279302312307553E+002
  0.111747266942476E-001  0.429259343317506E+002  0.487186439902269E-001  0.000000000000000E+000 -0.220915084806952E+002
  0.111747266942476E-001  0.457643967444604E+002  0.317727707877952E-001  0.000000000000000E+000 -0.237656871661867E+002
  0.111747266942476E-001  0.458033645138461E+002  0.209062925077909E-001  0.000000000000000E+000 -0.237851710508795E+002
  0.111747266942476E-001  0.489634194277047E+002  0.199110452464521E-001  0.000000000000000E+000 -0.253651985078088E+002
  0.111747266942476E-001  0.380413511936769E+002  0.581624398539012E-001  0.000000000000000E+000 -0.190206755968385E+002
  0.111747266942476E-001  0.397327148622724E+002  0.786624496425574E-001  0.000000000000000E+000 -0.204948987459561E+002
  0.111747266942476E-001  0.381428783073002E+002  0.626343221932220E-001  0.000000000000000E+000 -0.190714391536501E+002
  0.111747266942476E-001  0.459633292712147E+002  0.193976926164402E-001  0.000000000000000E+000 -0.238651534295638E+002
  0.111747266942476E-001  0.431229800807718E+002  0.545042236319975E-001  0.000000000000000E+000 -0.221900313552058E+002
  0.111747266942476E-001  0.397633191473455E+002  0.565855295216174E-001  0.000000000000000E+000 -0.205102008884927E+002
  0.111747266942476E-001  0.383548995962281E+002  0.619619761128018E-001  0.000000000000000E+000 -0.191774497981140E+002
  0.111747266942476E-001  0.363271539109912E+002  0.622827783578973E-001  0.000000000000000E+000 -0.181635769554956E+002
  0.111747266942476E-001  0.397939260565487E+002  0.433996068507096E-001  0.000000000000000E+000 -0.205255043430943E+002
  0.111747266942476E-001  0.461078256101893E+002  0.332077076713386E-001  0.000000000000000E+000 -0.239374015990511E+002
  0.111747266942476E-001  0.432257876745330E+002  0.682238539151908E-001  0.000000000000000E+000 -0.222414351520864E+002
  0.111747266942476E-001  0.461174971997895E+002  0.125669795507238E+000  0.000000000000000E+000 -0.239422373938512E+002
  0.111747266942476E-001  0.511820836025886E+002  0.143329860693422E+000  0.000000000000000E+000 -0.264745305952508E+002
  0.111747266942476E-001  0.432630786186675E+002  0.787469130646628E-001  0.000000000000000E+000 -0.222600806241537E+002
  0.111747266942476E-001  0.386591485632411E+002  0.591901210271321E-001  0.000000000000000E+000 -0.193295742816205E+002
  0.111747266942476E-001  0.364462563126158E+002  0.619619734462801E-001  0.000000000000000E+000 -0.182231281563079E+002
  0.111747266942476E-001  0.398031190666386E+002  0.712129755156653E-001  0.000000000000000E+000 -0.205301008481392E+002
  0.111747266942476E-001  0.432915930188376E+002  0.356298861034316E-001  0.000000000000000E+000 -0.222743378242387E+002
  0.111747266942476E-001  0.389544726653958E+002  0.626343221830699E-001  0.000000000000000E+000 -0.194772363326979E+002
  0.111747266942476E-001  0.398193525901268E+002  0.623322358141462E-001  0.000000000000000E+000 -0.205382176098833E+002
  0.111747266942476E-001  0.390643808597818E+002  0.590817695972113E-001  0.000000000000000E+000 -0.195321904298909E+002
  0.111747266942476E-001  0.432953789794167E+002  0.759216945142003E-001  0.000000000000000E+000 -0.222762308045283E+002
  0.111747266942476E-001  0.395902191581523E+002  0.554360574251810E-001  0.000000000000000E+000 -0.197951095790762E+002
  0.111747266942476E-001  0.369520691698224E+002  0.626347632422004E-001  0.000000000000000E+000 -0.184760345849112E+002
  0.111747266942476E-001  0.372170153041440E+002  0.591901185440343E-001  0.000000000000000E+000 -0.186085076520720E+002
  0.111747266942476E-001  0.433770159199129E+002  0.765522003697002E-001  0.000000000000000E+000 -0.223170492747764E+002
  0.111747266942476E-001  0.506306074936756E+002  0.273591315001528E-001  0.000000000000000E+000 -0.261987925407942E+002
  0.111747266942476E-001  0.399826011292613E+002  0.786623741479760E-001  0.000000000000000E+000 -0.206198418794506E+002
  0.111747266942476E-001  0.465976365287942E+002  0.564381576260297E-001  0.000000000000000E+000 -0.241823070583536E+002
  0.111747266942476E-001  0.492059634400287E+002  0.380737570559120E-003  0.000000000000000E+000 -0.254864705139708E+002
  0.111747266942476E-001  0.399518134797295E+002  0.621726652771452E-001  0.000000000000000E+000 -0.199759067398648E+002
  0.111747266942476E-001  0.492118396155663E+002  0.807652475151217E-002  0.000000000000000E+000 -0.254894086017396E+002
  0.111747266942476E-001  0.377237250299012E+002  0.619619761128023E-001  0.000000000000000E+000 -0.188618625149506E+002
  0.111747266942476E-001  0.379895468526685E+002  0.581630998981875E-001  0.000000000000000E+000 -0.189947734263342E+002
  0.111747266942476E-001  0.426103415367432E+002  0.589403999481414E-001  0.000000000000000E+000 -0.219337120831915E+002
  0.111747266942476E-001  0.423578693180022E+002  0.802492725413500E-001  0.000000000000000E+000 -0.218074759738210E+002
  0.111747266942476E-001  0.492572064115690E+002  0.964804364971816E-003  0.000000000000000E+000 -0.255120919997409E+002
  0.111747266942476E-001  0.401897774962392E+002  0.581703421813714E-001  0.000000000000000E+000 -0.200948887481196E+002
  0.111747266942476E-001  0.402079922286086E+002  0.622829503370103E-001  0.000000000000000E+000 -0.201039961143043E+002
  0.111747266942476E-001  0.434499001654095E+002  0.711319633909945E-001  0.000000000000000E+000 -0.223534913975247E+002
  0.111747266942476E-001  0.403762389586107E+002  0.561199440569775E-001  0.000000000000000E+000 -0.201881194793053E+002
  0.111747266942476E-001  0.401279910657830E+002  0.578308245457923E-001  0.000000000000000E+000 -0.206925368477115E+002
  0.111747266942476E-001  0.401831699964663E+002  0.438004299967931E-001  0.000000000000000E+000 -0.207201263130531E+002
  0.111747266942476E-001  0.410542176458156E+002  0.568246682215654E-001  0.000000000000000E+000 -0.211556501377277E+002
  0.111747266942476E-001  0.401837626828180E+002  0.621951172628538E-001  0.000000000000000E+000 -0.207204226562289E+002
  0.111747266942476E-001  0.436496847070650E+002  0.349451287211005E-001  0.000000000000000E+000 -0.224533836683525E+002
  0.111747266942476E-001  0.437125853255385E+002  0.552840509618392E-001  0.000000000000000E+000 -0.224848339775892E+002
  0.111747266942476E-001  0.409569673741039E+002  0.559493508315818E-001  0.000000000000000E+000 -0.204784836870519E+002
  0.111747266942476E-001  0.439039335090207E+002  0.474853211476174E-001  0.000000000000000E+000 -0.225805080693303E+002
  0.111747266942476E-001  0.439357907290710E+002  0.373044980159215E-001  0.000000000000000E+000 -0.225964366793555E+002
  0.111747266942476E-001  0.472039845667461E+002  0.220103065636216E-001  0.000000000000000E+000 -0.244854810773295E+002
  0.111747266942476E-001  0.472097771162023E+002  0.287065423956040E-001  0.000000000000000E+000 -0.244883773520576E+002
  0.111747266942476E-001  0.413175562706351E+002  0.420051229111143E-001  0.000000000000000E+000 -0.212873194501375E+002
  0.111747266942476E-001  0.411986289069820E+002  0.796555954791983E-001  0.000000000000000E+000 -0.212278557683109E+002
  0.111747266942476E-001  0.411606592427789E+002  0.619348111743372E-001  0.000000000000000E+000 -0.212088709362094E+002
  0.111747266942476E-001  0.439963057539640E+002  0.369879888923727E-001  0.000000000000000E+000 -0.226266941918019E+002
  0.111747266942476E-001  0.494602969710297E+002  0.116292286140310E-001  0.000000000000000E+000 -0.256136372794713E+002
  0.111747266942476E-001  0.401995338629050E+002  0.751177999729212E-001  0.000000000000000E+000 -0.207283082462725E+002
  0.111747266942476E-001  0.440467076653092E+002  0.248902599033694E-001  0.000000000000000E+000 -0.226518951474746E+002
  0.111747266942476E-001  0.402612667614629E+002  0.669971488982090E-001  0.000000000000000E+000 -0.207591746955514E+002
  0.111747266942476E-001  0.488832731953056E+002  0.205974373730370E-002  0.000000000000000E+000 -0.253251253916093E+002
  0.111747266942476E-001  0.440720967742911E+002  0.337628821119440E-001  0.000000000000000E+000 -0.226645897019655E+002
  0.111747266942476E-001  0.488579019859006E+002  0.115692651749779E-001  0.000000000000000E+000 -0.253124397869068E+002
  0.111747266942476E-001  0.440969999077139E+002  0.413498099355031E-001  0.000000000000000E+000 -0.226770412686769E+002
  0.111747266942476E-001  0.442196945662317E+002  0.346616509302103E-001  0.000000000000000E+000 -0.227383885979358E+002
  0.111747266942476E-001  0.422992206980670E+002  0.620632813943686E-001  0.000000000000000E+000 -0.217781516638534E+002
  0.111747266942476E-001  0.443043772272656E+002  0.575819176392024E-001  0.000000000000000E+000 -0.227807299284527E+002
  0.111747266942476E-001  0.487852695481438E+002  0.207657409606649E-002  0.000000000000000E+000 -0.252761235680284E+002
  0.111747266942476E-001  0.443443795526856E+002  0.472846294477084E-001  0.000000000000000E+000 -0.228007310911627E+002
  0.111747266942476E-001  0.416618311214734E+002  0.353859450020894E-001  0.000000000000000E+000 -0.214594568755566E+002
  0.111747266942476E-001  0.477326442090474E+002  0.953925769049786E-002  0.000000000000000E+000 -0.247498108984802E+002
  0.111747266942476E-001  0.422918746965503E+002  0.324721223683051E-001  0.000000000000000E+000 -0.217744786630951E+002
  0.111747266942476E-001  0.445933197610317E+002  0.260321668743051E-001  0.000000000000000E+000 -0.229252011953358E+002
  0.111747266942476E-001  0.487025805722484E+002  0.345519076173684E-002  0.000000000000000E+000 -0.252347790800806E+002
  0.111747266942476E-001  0.446673879104830E+002  0.457617624373775E-001  0.000000000000000E+000 -0.229622352700614E+002
  0.111747266942476E-001  0.409521374016961E+002  0.765951277781217E-001  0.000000000000000E+000 -0.211046100156680E+002
  0.111747266942476E-001  0.411330037113289E+002  0.614213460239224E-001  0.000000000000000E+000 -0.211950431704844E+002
  0.111747266942476E-001  0.447333583392936E+002  0.684787238998622E-001  0.000000000000000E+000 -0.229952204844668E+002
  0.111747266942476E-001  0.447344355645419E+002  0.348681257056226E-001  0.000000000000000E+000 -0.229957590970909E+002
  0.111747266942476E-001  0.403668084793855E+002  0.495644359108538E-001  0.000000000000000E+000 -0.208119455545127E+002
  0.111747266942476E-001  0.456409216853713E+002  0.566333142121361E-001  0.000000000000000E+000 -0.234490021575056E+002
  0.111747266942476E-001  0.480294383389764E+002  0.864740318344250E-002  0.000000000000000E+000 -0.248982079634447E+002
  0.111747266942476E-001  0.454836421943153E+002  0.517764189312763E-001  0.000000000000000E+000 -0.233703624119776E+002
  0.111747266942476E-001  0.420982039401704E+002  0.727680655302148E-001  0.000000000000000E+000 -0.216776432849051E+002
  0.111747266942476E-001  0.409262921591772E+002  0.408316912651359E-001  0.000000000000000E+000 -0.210916873944085E+002
  0.111747266942476E-001  0.421288154488039E+002  0.337349620292949E-001  0.000000000000000E+000 -0.216929490392219E+002
  0.111747266942476E-001  0.405479061584368E+002  0.583513969769966E-001  0.000000000000000E+000 -0.209024943940383E+002
  0.111747266942476E-001  0.450116135416573E+002  0.329254642176454E-001  0.000000000000000E+000 -0.231343480856486E+002
  0.111747266942476E-001  0.481622866445072E+002  0.193308828638665E+000  0.000000000000000E+000 -0.249646321162100E+002
  0.111747266942476E-001  0.451493049524922E+002  0.637229841529384E-001  0.000000000000000E+000 -0.232031937910661E+002
  0.111747266942476E-001  0.406034538139182E+002  0.663670474604907E-001  0.000000000000000E+000 -0.209302682217790E+002
  0.111747266942476E-001  0.406208781329162E+002  0.554360018467541E-001  0.000000000000000E+000 -0.209389803812780E+002
  0.111747266942476E-001  0.483738410042124E+002  0.410427738294075E-001  0.000000000000000E+000 -0.250704092960627E+002
  0.111747266942476E-001  0.421487397106730E+002  0.405319241516348E-001  0.000000000000000E+000 -0.217029111701564E+002
  0.111747266942476E-001  0.453151699839542E+002  0.353037092120324E-001  0.000000000000000E+000 -0.232861263067971E+002
  0.111747266942476E-001  0.481923211813053E+002  0.116234735239426E+000  0.000000000000000E+000 -0.249796493846091E+002
  0.111747266942476E-001  0.406804507908575E+002  0.469154466542195E-001  0.000000000000000E+000 -0.209687667102487E+002
  0.111747266942476E-001  0.407803133884408E+002  0.622422150865193E-001  0.000000000000000E+000 -0.210186980090404E+002
  0.111747266942476E-001  0.421549287574126E+002  0.546653026007214E-001  0.000000000000000E+000 -0.217060056935263E+002
  0.111747266942476E-001  0.453460913593199E+002  0.517179244325902E-001  0.000000000000000E+000 -0.233015869944799E+002
  0.111747266942476E-001  0.454200391954705E+002  0.345957451768832E-001  0.000000000000000E+000 -0.233385609125552E+002
  0.111747266942476E-001  0.411140158315514E+002  0.803613335299717E-001  0.000000000000000E+000 -0.211855492305957E+002
  0.111747266942476E-001  0.408483234918645E+002  0.786620897029074E-001  0.000000000000000E+000 -0.210527030607522E+002
  0.111747266942476E-001  0.459077442922540E+002  0.347017199170586E-001  0.000000000000000E+000 -0.235824134609469E+002
  0.111747266942476E-001  0.408544425081082E+002  0.300104158379747E-001  0.000000000000000E+000 -0.210557625688740E+002
  0.111747266942476E-001  0.454475409538247E+002  0.193196795892565E-001  0.000000000000000E+000 -0.233523117917323E+002
  0.111747266942476E-001  0.360601939042101E+002  0.622827560880458E-001  0.000000000000000E+000 -0.180300969521051E+002
