  0.476903969299717E-002  0.361219841994906E+002  0.103671334204716E+000  0.000000000000000E+000 -0.184552207799274E+002
  0.476903969299717E-002  0.346128616743995E+002  0.103526674124043E+000  0.000000000000000E+000 -0.190656740712924E+002
  0.476903969299717E-002  0.309888484201569E+002  0.103672103150540E+000  0.000000000000000E+000 -0.158886528902606E+002
  0.476903969299717E-002  0.427464071284848E+002  0.375808545726709E-001  0.000000000000000E+000 -0.240982739147060E+002
  0.476903969299717E-002  0.349918152801002E+002  0.102044744567471E+000  0.000000000000000E+000 -0.192551508741427E+002
  0.476903969299717E-002  0.382252590420066E+002  0.117289010369411E+000  0.000000000000000E+000 -0.211947452259286E+002
  0.476903969299717E-002  0.356263385872138E+002  0.117230883935158E+000  0.000000000000000E+000 -0.195724125276995E+002
  0.476903969299717E-002  0.356273238543255E+002  0.101696370164598E+000  0.000000000000000E+000 -0.195729051612554E+002
  0.476903969299717E-002  0.411807223680378E+002  0.115301985964318E+000  0.000000000000000E+000 -0.228565873564121E+002
  0.476903969299717E-002  0.360015910442975E+002  0.111832177986033E+000  0.000000000000000E+000 -0.197600387562414E+002
  0.476903969299717E-002  0.453321555503877E+002  0.429192589683110E-002  0.000000000000000E+000 -0.253911481256574E+002
  0.476903969299717E-002  0.428035358038277E+002  0.668053385055330E-001  0.000000000000000E+000 -0.241268382523774E+002
  0.476903969299717E-002  0.439370451411226E+002  0.128559131518986E-001  0.000000000000000E+000 -0.246935929210249E+002
  0.476903969299717E-002  0.367748390682562E+002  0.118588056720634E+000  0.000000000000000E+000 -0.201466627682207E+002
  0.476903969299717E-002  0.320828440908402E+002  0.103584790370399E+000  0.000000000000000E+000 -0.164356507256022E+002
  0.476903969299717E-002  0.451357016367037E+002  0.431043849255600E-002  0.000000000000000E+000 -0.252929211688154E+002
  0.476903969299717E-002  0.394858783106564E+002  0.102983978663139E+000  0.000000000000000E+000 -0.218250548602535E+002
  0.476903969299717E-002  0.372829301351304E+002  0.166756856873329E+000  0.000000000000000E+000 -0.207235807724905E+002
  0.476903969299717E-002  0.375034000601319E+002  0.129337180797013E+000  0.000000000000000E+000 -0.208338157349912E+002
  0.476903969299717E-002  0.373697978702398E+002  0.119276838104741E+000  0.000000000000000E+000 -0.207670146400452E+002
  0.476903969299717E-002  0.437140084729717E+002  0.563609558217830E-001  0.000000000000000E+000 -0.245820745869495E+002
  0.476903969299717E-002  0.373261520428647E+002  0.117316941947420E+000  0.000000000000000E+000 -0.207451917263576E+002
  0.476903969299717E-002  0.387680314652411E+002  0.140934615567013E+000  0.000000000000000E+000 -0.214661314375459E+002
  0.476903969299717E-002  0.450832498041455E+002  0.155664328950904E-001  0.000000000000000E+000 -0.252666952525364E+002
  0.476903969299717E-002  0.325998013000768E+002  0.103584790370399E+000  0.000000000000000E+000 -0.166941293302205E+002
  0.476903969299717E-002  0.386907605953964E+002  0.161382142662186E+000  0.000000000000000E+000 -0.214274960026235E+002
  0.476903969299717E-002  0.302089864292744E+002  0.103584790366884E+000  0.000000000000000E+000 -0.151044932146372E+002
