  0.345868770036192E-002  0.309565610300191E+002  0.116074086307771E+000  0.000000000000000E+000 -0.154782805150095E+002
  0.345868770036192E-002  0.366923865609816E+002  0.111950923765747E+000  0.000000000000000E+000 -0.205166207532557E+002
  0.345868770036192E-002  0.396542524006836E+002  0.990329946313697E-001  0.000000000000000E+000 -0.221816641405747E+002
  0.345868770036192E-002  0.398450680364253E+002  0.107480036646549E+000  0.000000000000000E+000 -0.222770719584455E+002
  0.345868770036192E-002  0.384196827828747E+002  0.114274268447222E+000  0.000000000000000E+000 -0.213802688642023E+002
  0.345868770036192E-002  0.365636452713362E+002  0.108173711273177E+000  0.000000000000000E+000 -0.201293776376004E+002
  0.345868770036192E-002  0.461169050447892E+002  0.302341904542056E-001  0.000000000000000E+000 -0.258718346406978E+002
  0.345868770036192E-002  0.337310369355469E+002  0.116334598977938E+000  0.000000000000000E+000 -0.181182814362688E+002
  0.345868770036192E-002  0.380486355063273E+002  0.117289010369411E+000  0.000000000000000E+000 -0.211947452259286E+002
  0.345868770036192E-002  0.370003640829505E+002  0.103671324655767E+000  0.000000000000000E+000 -0.203477370434076E+002
  0.345868770036192E-002  0.369484671603253E+002  0.106412979523398E+000  0.000000000000000E+000 -0.203217885820949E+002
  0.345868770036192E-002  0.318654091989118E+002  0.116073874351039E+000  0.000000000000000E+000 -0.159327045994559E+002
  0.345868770036192E-002  0.383727568092845E+002  0.131151890587806E+000  0.000000000000000E+000 -0.213568058774072E+002
  0.345868770036192E-002  0.369375622838674E+002  0.102983973183010E+000  0.000000000000000E+000 -0.203163361438660E+002
  0.345868770036192E-002  0.346912083161155E+002  0.114292153023285E+000  0.000000000000000E+000 -0.185983671265531E+002
  0.345868770036192E-002  0.452785933538252E+002  0.495550842977286E-002  0.000000000000000E+000 -0.254526787952159E+002
  0.345868770036192E-002  0.324033221002376E+002  0.116119663663818E+000  0.000000000000000E+000 -0.174544240186142E+002
  0.345868770036192E-002  0.371063065994511E+002  0.166756856873329E+000  0.000000000000000E+000 -0.207235807724905E+002
  0.345868770036192E-002  0.386228173477858E+002  0.108172667980943E+000  0.000000000000000E+000 -0.214818361466579E+002
  0.345868770036192E-002  0.324765213787303E+002  0.113551033514742E+000  0.000000000000000E+000 -0.174910236578605E+002
  0.345868770036192E-002  0.442368340613116E+002  0.111502891821902E-001  0.000000000000000E+000 -0.249317991489591E+002
  0.345868770036192E-002  0.356715889811474E+002  0.116563215435203E+000  0.000000000000000E+000 -0.196833494925060E+002
  0.345868770036192E-002  0.356987890872321E+002  0.117569218740505E+000  0.000000000000000E+000 -0.196969495455483E+002
  0.345868770036192E-002  0.419194029588722E+002  0.108764856833252E+000  0.000000000000000E+000 -0.233142394196690E+002
  0.345868770036192E-002  0.453389812941828E+002  0.559639566467741E-002  0.000000000000000E+000 -0.254828727653947E+002
  0.345868770036192E-002  0.379214287177452E+002  0.129560272641517E+000  0.000000000000000E+000 -0.211311418316376E+002
  0.345868770036192E-002  0.435373849372924E+002  0.563609558217830E-001  0.000000000000000E+000 -0.245820745869495E+002
  0.345868770036192E-002  0.359892475939840E+002  0.117975207931693E+000  0.000000000000000E+000 -0.198421787989243E+002
  0.345868770036192E-002  0.326173059336499E+002  0.116387230319676E+000  0.000000000000000E+000 -0.175614159353203E+002
  0.345868770036192E-002  0.371931743345605E+002  0.119276838104741E+000  0.000000000000000E+000 -0.207670146400452E+002
  0.345868770036192E-002  0.367919253913652E+002  0.103682555467533E+000  0.000000000000000E+000 -0.202435176976149E+002
  0.345868770036192E-002  0.422408129557417E+002  0.731999308764161E-001  0.000000000000000E+000 -0.239337885961741E+002
  0.345868770036192E-002  0.376720274738708E+002  0.129288140899535E+000  0.000000000000000E+000 -0.210064412097004E+002
  0.345868770036192E-002  0.445344753603291E+002  0.370124898510132E-001  0.000000000000000E+000 -0.250806197984678E+002
  0.345868770036192E-002  0.453461767913351E+002  0.380737570559120E-003  0.000000000000000E+000 -0.254864705139708E+002
  0.345868770036192E-002  0.351045427510583E+002  0.108521375504302E+000  0.000000000000000E+000 -0.193998263774614E+002
  0.345868770036192E-002  0.327452391263460E+002  0.113551218112985E+000  0.000000000000000E+000 -0.176253825316684E+002
  0.345868770036192E-002  0.441017833328626E+002  0.105752653008402E+000  0.000000000000000E+000 -0.248642737847345E+002
  0.345868770036192E-002  0.380838944240324E+002  0.109317938109534E+000  0.000000000000000E+000 -0.212123746847812E+002
  0.345868770036192E-002  0.384139229109083E+002  0.196663119927699E+000  0.000000000000000E+000 -0.213773889282191E+002
  0.345868770036192E-002  0.299129699934375E+002  0.116073874323344E+000  0.000000000000000E+000 -0.149564849967187E+002
