  0.126904614049362E-001  0.433540629139219E+002  0.137121837393686E-001  0.000000000000000E+000 -0.242106056812965E+002
  0.126904614049362E-001  0.354393845176525E+002  0.118625622381876E+000  0.000000000000000E+000 -0.182689984031603E+002
  0.126904614049362E-001  0.355488785307626E+002  0.117991504259509E+000  0.000000000000000E+000 -0.183237454097154E+002
  0.126904614049362E-001  0.294474030249068E+002  0.118027630852444E+000  0.000000000000000E+000 -0.147237015124534E+002
  0.126904614049362E-001  0.384810445056806E+002  0.129560272641517E+000  0.000000000000000E+000 -0.211311418316376E+002
  0.126904614049362E-001  0.283611959405819E+002  0.118025256669527E+000  0.000000000000000E+000 -0.141805979702909E+002
  0.126904614049362E-001  0.358499825332582E+002  0.111753693097352E+000  0.000000000000000E+000 -0.194927383745937E+002
  0.126904614049362E-001  0.392350995269926E+002  0.101884358720385E+000  0.000000000000000E+000 -0.215081693422936E+002
  0.126904614049362E-001  0.417069007598565E+002  0.119439777986034E+000  0.000000000000000E+000 -0.229281804261934E+002
  0.126904614049362E-001  0.264912182260785E+002  0.118027630853380E+000  0.000000000000000E+000 -0.132456091130393E+002
