  0.735835577574216E-002  0.327133767371970E+002  0.129372584211647E+000  0.000000000000000E+000 -0.176762170334061E+002
  0.735835577574216E-002  0.337921147164439E+002  0.138748868017175E+000  0.000000000000000E+000 -0.182155860230296E+002
  0.735835577574216E-002  0.424847972548787E+002  0.193976926164402E-001  0.000000000000000E+000 -0.238651534295638E+002
  0.735835577574216E-002  0.333480913137638E+002  0.144932222221342E+000  0.000000000000000E+000 -0.179935743216895E+002
  0.735835577574216E-002  0.358937585496182E+002  0.132800989512188E+000  0.000000000000000E+000 -0.192664079396167E+002
  0.735835577574216E-002  0.331060356496750E+002  0.196663090418135E+000  0.000000000000000E+000 -0.178725464896451E+002
  0.735835577574216E-002  0.392068641888397E+002  0.103464584544155E+000  0.000000000000000E+000 -0.215832322510060E+002
  0.735835577574216E-002  0.395305632909749E+002  0.117319250018957E+000  0.000000000000000E+000 -0.217450818020736E+002
  0.735835577574216E-002  0.386639439926777E+002  0.149556182592196E+000  0.000000000000000E+000 -0.213117721529251E+002
  0.735835577574216E-002  0.372617050796774E+002  0.113888715242557E+000  0.000000000000000E+000 -0.206106526964249E+002
  0.735835577574216E-002  0.277971998486344E+002  0.132241577551789E+000  0.000000000000000E+000 -0.138985999243172E+002
