  0.208194974174683E-002  0.292557124411438E+002  0.117324722292715E+000  0.000000000000000E+000 -0.146278562205719E+002
  0.208194974174683E-002  0.328436307547871E+002  0.120958129967127E+000  0.000000000000000E+000 -0.177413440422012E+002
  0.208194974174683E-002  0.340084334898155E+002  0.117991504259509E+000  0.000000000000000E+000 -0.183237454097154E+002
  0.208194974174683E-002  0.331361822217282E+002  0.118625622381375E+000  0.000000000000000E+000 -0.178876197756717E+002
  0.208194974174683E-002  0.331812131796651E+002  0.120958137500395E+000  0.000000000000000E+000 -0.179101352546402E+002
  0.208194974174683E-002  0.359001966037035E+002  0.128119675798424E+000  0.000000000000000E+000 -0.206109404011226E+002
  0.208194974174683E-002  0.359086761637429E+002  0.102741747375982E+000  0.000000000000000E+000 -0.206151801811423E+002
  0.208194974174683E-002  0.360195348299388E+002  0.103671324655767E+000  0.000000000000000E+000 -0.203477370434076E+002
  0.208194974174683E-002  0.346736366984065E+002  0.118027630489458E+000  0.000000000000000E+000 -0.186563470140109E+002
  0.208194974174683E-002  0.362221981969086E+002  0.117975207687439E+000  0.000000000000000E+000 -0.204490687268924E+002
  0.208194974174683E-002  0.378447803034704E+002  0.103464584544155E+000  0.000000000000000E+000 -0.215832322510060E+002
  0.208194974174683E-002  0.401664557189094E+002  0.119439777986034E+000  0.000000000000000E+000 -0.229281804261934E+002
  0.208194974174683E-002  0.467306167386522E+002  0.280855952740208E-001  0.000000000000000E+000 -0.266691051141352E+002
  0.208194974174683E-002  0.377946507911206E+002  0.130850688581605E+000  0.000000000000000E+000 -0.215581674948311E+002
  0.208194974174683E-002  0.336855941457503E+002  0.102031038879507E+000  0.000000000000000E+000 -0.191807667013133E+002
  0.208194974174683E-002  0.358083490531897E+002  0.106346742732164E+000  0.000000000000000E+000 -0.202421441550330E+002
  0.208194974174683E-002  0.342068119862988E+002  0.103517592016949E+000  0.000000000000000E+000 -0.194413756215876E+002
  0.208194974174683E-002  0.437804947836100E+002  0.389160481015092E-001  0.000000000000000E+000 -0.251940441366141E+002
  0.208194974174683E-002  0.355828160183245E+002  0.108173711273177E+000  0.000000000000000E+000 -0.201293776376004E+002
  0.208194974174683E-002  0.343095374923110E+002  0.111753693097352E+000  0.000000000000000E+000 -0.194927383745937E+002
  0.208194974174683E-002  0.351812886474884E+002  0.111995939944548E+000  0.000000000000000E+000 -0.199286139521823E+002
  0.208194974174683E-002  0.443421712599878E+002  0.784833298499617E-002  0.000000000000000E+000 -0.254748823748030E+002
  0.208194974174683E-002  0.430802009414074E+002  0.401571732336503E-001  0.000000000000000E+000 -0.248438972155128E+002
  0.208194974174683E-002  0.439122099663851E+002  0.137384576724064E-001  0.000000000000000E+000 -0.252599017280017E+002
  0.208194974174683E-002  0.350654816934276E+002  0.103526090113147E+000  0.000000000000000E+000 -0.198707104751520E+002
  0.208194974174683E-002  0.443584429493349E+002  0.956332310748209E-002  0.000000000000000E+000 -0.254830182194766E+002
  0.208194974174683E-002  0.337807928489796E+002  0.103671324660079E+000  0.000000000000000E+000 -0.192283660529279E+002
  0.208194974174683E-002  0.348441382556065E+002  0.111832177986033E+000  0.000000000000000E+000 -0.197600387562414E+002
  0.208194974174683E-002  0.436477539716039E+002  0.110402513868122E-001  0.000000000000000E+000 -0.251276737306111E+002
  0.208194974174683E-002  0.362123450815488E+002  0.119276838104741E+000  0.000000000000000E+000 -0.207670146400452E+002
  0.208194974174683E-002  0.346907597281357E+002  0.116563215435203E+000  0.000000000000000E+000 -0.196833494925060E+002
  0.208194974174683E-002  0.435536461073174E+002  0.370124898510132E-001  0.000000000000000E+000 -0.250806197984678E+002
  0.208194974174683E-002  0.369566012631051E+002  0.119808322759754E+000  0.000000000000000E+000 -0.211391427308234E+002
  0.208194974174683E-002  0.419045139130513E+002  0.958244804540628E-001  0.000000000000000E+000 -0.242560537013348E+002
  0.208194974174683E-002  0.427795923524316E+002  0.128559131518986E-001  0.000000000000000E+000 -0.246935929210249E+002
  0.208194974174683E-002  0.418136178729747E+002  0.137121837393686E-001  0.000000000000000E+000 -0.242106056812965E+002
  0.208194974174683E-002  0.417570206270889E+002  0.564381576260297E-001  0.000000000000000E+000 -0.241823070583536E+002
  0.208194974174683E-002  0.368143971988763E+002  0.153568877146398E+000  0.000000000000000E+000 -0.210680406987090E+002
  0.208194974174683E-002  0.336791801694754E+002  0.106441032947669E+000  0.000000000000000E+000 -0.191775597131759E+002
  0.208194974174683E-002  0.416460830151366E+002  0.668053385055330E-001  0.000000000000000E+000 -0.241268382523774E+002
  0.208194974174683E-002  0.430499683436700E+002  0.530855601401093E-001  0.000000000000000E+000 -0.248287809166441E+002
  0.208194974174683E-002  0.289312000609898E+002  0.117324722292711E+000  0.000000000000000E+000 -0.144656000304949E+002
