  0.526278112652870E-002  0.386731511534434E+002  0.460463698794967E-001  0.000000000000000E+000 -0.193365755767217E+002
  0.526278112652870E-002  0.389748617869812E+002  0.565855295216174E-001  0.000000000000000E+000 -0.205102008884927E+002
  0.526278112652870E-002  0.390054686961845E+002  0.433996068507096E-001  0.000000000000000E+000 -0.205255043430943E+002
  0.526278112652870E-002  0.390572142421451E+002  0.460462676317217E-001  0.000000000000000E+000 -0.205513771160746E+002
  0.526278112652870E-002  0.481749620673404E+002  0.199110452464521E-001  0.000000000000000E+000 -0.253651985078088E+002
  0.526278112652870E-002  0.398317144341963E+002  0.453006430658282E-001  0.000000000000000E+000 -0.199158572170982E+002
  0.526278112652870E-002  0.398500951205212E+002  0.438004297231996E-001  0.000000000000000E+000 -0.199250475602606E+002
  0.526278112652870E-002  0.393395337054188E+002  0.578308245457923E-001  0.000000000000000E+000 -0.206925368477115E+002
  0.526278112652870E-002  0.451748719108504E+002  0.193976926164402E-001  0.000000000000000E+000 -0.238651534295638E+002
  0.526278112652870E-002  0.393947126361021E+002  0.438004299967931E-001  0.000000000000000E+000 -0.207201263130531E+002
  0.526278112652870E-002  0.404205782846594E+002  0.430897680093161E-001  0.000000000000000E+000 -0.202102891423297E+002
  0.526278112652870E-002  0.472120713289085E+002  0.745556308784556E-001  0.000000000000000E+000 -0.248837531385929E+002
  0.526278112652870E-002  0.439443588237053E+002  0.265679198567477E-001  0.000000000000000E+000 -0.229949494068547E+002
  0.526278112652870E-002  0.394110765025408E+002  0.751177999729212E-001  0.000000000000000E+000 -0.207283082462725E+002
  0.526278112652870E-002  0.475718307122400E+002  0.241691980241331E-001  0.000000000000000E+000 -0.250636328302586E+002
  0.526278112652870E-002  0.424373303141687E+002  0.682238539151908E-001  0.000000000000000E+000 -0.222414351520864E+002
  0.526278112652870E-002  0.474038638209410E+002  0.116234735239426E+000  0.000000000000000E+000 -0.249796493846091E+002
  0.526278112652870E-002  0.394810179322545E+002  0.457291563129302E-001  0.000000000000000E+000 -0.207632789611293E+002
  0.526278112652870E-002  0.435159198669013E+002  0.575819176392024E-001  0.000000000000000E+000 -0.227807299284527E+002
  0.526278112652870E-002  0.420303838688156E+002  0.700441690730791E-001  0.000000000000000E+000 -0.220379619294099E+002
  0.526278112652870E-002  0.396898535509797E+002  0.659184185004511E-001  0.000000000000000E+000 -0.208676967704919E+002
  0.526278112652870E-002  0.483943298013288E+002  0.784833298499617E-002  0.000000000000000E+000 -0.254748823748030E+002
  0.526278112652870E-002  0.432078483935997E+002  0.369879888923727E-001  0.000000000000000E+000 -0.226266941918019E+002
  0.526278112652870E-002  0.413664713970484E+002  0.546653026007214E-001  0.000000000000000E+000 -0.217060056935263E+002
  0.526278112652870E-002  0.432044768911650E+002  0.422756180967144E-001  0.000000000000000E+000 -0.226250084405846E+002
  0.526278112652870E-002  0.431154761486565E+002  0.474853211476174E-001  0.000000000000000E+000 -0.225805080693303E+002
  0.526278112652870E-002  0.398324207725519E+002  0.554360018467541E-001  0.000000000000000E+000 -0.209389803812780E+002
  0.526278112652870E-002  0.411916373724283E+002  0.782509227643610E-001  0.000000000000000E+000 -0.216185886812162E+002
  0.526278112652870E-002  0.425823069069277E+002  0.353859801099679E-001  0.000000000000000E+000 -0.223139234484659E+002
  0.526278112652870E-002  0.457518354158849E+002  0.368199634047272E-001  0.000000000000000E+000 -0.241536351820810E+002
  0.526278112652870E-002  0.409423016672383E+002  0.389584825192748E-001  0.000000000000000E+000 -0.214939208286212E+002
  0.526278112652870E-002  0.408733737611091E+002  0.353859450020894E-001  0.000000000000000E+000 -0.214594568755566E+002
  0.526278112652870E-002  0.401378347988129E+002  0.408316912651359E-001  0.000000000000000E+000 -0.210916873944085E+002
  0.526278112652870E-002  0.404101715466177E+002  0.796555954791983E-001  0.000000000000000E+000 -0.212278557683109E+002
  0.526278112652870E-002  0.403722018824146E+002  0.619348111743372E-001  0.000000000000000E+000 -0.212088709362094E+002
  0.526278112652870E-002  0.496270256513618E+002  0.193875266896913E-001  0.000000000000000E+000 -0.260912302998195E+002
  0.526278112652870E-002  0.402657602854513E+002  0.568246682215654E-001  0.000000000000000E+000 -0.211556501377277E+002
  0.526278112652870E-002  0.425944470138392E+002  0.775933998962867E-001  0.000000000000000E+000 -0.223199935019217E+002
  0.526278112652870E-002  0.402461022856226E+002  0.433996133501571E-001  0.000000000000000E+000 -0.211458211378134E+002
  0.526278112652870E-002  0.362615387286564E+002  0.460462673520391E-001  0.000000000000000E+000 -0.181307693643282E+002
