  0.347018517512735E-002  0.416827875051522E+002  0.564381576260297E-001  0.000000000000000E+000 -0.241823070583536E+002
  0.347018517512735E-002  0.377204176691839E+002  0.130850688581605E+000  0.000000000000000E+000 -0.215581674948311E+002
  0.347018517512735E-002  0.412846916890701E+002  0.135041075502686E-001  0.000000000000000E+000 -0.239832591503125E+002
  0.347018517512735E-002  0.307121506548441E+002  0.128294895130147E+000  0.000000000000000E+000 -0.166385500061528E+002
  0.347018517512735E-002  0.361381119596121E+002  0.119276838104741E+000  0.000000000000000E+000 -0.207670146400452E+002
  0.347018517512735E-002  0.430574409910011E+002  0.798829803454245E-001  0.000000000000000E+000 -0.248696338012780E+002
  0.347018517512735E-002  0.434794129853807E+002  0.370124898510132E-001  0.000000000000000E+000 -0.250806197984678E+002
  0.347018517512735E-002  0.437007571394648E+002  0.104922149187102E+000  0.000000000000000E+000 -0.251912918755099E+002
  0.347018517512735E-002  0.446014521523295E+002  0.580630057883711E-001  0.000000000000000E+000 -0.256416393819422E+002
  0.347018517512735E-002  0.373588605359598E+002  0.196663119927699E+000  0.000000000000000E+000 -0.213773889282191E+002
  0.347018517512735E-002  0.441004696397599E+002  0.429192589683110E-002  0.000000000000000E+000 -0.253911481256574E+002
  0.347018517512735E-002  0.308701653613495E+002  0.128480683361881E+000  0.000000000000000E+000 -0.167175573594055E+002
  0.347018517512735E-002  0.466563836167155E+002  0.280855952740208E-001  0.000000000000000E+000 -0.266691051141352E+002
  0.347018517512735E-002  0.424823225623440E+002  0.563609558217830E-001  0.000000000000000E+000 -0.245820745869495E+002
  0.347018517512735E-002  0.402059267356161E+002  0.151921768649412E+000  0.000000000000000E+000 -0.229850324955151E+002
  0.347018517512735E-002  0.384247275546739E+002  0.114764407242210E+000  0.000000000000000E+000 -0.219103224375761E+002
  0.347018517512735E-002  0.310477511355191E+002  0.128297375625347E+000  0.000000000000000E+000 -0.168063502464903E+002
  0.347018517512735E-002  0.375363455546134E+002  0.140934615567013E+000  0.000000000000000E+000 -0.214661314375459E+002
  0.347018517512735E-002  0.282073801370384E+002  0.128289464290586E+000  0.000000000000000E+000 -0.141036900685192E+002
