  0.264600133925741E-002  0.359566948919744E+002  0.111763630630781E+000  0.000000000000000E+000 -0.204953485090321E+002
  0.264600133925741E-002  0.301873118491094E+002  0.116074588956574E+000  0.000000000000000E+000 -0.150936559245547E+002
  0.264600133925741E-002  0.389611052201237E+002  0.990329946313697E-001  0.000000000000000E+000 -0.221816641405747E+002
  0.264600133925741E-002  0.372282815371853E+002  0.129560272641517E+000  0.000000000000000E+000 -0.211311418316376E+002
  0.264600133925741E-002  0.302809476253251E+002  0.116074588956447E+000  0.000000000000000E+000 -0.151404738126625E+002
  0.264600133925741E-002  0.361878786761553E+002  0.128119675798424E+000  0.000000000000000E+000 -0.206109404011226E+002
  0.264600133925741E-002  0.321306346347185E+002  0.116074588956557E+000  0.000000000000000E+000 -0.164118909076392E+002
  0.264600133925741E-002  0.330378897549870E+002  0.116334598977938E+000  0.000000000000000E+000 -0.181182814362688E+002
  0.264600133925741E-002  0.403109516517985E+002  0.115301985964318E+000  0.000000000000000E+000 -0.228565873564121E+002
  0.264600133925741E-002  0.318260340221396E+002  0.116331756261276E+000  0.000000000000000E+000 -0.175123535698451E+002
  0.264600133925741E-002  0.322658259635872E+002  0.116119663664140E+000  0.000000000000000E+000 -0.177322495405690E+002
  0.264600133925741E-002  0.442659309204644E+002  0.431043849255600E-002  0.000000000000000E+000 -0.252929211688154E+002
  0.264600133925741E-002  0.377265356023147E+002  0.114274268447222E+000  0.000000000000000E+000 -0.213802688642023E+002
  0.264600133925741E-002  0.362444151033075E+002  0.102983973183010E+000  0.000000000000000E+000 -0.203163361438660E+002
  0.264600133925741E-002  0.372442833355569E+002  0.119808322759754E+000  0.000000000000000E+000 -0.211391427308234E+002
  0.264600133925741E-002  0.445854461732653E+002  0.495550842977286E-002  0.000000000000000E+000 -0.254526787952159E+002
  0.264600133925741E-002  0.376796096287245E+002  0.131151890587806E+000  0.000000000000000E+000 -0.213568058774072E+002
  0.264600133925741E-002  0.364131594188911E+002  0.166756856873329E+000  0.000000000000000E+000 -0.207235807724905E+002
  0.264600133925741E-002  0.438613948366295E+002  0.130429600931746E-001  0.000000000000000E+000 -0.250906531268980E+002
  0.264600133925741E-002  0.344645363254047E+002  0.115624841973055E+000  0.000000000000000E+000 -0.194263967549146E+002
  0.264600133925741E-002  0.347136573699165E+002  0.102511394880879E+000  0.000000000000000E+000 -0.195509572771705E+002
  0.264600133925741E-002  0.349784418005875E+002  0.116563215435203E+000  0.000000000000000E+000 -0.196833494925060E+002
  0.264600133925741E-002  0.350056419066721E+002  0.117569218740505E+000  0.000000000000000E+000 -0.196969495455483E+002
  0.264600133925741E-002  0.412262557783123E+002  0.108764856833252E+000  0.000000000000000E+000 -0.233142394196690E+002
  0.264600133925741E-002  0.319270311723405E+002  0.116074588957837E+000  0.000000000000000E+000 -0.175628521449456E+002
  0.264600133925741E-002  0.440681768560618E+002  0.389160481015092E-001  0.000000000000000E+000 -0.251940441366141E+002
  0.264600133925741E-002  0.440626723338532E+002  0.104922149187102E+000  0.000000000000000E+000 -0.251912918755099E+002
  0.264600133925741E-002  0.352961004134240E+002  0.117975207931693E+000  0.000000000000000E+000 -0.198421787989243E+002
  0.264600133925741E-002  0.358704980907763E+002  0.108173711273177E+000  0.000000000000000E+000 -0.201293776376004E+002
  0.264600133925741E-002  0.317833741981704E+002  0.113551033514742E+000  0.000000000000000E+000 -0.174910236578605E+002
  0.264600133925741E-002  0.320469505354709E+002  0.116224455978172E+000  0.000000000000000E+000 -0.176228118265108E+002
  0.264600133925741E-002  0.415476657751817E+002  0.731999308764161E-001  0.000000000000000E+000 -0.239337885961741E+002
  0.264600133925741E-002  0.373586878956729E+002  0.111838947554331E+000  0.000000000000000E+000 -0.211963450108814E+002
  0.264600133925741E-002  0.345972195647628E+002  0.111753693097352E+000  0.000000000000000E+000 -0.194927383745937E+002
  0.264600133925741E-002  0.294900426572012E+002  0.116074588956837E+000  0.000000000000000E+000 -0.147450213286006E+002
