  0.640977212315355E-002  0.300950135429707E+002  0.106438775291185E+000  0.000000000000000E+000 -0.157883090419474E+002
  0.640977212315355E-002  0.302675335906416E+002  0.106441032926355E+000  0.000000000000000E+000 -0.158745690657829E+002
  0.640977212315355E-002  0.286737124811337E+002  0.106441038024709E+000  0.000000000000000E+000 -0.143368562405669E+002
  0.640977212315355E-002  0.306792250282125E+002  0.106441032926356E+000  0.000000000000000E+000 -0.160804147845684E+002
  0.640977212315355E-002  0.372707899083406E+002  0.107144397405557E+000  0.000000000000000E+000 -0.205736696228697E+002
  0.640977212315355E-002  0.344861706452393E+002  0.106440985605998E+000  0.000000000000000E+000 -0.179838875930817E+002
  0.640977212315355E-002  0.318154812832124E+002  0.105199085471516E+000  0.000000000000000E+000 -0.166485429120683E+002
  0.640977212315355E-002  0.428040596721496E+002  0.135041075502686E-001  0.000000000000000E+000 -0.239832591503125E+002
  0.640977212315355E-002  0.361358945892785E+002  0.116563215435203E+000  0.000000000000000E+000 -0.196833494925060E+002
  0.640977212315355E-002  0.423506720490797E+002  0.940778288175106E-001  0.000000000000000E+000 -0.232977211607072E+002
  0.640977212315355E-002  0.457428989619563E+002  0.495550842977286E-002  0.000000000000000E+000 -0.254526787952159E+002
  0.640977212315355E-002  0.416115905800522E+002  0.119439777986034E+000  0.000000000000000E+000 -0.229281804261934E+002
  0.640977212315355E-002  0.268550779525608E+002  0.106441038024710E+000  0.000000000000000E+000 -0.134275389762804E+002
