  0.229861954306474E-001  0.341182031824378E+002  0.799583558237129E-001  0.000000000000000E+000 -0.173145144031019E+002
  0.229861954306474E-001  0.315291960008395E+002  0.739158445329067E-001  0.000000000000000E+000 -0.160200108123028E+002
  0.229861954306474E-001  0.319183098273014E+002  0.799583558237127E-001  0.000000000000000E+000 -0.162145677255337E+002
  0.229861954306474E-001  0.376377245129467E+002  0.656625183898449E-001  0.000000000000000E+000 -0.190742750683564E+002
  0.229861954306474E-001  0.342939646965012E+002  0.660742079688350E-001  0.000000000000000E+000 -0.174023951601336E+002
  0.229861954306474E-001  0.411643119216397E+002  0.765951277781217E-001  0.000000000000000E+000 -0.211046100156680E+002
  0.229861954306474E-001  0.333802040715315E+002  0.692516720279404E-001  0.000000000000000E+000 -0.169455148476488E+002
  0.229861954306474E-001  0.411384666791208E+002  0.408316912651359E-001  0.000000000000000E+000 -0.210916873944085E+002
  0.229861954306474E-001  0.412467341659305E+002  0.433996133501571E-001  0.000000000000000E+000 -0.211458211378134E+002
  0.229861954306474E-001  0.397951477969837E+002  0.764692594812124E-001  0.000000000000000E+000 -0.201529867103748E+002
  0.229861954306474E-001  0.335785462316813E+002  0.656619776378573E-001  0.000000000000000E+000 -0.170446859277237E+002
  0.229861954306474E-001  0.493251584819755E+002  0.753660237537342E-001  0.000000000000000E+000 -0.254399807749724E+002
  0.229861954306474E-001  0.414981752859862E+002  0.644263675122227E-001  0.000000000000000E+000 -0.212715416978412E+002
  0.229861954306474E-001  0.399037373309391E+002  0.777757268790325E-001  0.000000000000000E+000 -0.202072814773525E+002
  0.229861954306474E-001  0.358313001544205E+002  0.692520925887540E-001  0.000000000000000E+000 -0.181710628890932E+002
  0.229861954306474E-001  0.365483118163469E+002  0.751205763128694E-001  0.000000000000000E+000 -0.185295687200565E+002
  0.229861954306474E-001  0.410604980118081E+002  0.786620897029074E-001  0.000000000000000E+000 -0.210527030607522E+002
  0.229861954306474E-001  0.369596616137358E+002  0.663706175629253E-001  0.000000000000000E+000 -0.187352436187509E+002
  0.229861954306474E-001  0.462910152869217E+002  0.356897130915870E-001  0.000000000000000E+000 -0.236679616983090E+002
  0.229861954306474E-001  0.493550614415219E+002  0.110011449408964E-002  0.000000000000000E+000 -0.254549322547456E+002
  0.229861954306474E-001  0.493864988768257E+002  0.652435245574357E-002  0.000000000000000E+000 -0.254706509723975E+002
  0.229861954306474E-001  0.346282591266319E+002  0.656619776370515E-001  0.000000000000000E+000 -0.175695423751990E+002
  0.229861954306474E-001  0.443091744276576E+002  0.413498099355031E-001  0.000000000000000E+000 -0.226770412686769E+002
  0.229861954306474E-001  0.402723027815751E+002  0.663713123007299E-001  0.000000000000000E+000 -0.203915642026705E+002
  0.229861954306474E-001  0.381220038061062E+002  0.795169539672774E-001  0.000000000000000E+000 -0.193164147149361E+002
  0.229861954306474E-001  0.479511394433997E+002  0.300339129206158E-001  0.000000000000000E+000 -0.247529712556845E+002
  0.229861954306474E-001  0.430383514584667E+002  0.734062421548243E-001  0.000000000000000E+000 -0.220416297840815E+002
  0.229861954306474E-001  0.404117083828487E+002  0.751177999729212E-001  0.000000000000000E+000 -0.207283082462725E+002
  0.229861954306474E-001  0.354057225114563E+002  0.656447106889230E-001  0.000000000000000E+000 -0.179582740676111E+002
  0.229861954306474E-001  0.438454782997108E+002  0.390232460611407E-001  0.000000000000000E+000 -0.224451932047035E+002
  0.229861954306474E-001  0.414810028233614E+002  0.504529778519490E-001  0.000000000000000E+000 -0.212629554665288E+002
  0.229861954306474E-001  0.391860693016835E+002  0.810101895184918E-001  0.000000000000000E+000 -0.198484474627248E+002
  0.229861954306474E-001  0.391692530382995E+002  0.738644428459047E-001  0.000000000000000E+000 -0.198400393310327E+002
  0.229861954306474E-001  0.450611987161861E+002  0.516919363262709E-001  0.000000000000000E+000 -0.230530534129412E+002
  0.229861954306474E-001  0.358040978653802E+002  0.820520657329404E-001  0.000000000000000E+000 -0.181574617445731E+002
  0.229861954306474E-001  0.470789713706006E+002  0.112153172200826E+000  0.000000000000000E+000 -0.243168872192850E+002
  0.229861954306474E-001  0.417450760284952E+002  0.751369888964522E-001  0.000000000000000E+000 -0.213949920690957E+002
  0.229861954306474E-001  0.403953445164100E+002  0.438004299967931E-001  0.000000000000000E+000 -0.207201263130531E+002
  0.229861954306474E-001  0.345343257281918E+002  0.799581783030890E-001  0.000000000000000E+000 -0.175225756759789E+002
  0.229861954306474E-001  0.449466100844855E+002  0.348681257056226E-001  0.000000000000000E+000 -0.229957590970909E+002
  0.229861954306474E-001  0.449455328592373E+002  0.684787238998622E-001  0.000000000000000E+000 -0.229952204844668E+002
  0.229861954306474E-001  0.310427524402562E+002  0.739158445332183E-001  0.000000000000000E+000 -0.155213762201281E+002
  0.229861954306474E-001  0.310353302734059E+002  0.741769462835323E-001  0.000000000000000E+000 -0.155176651367030E+002
