  0.469623463648477E-002  0.365163106799098E+002  0.111763630630781E+000  0.000000000000000E+000 -0.204953485090321E+002
  0.469623463648477E-002  0.321336460756248E+002  0.103932685498002E+000  0.000000000000000E+000 -0.160668230378124E+002
  0.469623463648477E-002  0.384578765369373E+002  0.140934615567013E+000  0.000000000000000E+000 -0.214661314375459E+002
  0.469623463648477E-002  0.366583939987406E+002  0.103682555467533E+000  0.000000000000000E+000 -0.202435176976149E+002
  0.469623463648477E-002  0.360285865078756E+002  0.111995939944548E+000  0.000000000000000E+000 -0.199286139521823E+002
  0.469623463648477E-002  0.461553495909740E+002  0.562091666740191E-001  0.000000000000000E+000 -0.259578226101025E+002
  0.469623463648477E-002  0.422062226713940E+002  0.135041075502686E-001  0.000000000000000E+000 -0.239832591503125E+002
  0.469623463648477E-002  0.368277861287051E+002  0.103932583790801E+000  0.000000000000000E+000 -0.184138930643525E+002
  0.469623463648477E-002  0.452185215742482E+002  0.807652475151217E-002  0.000000000000000E+000 -0.254894086017396E+002
  0.469623463648477E-002  0.351568353526982E+002  0.111753693097352E+000  0.000000000000000E+000 -0.194927383745937E+002
  0.469623463648477E-002  0.350541098466860E+002  0.103517592016949E+000  0.000000000000000E+000 -0.194413756215876E+002
  0.469623463648477E-002  0.452054499015583E+002  0.559639566467741E-002  0.000000000000000E+000 -0.254828727653947E+002
  0.469623463648477E-002  0.413274550679276E+002  0.960635584724563E-001  0.000000000000000E+000 -0.230850311705089E+002
  0.469623463648477E-002  0.280694066159766E+002  0.103932685498035E+000  0.000000000000000E+000 -0.140347033079883E+002
  0.469623463648477E-002  0.279709558889310E+002  0.103932685498040E+000  0.000000000000000E+000 -0.139854779444655E+002
