  0.747249734275993E-002  0.304347342400856E+002  0.116373632384245E+000  0.000000000000000E+000 -0.152173671200428E+002
  0.747249734275993E-002  0.377711962223535E+002  0.111950923765747E+000  0.000000000000000E+000 -0.205166207532557E+002
  0.747249734275993E-002  0.308486774690556E+002  0.116373632321129E+000  0.000000000000000E+000 -0.158012246357160E+002
  0.747249734275993E-002  0.329029924495807E+002  0.116373631947921E+000  0.000000000000000E+000 -0.168283821259785E+002
  0.747249734275993E-002  0.334609116192933E+002  0.116373642787479E+000  0.000000000000000E+000 -0.171073417108348E+002
  0.747249734275993E-002  0.313980920853691E+002  0.116406831914058E+000  0.000000000000000E+000 -0.160759319438728E+002
  0.747249734275993E-002  0.333922558276921E+002  0.111771169819002E+000  0.000000000000000E+000 -0.174094860516554E+002
  0.747249734275993E-002  0.334821317616096E+002  0.116119663663818E+000  0.000000000000000E+000 -0.174544240186142E+002
  0.747249734275993E-002  0.335553310401023E+002  0.113551033514742E+000  0.000000000000000E+000 -0.174910236578605E+002
  0.747249734275993E-002  0.380791737443225E+002  0.103671324655767E+000  0.000000000000000E+000 -0.203477370434076E+002
  0.747249734275993E-002  0.332437928480517E+002  0.116373557096729E+000  0.000000000000000E+000 -0.169987823252140E+002
  0.747249734275993E-002  0.399044192178540E+002  0.103464584544155E+000  0.000000000000000E+000 -0.215832322510060E+002
  0.747249734275993E-002  0.317009624481998E+002  0.116403425446278E+000  0.000000000000000E+000 -0.162273671252881E+002
  0.747249734275993E-002  0.317979020484196E+002  0.116373634587175E+000  0.000000000000000E+000 -0.162758369253980E+002
  0.747249734275993E-002  0.320692740559849E+002  0.116373627289636E+000  0.000000000000000E+000 -0.164115229291806E+002
  0.747249734275993E-002  0.463574030151971E+002  0.495550842977286E-002  0.000000000000000E+000 -0.254526787952159E+002
  0.747249734275993E-002  0.336961155950219E+002  0.116387230319676E+000  0.000000000000000E+000 -0.175614159353203E+002
  0.747249734275993E-002  0.381851162608230E+002  0.166756856873329E+000  0.000000000000000E+000 -0.207235807724905E+002
  0.747249734275993E-002  0.333029546724367E+002  0.116270723676167E+000  0.000000000000000E+000 -0.170283632374065E+002
  0.747249734275993E-002  0.403880644363490E+002  0.102983978663139E+000  0.000000000000000E+000 -0.218250548602535E+002
  0.747249734275993E-002  0.338240487877180E+002  0.113551218112985E+000  0.000000000000000E+000 -0.176253825316684E+002
  0.747249734275993E-002  0.339193411710608E+002  0.116373634598070E+000  0.000000000000000E+000 -0.176730287233398E+002
  0.747249734275993E-002  0.340749111672745E+002  0.116367428490561E+000  0.000000000000000E+000 -0.177508137214467E+002
  0.747249734275993E-002  0.438732567873584E+002  0.137121837393686E-001  0.000000000000000E+000 -0.242106056812965E+002
  0.747249734275993E-002  0.394927325722802E+002  0.196663119927699E+000  0.000000000000000E+000 -0.213773889282191E+002
  0.747249734275993E-002  0.458401336979937E+002  0.389160481015092E-001  0.000000000000000E+000 -0.251940441366141E+002
  0.747249734275993E-002  0.458346291757851E+002  0.104922149187102E+000  0.000000000000000E+000 -0.251912918755099E+002
  0.747249734275993E-002  0.328988515982169E+002  0.116378317885626E+000  0.000000000000000E+000 -0.168263117002966E+002
  0.747249734275993E-002  0.432230711075421E+002  0.735523844554096E-001  0.000000000000000E+000 -0.238855128413883E+002
  0.747249734275993E-002  0.394680384616260E+002  0.118290869357388E+000  0.000000000000000E+000 -0.213650418728920E+002
  0.747249734275993E-002  0.371951615286135E+002  0.103445220746020E+000  0.000000000000000E+000 -0.199057309355531E+002
  0.747249734275993E-002  0.394984924442466E+002  0.114274268447222E+000  0.000000000000000E+000 -0.213802688642023E+002
  0.747249734275993E-002  0.387508371352428E+002  0.129288140899535E+000  0.000000000000000E+000 -0.210064412097004E+002
  0.747249734275993E-002  0.458073274570434E+002  0.682330933899228E-001  0.000000000000000E+000 -0.251776410161390E+002
  0.747249734275993E-002  0.327201054851286E+002  0.116373634596983E+000  0.000000000000000E+000 -0.167369386437525E+002
  0.747249734275993E-002  0.365295099800181E+002  0.101696370164598E+000  0.000000000000000E+000 -0.195729051612554E+002
  0.747249734275993E-002  0.464308626282446E+002  0.807652475151217E-002  0.000000000000000E+000 -0.254894086017396E+002
  0.747249734275993E-002  0.459718488807688E+002  0.137384576724064E-001  0.000000000000000E+000 -0.252599017280017E+002
  0.747249734275993E-002  0.394515664706564E+002  0.131151890587806E+000  0.000000000000000E+000 -0.213568058774072E+002
  0.747249734275993E-002  0.434185637253905E+002  0.135041075502686E-001  0.000000000000000E+000 -0.239832591503125E+002
  0.747249734275993E-002  0.456333516785614E+002  0.130429600931746E-001  0.000000000000000E+000 -0.250906531268980E+002
  0.747249734275993E-002  0.363165814377753E+002  0.108340304434752E+000  0.000000000000000E+000 -0.194664408901340E+002
  0.747249734275993E-002  0.459854359298381E+002  0.155664328950904E-001  0.000000000000000E+000 -0.252666952525364E+002
  0.747249734275993E-002  0.378707350527371E+002  0.103682555467533E+000  0.000000000000000E+000 -0.202435176976149E+002
  0.747249734275993E-002  0.456132850217011E+002  0.370124898510132E-001  0.000000000000000E+000 -0.250806197984678E+002
  0.747249734275993E-002  0.453156437226835E+002  0.111502891821902E-001  0.000000000000000E+000 -0.249317991489591E+002
  0.747249734275993E-002  0.365320043033006E+002  0.111782131157993E+000  0.000000000000000E+000 -0.195741523228966E+002
  0.747249734275993E-002  0.471957147061611E+002  0.302341904542056E-001  0.000000000000000E+000 -0.258718346406978E+002
  0.747249734275993E-002  0.439641528274350E+002  0.958244804540628E-001  0.000000000000000E+000 -0.242560537013348E+002
  0.747249734275993E-002  0.391306447376047E+002  0.111838947554331E+000  0.000000000000000E+000 -0.211963450108814E+002
  0.747249734275993E-002  0.298628028447359E+002  0.116373632270349E+000  0.000000000000000E+000 -0.149314014223680E+002
