  0.399493008769657E-002  0.391825586186324E+002  0.957010579672429E-001  0.000000000000000E+000 -0.205306647324251E+002
  0.399493008769657E-002  0.410659030917497E+002  0.111779457092808E+000  0.000000000000000E+000 -0.220611067426126E+002
  0.399493008769657E-002  0.360049868023967E+002  0.100053768078873E+000  0.000000000000000E+000 -0.180024934011984E+002
  0.399493008769657E-002  0.391991889929939E+002  0.868112327506323E-001  0.000000000000000E+000 -0.205389799196058E+002
  0.399493008769657E-002  0.412464633405147E+002  0.908514190141952E-001  0.000000000000000E+000 -0.221513868669951E+002
  0.399493008769657E-002  0.413070178876739E+002  0.990329946313697E-001  0.000000000000000E+000 -0.221816641405747E+002
  0.399493008769657E-002  0.377891091166323E+002  0.906379363192968E-001  0.000000000000000E+000 -0.198339399814250E+002
  0.399493008769657E-002  0.380535002281574E+002  0.985036980710333E-001  0.000000000000000E+000 -0.199661355371876E+002
  0.399493008769657E-002  0.380628481319218E+002  0.891114110464856E-001  0.000000000000000E+000 -0.199708094890697E+002
  0.399493008769657E-002  0.365513146979521E+002  0.891114107812948E-001  0.000000000000000E+000 -0.192150427720849E+002
  0.399493008769657E-002  0.385371948709034E+002  0.918697528164702E-001  0.000000000000000E+000 -0.202079828585606E+002
  0.399493008769657E-002  0.469059628003285E+002  0.753660237537342E-001  0.000000000000000E+000 -0.254399807749724E+002
  0.399493008769657E-002  0.394691966817103E+002  0.982151532720775E-001  0.000000000000000E+000 -0.206739837639640E+002
  0.399493008769657E-002  0.375298668038036E+002  0.915120462597157E-001  0.000000000000000E+000 -0.197043188250106E+002
  0.399493008769657E-002  0.390315242170861E+002  0.905652260698165E-001  0.000000000000000E+000 -0.204551475316519E+002
  0.399493008769657E-002  0.415853824516387E+002  0.862993167943435E-001  0.000000000000000E+000 -0.223208464225571E+002
  0.399493008769657E-002  0.372855824995900E+002  0.926863706863115E-001  0.000000000000000E+000 -0.195821766729039E+002
  0.399493008769657E-002  0.453178430590235E+002  0.176565111879566E-001  0.000000000000000E+000 -0.246459209043199E+002
  0.399493008769657E-002  0.416279674059426E+002  0.103427361659778E+000  0.000000000000000E+000 -0.223421388997091E+002
  0.399493008769657E-002  0.399274095301915E+002  0.100054236185131E+000  0.000000000000000E+000 -0.209030901882046E+002
  0.399493008769657E-002  0.458895995483019E+002  0.111502891821902E-001  0.000000000000000E+000 -0.249317991489591E+002
  0.399493008769657E-002  0.452507816662426E+002  0.193308298998258E+000  0.000000000000000E+000 -0.246123902079294E+002
  0.399493008769657E-002  0.361811229793094E+002  0.879944127054547E-001  0.000000000000000E+000 -0.190299469127635E+002
  0.399493008769657E-002  0.367934319053703E+002  0.883195190607869E-001  0.000000000000000E+000 -0.193361013757940E+002
  0.399493008769657E-002  0.457696465460144E+002  0.854635831594108E-002  0.000000000000000E+000 -0.248718226478153E+002
  0.399493008769657E-002  0.423584055010393E+002  0.107821359236317E+000  0.000000000000000E+000 -0.227073579472574E+002
  0.399493008769657E-002  0.461799334702381E+002  0.845367375672424E-001  0.000000000000000E+000 -0.250769661099272E+002
  0.399493008769657E-002  0.408333836049605E+002  0.850051281663692E-001  0.000000000000000E+000 -0.213560772255891E+002
  0.399493008769657E-002  0.367695988970270E+002  0.926863713326362E-001  0.000000000000000E+000 -0.193241848716224E+002
  0.399493008769657E-002  0.419644167027668E+002  0.990609550785730E-001  0.000000000000000E+000 -0.219215937744922E+002
  0.399493008769657E-002  0.417485539722718E+002  0.905405218595636E-001  0.000000000000000E+000 -0.218136624092447E+002
  0.399493008769657E-002  0.440336227376676E+002  0.123895913725160E+000  0.000000000000000E+000 -0.235449665655715E+002
  0.399493008769657E-002  0.412223669510610E+002  0.991192159388523E-001  0.000000000000000E+000 -0.215505688986394E+002
  0.399493008769657E-002  0.367585872851625E+002  0.966081255276263E-001  0.000000000000000E+000 -0.193186790656901E+002
  0.399493008769657E-002  0.469989422783254E+002  0.380737570559120E-003  0.000000000000000E+000 -0.254864705139708E+002
  0.399493008769657E-002  0.482084618500228E+002  0.193875266896913E-001  0.000000000000000E+000 -0.260912302998195E+002
  0.399493008769657E-002  0.415444033067523E+002  0.921640663740217E-001  0.000000000000000E+000 -0.217115870764850E+002
  0.399493008769657E-002  0.431991492898000E+002  0.112506781789089E+000  0.000000000000000E+000 -0.231277298416378E+002
  0.399493008769657E-002  0.412332914546252E+002  0.862681150481316E-001  0.000000000000000E+000 -0.215560311504215E+002
  0.399493008769657E-002  0.436548345851339E+002  0.112664467170967E+000  0.000000000000000E+000 -0.233555724893047E+002
  0.399493008769657E-002  0.367307218881021E+002  0.914310869389347E-001  0.000000000000000E+000 -0.193047463671599E+002
  0.399493008769657E-002  0.440192549414406E+002  0.518129395389701E-001  0.000000000000000E+000 -0.239966268455284E+002
  0.399493008769657E-002  0.440510414769118E+002  0.793564707767640E-001  0.000000000000000E+000 -0.240125201132641E+002
  0.399493008769657E-002  0.437471449848357E+002  0.127786034829634E+000  0.000000000000000E+000 -0.234017276891556E+002
  0.399493008769657E-002  0.414808461951045E+002  0.887140805869545E-001  0.000000000000000E+000 -0.216798085206611E+002
  0.399493008769657E-002  0.414871359519591E+002  0.996628519719147E-001  0.000000000000000E+000 -0.216829533990884E+002
  0.399493008769657E-002  0.343729024514474E+002  0.100053816093362E+000  0.000000000000000E+000 -0.171864512257237E+002
  0.399493008769657E-002  0.340995204921053E+002  0.100053816014164E+000  0.000000000000000E+000 -0.170497602460526E+002
