  0.457649061844103E-001  0.323888459494536E+002  0.877624978337816E-001  0.000000000000000E+000 -0.161944229747268E+002
  0.457649061844103E-001  0.298628246923672E+002  0.909609006386546E-001  0.000000000000000E+000 -0.149314123461836E+002
  0.457649061844103E-001  0.284297611367141E+002  0.883871763982939E-001  0.000000000000000E+000 -0.142148805683570E+002
  0.457649061844103E-001  0.324554882426853E+002  0.877624978337817E-001  0.000000000000000E+000 -0.162277441213426E+002
  0.457649061844103E-001  0.290632149939520E+002  0.909244094117075E-001  0.000000000000000E+000 -0.145316074969760E+002
  0.457649061844103E-001  0.475704560666013E+002  0.544631893399012E-001  0.000000000000000E+000 -0.251657160881858E+002
  0.457649061844103E-001  0.387730578290302E+002  0.909609007673318E-001  0.000000000000000E+000 -0.197194030177010E+002
  0.457649061844103E-001  0.404988313396667E+002  0.917848450741832E-001  0.000000000000000E+000 -0.205822897730193E+002
  0.457649061844103E-001  0.276009364438609E+002  0.879921607705697E-001  0.000000000000000E+000 -0.138004682219305E+002
