  0.156916493933611E-001  0.313101213632419E+002  0.656591354433745E-001  0.000000000000000E+000 -0.156550606816210E+002
  0.156916493933611E-001  0.427326437435860E+002  0.487186439902269E-001  0.000000000000000E+000 -0.220915084806952E+002
  0.156916493933611E-001  0.315128447191932E+002  0.799583558237127E-001  0.000000000000000E+000 -0.162145677255337E+002
  0.156916493933611E-001  0.372322594048385E+002  0.656625183898449E-001  0.000000000000000E+000 -0.190742750683564E+002
  0.156916493933611E-001  0.338884995883931E+002  0.660742079688350E-001  0.000000000000000E+000 -0.174023951601336E+002
  0.156916493933611E-001  0.407588468135315E+002  0.765951277781217E-001  0.000000000000000E+000 -0.211046100156680E+002
  0.156916493933611E-001  0.326047018400917E+002  0.799041602694130E-001  0.000000000000000E+000 -0.167604962859830E+002
  0.156916493933611E-001  0.407330015710127E+002  0.408316912651359E-001  0.000000000000000E+000 -0.210916873944085E+002
  0.156916493933611E-001  0.408412690578223E+002  0.433996133501571E-001  0.000000000000000E+000 -0.211458211378134E+002
  0.156916493933611E-001  0.393896826888755E+002  0.764692594812124E-001  0.000000000000000E+000 -0.201529867103748E+002
  0.156916493933611E-001  0.329418163190443E+002  0.692589244023255E-001  0.000000000000000E+000 -0.169290535254592E+002
  0.156916493933611E-001  0.489196933738673E+002  0.753660237537342E-001  0.000000000000000E+000 -0.254399807749724E+002
  0.156916493933611E-001  0.329747389634233E+002  0.692516720279404E-001  0.000000000000000E+000 -0.169455148476488E+002
  0.156916493933611E-001  0.394982722228309E+002  0.777757268790325E-001  0.000000000000000E+000 -0.202072814773525E+002
  0.156916493933611E-001  0.358302363168197E+002  0.820520657375608E-001  0.000000000000000E+000 -0.183732635243469E+002
  0.156916493933611E-001  0.361428467082388E+002  0.751205763128694E-001  0.000000000000000E+000 -0.185295687200565E+002
  0.156916493933611E-001  0.410927101778780E+002  0.644263675122227E-001  0.000000000000000E+000 -0.212715416978412E+002
  0.156916493933611E-001  0.365541965056276E+002  0.663706175629253E-001  0.000000000000000E+000 -0.187352436187509E+002
  0.156916493933611E-001  0.458855501788135E+002  0.356897130915870E-001  0.000000000000000E+000 -0.236679616983090E+002
  0.156916493933611E-001  0.400713769094070E+002  0.578308332771848E-001  0.000000000000000E+000 -0.207608750636057E+002
  0.156916493933611E-001  0.489810337687175E+002  0.652435245574357E-002  0.000000000000000E+000 -0.254706509723975E+002
  0.156916493933611E-001  0.459697413920073E+002  0.791255009074920E-001  0.000000000000000E+000 -0.237100573049059E+002
  0.156916493933611E-001  0.366354827285025E+002  0.681961158162874E-001  0.000000000000000E+000 -0.187758867301883E+002
  0.156916493933611E-001  0.398668376734669E+002  0.663713123007299E-001  0.000000000000000E+000 -0.203915642026705E+002
  0.156916493933611E-001  0.439037093195494E+002  0.413498099355031E-001  0.000000000000000E+000 -0.226770412686769E+002
  0.156916493933611E-001  0.475456743352915E+002  0.300339129206158E-001  0.000000000000000E+000 -0.247529712556845E+002
  0.156916493933611E-001  0.426328863503585E+002  0.734062421548243E-001  0.000000000000000E+000 -0.220416297840815E+002
  0.156916493933611E-001  0.437106429208562E+002  0.474853211476174E-001  0.000000000000000E+000 -0.225805080693303E+002
  0.156916493933611E-001  0.350002574033481E+002  0.656447106889230E-001  0.000000000000000E+000 -0.179582740676111E+002
  0.156916493933611E-001  0.400062432747405E+002  0.751177999729212E-001  0.000000000000000E+000 -0.207283082462725E+002
  0.156916493933611E-001  0.353986327572720E+002  0.820520657329404E-001  0.000000000000000E+000 -0.181574617445731E+002
  0.156916493933611E-001  0.413396109203870E+002  0.751369888964522E-001  0.000000000000000E+000 -0.213949920690957E+002
  0.156916493933611E-001  0.387637879301913E+002  0.738644428459047E-001  0.000000000000000E+000 -0.198400393310327E+002
  0.156916493933611E-001  0.466210753537626E+002  0.230975793459986E-001  0.000000000000000E+000 -0.242906717649200E+002
  0.156916493933611E-001  0.399898794083018E+002  0.438004299967931E-001  0.000000000000000E+000 -0.207201263130531E+002
  0.156916493933611E-001  0.445395255959051E+002  0.265679198567477E-001  0.000000000000000E+000 -0.229949494068547E+002
  0.156916493933611E-001  0.490185490274017E+002  0.807652475151217E-002  0.000000000000000E+000 -0.254894086017396E+002
  0.156916493933611E-001  0.445400677511291E+002  0.684787238998622E-001  0.000000000000000E+000 -0.229952204844668E+002
  0.156916493933611E-001  0.301984902913673E+002  0.665448477305920E-001  0.000000000000000E+000 -0.150992451456837E+002
