  0.234698208818827E-001  0.282008013876801E+002  0.102970471801380E+000  0.000000000000000E+000 -0.141004006938400E+002
  0.234698208818827E-001  0.443046195626712E+002  0.323578221889427E-001  0.000000000000000E+000 -0.241954693791653E+002
  0.234698208818827E-001  0.408496998159242E+002  0.102983978663139E+000  0.000000000000000E+000 -0.218250548602535E+002
  0.234698208818827E-001  0.368644932859317E+002  0.116074599400398E+000  0.000000000000000E+000 -0.195095791244246E+002
  0.234698208818827E-001  0.468634455539467E+002  0.784833298499617E-002  0.000000000000000E+000 -0.254748823748030E+002
  0.234698208818827E-001  0.359532718618204E+002  0.102983961654649E+000  0.000000000000000E+000 -0.179766359309102E+002
  0.234698208818827E-001  0.308602632302691E+002  0.102970471801182E+000  0.000000000000000E+000 -0.154301316151346E+002
  0.234698208818827E-001  0.276863192011240E+002  0.103059436849108E+000  0.000000000000000E+000 -0.138431596005620E+002
  0.234698208818827E-001  0.482662560327871E+002  0.652609811856550E-001  0.000000000000000E+000 -0.261762876142232E+002
  0.234698208818827E-001  0.464995231419715E+002  0.431043849255600E-002  0.000000000000000E+000 -0.252929211688154E+002
  0.234698208818827E-001  0.369911453595933E+002  0.101696370164598E+000  0.000000000000000E+000 -0.195729051612554E+002
  0.234698208818827E-001  0.364900288194574E+002  0.102969739249926E+000  0.000000000000000E+000 -0.182450144097287E+002
  0.234698208818827E-001  0.271678295757385E+002  0.102969739249926E+000  0.000000000000000E+000 -0.135839147878693E+002
