  0.192315467927002E-001  0.300069898735625E+002  0.129372584887923E+000  0.000000000000000E+000 -0.150034949367812E+002
  0.192315467927002E-001  0.345770694462570E+002  0.138748868017175E+000  0.000000000000000E+000 -0.182155860230296E+002
  0.192315467927002E-001  0.408204617628543E+002  0.990329946313697E-001  0.000000000000000E+000 -0.221816641405747E+002
  0.192315467927002E-001  0.312149832106907E+002  0.129370086819776E+000  0.000000000000000E+000 -0.158825147738050E+002
  0.192315467927002E-001  0.334625093826815E+002  0.129372584885217E+000  0.000000000000000E+000 -0.176583059912419E+002
  0.192315467927002E-001  0.384929858866232E+002  0.129337180797013E+000  0.000000000000000E+000 -0.208338157349912E+002
  0.192315467927002E-001  0.316422388825147E+002  0.129560096887990E+000  0.000000000000000E+000 -0.160961426097170E+002
  0.192315467927002E-001  0.332219861640228E+002  0.129372625719572E+000  0.000000000000000E+000 -0.168860162504710E+002
  0.192315467927002E-001  0.347416011535582E+002  0.129372584885218E+000  0.000000000000000E+000 -0.182978518766802E+002
  0.192315467927002E-001  0.305257046950830E+002  0.129370033705572E+000  0.000000000000000E+000 -0.152628523475415E+002
  0.192315467927002E-001  0.457006847224998E+002  0.370124898510132E-001  0.000000000000000E+000 -0.250806197984678E+002
  0.192315467927002E-001  0.305631701260341E+002  0.129373533379326E+000  0.000000000000000E+000 -0.152815850630170E+002
  0.192315467927002E-001  0.356577502402238E+002  0.184900203069892E+000  0.000000000000000E+000 -0.187559264200130E+002
  0.192315467927002E-001  0.460592485815675E+002  0.137384576724064E-001  0.000000000000000E+000 -0.252599017280017E+002
  0.192315467927002E-001  0.366276871754943E+002  0.144810101066545E+000  0.000000000000000E+000 -0.192408948876483E+002
  0.192315467927002E-001  0.280882862866085E+002  0.129372152163443E+000  0.000000000000000E+000 -0.140441431433043E+002
  0.192315467927002E-001  0.275894229516507E+002  0.129372584187624E+000  0.000000000000000E+000 -0.137947114758254E+002
  0.192315467927002E-001  0.275454107996113E+002  0.129372584887922E+000  0.000000000000000E+000 -0.137727053998056E+002
