  0.120599382403035E-001  0.310505249879981E+002  0.106438775291185E+000  0.000000000000000E+000 -0.157883090419474E+002
  0.120599382403035E-001  0.294576142710428E+002  0.106441033519674E+000  0.000000000000000E+000 -0.147288071355214E+002
  0.120599382403035E-001  0.312230450356690E+002  0.106441032926355E+000  0.000000000000000E+000 -0.158745690657829E+002
  0.120599382403035E-001  0.379834623244948E+002  0.108173711273177E+000  0.000000000000000E+000 -0.201293776376004E+002
  0.120599382403035E-001  0.316347364732399E+002  0.106441032926356E+000  0.000000000000000E+000 -0.160804147845684E+002
  0.120599382403035E-001  0.383008429098737E+002  0.128119675798424E+000  0.000000000000000E+000 -0.206109404011226E+002
  0.120599382403035E-001  0.400112249827203E+002  0.140934615567013E+000  0.000000000000000E+000 -0.214661314375459E+002
  0.120599382403035E-001  0.319876909096687E+002  0.106441038498465E+000  0.000000000000000E+000 -0.162568920027827E+002
  0.120599382403035E-001  0.437595711171771E+002  0.135041075502686E-001  0.000000000000000E+000 -0.239832591503125E+002
  0.120599382403035E-001  0.320958323024333E+002  0.106441032955713E+000  0.000000000000000E+000 -0.163109626991650E+002
  0.120599382403035E-001  0.326721696577496E+002  0.106441032955325E+000  0.000000000000000E+000 -0.165991313768232E+002
  0.120599382403035E-001  0.382089953593600E+002  0.106346742732164E+000  0.000000000000000E+000 -0.202421441550330E+002
  0.120599382403035E-001  0.359905716966536E+002  0.108524683551204E+000  0.000000000000000E+000 -0.191329323236798E+002
  0.120599382403035E-001  0.340051472545862E+002  0.106441031726904E+000  0.000000000000000E+000 -0.172656201752415E+002
  0.120599382403035E-001  0.457660046459672E+002  0.615959070604254E-001  0.000000000000000E+000 -0.249864759147076E+002
  0.120599382403035E-001  0.332050781569629E+002  0.106441032955491E+000  0.000000000000000E+000 -0.168655856264299E+002
  0.120599382403035E-001  0.382117424445237E+002  0.103682555467533E+000  0.000000000000000E+000 -0.202435176976149E+002
  0.120599382403035E-001  0.333402862130399E+002  0.106442790737958E+000  0.000000000000000E+000 -0.169331896544683E+002
  0.120599382403035E-001  0.401952970972909E+002  0.130850688581605E+000  0.000000000000000E+000 -0.215581674948311E+002
  0.120599382403035E-001  0.397925738624430E+002  0.131151890587806E+000  0.000000000000000E+000 -0.213568058774072E+002
  0.120599382403035E-001  0.400953007922158E+002  0.101884358720385E+000  0.000000000000000E+000 -0.215081693422936E+002
  0.120599382403035E-001  0.467659938444937E+002  0.380737570559120E-003  0.000000000000000E+000 -0.254864705139708E+002
  0.120599382403035E-001  0.433061834941071E+002  0.940778288175106E-001  0.000000000000000E+000 -0.232977211607072E+002
  0.120599382403035E-001  0.402454266096406E+002  0.103464584544155E+000  0.000000000000000E+000 -0.215832322510060E+002
  0.120599382403035E-001  0.449572019904510E+002  0.563609558217830E-001  0.000000000000000E+000 -0.245820745869495E+002
  0.120599382403035E-001  0.398090458534126E+002  0.118290869357388E+000  0.000000000000000E+000 -0.213650418728920E+002
  0.120599382403035E-001  0.385693455603439E+002  0.117316941947420E+000  0.000000000000000E+000 -0.207451917263576E+002
  0.120599382403035E-001  0.366575888295619E+002  0.108340304434752E+000  0.000000000000000E+000 -0.194664408901340E+002
  0.120599382403035E-001  0.367181339277906E+002  0.111748020288084E+000  0.000000000000000E+000 -0.194967134392483E+002
  0.120599382403035E-001  0.463788951541829E+002  0.431043849255600E-002  0.000000000000000E+000 -0.252929211688154E+002
  0.120599382403035E-001  0.393412457709037E+002  0.129560272641517E+000  0.000000000000000E+000 -0.211311418316376E+002
  0.120599382403035E-001  0.288436332341377E+002  0.106441020595611E+000  0.000000000000000E+000 -0.144218166170688E+002
