  0.156592218708005E-001  0.299792795073171E+002  0.128293504366397E+000  0.000000000000000E+000 -0.149896397536585E+002
  0.156592218708005E-001  0.290895510732008E+002  0.128293504366257E+000  0.000000000000000E+000 -0.145447755366004E+002
  0.156592218708005E-001  0.314268018621564E+002  0.128293504366314E+000  0.000000000000000E+000 -0.157134009310782E+002
  0.156592218708005E-001  0.390328369695315E+002  0.196663119927699E+000  0.000000000000000E+000 -0.213773889282191E+002
  0.156592218708005E-001  0.317434086497970E+002  0.128297987485520E+000  0.000000000000000E+000 -0.163171907868434E+002
  0.156592218708005E-001  0.291724495003109E+002  0.128293504366397E+000  0.000000000000000E+000 -0.145862247501555E+002
  0.156592218708005E-001  0.469077950422217E+002  0.562091666740191E-001  0.000000000000000E+000 -0.259578226101025E+002
  0.156592218708005E-001  0.377252206580743E+002  0.166756856873329E+000  0.000000000000000E+000 -0.207235807724905E+002
  0.156592218708005E-001  0.324753470021498E+002  0.128297987484315E+000  0.000000000000000E+000 -0.166831599630198E+002
  0.156592218708005E-001  0.323148008525547E+002  0.128293506161601E+000  0.000000000000000E+000 -0.166028868882223E+002
  0.156592218708005E-001  0.309867220936654E+002  0.128311500598374E+000  0.000000000000000E+000 -0.159388475087777E+002
  0.156592218708005E-001  0.399281688336003E+002  0.102983978663139E+000  0.000000000000000E+000 -0.218250548602535E+002
  0.156592218708005E-001  0.429586681226418E+002  0.135041075502686E-001  0.000000000000000E+000 -0.239832591503125E+002
  0.156592218708005E-001  0.288386007643826E+002  0.128293504361530E+000  0.000000000000000E+000 -0.144193003821913E+002
  0.156592218708005E-001  0.286596027688326E+002  0.128293504360642E+000  0.000000000000000E+000 -0.143298013844163E+002
