  0.503930908033218E-002  0.322335712830566E+002  0.144932239611170E+000  0.000000000000000E+000 -0.175568953347444E+002
  0.503930908033218E-002  0.328648735928581E+002  0.196663090418135E+000  0.000000000000000E+000 -0.178725464896451E+002
  0.503930908033218E-002  0.302668652761111E+002  0.138760368475016E+000  0.000000000000000E+000 -0.151334326380555E+002
  0.503930908033218E-002  0.305350323611260E+002  0.139604872968961E+000  0.000000000000000E+000 -0.157823258891536E+002
  0.503930908033218E-002  0.331025395936431E+002  0.134956216132592E+000  0.000000000000000E+000 -0.179913794900376E+002
  0.503930908033218E-002  0.332432481841561E+002  0.133519996149486E+000  0.000000000000000E+000 -0.180617337852941E+002
  0.503930908033218E-002  0.369132859175421E+002  0.128293445951503E+000  0.000000000000000E+000 -0.205570241437657E+002
  0.503930908033218E-002  0.303159234594952E+002  0.138760368475037E+000  0.000000000000000E+000 -0.151579617297476E+002
  0.503930908033218E-002  0.337154843669282E+002  0.129372584885218E+000  0.000000000000000E+000 -0.182978518766802E+002
  0.503930908033218E-002  0.370205430228605E+002  0.113888715242557E+000  0.000000000000000E+000 -0.206106526964249E+002
  0.503930908033218E-002  0.452956245902490E+002  0.429192589683110E-002  0.000000000000000E+000 -0.253911481256574E+002
  0.503930908033218E-002  0.346991209680202E+002  0.133498946159693E+000  0.000000000000000E+000 -0.187896701772262E+002
  0.503930908033218E-002  0.306168907894143E+002  0.139968117198167E+000  0.000000000000000E+000 -0.158232551032977E+002
  0.503930908033218E-002  0.311822748404969E+002  0.139651815289125E+000  0.000000000000000E+000 -0.161059471288390E+002
  0.503930908033218E-002  0.355243366267472E+002  0.138748729443131E+000  0.000000000000000E+000 -0.192022780065897E+002
  0.503930908033218E-002  0.382239869995731E+002  0.109317938109534E+000  0.000000000000000E+000 -0.212123746847812E+002
  0.503930908033218E-002  0.346316334535938E+002  0.184900203069892E+000  0.000000000000000E+000 -0.187559264200130E+002
  0.503930908033218E-002  0.317363414589687E+002  0.139651824188222E+000  0.000000000000000E+000 -0.163829804380749E+002
  0.503930908033218E-002  0.320143945043359E+002  0.139651793350686E+000  0.000000000000000E+000 -0.165220069607585E+002
  0.503930908033218E-002  0.374668690999932E+002  0.129337180797013E+000  0.000000000000000E+000 -0.208338157349912E+002
  0.503930908033218E-002  0.422436351980618E+002  0.193976926164402E-001  0.000000000000000E+000 -0.238651534295638E+002
  0.503930908033218E-002  0.343808529413493E+002  0.129372584885218E+000  0.000000000000000E+000 -0.186305361638907E+002
  0.503930908033218E-002  0.332909672704774E+002  0.133520395727768E+000  0.000000000000000E+000 -0.180855933284548E+002
  0.503930908033218E-002  0.348661543884096E+002  0.133520395727837E+000  0.000000000000000E+000 -0.188731868874209E+002
  0.503930908033218E-002  0.333164378395212E+002  0.144798343142274E+000  0.000000000000000E+000 -0.180983286129767E+002
  0.503930908033218E-002  0.294221781461464E+002  0.138760368475037E+000  0.000000000000000E+000 -0.147110890730732E+002
