  0.833222364886740E-001  0.181526904875738E+002  0.190349030975369E+000  0.000000000000000E+000 -0.933796931566919E+001
  0.833222364886740E-001  0.848069193113539E+001  0.183615611269957E+000  0.000000000000000E+000 -0.424034596556770E+001
  0.833222364886740E-001  0.107340083839776E+002  0.183615606970537E+000  0.000000000000000E+000 -0.536700419198880E+001
  0.833222364886740E-001  0.214367561277911E+002  0.135210319678093E+000  0.000000000000000E+000 -0.124328217507913E+002
  0.833222364886740E-001  0.208642976033461E+002  0.183616465213519E+000  0.000000000000000E+000 -0.112430790178894E+002
  0.833222364886740E-001  0.945826857154440E+001  0.183615212339089E+000  0.000000000000000E+000 -0.472913428577220E+001
  0.833222364886740E-001  0.977214116653660E+001  0.183615611985971E+000  0.000000000000000E+000 -0.488607058326830E+001
  0.833222364886740E-001  0.882353448188140E+001  0.183615212339089E+000  0.000000000000000E+000 -0.441176724094070E+001
  0.833222364886740E-001  0.985606411859712E+001  0.183540145537521E+000  0.000000000000000E+000 -0.492803205929856E+001
  0.833222364886740E-001  0.114463880556622E+002  0.183615212339396E+000  0.000000000000000E+000 -0.572319402783112E+001
  0.833222364886740E-001  0.150154217906705E+002  0.183591317918574E+000  0.000000000000000E+000 -0.750771089533524E+001
  0.833222364886740E-001  0.113346249870509E+002  0.183598917229572E+000  0.000000000000000E+000 -0.566731249352547E+001
  0.833222364886740E-001  0.158564041195767E+002  0.185311830882922E+000  0.000000000000000E+000 -0.818982613167062E+001
  0.833222364886740E-001  0.860399791470150E+001  0.183615212339090E+000  0.000000000000000E+000 -0.430199895735075E+001
  0.833222364886740E-001  0.115907771865634E+002  0.183539283266080E+000  0.000000000000000E+000 -0.579538859328168E+001
  0.833222364886740E-001  0.117501315736694E+002  0.183195620170466E+000  0.000000000000000E+000 -0.587506578683471E+001
  0.833222364886740E-001  0.159923346082418E+002  0.185312391128215E+000  0.000000000000000E+000 -0.825779137600315E+001
  0.833222364886740E-001  0.777509472124659E+001  0.183615611628513E+000  0.000000000000000E+000 -0.388754736062330E+001
