  0.543235299925522E-001  0.193009278542586E+002  0.142444181073095E+000  0.000000000000000E+000 -0.106228749145493E+002
  0.543235299925522E-001  0.886531965445754E+001  0.124235270049191E+000  0.000000000000000E+000 -0.443265982722877E+001
  0.543235299925522E-001  0.154556645211777E+002  0.122270443810363E+000  0.000000000000000E+000 -0.819621689219770E+001
  0.543235299925522E-001  0.139776145185714E+002  0.120618581706830E+000  0.000000000000000E+000 -0.745719189089454E+001
  0.543235299925522E-001  0.231240471760318E+002  0.701170303012330E-001  0.000000000000000E+000 -0.130299253876738E+002
  0.543235299925522E-001  0.194509281419516E+002  0.123791516027830E+000  0.000000000000000E+000 -0.106978750583958E+002
  0.543235299925522E-001  0.921909438426581E+001  0.124026699946294E+000  0.000000000000000E+000 -0.460954719213291E+001
  0.543235299925522E-001  0.146794452351569E+002  0.121121786711840E+000  0.000000000000000E+000 -0.780810724918732E+001
  0.543235299925522E-001  0.298272399193520E+002  0.138554634638694E+000  0.000000000000000E+000 -0.163815217593339E+002
  0.543235299925522E-001  0.150091756888039E+002  0.119486695473419E+000  0.000000000000000E+000 -0.797297247601080E+001
  0.543235299925522E-001  0.299302516607334E+002  0.829928991190744E-001  0.000000000000000E+000 -0.164330276300246E+002
  0.543235299925522E-001  0.151739825230938E+002  0.119483344411000E+000  0.000000000000000E+000 -0.805537589315575E+001
  0.543235299925522E-001  0.195497070320803E+002  0.145607330004870E+000  0.000000000000000E+000 -0.107472645034602E+002
  0.543235299925522E-001  0.101183101870329E+002  0.122184149003627E+000  0.000000000000000E+000 -0.505915509351646E+001
  0.543235299925522E-001  0.135889966230410E+002  0.119486695476121E+000  0.000000000000000E+000 -0.726288294312935E+001
  0.543235299925522E-001  0.213343266096155E+002  0.124359729975037E+000  0.000000000000000E+000 -0.116395742922278E+002
  0.543235299925522E-001  0.195499727578267E+002  0.117909113830528E+000  0.000000000000000E+000 -0.107473973663334E+002
  0.543235299925522E-001  0.197661141697954E+002  0.111158445449080E+000  0.000000000000000E+000 -0.108554680723177E+002
  0.543235299925522E-001  0.115692665113933E+002  0.122184149325813E+000  0.000000000000000E+000 -0.578463325569667E+001
  0.543235299925522E-001  0.145460294025418E+002  0.119747771142828E+000  0.000000000000000E+000 -0.774139933287975E+001
  0.543235299925522E-001  0.234619420483215E+002  0.167589378476849E+000  0.000000000000000E+000 -0.131988728238187E+002
  0.543235299925522E-001  0.168984661778730E+002  0.116113477751192E+000  0.000000000000000E+000 -0.891761772054534E+001
  0.543235299925522E-001  0.129958584938813E+002  0.117853564005815E+000  0.000000000000000E+000 -0.696631387854948E+001
  0.543235299925522E-001  0.148040617310078E+002  0.119757048101808E+000  0.000000000000000E+000 -0.787041549711276E+001
  0.543235299925522E-001  0.194433050528083E+002  0.124514096337611E+000  0.000000000000000E+000 -0.101900371580130E+002
  0.543235299925522E-001  0.231799729974864E+002  0.279086913307659E+000  0.000000000000000E+000 -0.130578882984011E+002
  0.543235299925522E-001  0.176521918065077E+002  0.120896837122373E+000  0.000000000000000E+000 -0.929448053486268E+001
  0.543235299925522E-001  0.126059443225073E+002  0.121376824341401E+000  0.000000000000000E+000 -0.677135679286252E+001
  0.543235299925522E-001  0.237748508468029E+002  0.539011748653242E-001  0.000000000000000E+000 -0.133553272230594E+002
  0.543235299925522E-001  0.201687845705000E+002  0.128994700591599E+000  0.000000000000000E+000 -0.110568032726700E+002
  0.543235299925522E-001  0.924610261967607E+001  0.122764294833637E+000  0.000000000000000E+000 -0.462305130983803E+001
  0.543235299925522E-001  0.146646733361173E+002  0.111588189178187E+000  0.000000000000000E+000 -0.780072129966751E+001
  0.543235299925522E-001  0.135674465104936E+002  0.124026595379004E+000  0.000000000000000E+000 -0.725210788685567E+001
  0.543235299925522E-001  0.137990940053899E+002  0.119489282265133E+000  0.000000000000000E+000 -0.736793163430378E+001
  0.543235299925522E-001  0.124560145321513E+002  0.122184149266457E+000  0.000000000000000E+000 -0.622800726607567E+001
  0.543235299925522E-001  0.122988895497097E+002  0.122764294937106E+000  0.000000000000000E+000 -0.614944477485486E+001
  0.543235299925522E-001  0.124389816857439E+002  0.121379972893063E+000  0.000000000000000E+000 -0.668787547448081E+001
  0.543235299925522E-001  0.805056230151794E+001  0.124026699946303E+000  0.000000000000000E+000 -0.402528115075897E+001
