  0.854613303018860E-001  0.310468695143832E+002  0.306226110781160E-002  0.000000000000000E+000 -0.162009742867790E+002
  0.854613303018860E-001  0.235105644424077E+002  0.135210319678093E+000  0.000000000000000E+000 -0.124328217507913E+002
  0.854613303018860E-001  0.153464086276233E+002  0.892698356972387E-001  0.000000000000000E+000 -0.767320431381165E+001
  0.854613303018860E-001  0.114867918339487E+002  0.904890433979614E-001  0.000000000000000E+000 -0.574339591697433E+001
  0.854613303018860E-001  0.269584167770889E+002  0.619010559698175E-001  0.000000000000000E+000 -0.141567479181319E+002
  0.854613303018860E-001  0.180650288285807E+002  0.886680106837964E-001  0.000000000000000E+000 -0.918934319371785E+001
  0.854613303018860E-001  0.123203499414267E+002  0.892698356981158E-001  0.000000000000000E+000 -0.616017497071336E+001
  0.854613303018860E-001  0.163873929570578E+002  0.540857531236029E-001  0.000000000000000E+000 -0.819369647852890E+001
  0.854613303018860E-001  0.115961867136939E+002  0.916593898234176E-001  0.000000000000000E+000 -0.579809335684694E+001
  0.854613303018860E-001  0.243353246024173E+002  0.963672667750299E-001  0.000000000000000E+000 -0.128452018307961E+002
  0.854613303018860E-001  0.200127566829278E+002  0.811021200135636E-001  0.000000000000000E+000 -0.101632071208914E+002
  0.854613303018860E-001  0.171667499218221E+002  0.787334397991914E-001  0.000000000000000E+000 -0.858337496091106E+001
  0.854613303018860E-001  0.255293805332886E+002  0.699441733134134E-001  0.000000000000000E+000 -0.134422297962317E+002
  0.854613303018860E-001  0.267594962863503E+002  0.109142321304918E+000  0.000000000000000E+000 -0.140572876727626E+002
  0.854613303018860E-001  0.965071758392352E+001  0.891820412412472E-001  0.000000000000000E+000 -0.482535879196176E+001
