  0.238177285700544E-001  0.124991880042146E+002  0.162691529901064E+000  0.000000000000000E+000 -0.624959400210731E+001
  0.238177285700544E-001  0.144074980095541E+002  0.162687735374222E+000  0.000000000000000E+000 -0.720374900477704E+001
  0.238177285700544E-001  0.204514895963903E+002  0.150675487165622E+000  0.000000000000000E+000 -0.124306031115968E+002
  0.238177285700544E-001  0.147468984991214E+002  0.162691530106269E+000  0.000000000000000E+000 -0.737344924956069E+001
  0.238177285700544E-001  0.239037792094606E+002  0.619010559698175E-001  0.000000000000000E+000 -0.141567479181319E+002
  0.238177285700544E-001  0.113063812627197E+002  0.162691529901063E+000  0.000000000000000E+000 -0.565319063135987E+001
  0.238177285700544E-001  0.211758610163911E+002  0.535637661733314E-001  0.000000000000000E+000 -0.127927888215972E+002
  0.238177285700544E-001  0.103139816315812E+002  0.162691529754187E+000  0.000000000000000E+000 -0.515699081579060E+001
  0.238177285700544E-001  0.136675960411677E+002  0.162691530103253E+000  0.000000000000000E+000 -0.683379802058387E+001
  0.238177285700544E-001  0.226782479886097E+002  0.382631390254747E-001  0.000000000000000E+000 -0.135439823077065E+002
  0.238177285700544E-001  0.218261430627792E+002  0.275308773038499E-001  0.000000000000000E+000 -0.131179298447912E+002
  0.238177285700544E-001  0.240879850936345E+002  0.117627084290892E+000  0.000000000000000E+000 -0.142488508602189E+002
  0.238177285700544E-001  0.234754248929975E+002  0.129754490267567E+000  0.000000000000000E+000 -0.139425707599004E+002
  0.238177285700544E-001  0.156646042068838E+002  0.162689958361636E+000  0.000000000000000E+000 -0.783230210344188E+001
  0.238177285700544E-001  0.155158962184090E+002  0.162691530106269E+000  0.000000000000000E+000 -0.775794810920448E+001
  0.238177285700544E-001  0.945387738502010E+001  0.162691529902082E+000  0.000000000000000E+000 -0.472693869251005E+001
