  0.257628634811972E-001  0.268196922909400E+002  0.291626781297454E-001  0.000000000000000E+000 -0.152243083641686E+002
  0.257628634811972E-001  0.175107994975620E+002  0.107229217061500E+000  0.000000000000000E+000 -0.904636052150585E+001
  0.257628634811972E-001  0.116145082834919E+002  0.108216673213662E+000  0.000000000000000E+000 -0.580725414174593E+001
  0.257628634811972E-001  0.213340431942062E+002  0.111076085322654E+000  0.000000000000000E+000 -0.119859930035638E+002
  0.257628634811972E-001  0.188901770339128E+002  0.108230703940629E+000  0.000000000000000E+000 -0.973604928968126E+001
  0.257628634811972E-001  0.212367190641854E+002  0.135210319678093E+000  0.000000000000000E+000 -0.124328217507913E+002
  0.257628634811972E-001  0.248123024209362E+002  0.272594965913286E-001  0.000000000000000E+000 -0.142206134291667E+002
  0.257628634811972E-001  0.212535017598422E+002  0.164866108955382E+000  0.000000000000000E+000 -0.124412130986197E+002
  0.257628634811972E-001  0.192839414021081E+002  0.108872573469738E+000  0.000000000000000E+000 -0.993293147377890E+001
  0.257628634811972E-001  0.291637431010669E+002  0.546436207195668E-001  0.000000000000000E+000 -0.163963337692321E+002
  0.257628634811972E-001  0.189250078417847E+002  0.130808257646313E+000  0.000000000000000E+000 -0.107814753273531E+002
  0.257628634811972E-001  0.108102356974569E+002  0.108216664171000E+000  0.000000000000000E+000 -0.540511784872844E+001
  0.257628634811972E-001  0.212757482794832E+002  0.106689837854165E+000  0.000000000000000E+000 -0.119568455462024E+002
  0.257628634811972E-001  0.270708611410238E+002  0.355416540523684E-001  0.000000000000000E+000 -0.153498927892105E+002
  0.257628634811972E-001  0.108877791945029E+002  0.108967901592002E+000  0.000000000000000E+000 -0.544388959725143E+001
  0.257628634811972E-001  0.219566532057971E+002  0.535637661733314E-001  0.000000000000000E+000 -0.127927888215972E+002
  0.257628634811972E-001  0.197306120672228E+002  0.107308570680119E+000  0.000000000000000E+000 -0.101562668063363E+002
  0.257628634811972E-001  0.191430680358586E+002  0.106649015408200E+000  0.000000000000000E+000 -0.108905054243900E+002
  0.257628634811972E-001  0.264862612513151E+002  0.318658754786798E-001  0.000000000000000E+000 -0.150575928443561E+002
  0.257628634811972E-001  0.259144392020951E+002  0.841426035085900E-001  0.000000000000000E+000 -0.147716818197462E+002
  0.257628634811972E-001  0.275954726471592E+002  0.224888233282766E+000  0.000000000000000E+000 -0.156121985422782E+002
  0.257628634811972E-001  0.222533707322727E+002  0.116490502414591E+000  0.000000000000000E+000 -0.129411475848350E+002
  0.257628634811972E-001  0.295888681366352E+002  0.679404806441616E-002  0.000000000000000E+000 -0.166088962870162E+002
  0.257628634811972E-001  0.169986797617585E+002  0.108230703910596E+000  0.000000000000000E+000 -0.849933988087924E+001
  0.257628634811972E-001  0.297351145644881E+002  0.478618212087595E-001  0.000000000000000E+000 -0.166820195009426E+002
  0.257628634811972E-001  0.214847127559887E+002  0.143538166360521E+000  0.000000000000000E+000 -0.120613277844551E+002
  0.257628634811972E-001  0.230654124966128E+002  0.139191421434925E+000  0.000000000000000E+000 -0.133471684670050E+002
  0.257628634811972E-001  0.201808454815553E+002  0.116672371468429E+000  0.000000000000000E+000 -0.114093941472384E+002
  0.257628634811972E-001  0.227352732625551E+002  0.969834698273252E-001  0.000000000000000E+000 -0.131820988499762E+002
  0.257628634811972E-001  0.230817300087215E+002  0.539011748653242E-001  0.000000000000000E+000 -0.133553272230594E+002
  0.257628634811972E-001  0.302314694621094E+002  0.478189055969304E-001  0.000000000000000E+000 -0.169301969497533E+002
  0.257628634811972E-001  0.148049170897368E+002  0.109873111487889E+000  0.000000000000000E+000 -0.740245854486839E+001
  0.257628634811972E-001  0.224309263379504E+002  0.701170303012330E-001  0.000000000000000E+000 -0.130299253876738E+002
  0.257628634811972E-001  0.227688212102401E+002  0.167589378476849E+000  0.000000000000000E+000 -0.131988728238187E+002
  0.257628634811972E-001  0.106283536643094E+002  0.108230761651999E+000  0.000000000000000E+000 -0.531417683215468E+001
  0.257628634811972E-001  0.102151077393884E+002  0.108216673220208E+000  0.000000000000000E+000 -0.510755386969419E+001
