  0.686270453148006E-002  0.140723600209279E+002  0.151917289995793E+000  0.000000000000000E+000 -0.703618001046397E+001
  0.686270453148006E-002  0.200773250507824E+002  0.990651123914403E-001  0.000000000000000E+000 -0.124154991601665E+002
  0.686270453148006E-002  0.174830581840238E+002  0.142444181073095E+000  0.000000000000000E+000 -0.106228749145493E+002
  0.686270453148006E-002  0.176330584717168E+002  0.123791516027830E+000  0.000000000000000E+000 -0.106978750583958E+002
  0.686270453148006E-002  0.128800905461270E+002  0.151920750805194E+000  0.000000000000000E+000 -0.644004527306349E+001
  0.686270453148006E-002  0.201119702320320E+002  0.135210319678093E+000  0.000000000000000E+000 -0.124328217507913E+002
  0.686270453148006E-002  0.145095615462019E+002  0.148986677419230E+000  0.000000000000000E+000 -0.786297843526319E+001
  0.686270453148006E-002  0.201287529276888E+002  0.164866108955382E+000  0.000000000000000E+000 -0.124412130986197E+002
  0.686270453148006E-002  0.226400585855966E+002  0.338066357993447E-001  0.000000000000000E+000 -0.136968659275736E+002
  0.686270453148006E-002  0.166293954360823E+002  0.142847257432128E+000  0.000000000000000E+000 -0.985652889107152E+001
  0.686270453148006E-002  0.149657997194981E+002  0.151609487851295E+000  0.000000000000000E+000 -0.902473103277941E+001
  0.686270453148006E-002  0.226101493413830E+002  0.588314465877925E-001  0.000000000000000E+000 -0.136819113054668E+002
  0.686270453148006E-002  0.234360053815612E+002  0.515251400431840E-001  0.000000000000000E+000 -0.140948393255559E+002
  0.686270453148006E-002  0.168693104510342E+002  0.138060447251101E+000  0.000000000000000E+000 -0.997648639854747E+001
  0.686270453148006E-002  0.150739804603968E+002  0.137809534590961E+000  0.000000000000000E+000 -0.907882140322875E+001
  0.686270453148006E-002  0.202447691603997E+002  0.136627498905185E+000  0.000000000000000E+000 -0.124992212149751E+002
  0.686270453148006E-002  0.146687501775799E+002  0.151632461369255E+000  0.000000000000000E+000 -0.794257275095221E+001
  0.686270453148006E-002  0.209171223005474E+002  0.107427372012189E+000  0.000000000000000E+000 -0.123399069728111E+002
  0.686270453148006E-002  0.169641469977090E+002  0.142444906816910E+000  0.000000000000000E+000 -0.100239046718849E+002
  0.686270453148006E-002  0.239241626025373E+002  0.485475927473829E-001  0.000000000000000E+000 -0.143389179360439E+002
  0.686270453148006E-002  0.179725330476460E+002  0.106369483108707E+000  0.000000000000000E+000 -0.108676123463604E+002
  0.686270453148006E-002  0.258752035654925E+002  0.478641242696189E-001  0.000000000000000E+000 -0.153144384175216E+002
  0.686270453148006E-002  0.165492918257089E+002  0.136319256339153E+000  0.000000000000000E+000 -0.981647708588480E+001
  0.686270453148006E-002  0.182270829596287E+002  0.141835510600374E+000  0.000000000000000E+000 -0.109948873023518E+002
  0.686270453148006E-002  0.156801975612596E+002  0.141750222178432E+000  0.000000000000000E+000 -0.938192995366016E+001
  0.686270453148006E-002  0.173440013030164E+002  0.146898620947027E+000  0.000000000000000E+000 -0.102138318245385E+002
  0.686270453148006E-002  0.173803575062308E+002  0.135128661265589E+000  0.000000000000000E+000 -0.102320099261458E+002
  0.686270453148006E-002  0.148837789639859E+002  0.150694872434482E+000  0.000000000000000E+000 -0.805008714415520E+001
  0.686270453148006E-002  0.226490550044080E+002  0.113257165561126E+000  0.000000000000000E+000 -0.137013641369793E+002
  0.686270453148006E-002  0.155080663412793E+002  0.138060447251577E+000  0.000000000000000E+000 -0.929586434367002E+001
  0.686270453148006E-002  0.291067206299560E+002  0.478189055969304E-001  0.000000000000000E+000 -0.169301969497533E+002
  0.686270453148006E-002  0.152075635715419E+002  0.150672363395609E+000  0.000000000000000E+000 -0.821197944793320E+001
  0.686270453148006E-002  0.152458450645264E+002  0.129185828339581E+000  0.000000000000000E+000 -0.916475370529357E+001
  0.686270453148006E-002  0.184258581894722E+002  0.120138736398300E+000  0.000000000000000E+000 -0.110942749172736E+002
  0.686270453148006E-002  0.207390821842528E+002  0.100526611606101E+000  0.000000000000000E+000 -0.127463777269017E+002
  0.686270453148006E-002  0.207713852973583E+002  0.165537505229398E+000  0.000000000000000E+000 -0.127625292834545E+002
  0.686270453148006E-002  0.176137774417388E+002  0.128617751763090E+000  0.000000000000000E+000 -0.103487198938997E+002
  0.686270453148006E-002  0.177807783538831E+002  0.142209101920977E+000  0.000000000000000E+000 -0.104322203499719E+002
  0.686270453148006E-002  0.208319043736437E+002  0.535637661733314E-001  0.000000000000000E+000 -0.127927888215972E+002
  0.686270453148006E-002  0.272371582671554E+002  0.100065320420194E+000  0.000000000000000E+000 -0.159954157683530E+002
  0.686270453148006E-002  0.159334759327936E+002  0.131546263829619E+000  0.000000000000000E+000 -0.950856913942713E+001
  0.686270453148006E-002  0.177861123899256E+002  0.151909355858994E+000  0.000000000000000E+000 -0.104348873679932E+002
  0.686270453148006E-002  0.271013189831835E+002  0.190387872352957E-001  0.000000000000000E+000 -0.159274961263671E+002
  0.686270453148006E-002  0.185972804031388E+002  0.124026795819366E+000  0.000000000000000E+000 -0.111799860241068E+002
  0.686270453148006E-002  0.209658680900063E+002  0.650854312583704E-001  0.000000000000000E+000 -0.128597706797785E+002
  0.686270453148006E-002  0.269954791277608E+002  0.128746689734921E-001  0.000000000000000E+000 -0.158745761986557E+002
  0.686270453148006E-002  0.165014890048812E+002  0.143404833734514E+000  0.000000000000000E+000 -0.979257567547095E+001
  0.686270453148006E-002  0.152837241384493E+002  0.151632218485432E+000  0.000000000000000E+000 -0.918369324225499E+001
  0.686270453148006E-002  0.162056525336617E+002  0.151615243358237E+000  0.000000000000000E+000 -0.964465743986121E+001
  0.686270453148006E-002  0.188487434191696E+002  0.112850981375858E+000  0.000000000000000E+000 -0.113057175321222E+002
  0.686270453148006E-002  0.179118668215992E+002  0.140773598823653E+000  0.000000000000000E+000 -0.104977645838300E+002
  0.686270453148006E-002  0.214530307643213E+002  0.603241668248220E-001  0.000000000000000E+000 -0.131033520169359E+002
  0.686270453148006E-002  0.247896903699418E+002  0.841426035085900E-001  0.000000000000000E+000 -0.147716818197462E+002
  0.686270453148006E-002  0.181273888255880E+002  0.132953618465635E+000  0.000000000000000E+000 -0.106055255858244E+002
  0.686270453148006E-002  0.249817340383583E+002  0.152400614706770E+000  0.000000000000000E+000 -0.148677036539545E+002
  0.686270453148006E-002  0.189274290714664E+002  0.115614543531325E+000  0.000000000000000E+000 -0.113450603582706E+002
  0.686270453148006E-002  0.216714549168875E+002  0.993726865291065E-001  0.000000000000000E+000 -0.132125640932190E+002
  0.686270453148006E-002  0.230401428866168E+002  0.353505413231473E-001  0.000000000000000E+000 -0.138969080780837E+002
  0.686270453148006E-002  0.266936479190728E+002  0.222135773937717E-001  0.000000000000000E+000 -0.157236605943117E+002
  0.686270453148006E-002  0.218781916442376E+002  0.175041427059512E+000  0.000000000000000E+000 -0.133159324568941E+002
  0.686270453148006E-002  0.190560966494019E+002  0.116672371468429E+000  0.000000000000000E+000 -0.114093941472384E+002
  0.686270453148006E-002  0.230365508264734E+002  0.566733306972584E-001  0.000000000000000E+000 -0.138951120480120E+002
  0.686270453148006E-002  0.153097566351280E+002  0.136319256358925E+000  0.000000000000000E+000 -0.919670949059432E+001
  0.686270453148006E-002  0.159496612625654E+002  0.129166064151730E+000  0.000000000000000E+000 -0.951666180431304E+001
  0.686270453148006E-002  0.122746158964870E+002  0.151917293760806E+000  0.000000000000000E+000 -0.613730794824349E+001
  0.686270453148006E-002  0.122217492244931E+002  0.152015953939385E+000  0.000000000000000E+000 -0.611087461224656E+001
