  0.157052074074392E-001  0.115652960911113E+002  0.165284276715607E+000  0.000000000000000E+000 -0.665413269808496E+001
  0.157052074074392E-001  0.106374999271238E+002  0.164843659368422E+000  0.000000000000000E+000 -0.531874996356189E+001
  0.157052074074392E-001  0.230595464388120E+002  0.657245246181598E-001  0.000000000000000E+000 -0.140297764303678E+002
  0.157052074074392E-001  0.215747371235866E+002  0.102805316511206E+000  0.000000000000000E+000 -0.132873717727550E+002
  0.157052074074392E-001  0.165327084498700E+002  0.163768478644685E+000  0.000000000000000E+000 -0.913783887746429E+001
  0.157052074074392E-001  0.204646605841045E+002  0.178157437244330E+000  0.000000000000000E+000 -0.127323335030140E+002
  0.157052074074392E-001  0.141007773104951E+002  0.165272675265921E+000  0.000000000000000E+000 -0.792187330777687E+001
  0.157052074074392E-001  0.110494992589474E+002  0.164843659377783E+000  0.000000000000000E+000 -0.552474962947371E+001
  0.157052074074392E-001  0.121604840326722E+002  0.164214378764899E+000  0.000000000000000E+000 -0.695172666886540E+001
  0.157052074074392E-001  0.184413906625810E+002  0.163767003556286E+000  0.000000000000000E+000 -0.100921799838198E+002
  0.157052074074392E-001  0.188102295400586E+002  0.164543852913441E+000  0.000000000000000E+000 -0.102765994225586E+002
  0.157052074074392E-001  0.254327689774476E+002  0.423763664209157E-001  0.000000000000000E+000 -0.152163876996855E+002
  0.157052074074392E-001  0.143551408222365E+002  0.164791034934789E+000  0.000000000000000E+000 -0.804905506364754E+001
  0.157052074074392E-001  0.261785922785107E+002  0.212025727805873E-001  0.000000000000000E+000 -0.155892993502171E+002
  0.157052074074392E-001  0.283640325799618E+002  0.478618212087595E-001  0.000000000000000E+000 -0.166820195009426E+002
  0.157052074074392E-001  0.137287409340582E+002  0.164214379649140E+000  0.000000000000000E+000 -0.773585511955844E+001
  0.157052074074392E-001  0.215366025949538E+002  0.127835504454211E+000  0.000000000000000E+000 -0.132683045084386E+002
  0.157052074074392E-001  0.151804589079611E+002  0.166456015857059E+000  0.000000000000000E+000 -0.846171410650987E+001
  0.157052074074392E-001  0.155507475905457E+002  0.164214378764333E+000  0.000000000000000E+000 -0.864685844780215E+001
  0.157052074074392E-001  0.859880154890182E+001  0.164998766199380E+000  0.000000000000000E+000 -0.429940077445091E+001
