  0.153903036468469E-001  0.276795241089689E+002  0.190387872352957E-001  0.000000000000000E+000 -0.159274961263671E+002
  0.153903036468469E-001  0.145516649149863E+002  0.107229055464446E+000  0.000000000000000E+000 -0.727583245749313E+001
  0.153903036468469E-001  0.206684598905482E+002  0.164653818991182E+000  0.000000000000000E+000 -0.124219640171567E+002
  0.153903036468469E-001  0.225351863023534E+002  0.539011748653242E-001  0.000000000000000E+000 -0.133553272230594E+002
  0.153903036468469E-001  0.221007529827975E+002  0.219326817509385E+000  0.000000000000000E+000 -0.131381105632814E+002
  0.153903036468469E-001  0.169642557911939E+002  0.107229217061500E+000  0.000000000000000E+000 -0.904636052150585E+001
  0.153903036468469E-001  0.158970240426193E+002  0.107229051714246E+000  0.000000000000000E+000 -0.794851202130967E+001
  0.153903036468469E-001  0.218843826315824E+002  0.701170303012330E-001  0.000000000000000E+000 -0.130299253876738E+002
  0.153903036468469E-001  0.123623735200729E+002  0.107229055464477E+000  0.000000000000000E+000 -0.618118676003647E+001
  0.153903036468469E-001  0.261744082164570E+002  0.128454066532824E+000  0.000000000000000E+000 -0.151749381801111E+002
  0.153903036468469E-001  0.183784641354167E+002  0.130808257646313E+000  0.000000000000000E+000 -0.107814753273531E+002
  0.153903036468469E-001  0.253678954957271E+002  0.841426035085900E-001  0.000000000000000E+000 -0.147716818197462E+002
  0.153903036468469E-001  0.207716218169581E+002  0.106847372703553E+000  0.000000000000000E+000 -0.124735449803617E+002
  0.153903036468469E-001  0.193792501433426E+002  0.105871673677999E+000  0.000000000000000E+000 -0.102538576975802E+002
  0.153903036468469E-001  0.207874994878381E+002  0.111076085322654E+000  0.000000000000000E+000 -0.119859930035638E+002
  0.153903036468469E-001  0.213129775651935E+002  0.903971238445904E-001  0.000000000000000E+000 -0.127442228544794E+002
  0.153903036468469E-001  0.264812055632612E+002  0.310517158111272E-001  0.000000000000000E+000 -0.153283368535132E+002
  0.153903036468469E-001  0.201635435167989E+002  0.111072327632954E+000  0.000000000000000E+000 -0.116740150180442E+002
  0.153903036468469E-001  0.221887295561870E+002  0.969834698273252E-001  0.000000000000000E+000 -0.131820988499762E+002
  0.153903036468469E-001  0.200833177603052E+002  0.108229606638557E+000  0.000000000000000E+000 -0.116339021397974E+002
  0.153903036468469E-001  0.186087893540315E+002  0.130793175380917E+000  0.000000000000000E+000 -0.108966379366605E+002
  0.153903036468469E-001  0.206800832511813E+002  0.123327679437872E+000  0.000000000000000E+000 -0.119322848852354E+002
  0.153903036468469E-001  0.221715841267916E+002  0.610732821261079E-001  0.000000000000000E+000 -0.131735261352784E+002
  0.153903036468469E-001  0.126082626299431E+002  0.107229105536562E+000  0.000000000000000E+000 -0.630413131497157E+001
  0.153903036468469E-001  0.261850888809910E+002  0.736564929534194E-001  0.000000000000000E+000 -0.151802785123781E+002
  0.153903036468469E-001  0.221550029221089E+002  0.300530928829865E-001  0.000000000000000E+000 -0.131652355329371E+002
  0.153903036468469E-001  0.107730336622081E+002  0.105817126195077E+000  0.000000000000000E+000 -0.538651683110407E+001
  0.153903036468469E-001  0.106969036708401E+002  0.107229105536544E+000  0.000000000000000E+000 -0.534845183542005E+001
