  0.233530643611067E-001  0.114290106305146E+002  0.978315490612867E-001  0.000000000000000E+000 -0.571450531525732E+001
  0.233530643611067E-001  0.212545657897211E+002  0.135210319678093E+000  0.000000000000000E+000 -0.124328217507913E+002
  0.233530643611067E-001  0.188051368306091E+002  0.709564933931909E-001  0.000000000000000E+000 -0.108248680444126E+002
  0.233530643611067E-001  0.119202429083418E+002  0.977873878042999E-001  0.000000000000000E+000 -0.596012145417091E+001
  0.233530643611067E-001  0.129500489316970E+002  0.977873878043077E-001  0.000000000000000E+000 -0.647502446584848E+001
  0.233530643611067E-001  0.248070412039518E+002  0.113275573372463E+000  0.000000000000000E+000 -0.142090594579067E+002
  0.233530643611067E-001  0.213169739929869E+002  0.316722050359627E-001  0.000000000000000E+000 -0.124640258524242E+002
  0.233530643611067E-001  0.150857285282914E+002  0.981132175992821E-001  0.000000000000000E+000 -0.788943785442566E+001
  0.233530643611067E-001  0.192089684832134E+002  0.102339738459000E+000  0.000000000000000E+000 -0.103140263335781E+002
  0.233530643611067E-001  0.192741610236886E+002  0.545940422392675E-001  0.000000000000000E+000 -0.110593801409523E+002
  0.233530643611067E-001  0.177777615720999E+002  0.985240505366845E-001  0.000000000000000E+000 -0.959842287802139E+001
  0.233530643611067E-001  0.224487730634861E+002  0.701170303012330E-001  0.000000000000000E+000 -0.130299253876738E+002
  0.233530643611067E-001  0.152352838163436E+002  0.981132173271635E-001  0.000000000000000E+000 -0.796421549845180E+001
  0.233530643611067E-001  0.194963996355858E+002  0.702299526823487E-001  0.000000000000000E+000 -0.111704994469009E+002
  0.233530643611067E-001  0.237826541432857E+002  0.338066357993447E-001  0.000000000000000E+000 -0.136968659275736E+002
  0.233530643611067E-001  0.215497950601945E+002  0.358841460913581E-001  0.000000000000000E+000 -0.121971971592053E+002
  0.233530643611067E-001  0.283074591062406E+002  0.108354941927067E+000  0.000000000000000E+000 -0.159592684090511E+002
  0.233530643611067E-001  0.137565362618425E+002  0.978315492504052E-001  0.000000000000000E+000 -0.687826813092127E+001
  0.233530643611067E-001  0.171378880927622E+002  0.977907886286998E-001  0.000000000000000E+000 -0.891551763666109E+001
  0.233530643611067E-001  0.250667581602263E+002  0.485475927473829E-001  0.000000000000000E+000 -0.143389179360439E+002
  0.233530643611067E-001  0.245132473068584E+002  0.529043638791283E-001  0.000000000000000E+000 -0.140621625093600E+002
  0.233530643611067E-001  0.207467376458786E+002  0.607387404190647E-001  0.000000000000000E+000 -0.117956684520473E+002
  0.233530643611067E-001  0.236387052362806E+002  0.204787573196736E+000  0.000000000000000E+000 -0.136248914740711E+002
  0.233530643611067E-001  0.216551590263938E+002  0.930135068865140E-001  0.000000000000000E+000 -0.126331183691277E+002
  0.233530643611067E-001  0.207610394335498E+002  0.607410888463745E-001  0.000000000000000E+000 -0.118028193458829E+002
  0.233530643611067E-001  0.225008509418608E+002  0.725850524932251E-001  0.000000000000000E+000 -0.130559643268612E+002
  0.233530643611067E-001  0.995197876985613E+001  0.977873878609246E-001  0.000000000000000E+000 -0.497598938492807E+001
