  0.349737854891069E-001  0.998318957152504E+001  0.117853536255115E+000  0.000000000000000E+000 -0.499159478576252E+001
  0.349737854891069E-001  0.190359452088844E+002  0.123320650252859E+000  0.000000000000000E+000 -0.106285102801763E+002
  0.349737854891069E-001  0.114736758917398E+002  0.119757048103139E+000  0.000000000000000E+000 -0.573683794586989E+001
  0.349737854891069E-001  0.106564130082402E+002  0.117853534994746E+000  0.000000000000000E+000 -0.532820650412008E+001
  0.349737854891069E-001  0.251014388603198E+002  0.619010559698175E-001  0.000000000000000E+000 -0.141567479181319E+002
  0.349737854891069E-001  0.191746747653234E+002  0.123791516027830E+000  0.000000000000000E+000 -0.106978750583958E+002
  0.349737854891069E-001  0.100617745232114E+002  0.119747771316559E+000  0.000000000000000E+000 -0.503088726160569E+001
  0.349737854891069E-001  0.181921866661121E+002  0.120510958193285E+000  0.000000000000000E+000 -0.970260465297896E+001
  0.349737854891069E-001  0.248437139619368E+002  0.766898772691161E-001  0.000000000000000E+000 -0.140278854689404E+002
  0.349737854891069E-001  0.142050829248131E+002  0.121121786711840E+000  0.000000000000000E+000 -0.770905278232946E+001
  0.349737854891069E-001  0.222498912159547E+002  0.111403787423343E+000  0.000000000000000E+000 -0.122354832837115E+002
  0.349737854891069E-001  0.187578750221978E+002  0.121548001134121E+000  0.000000000000000E+000 -0.998544883102181E+001
  0.349737854891069E-001  0.192734536554521E+002  0.145607330004870E+000  0.000000000000000E+000 -0.107472645034602E+002
  0.349737854891069E-001  0.181764686084174E+002  0.121321516754930E+000  0.000000000000000E+000 -0.969474562413162E+001
  0.349737854891069E-001  0.218214787584870E+002  0.111084408322088E+000  0.000000000000000E+000 -0.120212770549776E+002
  0.349737854891069E-001  0.162491017880686E+002  0.121373973647730E+000  0.000000000000000E+000 -0.873106221395724E+001
  0.349737854891069E-001  0.125508337916431E+002  0.118627023099226E+000  0.000000000000000E+000 -0.627541689582157E+001
  0.349737854891069E-001  0.194898607931673E+002  0.111158445449080E+000  0.000000000000000E+000 -0.108554680723177E+002
  0.349737854891069E-001  0.126809637032819E+002  0.117853534994746E+000  0.000000000000000E+000 -0.694699317156389E+001
  0.349737854891069E-001  0.228477937994037E+002  0.701170303012330E-001  0.000000000000000E+000 -0.130299253876738E+002
  0.349737854891069E-001  0.241816748792033E+002  0.338066357993447E-001  0.000000000000000E+000 -0.136968659275736E+002
  0.349737854891069E-001  0.120271196279438E+002  0.117853534994746E+000  0.000000000000000E+000 -0.662007113389483E+001
  0.349737854891069E-001  0.249561528916503E+002  0.533027007559815E-001  0.000000000000000E+000 -0.140841049337971E+002
  0.349737854891069E-001  0.135228406287617E+002  0.119489282265133E+000  0.000000000000000E+000 -0.736793163430378E+001
  0.349737854891069E-001  0.109800074798042E+002  0.119759117829066E+000  0.000000000000000E+000 -0.549000373990209E+001
  0.349737854891069E-001  0.160545300225677E+002  0.120510462518991E+000  0.000000000000000E+000 -0.863377633120676E+001
  0.349737854891069E-001  0.127431034622687E+002  0.120300865360220E+000  0.000000000000000E+000 -0.697806305105728E+001
  0.349737854891069E-001  0.165432593684653E+002  0.111588189711148E+000  0.000000000000000E+000 -0.887814100415556E+001
  0.349737854891069E-001  0.285350102003808E+002  0.893212915943791E-001  0.000000000000000E+000 -0.158735335881624E+002
  0.349737854891069E-001  0.198925311938718E+002  0.128994700591599E+000  0.000000000000000E+000 -0.110568032726700E+002
  0.349737854891069E-001  0.229037196208583E+002  0.279086913307659E+000  0.000000000000000E+000 -0.130578882984011E+002
  0.349737854891069E-001  0.166378994313353E+002  0.120426012660045E+000  0.000000000000000E+000 -0.892546103559057E+001
  0.349737854891069E-001  0.272365597523932E+002  0.291626781297454E-001  0.000000000000000E+000 -0.152243083641686E+002
  0.349737854891069E-001  0.172546447030418E+002  0.112852891101301E+000  0.000000000000000E+000 -0.923383367144383E+001
  0.349737854891069E-001  0.115797130524811E+002  0.120453380217320E+000  0.000000000000000E+000 -0.639636784616347E+001
  0.349737854891069E-001  0.128610227238206E+002  0.122184149403921E+000  0.000000000000000E+000 -0.703702268183322E+001
  0.349737854891069E-001  0.144993399476673E+002  0.120710020022576E+000  0.000000000000000E+000 -0.785618129375659E+001
  0.349737854891069E-001  0.223370719996329E+002  0.103483558736038E+000  0.000000000000000E+000 -0.127745644877884E+002
  0.349737854891069E-001  0.908445758837390E+001  0.119747771180116E+000  0.000000000000000E+000 -0.454222879418695E+001
