  0.184171748748888E-001  0.103426300106023E+002  0.150844099200664E+000  0.000000000000000E+000 -0.517131500530115E+001
  0.184171748748888E-001  0.203957787819010E+002  0.990651123914403E-001  0.000000000000000E+000 -0.124154991601665E+002
  0.184171748748888E-001  0.126739829740543E+002  0.150672362872348E+000  0.000000000000000E+000 -0.633699148702715E+001
  0.184171748748888E-001  0.119668117531444E+002  0.150844099200772E+000  0.000000000000000E+000 -0.598340587657219E+001
  0.184171748748888E-001  0.210267286534666E+002  0.111403787423343E+000  0.000000000000000E+000 -0.122354832837115E+002
  0.184171748748888E-001  0.172826007288276E+002  0.142444906816910E+000  0.000000000000000E+000 -0.100239046718849E+002
  0.184171748748888E-001  0.240060073199014E+002  0.272594965913286E-001  0.000000000000000E+000 -0.142206134291667E+002
  0.184171748748888E-001  0.294251743610745E+002  0.478189055969304E-001  0.000000000000000E+000 -0.169301969497533E+002
  0.184171748748888E-001  0.948371454324380E+001  0.150663975535035E+000  0.000000000000000E+000 -0.474185727162190E+001
  0.184171748748888E-001  0.217714844954398E+002  0.603241668248220E-001  0.000000000000000E+000 -0.131033520169359E+002
  0.184171748748888E-001  0.176624550341349E+002  0.146898620947027E+000  0.000000000000000E+000 -0.102138318245385E+002
  0.184171748748888E-001  0.152409924439196E+002  0.151917293788961E+000  0.000000000000000E+000 -0.806946701856277E+001
  0.184171748748888E-001  0.182909867787646E+002  0.106369483108707E+000  0.000000000000000E+000 -0.108676123463604E+002
  0.184171748748888E-001  0.174598669611882E+002  0.136319256360218E+000  0.000000000000000E+000 -0.101125377880652E+002
  0.184171748748888E-001  0.205632228915182E+002  0.136627498905185E+000  0.000000000000000E+000 -0.124992212149751E+002
  0.184171748748888E-001  0.835514895911861E+001  0.150844099200666E+000  0.000000000000000E+000 -0.417757447955931E+001
