  0.245296108612943E-001  0.101025126316677E+002  0.130877068428907E+000  0.000000000000000E+000 -0.505125631583384E+001
  0.245296108612943E-001  0.960643925191228E+001  0.130795103559084E+000  0.000000000000000E+000 -0.480321962595614E+001
  0.245296108612943E-001  0.156915753398509E+002  0.126473975236320E+000  0.000000000000000E+000 -0.891976443409016E+001
  0.245296108612943E-001  0.146752234766235E+002  0.128316633907236E+000  0.000000000000000E+000 -0.841158850247648E+001
  0.245296108612943E-001  0.280049862122475E+002  0.100065320420194E+000  0.000000000000000E+000 -0.159954157683530E+002
  0.245296108612943E-001  0.132110668512642E+002  0.129989244651426E+000  0.000000000000000E+000 -0.767951018979680E+001
  0.245296108612943E-001  0.209188273924220E+002  0.106689837854165E+000  0.000000000000000E+000 -0.119568455462024E+002
  0.245296108612943E-001  0.157063459826428E+002  0.138060447251101E+000  0.000000000000000E+000 -0.901109019180568E+001
  0.245296108612943E-001  0.173484574858173E+002  0.129039902891014E+000  0.000000000000000E+000 -0.983214594339295E+001
  0.245296108612943E-001  0.218964498452114E+002  0.116490502414591E+000  0.000000000000000E+000 -0.129411475848350E+002
  0.245296108612943E-001  0.204743630021824E+002  0.152184847851722E+000  0.000000000000000E+000 -0.117346133510826E+002
  0.245296108612943E-001  0.159347551456426E+002  0.143404833734392E+000  0.000000000000000E+000 -0.912529477330558E+001
  0.245296108612943E-001  0.292319472495739E+002  0.679404806441616E-002  0.000000000000000E+000 -0.166088962870162E+002
  0.245296108612943E-001  0.185704001499228E+002  0.146978010038906E+000  0.000000000000000E+000 -0.104431172754457E+002
  0.245296108612943E-001  0.139912457608083E+002  0.143404852109483E+000  0.000000000000000E+000 -0.806959964456889E+001
  0.245296108612943E-001  0.246919905476294E+002  0.485475927473829E-001  0.000000000000000E+000 -0.143389179360439E+002
  0.245296108612943E-001  0.135194173756837E+002  0.140914627578577E+000  0.000000000000000E+000 -0.783368545200655E+001
  0.245296108612943E-001  0.831529028963288E+001  0.130877068833225E+000  0.000000000000000E+000 -0.415764514481644E+001
