  0.475958776406812E-001  0.114141802352592E+002  0.165274235525569E+000  0.000000000000000E+000 -0.570709011762960E+001
  0.475958776406812E-001  0.228394628163896E+002  0.139191421434925E+000  0.000000000000000E+000 -0.133471684670050E+002
  0.475958776406812E-001  0.127104283954143E+002  0.165284276715607E+000  0.000000000000000E+000 -0.665413269808496E+001
  0.475958776406812E-001  0.223812767576641E+002  0.124968404899578E+000  0.000000000000000E+000 -0.131180754376423E+002
  0.475958776406812E-001  0.235517027922560E+002  0.650022519481887E-001  0.000000000000000E+000 -0.137032884549382E+002
  0.475958776406812E-001  0.130904052444247E+002  0.165345660263110E+000  0.000000000000000E+000 -0.684412112259017E+001
  0.475958776406812E-001  0.140659210305749E+002  0.165345757819762E+000  0.000000000000000E+000 -0.733187901566527E+001
  0.475958776406812E-001  0.999829735719486E+001  0.165693219789858E+000  0.000000000000000E+000 -0.499914867859743E+001
  0.475958776406812E-001  0.143480104929887E+002  0.165465675684083E+000  0.000000000000000E+000 -0.747292374687218E+001
  0.475958776406812E-001  0.211172440328995E+002  0.170422260127688E+000  0.000000000000000E+000 -0.115825456045806E+002
  0.475958776406812E-001  0.210731775872280E+002  0.316722050359627E-001  0.000000000000000E+000 -0.124640258524242E+002
  0.475958776406812E-001  0.682386853473430E+001  0.165272675265940E+000  0.000000000000000E+000 -0.341193426736715E+001
