  0.148434708431927E-001  0.183528593586896E+002  0.162691518337427E+000  0.000000000000000E+000 -0.107216261252396E+002
  0.148434708431927E-001  0.185302644962344E+002  0.180348587917025E+000  0.000000000000000E+000 -0.108103286940119E+002
  0.148434708431927E-001  0.199637863900452E+002  0.150675487165622E+000  0.000000000000000E+000 -0.124306031115968E+002
  0.148434708431927E-001  0.111762763265006E+002  0.176981373357974E+000  0.000000000000000E+000 -0.558813816325030E+001
  0.148434708431927E-001  0.186042792704884E+002  0.163011014774639E+000  0.000000000000000E+000 -0.108473360811390E+002
  0.148434708431927E-001  0.113344084436144E+002  0.176981302658601E+000  0.000000000000000E+000 -0.566720422180721E+001
  0.148434708431927E-001  0.163863948376547E+002  0.177033662605087E+000  0.000000000000000E+000 -0.869246183388289E+001
  0.148434708431927E-001  0.255007424157010E+002  0.613440284737162E-001  0.000000000000000E+000 -0.151990811244247E+002
  0.148434708431927E-001  0.191880619607221E+002  0.165196730520060E+000  0.000000000000000E+000 -0.111392274262558E+002
  0.148434708431927E-001  0.278952477053158E+002  0.546436207195668E-001  0.000000000000000E+000 -0.163963337692321E+002
  0.148434708431927E-001  0.258376289358628E+002  0.643889180625694E-001  0.000000000000000E+000 -0.153675243845056E+002
  0.148434708431927E-001  0.127891691714035E+002  0.176981372583340E+000  0.000000000000000E+000 -0.689384900075732E+001
  0.148434708431927E-001  0.200005714725412E+002  0.122619675421954E+000  0.000000000000000E+000 -0.124489956528448E+002
  0.148434708431927E-001  0.206881578100459E+002  0.535637661733314E-001  0.000000000000000E+000 -0.127927888215972E+002
  0.148434708431927E-001  0.219870397593151E+002  0.699441733134134E-001  0.000000000000000E+000 -0.134422297962317E+002
  0.148434708431927E-001  0.213384398564340E+002  0.275308773038499E-001  0.000000000000000E+000 -0.131179298447912E+002
  0.148434708431927E-001  0.211711367908797E+002  0.131265463538546E+000  0.000000000000000E+000 -0.130342783120140E+002
  0.148434708431927E-001  0.202441219945884E+002  0.759892794551216E-001  0.000000000000000E+000 -0.125707709138684E+002
  0.148434708431927E-001  0.232860558201597E+002  0.119927119051255E+000  0.000000000000000E+000 -0.140917378266540E+002
  0.148434708431927E-001  0.228527828166028E+002  0.181341177804867E+000  0.000000000000000E+000 -0.138751013248756E+002
  0.148434708431927E-001  0.224963120219989E+002  0.338066357993447E-001  0.000000000000000E+000 -0.136968659275736E+002
  0.148434708431927E-001  0.224664027777853E+002  0.588314465877925E-001  0.000000000000000E+000 -0.136819113054668E+002
  0.148434708431927E-001  0.217969171008617E+002  0.139191421434925E+000  0.000000000000000E+000 -0.133471684670050E+002
  0.148434708431927E-001  0.229877216866524E+002  0.129754490267567E+000  0.000000000000000E+000 -0.139425707599004E+002
  0.148434708431927E-001  0.993788420711559E+001  0.176936960005727E+000  0.000000000000000E+000 -0.496894210355780E+001
  0.148434708431927E-001  0.970509426420628E+001  0.176981372583343E+000  0.000000000000000E+000 -0.485254713210314E+001
