  0.932288463925694E-002  0.246425907398148E+002  0.619116081689970E-001  0.125850106175095E+000 -0.693147180559945E+000 -0.123212953699074E+002
  0.932288463925694E-002  0.262678960661951E+002  0.502583850993086E-001  0.951886258784853E-001 -0.693147180559945E+000 -0.154675283614051E+002
  0.932288463925694E-002  0.263443236485880E+002  0.451142590904832E-001  0.119341146609363E+000 -0.693147180559945E+000 -0.143739423294610E+002
  0.932288463925694E-002  0.285235265510501E+002  0.219648839151940E-001  0.118355652993262E+000 -0.693147180559945E+000 -0.165953436038326E+002
  0.932288463925694E-002  0.285289032444442E+002  0.910582483620395E-001  0.117146404037811E+000 -0.693147180559945E+000 -0.165980319505297E+002
  0.932288463925694E-002  0.247435056727328E+002  0.614757082452189E-001  0.127100656147024E+000 -0.693147180559945E+000 -0.123717528363664E+002
  0.932288463925694E-002  0.257654090997436E+002  0.614757082452189E-001  0.127100656147024E+000 -0.693147180559945E+000 -0.128827045498718E+002
  0.932288463925694E-002  0.269277595266668E+002  0.614757082452189E-001  0.127100656147024E+000 -0.693147180559945E+000 -0.134638797633334E+002
  0.932288463925694E-002  0.289566173544592E+002  0.354253775355484E-001  0.119422063518567E+000 -0.693147180559945E+000 -0.168118890055372E+002
  0.932288463925694E-002  0.325546118743511E+002  0.516325894821836E-001  0.134706381478746E+000 -0.693147180559945E+000 -0.186108862654831E+002
  0.932288463925694E-002  0.289580145200796E+002  0.739623260908946E-001  0.865509613649529E-001 -0.693147180559945E+000 -0.168125875883474E+002
  0.932288463925694E-002  0.289445782865509E+002  0.398953245026643E-001  0.952179387874774E-001 -0.693147180559945E+000 -0.168058694715830E+002
  0.932288463925694E-002  0.273118950604789E+002  0.609616139432592E-001  0.748519798945078E-001 -0.693147180559945E+000 -0.159895278585470E+002
  0.932288463925694E-002  0.338458950825849E+002  0.854197238622305E-001  0.103763604149931E+000 -0.693147180559945E+000 -0.192565278696000E+002
  0.932288463925694E-002  0.323953730683761E+002  0.236528481897433E-001  0.117390117556876E+000 -0.693147180559945E+000 -0.185312668624956E+002
  0.932288463925694E-002  0.326687111236512E+002  0.650477485700207E-001  0.123321738895617E+000 -0.693147180559945E+000 -0.186679358901332E+002
  0.932288463925694E-002  0.327196619462984E+002  0.377998589248703E-001  0.867094742990556E-001 -0.693147180559945E+000 -0.186934113014568E+002
  0.932288463925694E-002  0.268809970219670E+002  0.630945392315196E-001  0.127103823143708E+000 -0.693147180559945E+000 -0.146422790161505E+002
  0.932288463925694E-002  0.273392964728420E+002  0.516380604179170E-001  0.115177144529722E+000 -0.693147180559945E+000 -0.160032285647286E+002
  0.932288463925694E-002  0.273003684370667E+002  0.749554793834644E-001  0.759156884567709E-001 -0.693147180559945E+000 -0.159837645468409E+002
  0.932288463925694E-002  0.328203276570558E+002  0.490844750655195E-001  0.114670690596183E+000 -0.693147180559945E+000 -0.187437441568355E+002
  0.932288463925694E-002  0.402111415770278E+002  0.374171024521059E-001  0.857750192325651E-001 -0.693147180559945E+000 -0.224391511168214E+002
  0.932288463925694E-002  0.273661018146060E+002  0.462652243679240E-001  0.875389680617727E-001 -0.693147180559945E+000 -0.160166312356106E+002
  0.932288463925694E-002  0.315283022727666E+002  0.904877400502977E-001  0.622438352502058E-001 -0.693147180559945E+000 -0.180977314646909E+002
  0.932288463925694E-002  0.273732380947522E+002  0.535220055648944E-001  0.762084167010070E-001 -0.693147180559945E+000 -0.160201993756837E+002
  0.932288463925694E-002  0.272452158847684E+002  0.403285188747422E-001  0.949000834065293E-001 -0.693147180559945E+000 -0.159561882706918E+002
  0.932288463925694E-002  0.338588918055565E+002  0.661689085306214E-001  0.735374007305080E-001 -0.693147180559945E+000 -0.192630262310858E+002
  0.932288463925694E-002  0.323252574669196E+002  0.705126463586152E-001  0.107922562460988E+000 -0.693147180559945E+000 -0.184962090617674E+002
  0.932288463925694E-002  0.274258594223835E+002  0.272474376127385E-001  0.125280429455465E+000 -0.693147180559945E+000 -0.149147102163588E+002
  0.932288463925694E-002  0.263643429098165E+002  0.614757096968379E-001  0.127100655886868E+000 -0.693147180559945E+000 -0.155157517832158E+002
  0.932288463925694E-002  0.275023114571784E+002  0.219650433872822E-001  0.118355622643689E+000 -0.693147180559945E+000 -0.149529362337562E+002
  0.932288463925694E-002  0.329860151776207E+002  0.410257780590759E-001  0.114652326291391E+000 -0.693147180559945E+000 -0.188265879171179E+002
  0.932288463925694E-002  0.330185515421663E+002  0.797764783499655E-001  0.988192100773186E-001 -0.693147180559945E+000 -0.188428560993907E+002
  0.932288463925694E-002  0.316526928469012E+002  0.933362482287667E-001  0.981872279699582E-001 -0.693147180559945E+000 -0.181599267517582E+002
  0.932288463925694E-002  0.283122808353688E+002  0.219648838969413E-001  0.118355652997572E+000 -0.693147180559945E+000 -0.153579209228514E+002
  0.932288463925694E-002  0.272173496816024E+002  0.354253775355249E-001  0.119422063518577E+000 -0.693147180559945E+000 -0.159422551691088E+002
  0.932288463925694E-002  0.338951421402652E+002  0.118684484318604E+000  0.595643431395650E-001 -0.693147180559945E+000 -0.192811513984402E+002
  0.932288463925694E-002  0.338953275863153E+002  0.355160196615270E-001  0.893795109353035E-001 -0.693147180559945E+000 -0.192812441214652E+002
  0.932288463925694E-002  0.274167970695805E+002  0.648424336478890E-001  0.103856552719853E+000 -0.693147180559945E+000 -0.160419788630978E+002
  0.932288463925694E-002  0.272146138976893E+002  0.697002636732358E-001  0.712564013303650E-001 -0.693147180559945E+000 -0.159408872771522E+002
  0.932288463925694E-002  0.282898419402126E+002  0.688085317987033E-001  0.107497256578902E+000 -0.693147180559945E+000 -0.164785012984139E+002
  0.932288463925694E-002  0.274373112854753E+002  0.529333025478680E-001  0.766761337465019E-001 -0.693147180559945E+000 -0.160522359710452E+002
  0.932288463925694E-002  0.332301523880520E+002  0.421284713504146E-001  0.715518400350672E-001 -0.693147180559945E+000 -0.189486565223336E+002
  0.932288463925694E-002  0.283457716481391E+002  0.329591989531690E-001  0.118686658814803E+000 -0.693147180559945E+000 -0.165064661523771E+002
  0.932288463925694E-002  0.321549297712044E+002  0.159153042952476E-001  0.820536078829903E-001 -0.693147180559945E+000 -0.184110452139098E+002
  0.932288463925694E-002  0.340046919232314E+002  0.394314208244702E-001  0.977336349071317E-001 -0.693147180559945E+000 -0.193359262899232E+002
  0.932288463925694E-002  0.332470902052985E+002  0.541390759247391E-001  0.914442970933611E-001 -0.693147180559945E+000 -0.189571254309568E+002
  0.932288463925694E-002  0.283532592179464E+002  0.562441961366076E-001  0.703758085239321E-001 -0.693147180559945E+000 -0.165102099372808E+002
  0.932288463925694E-002  0.281746681751660E+002  0.910559780981830E-001  0.117142683863625E+000 -0.693147180559945E+000 -0.164209144158906E+002
  0.932288463925694E-002  0.274618846774907E+002  0.350806563699120E-001  0.112353788897373E+000 -0.693147180559945E+000 -0.160645226670529E+002
  0.932288463925694E-002  0.320922253803182E+002  0.420955323537509E-001  0.772108605974825E-001 -0.693147180559945E+000 -0.183796930184667E+002
  0.932288463925694E-002  0.283787903565014E+002  0.521319160502003E-001  0.613370560660535E-001 -0.693147180559945E+000 -0.165229755065583E+002
  0.932288463925694E-002  0.281731019212511E+002  0.710894999016918E-001  0.119446912234047E+000 -0.693147180559945E+000 -0.164201312889331E+002
  0.932288463925694E-002  0.333346624151243E+002  0.277910601571563E-003  0.114152968061008E+000 -0.693147180559945E+000 -0.190009115358697E+002
  0.932288463925694E-002  0.274772907191488E+002  0.350806697658526E-001  0.112353766244601E+000 -0.693147180559945E+000 -0.160722256878820E+002
  0.932288463925694E-002  0.281715298104810E+002  0.410428240009753E-001  0.950919181920280E-001 -0.693147180559945E+000 -0.164193452335481E+002
  0.932288463925694E-002  0.314544627506378E+002  0.490844863801589E-001  0.114670693089873E+000 -0.693147180559945E+000 -0.180608117036265E+002
  0.932288463925694E-002  0.284143547149987E+002  0.609615157258305E-001  0.748519513401425E-001 -0.693147180559945E+000 -0.165407576858069E+002
  0.932288463925694E-002  0.284181548693573E+002  0.410428274085450E-001  0.950919197460472E-001 -0.693147180559945E+000 -0.165426577629862E+002
  0.932288463925694E-002  0.263745325755318E+002  0.670611313074989E-001  0.924700878893210E-001 -0.693147180559945E+000 -0.155208466160734E+002
  0.932288463925694E-002  0.271803082829387E+002  0.380861476778365E-001  0.863645228479132E-001 -0.693147180559945E+000 -0.159237344697769E+002
  0.932288463925694E-002  0.274773368695770E+002  0.483327030210203E-001  0.914220758387252E-001 -0.693147180559945E+000 -0.160722487630961E+002
  0.932288463925694E-002  0.263773901428935E+002  0.761358894562192E-001  0.965742414879121E-001 -0.693147180559945E+000 -0.155222753997543E+002
  0.932288463925694E-002  0.314426142846989E+002  0.687286921703327E-001  0.137140783391651E+000 -0.693147180559945E+000 -0.180548874706570E+002
  0.932288463925694E-002  0.334577547384168E+002 -0.362105331662463E-001  0.131207118605550E+000 -0.693147180559945E+000 -0.190624576975160E+002
  0.932288463925694E-002  0.334678313959345E+002  0.846212661024557E-001  0.104813683709492E+000 -0.693147180559945E+000 -0.190674960262748E+002
  0.932288463925694E-002  0.284606309157181E+002  0.719581012525152E-001  0.129556438999042E+000 -0.693147180559945E+000 -0.165638957861666E+002
  0.932288463925694E-002  0.335024548678233E+002  0.272471264571614E-001  0.125279980568968E+000 -0.693147180559945E+000 -0.190848077622192E+002
  0.932288463925694E-002  0.284622406304780E+002  0.239091321904192E-001  0.774246691286532E-001 -0.693147180559945E+000 -0.165647006435465E+002
  0.932288463925694E-002  0.335462230124949E+002 -0.281776850284660E-001  0.164526872283258E+000 -0.693147180559945E+000 -0.191066918345550E+002
  0.932288463925694E-002  0.317253501191091E+002  0.554564325283500E-001  0.916488130174700E-001 -0.693147180559945E+000 -0.181962553878621E+002
  0.932288463925694E-002  0.373675676399181E+002  0.793182063578264E-001  0.509792564205760E-001 -0.693147180559945E+000 -0.210173641482666E+002
  0.932288463925694E-002  0.341101349521089E+002  0.740852025691923E-001  0.852817076678742E-001 -0.693147180559945E+000 -0.193886478043620E+002
  0.932288463925694E-002  0.264130966704093E+002  0.292820928887771E-001  0.109908765727367E+000 -0.693147180559945E+000 -0.155401286635122E+002
  0.932288463925694E-002  0.271460898494010E+002  0.648424469932065E-001  0.103856555819461E+000 -0.693147180559945E+000 -0.159066252530081E+002
  0.932288463925694E-002  0.284679899591620E+002  0.405325928272868E-001  0.865130008033421E-001 -0.693147180559945E+000 -0.165675753078886E+002
  0.932288463925694E-002  0.284681080189837E+002  0.852878522452112E-001  0.127173239386346E+000 -0.693147180559945E+000 -0.165676343377994E+002
  0.932288463925694E-002  0.318933919910164E+002  0.294969923901021E-001  0.118896270963636E+000 -0.693147180559945E+000 -0.182802763238158E+002
  0.932288463925694E-002  0.288715965746480E+002  0.496451859714300E-001  0.809366269268068E-001 -0.693147180559945E+000 -0.167693786156316E+002
  0.932288463925694E-002  0.284856687887975E+002  0.496459013840111E-001  0.809384600045478E-001 -0.693147180559945E+000 -0.165764147227063E+002
  0.932288463925694E-002  0.284912390926871E+002  0.261258071106574E-001  0.799684266331460E-001 -0.693147180559945E+000 -0.165791998746511E+002
  0.932288463925694E-002  0.271376039738056E+002  0.442241274553510E-001  0.880280963848724E-001 -0.693147180559945E+000 -0.159023823152104E+002
  0.932288463925694E-002  0.318490108114189E+002  0.266064917390767E-001  0.724430322832361E-001 -0.693147180559945E+000 -0.182580857340170E+002
  0.932288463925694E-002  0.281091354767359E+002  0.716193950562718E-001  0.972598816318373E-001 -0.693147180559945E+000 -0.163881480666755E+002
  0.932288463925694E-002  0.280966636600863E+002  0.710524867710647E-001  0.119440014902526E+000 -0.693147180559945E+000 -0.163819121583507E+002
  0.932288463925694E-002  0.317740509014113E+002  0.845766198303253E-001  0.650413495523225E-001 -0.693147180559945E+000 -0.182206057790132E+002
  0.932288463925694E-002  0.336703752515818E+002  0.384878106981228E-001  0.848776989037745E-001 -0.693147180559945E+000 -0.191687679540985E+002
  0.932288463925694E-002  0.336866938716019E+002  0.354231691149267E-001  0.119455057809135E+000 -0.693147180559945E+000 -0.191769272641085E+002
  0.932288463925694E-002  0.342113123050910E+002  0.334695588157481E-001  0.122154327524721E+000 -0.693147180559945E+000 -0.194392364808531E+002
  0.932288463925694E-002  0.357463575851771E+002  0.991689964666091E-001  0.132430732016369E+000 -0.693147180559945E+000 -0.202067591208961E+002
  0.932288463925694E-002  0.292772121537680E+002  0.637411575231650E-002  0.601581381279186E-001 -0.693147180559945E+000 -0.169721864051916E+002
  0.932288463925694E-002  0.290488393053433E+002  0.109180156718350E+000  0.751569726811936E-001 -0.693147180559945E+000 -0.168579999809792E+002
  0.932288463925694E-002  0.359705620988628E+002  0.111772767650490E+000  0.143007187528563E+000 -0.693147180559945E+000 -0.203188613777390E+002
  0.932288463925694E-002  0.342206851684728E+002  0.131049521489018E+000  0.870650378106937E-001 -0.693147180559945E+000 -0.194439229125440E+002
  0.932288463925694E-002  0.275418540168836E+002  0.772161496564563E-001  0.982808834915499E-001 -0.693147180559945E+000 -0.161045073367494E+002
  0.932288463925694E-002  0.270841775245720E+002  0.557731999543092E-001  0.103176223368758E+000 -0.693147180559945E+000 -0.158756690905936E+002
  0.932288463925694E-002  0.280939685238751E+002  0.765785520085605E-001  0.111911659997724E+000 -0.693147180559945E+000 -0.163805645902451E+002
  0.932288463925694E-002  0.359938171978842E+002  0.332045696579788E-001  0.124401371270543E+000 -0.693147180559945E+000 -0.203304889272497E+002
  0.932288463925694E-002  0.270804779444141E+002  0.508997101145494E-001  0.949312549649349E-001 -0.693147180559945E+000 -0.158738193005146E+002
  0.932288463925694E-002  0.293246682949971E+002  0.561206615781249E-001  0.687762591099901E-001 -0.693147180559945E+000 -0.169959144758061E+002
  0.932288463925694E-002  0.270707220702014E+002  0.508359121589044E-001  0.767947684556309E-001 -0.693147180559945E+000 -0.158689413634083E+002
  0.932288463925694E-002  0.264753036524205E+002  0.557722758030188E-001  0.103178664963295E+000 -0.693147180559945E+000 -0.155712321545178E+002
  0.932288463925694E-002  0.264932413014570E+002  0.420249353901052E-001  0.946549600527706E-001 -0.693147180559945E+000 -0.155802009790361E+002
  0.932288463925694E-002  0.360119350575441E+002  0.995811871354226E-001  0.133063388729443E+000 -0.693147180559945E+000 -0.203395478570796E+002
  0.932288463925694E-002  0.275447719646533E+002  0.777731275763140E-001  0.996517078587281E-001 -0.693147180559945E+000 -0.161059663106342E+002
  0.932288463925694E-002  0.270626029017996E+002  0.749554793834644E-001  0.759156884567709E-001 -0.693147180559945E+000 -0.158648817792074E+002
  0.932288463925694E-002  0.313980796160823E+002  0.440547545167533E-001  0.920718379131698E-001 -0.693147180559945E+000 -0.180326201363487E+002
  0.932288463925694E-002  0.280457045317261E+002  0.765430690206665E-001  0.111895584516697E+000 -0.693147180559945E+000 -0.163564325941706E+002
  0.932288463925694E-002  0.270557075344969E+002  0.506703843547469E-001  0.950133683164066E-001 -0.693147180559945E+000 -0.158614340955560E+002
  0.932288463925694E-002  0.307934848506439E+002  0.644862847567631E-001  0.516330139202443E-001 -0.693147180559945E+000 -0.177303227536295E+002
  0.932288463925694E-002  0.276274915097902E+002  0.101298270429993E+000  0.788646225988694E-001 -0.693147180559945E+000 -0.161473260832027E+002
  0.932288463925694E-002  0.361415051602565E+002  0.337673931335807E-001  0.126478467602441E+000 -0.693147180559945E+000 -0.204043329084358E+002
  0.932288463925694E-002  0.309903764789856E+002  0.425213303569680E-001  0.141916683457394E+000 -0.693147180559945E+000 -0.178287685678004E+002
  0.932288463925694E-002  0.362035418161007E+002  0.290119958548269E-001  0.423848660068628E-001 -0.693147180559945E+000 -0.204353512363579E+002
  0.932288463925694E-002  0.362244949392652E+002  0.740218304243048E-001  0.153206348505980E+000 -0.693147180559945E+000 -0.204458277979402E+002
  0.932288463925694E-002  0.356103316930758E+002  0.579875012731355E-001  0.761496927334548E-001 -0.693147180559945E+000 -0.201387461748455E+002
  0.932288463925694E-002  0.280132800981896E+002  0.710894999089857E-001  0.119446912221065E+000 -0.693147180559945E+000 -0.163402203774024E+002
  0.932288463925694E-002  0.363377794024434E+002  0.553294716518773E-001  0.277119786627056E-001 -0.693147180559945E+000 -0.205024700295292E+002
  0.932288463925694E-002  0.363729375919806E+002  0.111758474575128E-001  0.535468819825901E-001 -0.693147180559945E+000 -0.205200491242979E+002
  0.932288463925694E-002  0.313694062780829E+002  0.696085885281088E-001  0.951369333436346E-001 -0.693147180559945E+000 -0.180182834673490E+002
  0.932288463925694E-002  0.306281336879663E+002  0.693896288712632E-001  0.103920924871303E+000 -0.693147180559945E+000 -0.176476471722907E+002
  0.932288463925694E-002  0.265149961467128E+002  0.293008118257163E-001  0.118297011557308E+000 -0.693147180559945E+000 -0.155910784016640E+002
  0.932288463925694E-002  0.306277348801342E+002  0.282131530904497E-001  0.126630439168818E+000 -0.693147180559945E+000 -0.176474477683747E+002
  0.932288463925694E-002  0.294291265993161E+002  0.509027064770857E-001  0.952989666614739E-001 -0.693147180559945E+000 -0.170481436279656E+002
  0.932288463925694E-002  0.294312645099102E+002  0.719577474795527E-001  0.129557680505898E+000 -0.693147180559945E+000 -0.170492125832627E+002
  0.932288463925694E-002  0.269598960370071E+002  0.262780105018934E-001  0.880263818493127E-001 -0.693147180559945E+000 -0.158135283468111E+002
  0.932288463925694E-002  0.277018729530472E+002  0.615397386365164E-001  0.117315208400292E+000 -0.693147180559945E+000 -0.161845168048312E+002
  0.932288463925694E-002  0.408559056919039E+002  0.104132972835147E+000  0.152393992706126E+000 -0.693147180559945E+000 -0.227615331742595E+002
  0.932288463925694E-002  0.294863049378655E+002  0.503439051874812E-001  0.875615376549870E-001 -0.693147180559945E+000 -0.170767327972403E+002
  0.932288463925694E-002  0.269504039659745E+002  0.660118586358840E-001  0.834072502586231E-001 -0.693147180559945E+000 -0.158087823112948E+002
  0.932288463925694E-002  0.269441671022773E+002  0.502583850845970E-001  0.951886258517428E-001 -0.693147180559945E+000 -0.158056638794462E+002
  0.932288463925694E-002  0.354906877726636E+002  0.753016784697391E-001  0.857662331771756E-001 -0.693147180559945E+000 -0.200789242146394E+002
  0.932288463925694E-002  0.265307299108845E+002  0.915252189184146E-001  0.116698664417668E+000 -0.693147180559945E+000 -0.155989452837498E+002
  0.932288463925694E-002  0.377110322162111E+002  0.389280606324727E-001  0.116020764761632E+000 -0.693147180559945E+000 -0.211890964364131E+002
  0.932288463925694E-002  0.265317453665211E+002  0.293240896566309E-001  0.109839480416379E+000 -0.693147180559945E+000 -0.155994530115681E+002
  0.932288463925694E-002  0.377212771655680E+002 -0.286877252746998E-002  0.652337272888870E-001 -0.693147180559945E+000 -0.211942189110916E+002
  0.932288463925694E-002  0.304391010722711E+002  0.453266789744735E-001  0.924152407949726E-001 -0.693147180559945E+000 -0.175531308644431E+002
  0.932288463925694E-002  0.277328881045750E+002  0.420956138913129E-001  0.772107019940697E-001 -0.693147180559945E+000 -0.162000243805951E+002
  0.932288463925694E-002  0.368185452600698E+002  0.277963300677364E-001  0.513053015138958E-001 -0.693147180559945E+000 -0.207428529583425E+002
  0.932288463925694E-002  0.295546200736185E+002  0.853030155868244E-001  0.705388620454626E-001 -0.693147180559945E+000 -0.171108903651168E+002
  0.932288463925694E-002  0.269094652686080E+002  0.635660312528110E-001  0.709540939812756E-001 -0.693147180559945E+000 -0.157883129626116E+002
  0.932288463925694E-002  0.295732276847584E+002  0.746556509418761E-001  0.860822366729115E-001 -0.693147180559945E+000 -0.171201941706868E+002
  0.932288463925694E-002  0.409688989203765E+002  0.770682479479359E-001  0.823301252029356E-001 -0.693147180559945E+000 -0.228180297884958E+002
  0.932288463925694E-002  0.287693982754710E+002  0.513707299236694E-001  0.909882383800492E-001 -0.693147180559945E+000 -0.167182794660430E+002
  0.932288463925694E-002  0.277509268784331E+002  0.616465882681634E-001  0.976669063147205E-001 -0.693147180559945E+000 -0.162090437675241E+002
  0.932288463925694E-002  0.296091079227042E+002  0.480599420998622E-001  0.879628083849352E-001 -0.693147180559945E+000 -0.171381342896596E+002
  0.932288463925694E-002  0.409959590662850E+002  0.838234294967259E-001  0.506830035963183E-001 -0.693147180559945E+000 -0.228315598614501E+002
  0.932288463925694E-002  0.353650945928085E+002  0.864911482412305E-001  0.454141414101870E-001 -0.693147180559945E+000 -0.200161276247118E+002
  0.932288463925694E-002  0.291099944279199E+002  0.465829562143325E-001  0.935309551623691E-001 -0.693147180559945E+000 -0.168885775422675E+002
  0.932288463925694E-002  0.296843887253180E+002  0.659574631311686E-001  0.118675399894004E+000 -0.693147180559945E+000 -0.171757746909666E+002
  0.932288463925694E-002  0.303478670014818E+002  0.752825993781312E-001  0.944846432030179E-001 -0.693147180559945E+000 -0.175075138290485E+002
  0.932288463925694E-002  0.268842384141756E+002  0.700534954551912E-001  0.126808108939741E+000 -0.693147180559945E+000 -0.157756995353954E+002
  0.932288463925694E-002  0.279441648966834E+002  0.563349924559480E-001  0.724013404658057E-001 -0.693147180559945E+000 -0.163056627766492E+002
  0.932288463925694E-002  0.303078679211732E+002  0.379230915142044E-001  0.859526865499965E-001 -0.693147180559945E+000 -0.174875142888941E+002
  0.932288463925694E-002  0.302333128316834E+002  0.282130880404430E-001  0.126630742510583E+000 -0.693147180559945E+000 -0.174502367441493E+002
  0.932288463925694E-002  0.297105986479768E+002  0.378070071096921E-001  0.114753672563202E+000 -0.693147180559945E+000 -0.171888796522960E+002
  0.932288463925694E-002  0.353411114509065E+002  0.608188178381739E-001  0.484293187911138E-001 -0.693147180559945E+000 -0.200041360537608E+002
  0.932288463925694E-002  0.353228507863628E+002  0.334307221482242E-001  0.896733934231457E-001 -0.693147180559945E+000 -0.199950057214890E+002
  0.932288463925694E-002  0.301984529131287E+002  0.399016594180979E-001  0.952053113409482E-001 -0.693147180559945E+000 -0.174328067848719E+002
  0.932288463925694E-002  0.268365064768783E+002  0.507170159546269E-001  0.949220489615550E-001 -0.693147180559945E+000 -0.157518335667467E+002
  0.932288463925694E-002  0.301867595948563E+002  0.470975301133882E-001  0.879091014628088E-001 -0.693147180559945E+000 -0.174269601257357E+002
  0.932288463925694E-002  0.352346198750996E+002  0.799785420880934E-001  0.641949482022172E-001 -0.693147180559945E+000 -0.199508902658574E+002
  0.932288463925694E-002  0.380060506946108E+002  0.542697831142183E-001  0.187594221111362E-001 -0.693147180559945E+000 -0.213366056756130E+002
  0.932288463925694E-002  0.351546197145151E+002  0.751444073821343E-001  0.484430885920638E-001 -0.693147180559945E+000 -0.199108901855651E+002
  0.932288463925694E-002  0.411286450111214E+002  0.149249723027702E-001  0.566961796400418E-001 -0.693147180559945E+000 -0.228979028338683E+002
  0.932288463925694E-002  0.297553844514048E+002  0.851917069784889E-001  0.671741693279879E-001 -0.693147180559945E+000 -0.172112725540100E+002
  0.932288463925694E-002  0.351363212913366E+002  0.599031575530837E-001  0.728691104431776E-001 -0.693147180559945E+000 -0.199017409739759E+002
  0.932288463925694E-002  0.265962889717065E+002  0.272804507927999E-001  0.125293883854850E+000 -0.693147180559945E+000 -0.156317248141608E+002
  0.932288463925694E-002  0.297601288630109E+002  0.266094810277697E-001  0.724484570156239E-001 -0.693147180559945E+000 -0.172136447598130E+002
  0.932288463925694E-002  0.346031824135452E+002  0.358720347073049E-002  0.111088237643778E+000 -0.693147180559945E+000 -0.196351715350802E+002
  0.932288463925694E-002  0.301253666296928E+002  0.596491524965461E-001  0.755689262275182E-001 -0.693147180559945E+000 -0.173962636431540E+002
  0.932288463925694E-002  0.297785395996581E+002  0.408558319978019E-001  0.911167820752490E-001 -0.693147180559945E+000 -0.172228501281366E+002
  0.932288463925694E-002  0.301241293776432E+002  0.180488957306777E-001  0.107529276650196E+000 -0.693147180559945E+000 -0.173956450171292E+002
  0.932288463925694E-002  0.350507340309422E+002  0.102491905261371E+000  0.695485762327788E-001 -0.693147180559945E+000 -0.198589473437786E+002
  0.932288463925694E-002  0.301005462839634E+002  0.230834680856571E-001  0.108155297016822E+000 -0.693147180559945E+000 -0.173838534702893E+002
  0.932288463925694E-002  0.267721280776588E+002  0.372951166083002E-001  0.961933568695035E-001 -0.693147180559945E+000 -0.157196443671370E+002
  0.932288463925694E-002  0.346464020031306E+002  0.598940459285715E-001  0.728996297687870E-001 -0.693147180559945E+000 -0.196567813298728E+002
  0.932288463925694E-002  0.297922350648210E+002  0.764341114900882E-001  0.107054392173330E+000 -0.693147180559945E+000 -0.172296978607181E+002
  0.932288463925694E-002  0.421417681806722E+002 -0.305964406039267E-001  0.131501201311214E+000 -0.693147180559945E+000 -0.234044644186437E+002
  0.932288463925694E-002  0.381310326515378E+002  0.909155359752574E-001  0.190882225122422E+000 -0.693147180559945E+000 -0.213990966540764E+002
  0.932288463925694E-002  0.279209573791920E+002  0.262774922317031E-001  0.880253302260832E-001 -0.693147180559945E+000 -0.162940590179035E+002
  0.932288463925694E-002  0.297982112888606E+002  0.816441834290234E-001  0.134782022222754E+000 -0.693147180559945E+000 -0.172326859727379E+002
  0.932288463925694E-002  0.428716724606245E+002  0.745821158234088E-001  0.325027751359094E-001 -0.693147180559945E+000 -0.237694165586198E+002
  0.932288463925694E-002  0.267646487894028E+002  0.293240896566305E-001  0.109839480416379E+000 -0.693147180559945E+000 -0.157159047230090E+002
  0.932288463925694E-002  0.277927765534674E+002  0.252073075075274E-001  0.790389703770777E-001 -0.693147180559945E+000 -0.162299686050412E+002
  0.932288463925694E-002  0.349641139444710E+002  0.465355547485951E-001  0.728050113916412E-001 -0.693147180559945E+000 -0.198156373005430E+002
  0.932288463925694E-002  0.421935925833275E+002  0.891882790054641E-001  0.598435177473632E-001 -0.693147180559945E+000 -0.234303766199713E+002
  0.932288463925694E-002  0.300741319306079E+002  0.851917069784889E-001  0.671741693279878E-001 -0.693147180559945E+000 -0.173706462936115E+002
  0.932288463925694E-002  0.386265867267432E+002  0.617732725548732E-001  0.849189170132646E-001 -0.693147180559945E+000 -0.216468736916792E+002
  0.932288463925694E-002  0.385585396113338E+002  0.374919725185181E-001  0.906714354125214E-001 -0.693147180559945E+000 -0.216128501339745E+002
  0.932288463925694E-002  0.381343392634104E+002  0.111484876251150E+000  0.902646573877626E-001 -0.693147180559945E+000 -0.214007499600128E+002
  0.932288463925694E-002  0.286582632923246E+002  0.420955282368083E-001  0.772108601538865E-001 -0.693147180559945E+000 -0.166627119744699E+002
  0.932288463925694E-002  0.267288149172177E+002  0.879267128455457E-001  0.948092886176080E-001 -0.693147180559945E+000 -0.156979877869164E+002
  0.932288463925694E-002  0.298327052246123E+002  0.908784067185746E-001  0.116984447802979E+000 -0.693147180559945E+000 -0.172499329406137E+002
  0.932288463925694E-002  0.298456885032810E+002  0.758097723201310E-001  0.926994395556667E-001 -0.693147180559945E+000 -0.172564245799480E+002
  0.932288463925694E-002  0.298479070522552E+002  0.425995548920539E-001  0.794110867213741E-001 -0.693147180559945E+000 -0.172575338544352E+002
  0.932288463925694E-002  0.278053177480125E+002  0.464053640317810E-001  0.751398388484867E-001 -0.693147180559945E+000 -0.162362392023138E+002
  0.932288463925694E-002  0.299594536515792E+002  0.749026525538088E-001  0.541264363638571E-001 -0.693147180559945E+000 -0.173133071540972E+002
  0.932288463925694E-002  0.384657748485289E+002  0.495128791087407E-001  0.568238735173284E-001 -0.693147180559945E+000 -0.215664677525720E+002
  0.932288463925694E-002  0.266353157646446E+002  0.101298270429486E+000  0.788646225987747E-001 -0.693147180559945E+000 -0.156512382106298E+002
  0.932288463925694E-002  0.299545612449301E+002  0.695302087413536E-001  0.751833025622801E-001 -0.693147180559945E+000 -0.173108609507726E+002
  0.932288463925694E-002  0.291927143828499E+002  0.356763549868693E-001  0.870619418008601E-001 -0.693147180559945E+000 -0.169299375197325E+002
  0.932288463925694E-002  0.416933131549509E+002  0.261206942230503E-001  0.123687208250305E-001 -0.693147180559945E+000 -0.231802369057830E+002
  0.932288463925694E-002  0.424424340792840E+002  0.927935159245232E-001  0.501990111252529E-001 -0.693147180559945E+000 -0.235547973679496E+002
  0.932288463925694E-002  0.299045944231521E+002  0.775239713175429E-001  0.117955482137932E+000 -0.693147180559945E+000 -0.172858775398836E+002
  0.932288463925694E-002  0.266976466187364E+002  0.731479951659901E-001  0.105566318906674E+000 -0.693147180559945E+000 -0.156824036376758E+002
  0.932288463925694E-002  0.278420785837415E+002  0.502595105196686E-001  0.951883156805462E-001 -0.693147180559945E+000 -0.162546196201783E+002
  0.932288463925694E-002  0.227026389306397E+002  0.614757082491175E-001  0.127100656132864E+000 -0.693147180559945E+000 -0.113513194653199E+002
