  0.855419322088027E-001  0.231991494624814E+002  0.502583865051753E-001  0.951886255067119E-001 -0.693147180559945E+000 -0.115995747312407E+002
  0.855419322088027E-001  0.244832438203278E+002  0.569572388023554E-001  0.103310962717407E+000 -0.693147180559945E+000 -0.122416219101639E+002
  0.855419322088027E-001  0.227784474349597E+002  0.585046754103598E-001  0.985112254088404E-001 -0.693147180559945E+000 -0.113892237174798E+002
  0.855419322088027E-001  0.266825174788611E+002  0.480548087297776E-001  0.106662478014834E+000 -0.693147180559945E+000 -0.143155513091829E+002
  0.855419322088027E-001  0.305841118701289E+002  0.410428240009753E-001  0.950919181920280E-001 -0.693147180559945E+000 -0.164193452335481E+002
  0.855419322088027E-001  0.327209597112797E+002  0.752826145216159E-001  0.944848486434621E-001 -0.693147180559945E+000 -0.174877691541234E+002
  0.855419322088027E-001  0.391908585785481E+002  0.183079426164030E-001  0.711280901663446E-001 -0.693147180559945E+000 -0.207227185877576E+002
  0.855419322088027E-001  0.362550048600149E+002  0.294948544016360E-001  0.118890052183763E+000 -0.693147180559945E+000 -0.192547917284910E+002
  0.855419322088027E-001  0.303862052194889E+002  0.375075247216472E-001  0.916016430852907E-001 -0.693147180559945E+000 -0.163203919082280E+002
  0.855419322088027E-001  0.267537964656880E+002  0.509648752942076E-001  0.948641375444348E-001 -0.693147180559945E+000 -0.143511908025963E+002
  0.855419322088027E-001  0.327011959381371E+002  0.133950777850520E+000  0.111332645357970E+000 -0.693147180559945E+000 -0.174778872675521E+002
  0.855419322088027E-001  0.267741277429450E+002  0.746106781865696E-001  0.944470869135532E-001 -0.693147180559945E+000 -0.143613564412248E+002
  0.855419322088027E-001  0.228714783045346E+002  0.554401648645393E-001  0.103496312871368E+000 -0.693147180559945E+000 -0.114357391522673E+002
  0.855419322088027E-001  0.248865708849090E+002  0.557117216164820E-001  0.103093267485677E+000 -0.693147180559945E+000 -0.124432854424545E+002
  0.855419322088027E-001  0.362652162349301E+002  0.516348967887337E-001  0.134703774556840E+000 -0.693147180559945E+000 -0.192598974159487E+002
  0.855419322088027E-001  0.297858201544002E+002  0.535220055648944E-001  0.762084167010070E-001 -0.693147180559945E+000 -0.160201993756837E+002
  0.855419322088027E-001  0.233745812578599E+002  0.585046552721502E-001  0.985111952941913E-001 -0.693147180559945E+000 -0.116872906289299E+002
  0.855419322088027E-001  0.309658053642717E+002  0.886078226684370E-001  0.113469019313121E+000 -0.693147180559945E+000 -0.166101919806194E+002
  0.855419322088027E-001  0.326618436248188E+002  0.263620408579888E-001  0.113848411439894E+000 -0.693147180559945E+000 -0.174582111108930E+002
  0.855419322088027E-001  0.269455768478335E+002  0.420253982103620E-001  0.946541599732199E-001 -0.693147180559945E+000 -0.144470809936691E+002
  0.855419322088027E-001  0.269611185825954E+002  0.397646895692252E-001  0.100844736485379E+000 -0.693147180559945E+000 -0.144548518610500E+002
  0.855419322088027E-001  0.426237236366757E+002  0.374171024521059E-001  0.857750192325651E-001 -0.693147180559945E+000 -0.224391511168214E+002
  0.855419322088027E-001  0.303837506246669E+002  0.538630311616104E-001  0.898159375462742E-001 -0.693147180559945E+000 -0.163191646108171E+002
  0.855419322088027E-001  0.311897042661751E+002  0.640110906114393E-001  0.732868807530758E-001 -0.693147180559945E+000 -0.167221414315711E+002
  0.855419322088027E-001  0.303514757383727E+002  0.740654193795576E-001  0.850897832610254E-001 -0.693147180559945E+000 -0.163030271676700E+002
  0.855419322088027E-001  0.309109880330778E+002  0.904043692849099E-001  0.116544466715864E+000 -0.693147180559945E+000 -0.165827833150225E+002
  0.855419322088027E-001  0.294969998320731E+002  0.502583850993050E-001  0.951886258784981E-001 -0.693147180559945E+000 -0.158757892145201E+002
  0.855419322088027E-001  0.255430146384688E+002  0.557050751923565E-001  0.103154875846914E+000 -0.693147180559945E+000 -0.127715073192344E+002
  0.855419322088027E-001  0.306290279181145E+002  0.462652243679149E-001  0.875389680618068E-001 -0.693147180559945E+000 -0.164418032575409E+002
  0.855419322088027E-001  0.378423648005146E+002  0.580379011075631E-001  0.378901082572163E-001 -0.693147180559945E+000 -0.200484716987409E+002
  0.855419322088027E-001  0.328985633763926E+002  0.441704753096903E-001  0.111816697847850E+000 -0.693147180559945E+000 -0.175765709866799E+002
  0.855419322088027E-001  0.270758173344030E+002  0.422039531682084E-001  0.953585151127682E-001 -0.693147180559945E+000 -0.145122012369538E+002
  0.855419322088027E-001  0.427337665695952E+002  0.550158300040362E-001  0.365684655350103E-001 -0.693147180559945E+000 -0.224941725832812E+002
  0.855419322088027E-001  0.287292277592120E+002  0.490716021586408E-001  0.871270042530520E-001 -0.693147180559945E+000 -0.154919031780896E+002
  0.855419322088027E-001  0.333092270749076E+002  0.740677639919352E-001  0.850944044666707E-001 -0.693147180559945E+000 -0.177819028359374E+002
  0.855419322088027E-001  0.374908865847277E+002  0.208913372159987E-001  0.810151307126798E-001 -0.693147180559945E+000 -0.198727325908474E+002
  0.855419322088027E-001  0.270871843037932E+002  0.697003104564775E-001  0.712563797563478E-001 -0.693147180559945E+000 -0.145178847216489E+002
  0.855419322088027E-001  0.236626045578138E+002  0.509649593536547E-001  0.948641763757894E-001 -0.693147180559945E+000 -0.118313022789069E+002
  0.855419322088027E-001  0.336719677531723E+002  0.333136463549761E-001  0.652485790528344E-001 -0.693147180559945E+000 -0.179632731750697E+002
  0.855419322088027E-001  0.309152310946144E+002  0.381109330024867E-001  0.863525114770220E-001 -0.693147180559945E+000 -0.165849048457908E+002
  0.855419322088027E-001  0.308806900786316E+002  0.852878522452112E-001  0.127173239386346E+000 -0.693147180559945E+000 -0.165676343377994E+002
  0.855419322088027E-001  0.257251262970089E+002  0.569306898396367E-001  0.103282857516561E+000 -0.693147180559945E+000 -0.128625631485044E+002
  0.855419322088027E-001  0.333128929902072E+002  0.301703215096729E-001  0.100955700669578E+000 -0.693147180559945E+000 -0.177837357935872E+002
  0.855419322088027E-001  0.326364022150334E+002  0.908784069452577E-001  0.116984447532433E+000 -0.693147180559945E+000 -0.174454904060003E+002
  0.855419322088027E-001  0.237319747783261E+002  0.502583448997160E-001  0.951886020877271E-001 -0.693147180559945E+000 -0.118659873891631E+002
  0.855419322088027E-001  0.295778537088619E+002  0.746106781866913E-001  0.944470869135409E-001 -0.693147180559945E+000 -0.159162161529146E+002
  0.855419322088027E-001  0.258915840328137E+002  0.555459347912517E-001  0.102889586890944E+000 -0.693147180559945E+000 -0.129457920164069E+002
  0.855419322088027E-001  0.330653367364933E+002  0.459013846215961E-001  0.873733813666473E-001 -0.693147180559945E+000 -0.176599576667302E+002
  0.855419322088027E-001  0.353103848266257E+002  0.491839537940473E-001  0.867644566733559E-001 -0.693147180559945E+000 -0.187824817117965E+002
  0.855419322088027E-001  0.325845340072006E+002  0.516282725687149E-001  0.109914831818888E+000 -0.693147180559945E+000 -0.174195563020839E+002
  0.855419322088027E-001  0.353579587582545E+002  0.759446370984247E-001  0.611480418329730E-001 -0.693147180559945E+000 -0.188062686776108E+002
  0.855419322088027E-001  0.327604490611297E+002  0.752825993781312E-001  0.944846432030179E-001 -0.693147180559945E+000 -0.175075138290485E+002
  0.855419322088027E-001  0.306411633748822E+002  0.420955320946952E-001  0.772108603844384E-001 -0.693147180559945E+000 -0.164478709859247E+002
  0.855419322088027E-001  0.364680114419074E+002  0.454321066301242E-001  0.916061836544655E-001 -0.693147180559945E+000 -0.193612950194373E+002
  0.855419322088027E-001  0.294535338376566E+002  0.360683538594901E-001  0.843540716366204E-001 -0.693147180559945E+000 -0.158540562173119E+002
  0.855419322088027E-001  0.364707807049145E+002  0.429955217841373E-001  0.681856767721762E-001 -0.693147180559945E+000 -0.193626796509409E+002
  0.855419322088027E-001  0.302064229509064E+002  0.557720558977186E-001  0.119256385153733E+000 -0.693147180559945E+000 -0.162305007739368E+002
  0.855419322088027E-001  0.445543502403201E+002 -0.305964406039267E-001  0.131501201311214E+000 -0.693147180559945E+000 -0.234044644186437E+002
  0.855419322088027E-001  0.330295852654132E+002  0.421292230484573E-001  0.715516245031796E-001 -0.693147180559945E+000 -0.176420819311902E+002
  0.855419322088027E-001  0.364879642563209E+002  0.159534815331490E-001  0.756933950074199E-001 -0.693147180559945E+000 -0.193712714266440E+002
  0.855419322088027E-001  0.373902088319316E+002  0.833623982795804E-001  0.844024248141362E-001 -0.693147180559945E+000 -0.198223937144494E+002
  0.855419322088027E-001  0.325367114372912E+002  0.180488957306777E-001  0.107529276650196E+000 -0.693147180559945E+000 -0.173956450171292E+002
  0.855419322088027E-001  0.298774396308413E+002  0.410428239973060E-001  0.950919181839950E-001 -0.693147180559945E+000 -0.160660091139043E+002
  0.855419322088027E-001  0.273780196201132E+002  0.506749758467955E-001  0.105043492428407E+000 -0.693147180559945E+000 -0.146633023798089E+002
  0.855419322088027E-001  0.316879865901397E+002  0.599307477372240E-001  0.924813756405764E-001 -0.693147180559945E+000 -0.169712825935535E+002
  0.855419322088027E-001  0.324637406038222E+002  0.622297791330260E-001  0.933181839136999E-001 -0.693147180559945E+000 -0.173591596003947E+002
  0.855419322088027E-001  0.313442539860160E+002  0.507169983161158E-001  0.949221220042328E-001 -0.693147180559945E+000 -0.167994162914916E+002
  0.855419322088027E-001  0.296299317412503E+002  0.354253775355249E-001  0.119422063518577E+000 -0.693147180559945E+000 -0.159422551691088E+002
  0.855419322088027E-001  0.365187824145924E+002  0.111506105445390E+000  0.935332958761151E-001 -0.693147180559945E+000 -0.193866805057798E+002
  0.855419322088027E-001  0.274231612490664E+002  0.882726865055323E-001  0.112480888251239E+000 -0.693147180559945E+000 -0.146858731942855E+002
  0.855419322088027E-001  0.477379926505968E+002  0.344743732079023E-002  0.126369414748964E+000 -0.693147180559945E+000 -0.249962856237820E+002
  0.855419322088027E-001  0.397801496995661E+002  0.793182063578264E-001  0.509792564205760E-001 -0.693147180559945E+000 -0.210173641482666E+002
  0.855419322088027E-001  0.265450396620430E+002  0.517006323850002E-001  0.985128703309781E-001 -0.693147180559945E+000 -0.132725198310215E+002
  0.855419322088027E-001  0.274765872863656E+002  0.525514695740001E-001  0.106951944761795E+000 -0.693147180559945E+000 -0.147125862129351E+002
  0.855419322088027E-001  0.315304939759171E+002  0.519337062791250E-001  0.908083411866821E-001 -0.693147180559945E+000 -0.168925362864421E+002
  0.855419322088027E-001  0.354311336018142E+002  0.797764783499655E-001  0.988192100773186E-001 -0.693147180559945E+000 -0.188428560993907E+002
  0.855419322088027E-001  0.379687690315392E+002  0.444341223425315E-002  0.572170212225896E-001 -0.693147180559945E+000 -0.201116738142532E+002
  0.855419322088027E-001  0.287425953880426E+002  0.743181524176382E-001  0.874269067493670E-001 -0.693147180559945E+000 -0.154985869925049E+002
  0.855419322088027E-001  0.269666564062243E+002  0.502583851374552E-001  0.951886307215185E-001 -0.693147180559945E+000 -0.134833282031121E+002
  0.855419322088027E-001  0.354648902196942E+002  0.401066451974590E-001  0.114157841232660E+000 -0.693147180559945E+000 -0.188597344083307E+002
  0.855419322088027E-001  0.354660713215413E+002  0.753424445259085E-001  0.963479714504755E-001 -0.693147180559945E+000 -0.188603249592543E+002
  0.855419322088027E-001  0.354782701012321E+002  0.938186585055021E-001  0.992378063762290E-001 -0.693147180559945E+000 -0.188664243490997E+002
  0.855419322088027E-001  0.388322819071229E+002  0.571306997614707E-001  0.186451127688559E+000 -0.693147180559945E+000 -0.205434302520450E+002
  0.855419322088027E-001  0.275489415441051E+002  0.398949391322523E-001  0.952188959236462E-001 -0.693147180559945E+000 -0.147487633418049E+002
  0.855419322088027E-001  0.291967086695618E+002  0.538545090340963E-001  0.898196112996476E-001 -0.693147180559945E+000 -0.157256436332645E+002
  0.855419322088027E-001  0.398360814794169E+002  0.654005364190557E-001  0.625324338789804E-001 -0.693147180559945E+000 -0.210453300381921E+002
  0.855419322088027E-001  0.349256818878217E+002  0.624418187759475E-001  0.967676918975476E-001 -0.693147180559945E+000 -0.185901302423944E+002
  0.855419322088027E-001  0.275931553859666E+002  0.449459607526388E-001  0.883616661870797E-001 -0.693147180559945E+000 -0.147708702627356E+002
  0.855419322088027E-001  0.295586719090489E+002  0.648424469932065E-001  0.103856555819461E+000 -0.693147180559945E+000 -0.159066252530081E+002
  0.855419322088027E-001  0.313691994141072E+002  0.354253775355484E-001  0.119422063518567E+000 -0.693147180559945E+000 -0.168118890055372E+002
  0.855419322088027E-001  0.416130900396343E+002 -0.354332293198748E-001  0.685250998683966E-001 -0.693147180559945E+000 -0.219338343183007E+002
  0.855419322088027E-001  0.388870707351095E+002  0.890127570912691E-002  0.795280470557609E-001 -0.693147180559945E+000 -0.205708246660383E+002
  0.855419322088027E-001  0.355649210006924E+002  0.172588912984724E-001  0.829008158457827E-001 -0.693147180559945E+000 -0.189097497988298E+002
  0.855419322088027E-001  0.323942012607611E+002 -0.313653377054768E-002  0.110936939793658E+000 -0.693147180559945E+000 -0.173243899288642E+002
  0.855419322088027E-001  0.317467698593784E+002  0.503801979321916E-001  0.864554711143010E-001 -0.693147180559945E+000 -0.170006742281728E+002
  0.855419322088027E-001  0.289232896944975E+002  0.410522466522172E-001  0.950924848771071E-001 -0.693147180559945E+000 -0.155889341457324E+002
  0.855419322088027E-001  0.399103263459531E+002  0.354549052072108E-001  0.793787959966028E-001 -0.693147180559945E+000 -0.210824524714602E+002
  0.855419322088027E-001  0.277675904453164E+002  0.557720679419107E-001  0.103178699492871E+000 -0.693147180559945E+000 -0.138837952226582E+002
  0.855419322088027E-001  0.309818794064257E+002  0.910093921337138E-001  0.117128599317832E+000 -0.693147180559945E+000 -0.166182290016964E+002
  0.855419322088027E-001  0.431271843622228E+002  0.632676667124230E-001  0.601800132631258E-001 -0.693147180559945E+000 -0.226908814795950E+002
  0.855419322088027E-001  0.356596722649465E+002  0.541390759247391E-001  0.914442970933611E-001 -0.693147180559945E+000 -0.189571254309568E+002
  0.855419322088027E-001  0.336477074056133E+002  0.670210364712023E-001  0.103726777685018E+000 -0.693147180559945E+000 -0.179511430012903E+002
  0.855419322088027E-001  0.338962666826217E+002  0.404635839697201E-001  0.954849729458931E-001 -0.693147180559945E+000 -0.180754226397945E+002
  0.855419322088027E-001  0.294815624392282E+002  0.462525039908039E-001  0.875318023049625E-001 -0.693147180559945E+000 -0.158680705180977E+002
  0.855419322088027E-001  0.356689226649136E+002  0.254210710360891E-001  0.106285087775852E+000 -0.693147180559945E+000 -0.189617506309404E+002
  0.855419322088027E-001  0.312104319206381E+002  0.602774880104096E-001  0.754629050953798E-001 -0.693147180559945E+000 -0.167325052588026E+002
  0.855419322088027E-001  0.323185401139278E+002 -0.185063078952397E-002  0.129894588457963E+000 -0.693147180559945E+000 -0.172865593554475E+002
  0.855419322088027E-001  0.278960439588683E+002  0.778857107850806E-001  0.104181366352661E+000 -0.693147180559945E+000 -0.149223145491864E+002
  0.855419322088027E-001  0.443151540147729E+002  0.493348576300625E-001  0.594099632369664E-001 -0.693147180559945E+000 -0.232848663058701E+002
  0.855419322088027E-001  0.306984914928046E+002  0.410411495042802E-001  0.950882049528670E-001 -0.693147180559945E+000 -0.164765350448859E+002
  0.855419322088027E-001  0.327995300506208E+002  0.562363272063555E-001  0.721700723145271E-001 -0.693147180559945E+000 -0.175270543237940E+002
  0.855419322088027E-001  0.279937356036344E+002  0.908784163702001E-001  0.116984432916326E+000 -0.693147180559945E+000 -0.149711603715695E+002
  0.855419322088027E-001  0.282263753733239E+002  0.567281862412483E-001  0.104180640108440E+000 -0.693147180559945E+000 -0.141131876866619E+002
  0.855419322088027E-001  0.340957296303865E+002  0.609614602655786E-001  0.748520409214987E-001 -0.693147180559945E+000 -0.181751541136769E+002
  0.855419322088027E-001  0.304901191380525E+002  0.381109318310879E-001  0.863525113857224E-001 -0.693147180559945E+000 -0.163723488675099E+002
  0.855419322088027E-001  0.301838277158842E+002  0.609612669184159E-001  0.748518493337425E-001 -0.693147180559945E+000 -0.162192031564257E+002
  0.855419322088027E-001  0.367335032881408E+002  0.117599528643919E-002  0.135161893904172E+000 -0.693147180559945E+000 -0.194940409425540E+002
  0.855419322088027E-001  0.432421533532068E+002  0.976842996091154E-001  0.131793606515113E+000 -0.693147180559945E+000 -0.227483659750870E+002
  0.855419322088027E-001  0.280393135629197E+002  0.106677449141841E+000  0.979639864973459E-001 -0.693147180559945E+000 -0.149939493512121E+002
  0.855419322088027E-001  0.350550662843191E+002  0.584976519593137E-001  0.113416478172933E+000 -0.693147180559945E+000 -0.186548224406431E+002
  0.855419322088027E-001  0.400348440953996E+002  0.273032250957845E-001  0.316127825790670E-001 -0.693147180559945E+000 -0.211447113461834E+002
  0.855419322088027E-001  0.304723719292477E+002  0.103327025031165E+000  0.247191716383990E+000 -0.693147180559945E+000 -0.163634752631074E+002
  0.855419322088027E-001  0.337871769540917E+002  0.294980666761395E-001  0.118911787671941E+000 -0.693147180559945E+000 -0.180208777755295E+002
  0.855419322088027E-001  0.334482459902534E+002  0.874696292908617E-002  0.794600601387572E-001 -0.693147180559945E+000 -0.178514122936103E+002
  0.855419322088027E-001  0.280477440818372E+002  0.408561332412960E-001  0.911169208138313E-001 -0.693147180559945E+000 -0.149981646106709E+002
  0.855419322088027E-001  0.322351931019575E+002  0.744309935689700E-001  0.874538360921311E-001 -0.693147180559945E+000 -0.172448858494623E+002
  0.855419322088027E-001  0.322142792705114E+002  0.556998798413813E-001  0.103130932485903E+000 -0.693147180559945E+000 -0.172344289337393E+002
  0.855419322088027E-001  0.415673160655173E+002  0.593858806935617E-001  0.422749789690954E-001 -0.693147180559945E+000 -0.219109473312422E+002
  0.855419322088027E-001  0.294284041813891E+002  0.490716021615538E-001  0.871270042473062E-001 -0.693147180559945E+000 -0.158414913891782E+002
  0.855419322088027E-001  0.295983557402687E+002  0.886112888352852E-001  0.113470166489981E+000 -0.693147180559945E+000 -0.159264671686179E+002
  0.855419322088027E-001  0.280889829516512E+002  0.103844456136737E+000  0.121611594683162E+000 -0.693147180559945E+000 -0.150187840455779E+002
  0.855419322088027E-001  0.390650199106960E+002  0.771644089472798E-001  0.532361370330895E-001 -0.693147180559945E+000 -0.206597992538316E+002
  0.855419322088027E-001  0.358401558901922E+002  0.867500294911154E-001  0.148444071921777E+000 -0.693147180559945E+000 -0.190473672435797E+002
  0.855419322088027E-001  0.281045350036689E+002  0.380861480101100E-001  0.863645227885066E-001 -0.693147180559945E+000 -0.150265600715868E+002
  0.855419322088027E-001  0.386370769989132E+002  0.740218304243048E-001  0.153206348505980E+000 -0.693147180559945E+000 -0.204458277979402E+002
  0.855419322088027E-001  0.401338592252159E+002 -0.286877252746998E-002  0.652337272888870E-001 -0.693147180559945E+000 -0.211942189110916E+002
  0.855419322088027E-001  0.358468372489137E+002  0.107795813661625E+000  0.870527416776998E-001 -0.693147180559945E+000 -0.190507079229404E+002
  0.855419322088027E-001  0.367841637975377E+002  0.484475219862084E-001  0.959334285970825E-001 -0.693147180559945E+000 -0.195193711972525E+002
  0.855419322088027E-001  0.401734738430498E+002  0.689749067866818E-001  0.550290011557681E-001 -0.693147180559945E+000 -0.212140262200085E+002
  0.855419322088027E-001  0.402151127498438E+002  0.619425768714652E-001  0.464437988100223E-001 -0.693147180559945E+000 -0.212348456734055E+002
  0.855419322088027E-001  0.341147922509281E+002  0.835862978017361E-001  0.387785084055558E-001 -0.693147180559945E+000 -0.181846854239477E+002
  0.855419322088027E-001  0.321769460206014E+002  0.466551363823859E-001  0.934600174000637E-001 -0.693147180559945E+000 -0.172157623087843E+002
  0.855419322088027E-001  0.433814809800244E+002  0.770682479479359E-001  0.823301252029356E-001 -0.693147180559945E+000 -0.228180297884958E+002
  0.855419322088027E-001  0.281249622462662E+002  0.907894004496561E-001  0.116859024620751E+000 -0.693147180559945E+000 -0.150367736928854E+002
  0.855419322088027E-001  0.310007233104561E+002  0.326280361431890E-001  0.651872503806617E-001 -0.693147180559945E+000 -0.166276509537116E+002
  0.855419322088027E-001  0.317761805503320E+002  0.130961502215888E+000  0.869309807413243E-001 -0.693147180559945E+000 -0.170153795736496E+002
  0.855419322088027E-001  0.434085411259329E+002  0.838234294967259E-001  0.506830035963183E-001 -0.693147180559945E+000 -0.228315598614501E+002
  0.855419322088027E-001  0.343561828588130E+002  0.288267205480803E-001  0.100960739663112E+000 -0.693147180559945E+000 -0.183053807278901E+002
  0.855419322088027E-001  0.321727109226589E+002  0.266094810277697E-001  0.724484570156239E-001 -0.693147180559945E+000 -0.172136447598130E+002
  0.855419322088027E-001  0.358804134555824E+002  0.846212661024557E-001  0.104813683709492E+000 -0.693147180559945E+000 -0.190674960262748E+002
  0.855419322088027E-001  0.380394926448898E+002  0.786181697867949E-001  0.100484079461098E+000 -0.693147180559945E+000 -0.201470356209285E+002
  0.855419322088027E-001  0.294332525132507E+002  0.787448160637778E-001  0.819512220535547E-001 -0.693147180559945E+000 -0.158439155551089E+002
  0.855419322088027E-001  0.345543034247731E+002  0.239984921530974E-001  0.126336097748553E+000 -0.693147180559945E+000 -0.184044410108702E+002
  0.855419322088027E-001  0.343198188512743E+002  0.609264134184797E-001  0.539452178529392E-001 -0.693147180559945E+000 -0.182871987241207E+002
  0.855419322088027E-001  0.289559372024557E+002  0.805630134838542E-001  0.101949274040230E+000 -0.693147180559945E+000 -0.154522611709802E+002
  0.855419322088027E-001  0.281513742234803E+002  0.400714075776272E-001  0.952374286854945E-001 -0.693147180559945E+000 -0.150499796814925E+002
  0.855419322088027E-001  0.281643685230754E+002  0.398955082183556E-001  0.952202336052371E-001 -0.693147180559945E+000 -0.150564768312900E+002
  0.855419322088027E-001  0.384063992575321E+002  0.332045696579788E-001  0.124401371270543E+000 -0.693147180559945E+000 -0.203304889272497E+002
  0.855419322088027E-001  0.348361806623503E+002  0.943984333279968E-001  0.546177278027374E-001 -0.693147180559945E+000 -0.185453796296588E+002
  0.855419322088027E-001  0.334857446212725E+002  0.639665160034797E-001  0.730574373642369E-001 -0.693147180559945E+000 -0.178701616091198E+002
  0.855419322088027E-001  0.304406272168267E+002  0.772161509203015E-001  0.982808842925074E-001 -0.693147180559945E+000 -0.163476029068969E+002
  0.855419322088027E-001  0.314326573553214E+002  0.985072118191408E-001  0.885462473451677E-001 -0.693147180559945E+000 -0.168436179761443E+002
  0.855419322088027E-001  0.404186327542587E+002  0.542697831142183E-001  0.187594221111362E-001 -0.693147180559945E+000 -0.213366056756130E+002
  0.855419322088027E-001  0.359326108470993E+002  0.684082672164923E-001  0.125894637574420E+000 -0.693147180559945E+000 -0.190935947220332E+002
  0.855419322088027E-001  0.321175730711372E+002  0.993091694572612E-001  0.876916733227204E-001 -0.693147180559945E+000 -0.171860758340522E+002
  0.855419322088027E-001  0.342735320154970E+002  0.624307524140308E-001  0.764443262442822E-001 -0.693147180559945E+000 -0.182640553062321E+002
  0.855419322088027E-001  0.320060999774607E+002  0.608227086740769E-001  0.746739476869063E-001 -0.693147180559945E+000 -0.171303392872140E+002
  0.855419322088027E-001  0.404791651425947E+002  0.568500957766531E-001  0.478158142221021E-001 -0.693147180559945E+000 -0.213668718697810E+002
  0.855419322088027E-001  0.291357121894510E+002  0.199695141038254E-001  0.825099901154092E-001 -0.693147180559945E+000 -0.156951453932091E+002
  0.855419322088027E-001  0.282742037937099E+002  0.584123288868290E-001  0.735014174693920E-001 -0.693147180559945E+000 -0.151113944666073E+002
  0.855419322088027E-001  0.385819112258423E+002  0.710900396569043E-001  0.766806992556498E-001 -0.693147180559945E+000 -0.204182449114047E+002
  0.855419322088027E-001  0.359972848795686E+002  0.329577511622692E-001  0.122971715048546E+000 -0.693147180559945E+000 -0.191259317382679E+002
  0.855419322088027E-001  0.319858097444064E+002  0.746556509418761E-001  0.860822366729115E-001 -0.693147180559945E+000 -0.171201941706868E+002
  0.855419322088027E-001  0.319823108766454E+002  0.817194650289810E-001  0.134859892826054E+000 -0.693147180559945E+000 -0.171184447368063E+002
  0.855419322088027E-001  0.310344567002454E+002  0.294973721642020E-001  0.118896433900426E+000 -0.693147180559945E+000 -0.166445176486063E+002
  0.855419322088027E-001  0.282985196776698E+002  0.781529231767586E-001  0.822866378002670E-001 -0.693147180559945E+000 -0.151235524085872E+002
  0.855419322088027E-001  0.379032698323116E+002  0.753016784697391E-001  0.857662331771756E-001 -0.693147180559945E+000 -0.200789242146394E+002
  0.855419322088027E-001  0.283224076433805E+002  0.740483564698984E-001  0.110328454105095E+000 -0.693147180559945E+000 -0.151354963914426E+002
  0.855419322088027E-001  0.283259374470056E+002  0.590939233295551E-001  0.755434374497846E-001 -0.693147180559945E+000 -0.151372612932551E+002
  0.855419322088027E-001  0.405436147111857E+002  0.909155359752574E-001  0.190882225122422E+000 -0.693147180559945E+000 -0.213990966540764E+002
  0.855419322088027E-001  0.319771807831687E+002  0.605015439671057E-001  0.800696488862856E-001 -0.693147180559945E+000 -0.171158796900680E+002
  0.855419322088027E-001  0.319672021332665E+002  0.853030155868244E-001  0.705388620454626E-001 -0.693147180559945E+000 -0.171108903651168E+002
  0.855419322088027E-001  0.283650990043403E+002  0.760771254060815E-001  0.926243414881309E-001 -0.693147180559945E+000 -0.151568420719225E+002
  0.855419322088027E-001  0.376391607463989E+002  0.671825077254005E-001  0.489284701124329E-001 -0.693147180559945E+000 -0.199468696716831E+002
  0.855419322088027E-001  0.360582642541801E+002  0.710746670491824E-001  0.978002950617294E-001 -0.693147180559945E+000 -0.191564214255737E+002
  0.855419322088027E-001  0.319429247980440E+002  0.127721943469952E-001  0.812160626919012E-001 -0.693147180559945E+000 -0.170987516975056E+002
  0.855419322088027E-001  0.346090642701588E+002  0.100827494830338E+000  0.111907517446938E+000 -0.693147180559945E+000 -0.184318214335630E+002
  0.855419322088027E-001  0.300381602478864E+002  0.644928393282145E-001  0.703565234144086E-001 -0.693147180559945E+000 -0.161463694224268E+002
  0.855419322088027E-001  0.319283290617908E+002  0.556998799316180E-001  0.103130932518252E+000 -0.693147180559945E+000 -0.170914538293790E+002
  0.855419322088027E-001  0.451898577207960E+002  0.519630216023390E-001  0.283176199691825E-001 -0.693147180559945E+000 -0.237222181588816E+002
  0.855419322088027E-001  0.332745712513889E+002  0.301703234932282E-001  0.100955698403849E+000 -0.693147180559945E+000 -0.177645749241781E+002
  0.855419322088027E-001  0.447572301875317E+002  0.634220143497826E-001  0.822023516779403E-001 -0.693147180559945E+000 -0.235059043922495E+002
  0.855419322088027E-001  0.332669719369527E+002  0.311393408377028E-001  0.891461661117469E-001 -0.693147180559945E+000 -0.177607752669599E+002
  0.855419322088027E-001  0.335978906233727E+002  0.282185666361796E-001  0.126641441239338E+000 -0.693147180559945E+000 -0.179262346101700E+002
  0.855419322088027E-001  0.300349358094429E+002  0.894795659264542E-001  0.112331779287932E+000 -0.693147180559945E+000 -0.161447572032050E+002
  0.855419322088027E-001  0.406373026501136E+002  0.908044746340542E-003  0.413318820424186E-001 -0.693147180559945E+000 -0.214459406235404E+002
  0.855419322088027E-001  0.390369930935897E+002  0.669145974195788E-001  0.120878993498333E+000 -0.693147180559945E+000 -0.206457858452785E+002
  0.855419322088027E-001  0.332573658132595E+002  0.637580199656875E-001  0.754373312876382E-001 -0.693147180559945E+000 -0.177559722051134E+002
  0.855419322088027E-001  0.438620313316105E+002  0.321067089046783E-001  0.596240793551540E-001 -0.693147180559945E+000 -0.230583049642888E+002
  0.855419322088027E-001  0.291727056356859E+002  0.712452446357268E-001  0.958489016307536E-001 -0.693147180559945E+000 -0.157136421163266E+002
  0.855419322088027E-001  0.337355213484813E+002  0.636259626085180E-001  0.727892162062603E-001 -0.693147180559945E+000 -0.179950499727243E+002
  0.855419322088027E-001  0.317907520582798E+002  0.392610329668763E-001  0.565652725782270E-001 -0.693147180559945E+000 -0.170226653276235E+002
  0.855419322088027E-001  0.313571603461988E+002  0.398953245026643E-001  0.952179387874774E-001 -0.693147180559945E+000 -0.168058694715830E+002
  0.855419322088027E-001  0.361277806881009E+002  0.517036242389672E-001  0.612980722422181E-001 -0.693147180559945E+000 -0.191911796425341E+002
  0.855419322088027E-001  0.371461108561738E+002  0.216396517687409E-001  0.543556484575401E-001 -0.693147180559945E+000 -0.197003447265705E+002
  0.855419322088027E-001  0.388122944993521E+002  0.928295296908996E-001  0.101079859064467E+000 -0.693147180559945E+000 -0.205334365481596E+002
  0.855419322088027E-001  0.287785102104419E+002  0.239091321903584E-001  0.774246691286439E-001 -0.693147180559945E+000 -0.153635476749733E+002
  0.855419322088027E-001  0.288665123506225E+002  0.466627229965184E-001  0.118252224073087E+000 -0.693147180559945E+000 -0.155605454737948E+002
  0.855419322088027E-001  0.291847101373067E+002  0.372951166083002E-001  0.961933568695035E-001 -0.693147180559945E+000 -0.157196443671370E+002
  0.855419322088027E-001  0.300212591405629E+002  0.695301935167953E-001  0.751833089943290E-001 -0.693147180559945E+000 -0.161379188687650E+002
  0.855419322088027E-001  0.440469524415353E+002 -0.274817956037692E-001  0.805160047718945E-001 -0.693147180559945E+000 -0.231507655192512E+002
  0.855419322088027E-001  0.372933799549523E+002  0.111035146837222E-001  0.535148228187483E-001 -0.693147180559945E+000 -0.197739792759598E+002
  0.855419322088027E-001  0.288000084282109E+002  0.420982418579461E-001  0.942795999078716E-001 -0.693147180559945E+000 -0.153742967838578E+002
  0.855419322088027E-001  0.330407157476142E+002  0.693896288712632E-001  0.103920924871303E+000 -0.693147180559945E+000 -0.176476471722907E+002
  0.855419322088027E-001  0.361938285543583E+002  0.284025393374343E-001  0.456801695496868E-001 -0.693147180559945E+000 -0.192242035756627E+002
  0.855419322088027E-001  0.318138792914595E+002  0.678122028364558E-001  0.101352059795734E+000 -0.693147180559945E+000 -0.170342289442134E+002
  0.855419322088027E-001  0.289709320509549E+002  0.719593170108241E-001  0.129554943329434E+000 -0.693147180559945E+000 -0.156127553239611E+002
  0.855419322088027E-001  0.289223655063372E+002  0.379098480858482E-001  0.806180438162653E-001 -0.693147180559945E+000 -0.154354753229209E+002
  0.855419322088027E-001  0.349104059825055E+002  0.975135088586716E-001  0.868476535767309E-001 -0.693147180559945E+000 -0.185824922897364E+002
  0.855419322088027E-001  0.372458373355050E+002  0.422098012036678E-001  0.334975189824020E-001 -0.693147180559945E+000 -0.197502079662361E+002
  0.855419322088027E-001  0.307928347242140E+002  0.540265770485135E-001  0.901787622958421E-001 -0.693147180559945E+000 -0.165237066605906E+002
  0.855419322088027E-001  0.288575336636134E+002  0.458033133813467E-001  0.895165362271342E-001 -0.693147180559945E+000 -0.154030594015590E+002
  0.855419322088027E-001  0.288673209570726E+002  0.462651002038434E-001  0.875392448227309E-001 -0.693147180559945E+000 -0.154079530482886E+002
  0.855419322088027E-001  0.347121968465305E+002  0.749652615987473E-001  0.997621505210002E-001 -0.693147180559945E+000 -0.184833877217489E+002
  0.855419322088027E-001  0.288865072390492E+002  0.410420274062029E-001  0.950874518597711E-001 -0.693147180559945E+000 -0.154175461892769E+002
  0.855419322088027E-001  0.381362614808913E+002  0.301688698579587E-001  0.998434413380944E-001 -0.693147180559945E+000 -0.201954200389293E+002
  0.855419322088027E-001  0.223998645321729E+002  0.507170304859659E-001  0.949220537414672E-001 -0.693147180559945E+000 -0.111999322660865E+002
