  0.114301007307234E-001  0.242895093278007E+002  0.670833093882459E-001  0.121131987178393E+000 -0.693147180559945E+000 -0.121447546639004E+002
  0.114301007307234E-001  0.244843045311743E+002  0.670533647556397E-001  0.121025185812641E+000 -0.693147180559945E+000 -0.122421522655871E+002
  0.114301007307234E-001  0.237804909420921E+002  0.670833093801064E-001  0.121131987138525E+000 -0.693147180559945E+000 -0.118902454710461E+002
  0.114301007307234E-001  0.324977862734441E+002  0.711578225608207E-001  0.871549546503226E-001 -0.693147180559945E+000 -0.186929801993350E+002
  0.114301007307234E-001  0.302628117623083E+002  0.116693718608342E+000  0.111433632976608E+000 -0.693147180559945E+000 -0.175754929437671E+002
  0.114301007307234E-001  0.300282480965600E+002  0.263620408579888E-001  0.113848411439894E+000 -0.693147180559945E+000 -0.174582111108930E+002
  0.114301007307234E-001  0.265021166611922E+002  0.199695141038254E-001  0.825099901154092E-001 -0.693147180559945E+000 -0.156951453932091E+002
  0.114301007307234E-001  0.300122993630726E+002  0.282130880404430E-001  0.126630742510583E+000 -0.693147180559945E+000 -0.174502367441493E+002
  0.114301007307234E-001  0.260588184625742E+002  0.381127945501918E-001  0.863583639547817E-001 -0.693147180559945E+000 -0.154734962939001E+002
  0.114301007307234E-001  0.252901150126855E+002  0.670829864397069E-001  0.121132070520416E+000 -0.693147180559945E+000 -0.126450575063427E+002
  0.114301007307234E-001  0.355026659526325E+002  0.301688698579587E-001  0.998434413380944E-001 -0.693147180559945E+000 -0.201954200389293E+002
  0.114301007307234E-001  0.283162809844928E+002  0.512696985868286E-001  0.901328449428331E-001 -0.693147180559945E+000 -0.166022275548594E+002
  0.114301007307234E-001  0.293011275531663E+002  0.360683538594992E-001  0.843540716359535E-001 -0.693147180559945E+000 -0.170946508391962E+002
  0.114301007307234E-001  0.255412828444287E+002  0.670830744287445E-001  0.121132097645709E+000 -0.693147180559945E+000 -0.127706414222144E+002
  0.114301007307234E-001  0.299937058233242E+002  0.695302087412635E-001  0.751833025622976E-001 -0.693147180559945E+000 -0.174409399742751E+002
  0.114301007307234E-001  0.367460975215979E+002  0.102929745441494E+000  0.680839709877164E-001 -0.693147180559945E+000 -0.208171358234119E+002
  0.114301007307234E-001  0.293573456609865E+002  0.125945454634446E-001  0.924100658773557E-001 -0.693147180559945E+000 -0.171227598931062E+002
  0.114301007307234E-001  0.301944271893855E+002  0.718771973950687E-001  0.129797522585546E+000 -0.693147180559945E+000 -0.175413006573057E+002
  0.114301007307234E-001  0.357748885959501E+002  0.152593477424978E-001  0.149789334484817E+000 -0.693147180559945E+000 -0.203315313605880E+002
  0.114301007307234E-001  0.299779710179566E+002  0.852835900781239E-001  0.127139673281932E+000 -0.693147180559945E+000 -0.174330725715913E+002
  0.114301007307234E-001  0.357909215889332E+002  0.995811871354226E-001  0.133063388729443E+000 -0.693147180559945E+000 -0.203395478570796E+002
  0.114301007307234E-001  0.306333764086939E+002  0.311393408377028E-001  0.891461661117469E-001 -0.693147180559945E+000 -0.177607752669599E+002
  0.114301007307234E-001  0.292873310900063E+002  0.505702224524838E-001  0.106873618172889E+000 -0.693147180559945E+000 -0.170877526076162E+002
  0.114301007307234E-001  0.326335272070265E+002  0.440647663975537E-001  0.920641098472160E-001 -0.693147180559945E+000 -0.187608506661262E+002
  0.114301007307234E-001  0.265638547092004E+002  0.619101035409879E-001  0.125849443991686E+000 -0.693147180559945E+000 -0.157260144172132E+002
  0.114301007307234E-001  0.288278258367324E+002  0.109180156718350E+000  0.751569726811936E-001 -0.693147180559945E+000 -0.168579999809792E+002
  0.114301007307234E-001  0.294105598156463E+002  0.592250818347340E-001  0.735348636214039E-001 -0.693147180559945E+000 -0.171493669704361E+002
  0.114301007307234E-001  0.265982003509370E+002  0.902418924035955E-001  0.118031803221325E+000 -0.693147180559945E+000 -0.157431872380815E+002
  0.114301007307234E-001  0.306409757231302E+002  0.301703234932282E-001  0.100955698403849E+000 -0.693147180559945E+000 -0.177645749241781E+002
  0.114301007307234E-001  0.306436705474739E+002  0.293011260638671E-001  0.118297004195129E+000 -0.693147180559945E+000 -0.177659223363499E+002
  0.114301007307234E-001  0.299772791831743E+002 -0.185063077357306E-002  0.129894588465069E+000 -0.693147180559945E+000 -0.174327266542002E+002
  0.114301007307234E-001  0.266210279923345E+002  0.504010266303334E-001  0.864503123160784E-001 -0.693147180559945E+000 -0.157546010587802E+002
  0.114301007307234E-001  0.287527797195454E+002  0.912593352008015E-001  0.119862186639074E+000 -0.693147180559945E+000 -0.168204769223857E+002
  0.114301007307234E-001  0.306667370006695E+002  0.700189919017038E-001  0.699516650744772E-001 -0.693147180559945E+000 -0.177774555629477E+002
  0.114301007307234E-001  0.266553049877739E+002  0.602524660184189E-001  0.108238199871111E+000 -0.693147180559945E+000 -0.157717395564999E+002
  0.114301007307234E-001  0.266840817105692E+002  0.411557034603767E-001  0.950768303731226E-001 -0.693147180559945E+000 -0.157861279178976E+002
  0.114301007307234E-001  0.266884517999972E+002  0.635660312528110E-001  0.709540939812756E-001 -0.693147180559945E+000 -0.157883129626116E+002
  0.114301007307234E-001  0.336743141177044E+002  0.355160196615270E-001  0.893795109353035E-001 -0.693147180559945E+000 -0.192812441214652E+002
  0.114301007307234E-001  0.337048896101809E+002  0.106269008735644E+000  0.582438085514808E-001 -0.693147180559945E+000 -0.192965318677035E+002
  0.114301007307234E-001  0.267216106965686E+002  0.653413833024117E-001  0.105458622229056E+000 -0.693147180559945E+000 -0.158048924108973E+002
  0.114301007307234E-001  0.337138513293551E+002  0.324256966283405E-001  0.122059826131993E+000 -0.693147180559945E+000 -0.193010127272905E+002
  0.114301007307234E-001  0.267231536336664E+002  0.502583850845970E-001  0.951886258517428E-001 -0.693147180559945E+000 -0.158056638794462E+002
  0.114301007307234E-001  0.299521618562901E+002  0.459013846215961E-001  0.873733813666474E-001 -0.693147180559945E+000 -0.174201679907580E+002
  0.114301007307234E-001  0.260956322309533E+002  0.490716021586408E-001  0.871270042530520E-001 -0.693147180559945E+000 -0.154919031780896E+002
  0.114301007307234E-001  0.326767892983669E+002  0.491839537940473E-001  0.867644566733559E-001 -0.693147180559945E+000 -0.187824817117965E+002
  0.114301007307234E-001  0.267609221210344E+002  0.719573839178167E-001  0.129563143250285E+000 -0.693147180559945E+000 -0.158245481231302E+002
  0.114301007307234E-001  0.459314303679745E+002 -0.463999225398626E-002  0.967486409899405E-001 -0.693147180559945E+000 -0.254098022466002E+002
  0.114301007307234E-001  0.292246875739481E+002  0.765430690218376E-001  0.111895584515809E+000 -0.693147180559945E+000 -0.170564308495870E+002
  0.114301007307234E-001  0.337887359851969E+002  0.251591338087818E-001  0.144549862024226E+000 -0.693147180559945E+000 -0.193384550552115E+002
  0.114301007307234E-001  0.267900007099306E+002  0.419892541814939E-001  0.771709515161600E-001 -0.693147180559945E+000 -0.158390874175783E+002
  0.114301007307234E-001  0.315774838363806E+002  0.123932579247708E-001  0.810909210831723E-001 -0.693147180559945E+000 -0.182328289808033E+002
  0.114301007307234E-001  0.370221115058345E+002 -0.380732641168802E-002  0.602326181786700E-001 -0.693147180559945E+000 -0.209551428155302E+002
  0.114301007307234E-001  0.326817100565826E+002  0.661515084106739E-001  0.163051436812324E+000 -0.693147180559945E+000 -0.187849420909043E+002
  0.114301007307234E-001  0.267996569849919E+002  0.787448160637778E-001  0.819512220535547E-001 -0.693147180559945E+000 -0.158439155551089E+002
  0.114301007307234E-001  0.268010812086941E+002  0.440261954595451E-001  0.127568829731494E+000 -0.693147180559945E+000 -0.158446276669600E+002
  0.114301007307234E-001  0.268279321896472E+002  0.381127953428886E-001  0.863583669303623E-001 -0.693147180559945E+000 -0.158580531574366E+002
  0.114301007307234E-001  0.268346940658861E+002  0.506703843547469E-001  0.950133683164066E-001 -0.693147180559945E+000 -0.158614340955560E+002
  0.114301007307234E-001  0.292115395356638E+002  0.616253174787513E-001  0.857306456718142E-001 -0.693147180559945E+000 -0.170498568304449E+002
  0.114301007307234E-001  0.354454786535603E+002 -0.145881354993715E-004  0.114849156912917E+000 -0.693147180559945E+000 -0.201668263893932E+002
  0.114301007307234E-001  0.306304076443866E+002  0.500795747616083E-001  0.117531099224171E+000 -0.693147180559945E+000 -0.177592908848063E+002
  0.114301007307234E-001  0.268479669109694E+002  0.462525039908039E-001  0.875318023049625E-001 -0.693147180559945E+000 -0.158680705180977E+002
  0.114301007307234E-001  0.338680945860433E+002  0.701162372044890E-001  0.862338681871371E-001 -0.693147180559945E+000 -0.193781343556346E+002
  0.114301007307234E-001  0.452441695514853E+002  0.975452541557329E-001  0.749688782775317E-002 -0.693147180559945E+000 -0.250661718383557E+002
  0.114301007307234E-001  0.358872869916109E+002  0.725611001675122E-001  0.552260986012568E-001 -0.693147180559945E+000 -0.203877305584184E+002
  0.114301007307234E-001  0.262404486281452E+002  0.503842562296266E-001  0.850682998601733E-001 -0.693147180559945E+000 -0.155643113766856E+002
  0.114301007307234E-001  0.326818423906378E+002  0.482837201578776E-001  0.692438841791109E-001 -0.693147180559945E+000 -0.187850082579319E+002
  0.114301007307234E-001  0.299509384789418E+002  0.516282725687149E-001  0.109914831818888E+000 -0.693147180559945E+000 -0.174195563020839E+002
  0.114301007307234E-001  0.315530374328005E+002  0.845766198303253E-001  0.650413495523225E-001 -0.693147180559945E+000 -0.182206057790132E+002
  0.114301007307234E-001  0.338851868863337E+002  0.111506105445390E+000  0.935332958761151E-001 -0.693147180559945E+000 -0.193866805057798E+002
  0.114301007307234E-001  0.434128334590680E+002  0.346352923508069E-001  0.173806261146343E-001 -0.693147180559945E+000 -0.241505037921470E+002
  0.114301007307234E-001  0.268785281570679E+002  0.503833998005963E-001  0.864547442835323E-001 -0.693147180559945E+000 -0.158833511411469E+002
  0.114301007307234E-001  0.334656804029910E+002  0.354231691149267E-001  0.119455057809135E+000 -0.693147180559945E+000 -0.191769272641085E+002
  0.114301007307234E-001  0.292112581054032E+002  0.462636273194055E-001  0.875413130197046E-001 -0.693147180559945E+000 -0.170497161153146E+002
  0.114301007307234E-001  0.269165905051947E+002  0.442241274553510E-001  0.880280963848724E-001 -0.693147180559945E+000 -0.159023823152104E+002
  0.114301007307234E-001  0.269250763807902E+002  0.648424469932065E-001  0.103856555819461E+000 -0.693147180559945E+000 -0.159066252530081E+002
  0.114301007307234E-001  0.261089998597838E+002  0.743181524176382E-001  0.874269067493670E-001 -0.693147180559945E+000 -0.154985869925049E+002
  0.114301007307234E-001  0.299395757614034E+002  0.812729445303100E-001  0.865655253662979E-001 -0.693147180559945E+000 -0.174138749433147E+002
  0.114301007307234E-001  0.403673495383024E+002  0.538516721837048E-001  0.155233623618448E-001 -0.693147180559945E+000 -0.226277618317642E+002
  0.114301007307234E-001  0.269442581806031E+002  0.746106781866913E-001  0.944470869135409E-001 -0.693147180559945E+000 -0.159162161529146E+002
  0.114301007307234E-001  0.339407975339222E+002  0.111772771824135E+000  0.143007186869296E+000 -0.693147180559945E+000 -0.194144858295741E+002
  0.114301007307234E-001  0.262939826781020E+002  0.293008118257163E-001  0.118297011557308E+000 -0.693147180559945E+000 -0.155910784016640E+002
  0.114301007307234E-001  0.261167785171010E+002  0.760770959515367E-001  0.926244983576853E-001 -0.693147180559945E+000 -0.155024763211635E+002
  0.114301007307234E-001  0.300892738619827E+002  0.532455772600500E-001  0.911697658421076E-001 -0.693147180559945E+000 -0.174887239936043E+002
  0.114301007307234E-001  0.283468631494761E+002  0.640110906114002E-001  0.732868807530979E-001 -0.693147180559945E+000 -0.166175186373510E+002
  0.114301007307234E-001  0.359297037805938E+002  0.863686628215217E-001  0.972470896949111E-001 -0.693147180559945E+000 -0.204089389529099E+002
  0.114301007307234E-001  0.359483156975835E+002  0.710900396569043E-001  0.766806992556498E-001 -0.693147180559945E+000 -0.204182449114047E+002
  0.114301007307234E-001  0.306237924685844E+002  0.740541938390031E-001  0.866395475745281E-001 -0.693147180559945E+000 -0.177559832969052E+002
  0.114301007307234E-001  0.269592948143278E+002  0.380861476778365E-001  0.863645228479132E-001 -0.693147180559945E+000 -0.159237344697769E+002
  0.114301007307234E-001  0.339902988364802E+002  0.334695588157481E-001  0.122154327524721E+000 -0.693147180559945E+000 -0.194392364808531E+002
  0.114301007307234E-001  0.264143022960337E+002  0.101298270429486E+000  0.788646225987747E-001 -0.693147180559945E+000 -0.156512382106298E+002
  0.114301007307234E-001  0.269647602120099E+002  0.886112888352852E-001  0.113470166489981E+000 -0.693147180559945E+000 -0.159264671686179E+002
  0.114301007307234E-001  0.372657374621868E+002  0.289893934592811E-001  0.126566889895508E+000 -0.693147180559945E+000 -0.210769557937064E+002
  0.114301007307234E-001  0.307255521784040E+002  0.639668506711286E-001  0.730575154905523E-001 -0.693147180559945E+000 -0.178068631518150E+002
  0.114301007307234E-001  0.339996716998619E+002  0.131049521489018E+000  0.870650378106937E-001 -0.693147180559945E+000 -0.194439229125440E+002
  0.114301007307234E-001  0.435062201088006E+002  0.730393245531413E-001  0.153193989421171E-001 -0.693147180559945E+000 -0.241971971170133E+002
  0.114301007307234E-001  0.294535984980967E+002  0.576124865820933E-001  0.110387654378792E+000 -0.693147180559945E+000 -0.171708863116613E+002
  0.114301007307234E-001  0.303551812425593E+002  0.660764023989568E-001  0.943798671491957E-001 -0.693147180559945E+000 -0.176216776838926E+002
  0.114301007307234E-001  0.306237702850008E+002  0.637580199656875E-001  0.754373312876382E-001 -0.693147180559945E+000 -0.177559722051134E+002
  0.114301007307234E-001  0.283482838781669E+002  0.910093921337138E-001  0.117128599317832E+000 -0.693147180559945E+000 -0.166182290016964E+002
  0.114301007307234E-001  0.298645873670667E+002  0.576126170920834E-001  0.110387525978557E+000 -0.693147180559945E+000 -0.173763807461463E+002
  0.114301007307234E-001  0.316537543435140E+002  0.684112170541258E-001  0.947266615517988E-001 -0.693147180559945E+000 -0.182709642343700E+002
  0.114301007307234E-001  0.270051559348135E+002  0.609616139467088E-001  0.748519798986128E-001 -0.693147180559945E+000 -0.159466650300197E+002
  0.114301007307234E-001  0.311642360472953E+002  0.172591303255460E-001  0.829003538397567E-001 -0.693147180559945E+000 -0.180262050862606E+002
  0.114301007307234E-001  0.316723785224055E+002  0.294969923901021E-001  0.118896270963636E+000 -0.693147180559945E+000 -0.182802763238158E+002
  0.114301007307234E-001  0.291888706267634E+002  0.276548512572325E-001  0.116188936006555E+000 -0.693147180559945E+000 -0.170385223759947E+002
  0.114301007307234E-001  0.287106584577573E+002  0.507169983161158E-001  0.949221220042328E-001 -0.693147180559945E+000 -0.167994162914916E+002
  0.114301007307234E-001  0.270908815918681E+002  0.609616139432592E-001  0.748519798945078E-001 -0.693147180559945E+000 -0.159895278585470E+002
  0.114301007307234E-001  0.303618074820744E+002  0.252073507119768E-001  0.790390161596348E-001 -0.693147180559945E+000 -0.176249908036502E+002
  0.114301007307234E-001  0.298531184619971E+002  0.851917069784889E-001  0.671741693279878E-001 -0.693147180559945E+000 -0.173706462936115E+002
  0.114301007307234E-001  0.291884079965238E+002  0.670824444352158E-001  0.121145110403472E+000 -0.693147180559945E+000 -0.170382910608749E+002
  0.114301007307234E-001  0.327975380735555E+002  0.797764783499655E-001  0.988192100773186E-001 -0.693147180559945E+000 -0.188428560993907E+002
  0.114301007307234E-001  0.291733575959226E+002  0.851917069786903E-001  0.671741693282254E-001 -0.693147180559945E+000 -0.170307658605743E+002
  0.114301007307234E-001  0.307693630103748E+002  0.425213303569680E-001  0.141916683457394E+000 -0.693147180559945E+000 -0.178287685678004E+002
  0.114301007307234E-001  0.373518592030499E+002  0.404149266995184E-001  0.864716195564197E-001 -0.693147180559945E+000 -0.211200166641379E+002
  0.114301007307234E-001  0.298301450755634E+002  0.622297791330260E-001  0.933181839136999E-001 -0.693147180559945E+000 -0.173591596003947E+002
  0.114301007307234E-001  0.306053419282834E+002  0.647565501019012E-001  0.952900166167976E-001 -0.693147180559945E+000 -0.177467580267547E+002
  0.114301007307234E-001  0.289962943537316E+002  0.252353781490595E-001  0.644398914611253E-001 -0.693147180559945E+000 -0.169422342394788E+002
  0.114301007307234E-001  0.291592514304048E+002  0.263692242358073E-001  0.880447144766065E-001 -0.693147180559945E+000 -0.170237127778154E+002
  0.114301007307234E-001  0.328312946914354E+002  0.401066451974590E-001  0.114157841232660E+000 -0.693147180559945E+000 -0.188597344083307E+002
  0.114301007307234E-001  0.286019981355189E+002  0.480598771162879E-001  0.879629018351422E-001 -0.693147180559945E+000 -0.167450861303724E+002
  0.114301007307234E-001  0.301268535328709E+002  0.752825993781312E-001  0.944846432030179E-001 -0.693147180559945E+000 -0.175075138290485E+002
  0.114301007307234E-001  0.313311863487737E+002  0.636374990475308E-001  0.950024403507000E-001 -0.693147180559945E+000 -0.181096802369998E+002
  0.114301007307234E-001  0.271185375679248E+002  0.506576889978001E-001  0.866733779401585E-001 -0.693147180559945E+000 -0.160033558465754E+002
  0.114301007307234E-001  0.308146504619946E+002  0.874696292908617E-002  0.794600601387572E-001 -0.693147180559945E+000 -0.178514122936103E+002
  0.114301007307234E-001  0.313839563851358E+002  0.668386618519470E-001  0.108186270780486E+000 -0.693147180559945E+000 -0.181360652551809E+002
  0.114301007307234E-001  0.287206422924885E+002  0.128000833189601E-001  0.812226450096667E-001 -0.693147180559945E+000 -0.168044082088572E+002
  0.114301007307234E-001  0.285871345716610E+002  0.897205848154905E-001  0.112971255390427E+000 -0.693147180559945E+000 -0.167376543484435E+002
  0.114301007307234E-001  0.271318148832388E+002  0.247490857854356E-001  0.144306400297542E+000 -0.693147180559945E+000 -0.160099945042324E+002
  0.114301007307234E-001  0.271677254864483E+002  0.420955282011306E-001  0.772108602233233E-001 -0.693147180559945E+000 -0.160279498058371E+002
  0.114301007307234E-001  0.329313254724336E+002  0.172588912984724E-001  0.829008158457827E-001 -0.693147180559945E+000 -0.189097497988298E+002
  0.114301007307234E-001  0.406680693106032E+002  0.684294840893658E-001  0.931784918147298E-001 -0.693147180559945E+000 -0.227781217179146E+002
  0.114301007307234E-001  0.341475386886414E+002  0.413728836817087E-001  0.961017676952600E-001 -0.693147180559945E+000 -0.195178564069337E+002
  0.114301007307234E-001  0.353656806810426E+002  0.334986303756437E-001  0.104963520016849E+000 -0.693147180559945E+000 -0.201269274031343E+002
  0.114301007307234E-001  0.271755175311179E+002  0.759590461369144E-001  0.611516637631855E-001 -0.693147180559945E+000 -0.160318458281720E+002
  0.114301007307234E-001  0.361167659338325E+002  0.553294716518773E-001  0.277119786627056E-001 -0.693147180559945E+000 -0.205024700295292E+002
  0.114301007307234E-001  0.317165893055553E+002  0.442241279931905E-001  0.880280872903936E-001 -0.693147180559945E+000 -0.183023817153907E+002
  0.114301007307234E-001  0.375028598697084E+002  0.256115289516532E-001  0.544233479148593E-001 -0.693147180559945E+000 -0.211955169974672E+002
  0.114301007307234E-001  0.317225873305542E+002  0.288267205480803E-001  0.100960739663112E+000 -0.693147180559945E+000 -0.183053807278901E+002
  0.114301007307234E-001  0.272162978168645E+002  0.529333025478680E-001  0.766761337465019E-001 -0.693147180559945E+000 -0.160522359710452E+002
  0.114301007307234E-001  0.289702569463222E+002  0.667108849599110E-001  0.177949591174688E+000 -0.693147180559945E+000 -0.169292155357741E+002
  0.114301007307234E-001  0.272562772505379E+002  0.350806697658526E-001  0.112353766244601E+000 -0.693147180559945E+000 -0.160722256878820E+002
  0.114301007307234E-001  0.329600323055288E+002  0.272474534610601E-001  0.125280500400837E+000 -0.693147180559945E+000 -0.189241032153774E+002
  0.114301007307234E-001  0.361465846104124E+002  0.108589068183052E+000  0.100707499651939E+000 -0.693147180559945E+000 -0.205173793678192E+002
  0.114301007307234E-001  0.361519241233698E+002  0.111758474575128E-001  0.535468819825901E-001 -0.693147180559945E+000 -0.205200491242979E+002
  0.114301007307234E-001  0.334246687259213E+002  0.710746670491824E-001  0.978002950617294E-001 -0.693147180559945E+000 -0.191564214255737E+002
  0.114301007307234E-001  0.272682998854006E+002  0.760770960098329E-001  0.926244982958038E-001 -0.693147180559945E+000 -0.160782370053133E+002
  0.114301007307234E-001  0.407749455976741E+002  0.838234294967259E-001  0.506830035963183E-001 -0.693147180559945E+000 -0.228315598614501E+002
  0.114301007307234E-001  0.283826802701757E+002  0.644928393279369E-001  0.703565234066767E-001 -0.693147180559945E+000 -0.166354271977009E+002
  0.114301007307234E-001  0.353640954928492E+002  0.662487627341064E-001  0.541571867723220E-001 -0.693147180559945E+000 -0.201261348090376E+002
  0.114301007307234E-001  0.272997667779238E+002  0.509788918210354E-001  0.911331582739646E-001 -0.693147180559945E+000 -0.160939704515749E+002
  0.114301007307234E-001  0.342235361202110E+002  0.978216853882123E-001  0.940461677454686E-001 -0.693147180559945E+000 -0.195558551227185E+002
  0.114301007307234E-001  0.342423652532377E+002  0.978936225214613E-001  0.779111754207842E-001 -0.693147180559945E+000 -0.195652696892318E+002
  0.114301007307234E-001  0.273050868239722E+002  0.491129753517665E-001  0.990586043066160E-001 -0.693147180559945E+000 -0.160966304745991E+002
  0.114301007307234E-001  0.297502537244392E+002  0.910559994798388E-001  0.117142645699248E+000 -0.693147180559945E+000 -0.173192139248326E+002
  0.114301007307234E-001  0.288403252436710E+002  0.499512178171726E-001  0.117607973884584E+000 -0.693147180559945E+000 -0.168642496844485E+002
  0.114301007307234E-001  0.283861361504413E+002  0.509699670072374E-001  0.911299803749973E-001 -0.693147180559945E+000 -0.166371551378336E+002
  0.114301007307234E-001  0.283867590387974E+002  0.617152101394915E-001  0.747077642159437E-001 -0.693147180559945E+000 -0.166374665820117E+002
  0.114301007307234E-001  0.317441513586912E+002  0.359059496639231E-001  0.119558038139716E+000 -0.693147180559945E+000 -0.183161627419586E+002
  0.114301007307234E-001  0.263924194985579E+002  0.644928393291102E-001  0.703565234075496E-001 -0.693147180559945E+000 -0.156402968118919E+002
  0.114301007307234E-001  0.308521490930137E+002  0.639665160034797E-001  0.730574373642369E-001 -0.693147180559945E+000 -0.178701616091198E+002
  0.114301007307234E-001  0.361735029021871E+002  0.425108898834261E-001  0.479563519502372E-001 -0.693147180559945E+000 -0.205308385137065E+002
  0.114301007307234E-001  0.273550783523297E+002  0.272474376431751E-001  0.125280429441974E+000 -0.693147180559945E+000 -0.161216262387778E+002
  0.114301007307234E-001  0.262869689653692E+002  0.509788918308929E-001  0.911331582329425E-001 -0.693147180559945E+000 -0.155875715452976E+002
  0.114301007307234E-001  0.273876636123041E+002  0.695301935167953E-001  0.751833089943290E-001 -0.693147180559945E+000 -0.161379188687650E+002
  0.114301007307234E-001  0.274013402811841E+002  0.894795659264542E-001  0.112331779287932E+000 -0.693147180559945E+000 -0.161447572032050E+002
  0.114301007307234E-001  0.378411063032492E+002  0.348667621883467E-001  0.307599084320140E-001 -0.693147180559945E+000 -0.213646402142376E+002
  0.114301007307234E-001  0.297364018058511E+002  0.111861925690379E+000  0.925511222677195E-001 -0.693147180559945E+000 -0.173122879655386E+002
  0.114301007307234E-001  0.287719982652724E+002  0.565133790539643E-001  0.710306786069208E-001 -0.693147180559945E+000 -0.168300861952492E+002
  0.114301007307234E-001  0.274045647196276E+002  0.644928393282145E-001  0.703565234144086E-001 -0.693147180559945E+000 -0.161463694224268E+002
  0.114301007307234E-001  0.361786989710933E+002  0.928295296908996E-001  0.101079859064467E+000 -0.693147180559945E+000 -0.205334365481596E+002
  0.114301007307234E-001  0.274105051661219E+002  0.780243278688606E-001  0.818681471162856E-001 -0.693147180559945E+000 -0.161493396456739E+002
  0.114301007307234E-001  0.308830436935352E+002  0.379770657615623E-001  0.142527728415342E+000 -0.693147180559945E+000 -0.178856089093806E+002
  0.114301007307234E-001  0.343932927178375E+002  0.310607344281701E-001  0.153382249739082E+000 -0.693147180559945E+000 -0.196407334215317E+002
  0.114301007307234E-001  0.317474209706177E+002  0.795328521693102E-001  0.952377637556780E-001 -0.693147180559945E+000 -0.183177975479218E+002
  0.114301007307234E-001  0.334064394123781E+002  0.968571564324161E-001  0.133287339871483E+000 -0.693147180559945E+000 -0.191473067688021E+002
  0.114301007307234E-001  0.379021554621521E+002  0.978954057386798E-001  0.937726164458854E-001 -0.693147180559945E+000 -0.213951647936891E+002
  0.114301007307234E-001  0.317475708103596E+002  0.117474333965896E+000  0.449732016629765E-001 -0.693147180559945E+000 -0.183178724677928E+002
  0.114301007307234E-001  0.285827590403994E+002  0.908789628976185E-001  0.116984695045179E+000 -0.693147180559945E+000 -0.167354665828127E+002
  0.114301007307234E-001  0.290145334776423E+002  0.561495019497327E-001  0.687584878176666E-001 -0.693147180559945E+000 -0.169513538014341E+002
  0.114301007307234E-001  0.379100191829269E+002  0.909155359752574E-001  0.190882225122422E+000 -0.693147180559945E+000 -0.213990966540764E+002
  0.114301007307234E-001  0.284035541206924E+002  0.503213960591256E-001  0.123624220723047E+000 -0.693147180559945E+000 -0.166458641229592E+002
  0.114301007307234E-001  0.305910898025163E+002  0.773282662605066E-001  0.115311870846293E+000 -0.693147180559945E+000 -0.177396319638711E+002
  0.114301007307234E-001  0.274834576515228E+002  0.502583850845955E-001  0.951886258517344E-001 -0.693147180559945E+000 -0.161858158883744E+002
  0.114301007307234E-001  0.309018930931599E+002 -0.115183255443131E-001  0.966812547315220E-001 -0.693147180559945E+000 -0.178950336091929E+002
  0.114301007307234E-001  0.274844379562205E+002  0.128583583758062E-001  0.817730043759696E-001 -0.693147180559945E+000 -0.161863060407233E+002
  0.114301007307234E-001  0.317630926591914E+002  0.459312754670431E-001  0.162969442061130E+000 -0.693147180559945E+000 -0.183256333922087E+002
  0.114301007307234E-001  0.305816412433552E+002  0.718342331062671E-002  0.919609090858319E-001 -0.693147180559945E+000 -0.177349076842906E+002
  0.114301007307234E-001  0.284125231931185E+002  0.350806697659427E-001  0.112353766239334E+000 -0.693147180559945E+000 -0.166503486591722E+002
  0.114301007307234E-001  0.301636437082048E+002  0.523365678628216E-001  0.899937353366227E-001 -0.693147180559945E+000 -0.175259089167154E+002
  0.114301007307234E-001  0.362428112902480E+002  0.773545348755447E-001  0.110671162632990E+000 -0.693147180559945E+000 -0.205654927077370E+002
  0.114301007307234E-001  0.330353271366548E+002  0.254210710360891E-001  0.106285087775852E+000 -0.693147180559945E+000 -0.189617506309404E+002
  0.114301007307234E-001  0.330396716014064E+002  0.423679994045423E-001  0.478782557895751E-001 -0.693147180559945E+000 -0.189639228633162E+002
  0.114301007307234E-001  0.313894656465179E+002  0.508359121643889E-001  0.767947684797194E-001 -0.693147180559945E+000 -0.181388198858719E+002
  0.114301007307234E-001  0.330492026198959E+002  0.191741284520359E-001  0.108739794950309E+000 -0.693147180559945E+000 -0.189686883725609E+002
  0.114301007307234E-001  0.275445863718010E+002  0.403547183736166E-001  0.956123086487878E-001 -0.693147180559945E+000 -0.162163802485135E+002
  0.114301007307234E-001  0.305724713820331E+002  0.644862847567631E-001  0.516330139202443E-001 -0.693147180559945E+000 -0.177303227536295E+002
  0.114301007307234E-001  0.344465928890556E+002  0.121994270980372E+000  0.103604036655570E+000 -0.693147180559945E+000 -0.196673835071408E+002
  0.114301007307234E-001  0.330512333807351E+002  0.650477362224877E-001  0.123321730801341E+000 -0.693147180559945E+000 -0.189697037529806E+002
  0.114301007307234E-001  0.263842333937693E+002  0.684551559059685E-001  0.987491573577101E-001 -0.693147180559945E+000 -0.156362037594976E+002
  0.114301007307234E-001  0.263797903217549E+002  0.473782208722702E-001  0.936133129765037E-001 -0.693147180559945E+000 -0.156339822234905E+002
  0.114301007307234E-001  0.291287519432540E+002  0.130878336661592E+000  0.872037964893208E-001 -0.693147180559945E+000 -0.170084630342400E+002
  0.114301007307234E-001  0.344880881484941E+002  0.943115118073270E-001  0.281644238193441E-001 -0.693147180559945E+000 -0.196881311368601E+002
  0.114301007307234E-001  0.275728274226476E+002  0.557720558977186E-001  0.119256385153733E+000 -0.693147180559945E+000 -0.162305007739368E+002
  0.114301007307234E-001  0.263772035834164E+002  0.694203728368044E-001  0.836217926297413E-001 -0.693147180559945E+000 -0.156326888543212E+002
  0.114301007307234E-001  0.296849445856690E+002 -0.185063078952397E-002  0.129894588457963E+000 -0.693147180559945E+000 -0.172865593554475E+002
  0.114301007307234E-001  0.423383401334428E+002  0.478804223379254E-001  0.116095570675382E-002 -0.693147180559945E+000 -0.236132571293344E+002
  0.114301007307234E-001  0.276247609440704E+002  0.519085019233474E-001  0.614405759789979E-001 -0.693147180559945E+000 -0.162564675346482E+002
  0.114301007307234E-001  0.321293670302350E+002  0.743973923487360E-001  0.114862444591907E+000 -0.693147180559945E+000 -0.185087705777305E+002
  0.114301007307234E-001  0.276894334893156E+002  0.399091099925508E-001  0.782752149633070E-001 -0.693147180559945E+000 -0.162888038072708E+002
  0.114301007307234E-001  0.330666442670381E+002  0.853480710350474E-001  0.127107051377347E+000 -0.693147180559945E+000 -0.189774091961320E+002
  0.114301007307234E-001  0.305691901363737E+002 -0.609976360282927E-004  0.996524513218202E-001 -0.693147180559945E+000 -0.177286821307999E+002
  0.114301007307234E-001  0.296576396858883E+002  0.421657135578506E-001  0.719212652931245E-001 -0.693147180559945E+000 -0.172729069055571E+002
  0.114301007307234E-001  0.321155282122335E+002  0.706754729018277E-001  0.755679871275770E-001 -0.693147180559945E+000 -0.185018511687297E+002
  0.114301007307234E-001  0.345831512787760E+002  0.261872702350434E-001  0.679312160169596E-001 -0.693147180559945E+000 -0.197356627020010E+002
  0.114301007307234E-001  0.346038685974972E+002  0.673052932165177E-001  0.733710786185518E-001 -0.693147180559945E+000 -0.197460213613616E+002
  0.114301007307234E-001  0.414425339670741E+002  0.905571986722256E-001  0.608633620576019E-001 -0.693147180559945E+000 -0.231653540461500E+002
  0.114301007307234E-001  0.318659456797613E+002  0.258693026958741E-001  0.981146901426990E-001 -0.693147180559945E+000 -0.183770599024937E+002
  0.114301007307234E-001  0.277165952876511E+002  0.586787595029827E-001  0.113613773153766E+000 -0.693147180559945E+000 -0.163023847064385E+002
  0.114301007307234E-001  0.309772387952355E+002  0.622245933447370E-001  0.933184936245108E-001 -0.693147180559945E+000 -0.179327064602307E+002
  0.114301007307234E-001  0.285768363923793E+002  0.602774880104096E-001  0.754629050953798E-001 -0.693147180559945E+000 -0.167325052588026E+002
  0.114301007307234E-001  0.346365598463244E+002  0.113116681137830E-001  0.193611221864826E+000 -0.693147180559945E+000 -0.197623669857752E+002
  0.114301007307234E-001  0.285752059917001E+002  0.483214614273588E-001  0.916368973957473E-001 -0.693147180559945E+000 -0.167316900584630E+002
  0.114301007307234E-001  0.262068235871709E+002  0.711127054786789E-001  0.961364694291713E-001 -0.693147180559945E+000 -0.155474988561984E+002
  0.114301007307234E-001  0.286505831060371E+002  0.496451859714300E-001  0.809366269268068E-001 -0.693147180559945E+000 -0.167693786156316E+002
  0.114301007307234E-001  0.262614408607720E+002  0.420955377922405E-001  0.772109188096216E-001 -0.693147180559945E+000 -0.155748074929990E+002
  0.114301007307234E-001  0.296511329096410E+002  0.636150367271382E-002  0.601711304684014E-001 -0.693147180559945E+000 -0.172696535174335E+002
  0.114301007307234E-001  0.291131743311196E+002  0.503801979321916E-001  0.864554711143010E-001 -0.693147180559945E+000 -0.170006742281728E+002
  0.114301007307234E-001  0.291036548263863E+002  0.561206615781249E-001  0.687762591099901E-001 -0.693147180559945E+000 -0.169959144758061E+002
  0.114301007307234E-001  0.305285019113397E+002  0.537511261445083E-001  0.761693862284237E-001 -0.693147180559945E+000 -0.177083380182828E+002
  0.114301007307234E-001  0.287990618270626E+002  0.985072118191408E-001  0.885462473451677E-001 -0.693147180559945E+000 -0.168436179761443E+002
  0.114301007307234E-001  0.319385864464442E+002  0.419532873313961E-001  0.853084211805894E-001 -0.693147180559945E+000 -0.184133802858351E+002
  0.114301007307234E-001  0.277818868006421E+002  0.705108318297467E-001  0.107915239788760E+000 -0.693147180559945E+000 -0.163350304629340E+002
  0.114301007307234E-001  0.277866621221483E+002  0.423275149602937E-001  0.798312090026165E-001 -0.693147180559945E+000 -0.163374181236872E+002
  0.114301007307234E-001  0.296402498361746E+002  0.647607704435667E-001  0.103862024161966E+000 -0.693147180559945E+000 -0.172642119807003E+002
  0.114301007307234E-001  0.277922666295788E+002  0.710894999089857E-001  0.119446912221065E+000 -0.693147180559945E+000 -0.163402203774024E+002
  0.114301007307234E-001  0.296343876754373E+002  0.423234294562276E-001  0.798449060881566E-001 -0.693147180559945E+000 -0.172612809003316E+002
  0.114301007307234E-001  0.296291590507552E+002  0.648424332055553E-001  0.103856566366201E+000 -0.693147180559945E+000 -0.172586665879906E+002
  0.114301007307234E-001  0.331179760021317E+002  0.897360172060526E-001  0.635569220829398E-001 -0.693147180559945E+000 -0.190030750636788E+002
  0.114301007307234E-001  0.383462376292900E+002  0.118288800085320E+000  0.403399854385198E-001 -0.693147180559945E+000 -0.216172058772580E+002
  0.114301007307234E-001  0.277997231899197E+002  0.602760070839836E-001  0.754674152995448E-001 -0.693147180559945E+000 -0.163439486575728E+002
  0.114301007307234E-001  0.278074199533625E+002  0.397766204979872E-001  0.100837762209222E+000 -0.693147180559945E+000 -0.163477970392943E+002
  0.114301007307234E-001  0.284457164229162E+002  0.508876015723398E-001  0.124219138658786E+000 -0.693147180559945E+000 -0.166669452740711E+002
  0.114301007307234E-001  0.296268935836444E+002  0.425995548920539E-001  0.794110867213741E-001 -0.693147180559945E+000 -0.172575338544352E+002
  0.114301007307234E-001  0.364314243824372E+002  0.771644089472798E-001  0.532361370330895E-001 -0.693147180559945E+000 -0.206597992538316E+002
  0.114301007307234E-001  0.310111554201116E+002  0.263742387617347E-001  0.719980689497229E-001 -0.693147180559945E+000 -0.179496647726688E+002
  0.114301007307234E-001  0.278158217662202E+002  0.325145990687765E-001  0.852835467201400E-001 -0.693147180559945E+000 -0.163519979457231E+002
  0.114301007307234E-001  0.419796278054888E+002  0.153208476593773E+000  0.100750753413114E+000 -0.693147180559945E+000 -0.234339009653574E+002
  0.114301007307234E-001  0.314463411131171E+002  0.349452912371984E-003  0.113539543216899E+000 -0.693147180559945E+000 -0.181672576191716E+002
  0.114301007307234E-001  0.284560529285353E+002  0.563156430005205E-001  0.614345556140390E-001 -0.693147180559945E+000 -0.166721135268807E+002
  0.114301007307234E-001  0.331329781886057E+002  0.788749426173312E-001  0.937904349836638E-001 -0.693147180559945E+000 -0.190105761569159E+002
  0.114301007307234E-001  0.419725791147166E+002  0.891882790054641E-001  0.598435177473632E-001 -0.693147180559945E+000 -0.234303766199713E+002
  0.114301007307234E-001  0.352087692722558E+002  0.580379011075631E-001  0.378901082572163E-001 -0.693147180559945E+000 -0.200484716987409E+002
  0.114301007307234E-001  0.320654238487961E+002  0.613215790801482E-001  0.805828794992354E-001 -0.693147180559945E+000 -0.184767989870110E+002
  0.114301007307234E-001  0.278231344634523E+002  0.592689937603830E-001  0.869469374540616E-001 -0.693147180559945E+000 -0.163556542943392E+002
  0.114301007307234E-001  0.290801405707425E+002  0.470975253723758E-001  0.879091079728121E-001 -0.693147180559945E+000 -0.169841573479842E+002
  0.114301007307234E-001  0.333800169746633E+002  0.764330612034261E-001  0.612461091586015E-001 -0.693147180559945E+000 -0.191340955499446E+002
  0.114301007307234E-001  0.391912272399872E+002 -0.186096068405339E-002  0.404678255707403E-001 -0.693147180559945E+000 -0.220397006826066E+002
  0.114301007307234E-001  0.295114774485258E+002  0.111772608733774E+000  0.143007059663636E+000 -0.693147180559945E+000 -0.171998257868759E+002
  0.114301007307234E-001  0.285483848068601E+002  0.513707299236694E-001  0.909882383800492E-001 -0.693147180559945E+000 -0.167182794660430E+002
  0.114301007307234E-001  0.263676634649557E+002  0.761250673257987E-001  0.617962460719132E-001 -0.693147180559945E+000 -0.156279187950908E+002
  0.114301007307234E-001  0.312121126193213E+002  0.420944379209369E-001  0.715588249110616E-001 -0.693147180559945E+000 -0.180501433722736E+002
  0.114301007307234E-001  0.323237216511742E+002  0.659433088896513E-001  0.103222469231541E+000 -0.693147180559945E+000 -0.186059478882001E+002
  0.114301007307234E-001  0.311056256150606E+002  0.739646283887900E-001  0.866888754258970E-001 -0.693147180559945E+000 -0.179968998701433E+002
  0.114301007307234E-001  0.295921130317099E+002  0.503389370006375E-001  0.874310748102451E-001 -0.693147180559945E+000 -0.172401435784680E+002
  0.114301007307234E-001  0.312259398922647E+002  0.392755588714322E-001  0.565686445470161E-001 -0.693147180559945E+000 -0.180570570087454E+002
  0.114301007307234E-001  0.301736100197469E+002  0.453304456300245E-001  0.112521610341413E+000 -0.693147180559945E+000 -0.175308920724864E+002
  0.114301007307234E-001  0.385520465062670E+002  0.553611606184143E-001  0.331612639442032E-001 -0.693147180559945E+000 -0.217201103157465E+002
  0.114301007307234E-001  0.393009987035153E+002 -0.376096889490729E-002  0.532036148841798E-001 -0.693147180559945E+000 -0.220945864143706E+002
  0.114301007307234E-001  0.279269290470960E+002  0.749554707493418E-001  0.759156850379768E-001 -0.693147180559945E+000 -0.164075515861610E+002
  0.114301007307234E-001  0.319754687419000E+002  0.100827494830338E+000  0.111907517446938E+000 -0.693147180559945E+000 -0.184318214335630E+002
  0.114301007307234E-001  0.263299391366046E+002  0.760115152984422E-001  0.929496769676500E-001 -0.693147180559945E+000 -0.156090566309153E+002
  0.114301007307234E-001  0.279520884526402E+002  0.710894999016918E-001  0.119446912234047E+000 -0.693147180559945E+000 -0.164201312889331E+002
  0.114301007307234E-001  0.332367412698060E+002 -0.362105331662463E-001  0.131207118605550E+000 -0.693147180559945E+000 -0.190624576975160E+002
  0.114301007307234E-001  0.279718585975424E+002  0.773030637258505E-001  0.989811589992510E-001 -0.693147180559945E+000 -0.164300163613842E+002
  0.114301007307234E-001  0.282264364068056E+002  0.910590725377238E-001  0.117146862718703E+000 -0.693147180559945E+000 -0.165573052660158E+002
  0.114301007307234E-001  0.304478633233435E+002  0.503025652780049E-001  0.952576251562800E-001 -0.693147180559945E+000 -0.176680187242847E+002
  0.114301007307234E-001  0.287828985164468E+002  0.519298126528795E-001  0.908082861089481E-001 -0.693147180559945E+000 -0.168355363208364E+002
  0.114301007307234E-001  0.282117116284827E+002 -0.313653377054790E-002  0.110936939793659E+000 -0.693147180559945E+000 -0.165499428768543E+002
  0.114301007307234E-001  0.319924364349477E+002  0.636728668914008E-001  0.732212817448519E-001 -0.693147180559945E+000 -0.184403052800869E+002
  0.114301007307234E-001  0.280084187076084E+002  0.662098537482390E-001  0.101759499094932E+000 -0.693147180559945E+000 -0.164482964164172E+002
  0.114301007307234E-001  0.397167795828298E+002  0.703668683905316E-001  0.641846650486970E-001 -0.693147180559945E+000 -0.223024768540279E+002
  0.114301007307234E-001  0.319935344762869E+002  0.757877720684248E-001  0.851456929817339E-001 -0.693147180559945E+000 -0.184408543007565E+002
  0.114301007307234E-001  0.333252095438841E+002 -0.281776850284660E-001  0.164526872283258E+000 -0.693147180559945E+000 -0.191066918345550E+002
  0.114301007307234E-001  0.310840279047568E+002  0.311411169485447E-001  0.891477032261344E-001 -0.693147180559945E+000 -0.179861010149914E+002
  0.114301007307234E-001  0.386721957690933E+002  0.897005869684733E-001  0.643015684412781E-001 -0.693147180559945E+000 -0.217801849471597E+002
  0.114301007307234E-001  0.285030584512257E+002  0.515811627646214E-001  0.869438343141285E-001 -0.693147180559945E+000 -0.166956162882258E+002
  0.114301007307234E-001  0.295433504923426E+002  0.466551363823859E-001  0.934600174000637E-001 -0.693147180559945E+000 -0.172157623087843E+002
  0.114301007307234E-001  0.281577768878905E+002  0.521319160502003E-001  0.613370560660535E-001 -0.693147180559945E+000 -0.165229755065583E+002
  0.114301007307234E-001  0.261786467512863E+002  0.908276519901987E-001  0.117034864295414E+000 -0.693147180559945E+000 -0.155334104382561E+002
  0.114301007307234E-001  0.285047016485024E+002  0.508359122394617E-001  0.767947684413829E-001 -0.693147180559945E+000 -0.166964378868642E+002
  0.114301007307234E-001  0.304436119572708E+002  0.688086822900507E-001  0.107496965242071E+000 -0.693147180559945E+000 -0.176658930412484E+002
  0.114301007307234E-001  0.304348410333894E+002  0.969034193017977E-001  0.120504828133757E+000 -0.693147180559945E+000 -0.176615075793077E+002
  0.114301007307234E-001  0.280466740320574E+002  0.291732075074589E-001  0.109473642041599E+000 -0.693147180559945E+000 -0.164674240786417E+002
  0.114301007307234E-001  0.395112908202519E+002  0.531253064754484E-001  0.707196993903441E-001 -0.693147180559945E+000 -0.221997324727389E+002
  0.114301007307234E-001  0.280648959645459E+002  0.410411495042802E-001  0.950882049528670E-001 -0.693147180559945E+000 -0.164765350448859E+002
  0.114301007307234E-001  0.287356038858484E+002  0.354253775355484E-001  0.119422063518567E+000 -0.693147180559945E+000 -0.168118890055372E+002
  0.114301007307234E-001  0.281511451427224E+002  0.873638843677500E-001  0.912503228754016E-001 -0.693147180559945E+000 -0.165196596339742E+002
  0.114301007307234E-001  0.280733821419712E+002  0.556994250801992E-001  0.103130606239660E+000 -0.693147180559945E+000 -0.164807781335986E+002
  0.114301007307234E-001  0.351200979822957E+002  0.608188178381739E-001  0.484293187911138E-001 -0.693147180559945E+000 -0.200041360537608E+002
  0.114301007307234E-001  0.394127093514092E+002  0.480889466562144E-001  0.178212317083815E-001 -0.693147180559945E+000 -0.221504417383176E+002
  0.114301007307234E-001  0.262145449216840E+002  0.503212326093196E-001  0.123624296812618E+000 -0.693147180559945E+000 -0.155513595234550E+002
  0.114301007307234E-001  0.311027295666761E+002  0.360701367679874E-001  0.843541112323620E-001 -0.693147180559945E+000 -0.179954518459510E+002
  0.114301007307234E-001  0.263373365226961E+002  0.719593170108241E-001  0.129554943329434E+000 -0.693147180559945E+000 -0.156127553239611E+002
  0.114301007307234E-001  0.295343709827940E+002  0.851917069784889E-001  0.671741693279879E-001 -0.693147180559945E+000 -0.172112725540100E+002
  0.114301007307234E-001  0.231253710513401E+002  0.670830742697681E-001  0.121132100083369E+000 -0.693147180559945E+000 -0.115626855256701E+002
