  0.320868671967534E-002  0.278409001873317E+002  0.615384843497171E-001  0.117314287560142E+000 -0.693147180559945E+000 -0.146406308848609E+002
  0.320868671967534E-002  0.292407350511562E+002  0.615390034149423E-001  0.117314121105535E+000 -0.693147180559945E+000 -0.153405483167732E+002
  0.320868671967534E-002  0.252842351855303E+002  0.697003104564771E-001  0.712563797563466E-001 -0.693147180559945E+000 -0.154942503176614E+002
  0.320868671967534E-002  0.253003173576290E+002  0.877321265678466E-001  0.959195571961898E-001 -0.693147180559945E+000 -0.155022914037107E+002
  0.320868671967534E-002  0.253054883005357E+002  0.731479952597802E-001  0.105566318986697E+000 -0.693147180559945E+000 -0.155048768751640E+002
  0.320868671967534E-002  0.253222663745336E+002  0.473778912443568E-001  0.936132504303759E-001 -0.693147180559945E+000 -0.155132659121630E+002
  0.320868671967534E-002  0.485697398187899E+002 -0.221126188873095E-001  0.472144036956154E-002 -0.693147180559945E+000 -0.271370026342911E+002
  0.320868671967534E-002  0.253239143635693E+002  0.513707263879888E-001  0.909883234845301E-001 -0.693147180559945E+000 -0.155140899066808E+002
  0.320868671967534E-002  0.253272381166392E+002  0.614757096968379E-001  0.127100655886868E+000 -0.693147180559945E+000 -0.155157517832158E+002
  0.320868671967534E-002  0.253283652882707E+002  0.436963732847473E-001  0.118040158899533E+000 -0.693147180559945E+000 -0.155163153690315E+002
  0.320868671967534E-002  0.254090963238634E+002  0.293011252389430E-001  0.118297003824528E+000 -0.693147180559945E+000 -0.155566808868279E+002
  0.320868671967534E-002  0.275001896599264E+002  0.512696985868286E-001  0.901328449428331E-001 -0.693147180559945E+000 -0.166022275548594E+002
  0.320868671967534E-002  0.359245221489016E+002  0.798246879759661E-001  0.441686081175315E-001 -0.693147180559945E+000 -0.208143937993470E+002
  0.320868671967534E-002  0.254168254977973E+002  0.466627229965184E-001  0.118252224073087E+000 -0.693147180559945E+000 -0.155605454737948E+002
  0.320868671967534E-002  0.328155293821050E+002  0.516348967887337E-001  0.134703774556840E+000 -0.693147180559945E+000 -0.192598974159487E+002
  0.320868671967534E-002  0.254243573035788E+002  0.503842562296266E-001  0.850682998601733E-001 -0.693147180559945E+000 -0.155643113766856E+002
  0.320868671967534E-002  0.298411149528094E+002  0.546823100872136E-001  0.626063430841457E-001 -0.693147180559945E+000 -0.177726902013009E+002
  0.320868671967534E-002  0.254362014159289E+002  0.483327044921016E-001  0.914220748468845E-001 -0.693147180559945E+000 -0.155702334328606E+002
  0.320868671967534E-002  0.254561365082798E+002  0.420249353901052E-001  0.946549600527706E-001 -0.693147180559945E+000 -0.155802009790361E+002
  0.320868671967534E-002  0.254747814688125E+002  0.503846948926154E-001  0.864561743481214E-001 -0.693147180559945E+000 -0.155895234593024E+002
  0.320868671967534E-002  0.391650176554061E+002  0.251847887554102E-001  0.992607325882841E-001 -0.693147180559945E+000 -0.224346415525993E+002
  0.320868671967534E-002  0.391740367838505E+002  0.374171024521059E-001  0.857750192325651E-001 -0.693147180559945E+000 -0.224391511168214E+002
  0.320868671967534E-002  0.359683901339062E+002  0.755755060878305E-002  0.798578136369769E-001 -0.693147180559945E+000 -0.208363277918493E+002
  0.320868671967534E-002  0.254778913535356E+002  0.293008118257163E-001  0.118297011557308E+000 -0.693147180559945E+000 -0.155910784016640E+002
  0.320868671967534E-002  0.254936251177072E+002  0.915252189184146E-001  0.116698664417668E+000 -0.693147180559945E+000 -0.155989452837498E+002
  0.320868671967534E-002  0.254946405733439E+002  0.293240896566309E-001  0.109839480416379E+000 -0.693147180559945E+000 -0.155994530115681E+002
  0.320868671967534E-002  0.255138478120382E+002  0.760115152984422E-001  0.929496769676500E-001 -0.693147180559945E+000 -0.156090566309153E+002
  0.320868671967534E-002  0.255212451981297E+002  0.719593170108241E-001  0.129554943329434E+000 -0.693147180559945E+000 -0.156127553239611E+002
  0.320868671967534E-002  0.255236371370106E+002  0.684081199867126E-001  0.125894940230871E+000 -0.693147180559945E+000 -0.156139512934015E+002
  0.320868671967534E-002  0.255611122588500E+002  0.694203728368044E-001  0.836217926297413E-001 -0.693147180559945E+000 -0.156326888543212E+002
  0.320868671967534E-002  0.255763281739915E+002  0.644928393291102E-001  0.703565234075496E-001 -0.693147180559945E+000 -0.156402968118919E+002
  0.320868671967534E-002  0.255792601708438E+002  0.743181524773182E-001  0.874269067601290E-001 -0.693147180559945E+000 -0.156417628103181E+002
  0.320868671967534E-002  0.256006417459118E+002  0.759590376774737E-001  0.611516398931615E-001 -0.693147180559945E+000 -0.156524535978521E+002
  0.320868671967534E-002  0.256470844145095E+002  0.592689391270858E-001  0.869469780629092E-001 -0.693147180559945E+000 -0.156756749321510E+002
  0.320868671967534E-002  0.256510805589912E+002  0.710613015037420E-001  0.963642906122154E-001 -0.693147180559945E+000 -0.156776730043918E+002
  0.320868671967534E-002  0.256901569871596E+002  0.905549454172752E-001  0.116967735826672E+000 -0.693147180559945E+000 -0.156972112184760E+002
  0.320868671967534E-002  0.257000290880767E+002  0.783866649178986E-001  0.104039425098322E+000 -0.693147180559945E+000 -0.157021472689346E+002
  0.320868671967534E-002  0.257105550389691E+002  0.749198820396502E-001  0.945989447703293E-001 -0.693147180559945E+000 -0.157074102443807E+002
  0.320868671967534E-002  0.257350232844816E+002  0.372951166083002E-001  0.961933568695035E-001 -0.693147180559945E+000 -0.157196443671370E+002
  0.320868671967534E-002  0.257482404765424E+002  0.420985914392531E-001  0.942809747528417E-001 -0.693147180559945E+000 -0.157262529631674E+002
  0.320868671967534E-002  0.257719134862456E+002  0.272234203853494E-001  0.125275996125897E+000 -0.693147180559945E+000 -0.157380894680190E+002
  0.320868671967534E-002  0.393221653498318E+002  0.896350611845764E-001  0.146034802562365E+000 -0.693147180559945E+000 -0.225132153998121E+002
  0.320868671967534E-002  0.257821090263706E+002  0.902418924035955E-001  0.118031803221325E+000 -0.693147180559945E+000 -0.157431872380815E+002
  0.320868671967534E-002  0.258049366677681E+002  0.504010266303334E-001  0.864503123160784E-001 -0.693147180559945E+000 -0.157546010587802E+002
  0.320868671967534E-002  0.258151207240782E+002  0.910603340851719E-001  0.117152535496917E+000 -0.693147180559945E+000 -0.157596930869353E+002
  0.320868671967534E-002  0.329675871300541E+002  0.394314208244702E-001  0.977336349071317E-001 -0.693147180559945E+000 -0.193359262899232E+002
  0.320868671967534E-002  0.258568009711729E+002  0.402991593365261E-001  0.906922733023025E-001 -0.693147180559945E+000 -0.157805332104827E+002
  0.320868671967534E-002  0.258679903860028E+002  0.411557034603767E-001  0.950768303731226E-001 -0.693147180559945E+000 -0.157861279178976E+002
  0.320868671967534E-002  0.258941653866125E+002  0.719573881964588E-001  0.129563144368175E+000 -0.693147180559945E+000 -0.157992154182024E+002
  0.320868671967534E-002  0.298775419698804E+002  0.503357229970525E-001  0.875790868721330E-001 -0.693147180559945E+000 -0.177909037098364E+002
  0.320868671967534E-002  0.362017084634529E+002  0.851221426751831E-001  0.700033170686156E-001 -0.693147180559945E+000 -0.209529869566226E+002
  0.320868671967534E-002  0.259055193720022E+002  0.653413833024117E-001  0.105458622229056E+000 -0.693147180559945E+000 -0.158048924108973E+002
  0.320868671967534E-002  0.259132991727972E+002  0.660118586358840E-001  0.834072502586231E-001 -0.693147180559945E+000 -0.158087823112948E+002
  0.320868671967534E-002  0.259195219225980E+002  0.773340905422637E-001  0.862198567835248E-001 -0.693147180559945E+000 -0.158118936861952E+002
  0.320868671967534E-002  0.259227912438299E+002  0.262780105018934E-001  0.880263818493127E-001 -0.693147180559945E+000 -0.158135283468111E+002
  0.320868671967534E-002  0.259421440660891E+002  0.503634519272753E-001  0.849690597922840E-001 -0.693147180559945E+000 -0.158232047579407E+002
  0.320868671967534E-002  0.259448307964680E+002  0.719573839178167E-001  0.129563143250285E+000 -0.693147180559945E+000 -0.158245481231302E+002
  0.320868671967534E-002  0.298901992417936E+002  0.438119158772754E-001  0.807040141155536E-001 -0.693147180559945E+000 -0.177972323457930E+002
  0.320868671967534E-002  0.259787173285640E+002  0.490716021615538E-001  0.871270042473062E-001 -0.693147180559945E+000 -0.158414913891782E+002
  0.320868671967534E-002  0.259804169216926E+002  0.538545090342322E-001  0.898196113001173E-001 -0.693147180559945E+000 -0.158423411857425E+002
  0.320868671967534E-002  0.425741316621679E+002 -0.532277386172164E-002  0.419802858280810E-001 -0.693147180559945E+000 -0.241391985559801E+002
  0.320868671967534E-002  0.330520032614769E+002  0.701162372044890E-001  0.862338681871371E-001 -0.693147180559945E+000 -0.193781343556346E+002
  0.320868671967534E-002  0.259806223875168E+002  0.662885895491536E-001  0.992773610024928E-001 -0.693147180559945E+000 -0.158424439186546E+002
  0.320868671967534E-002  0.259838166951175E+002  0.393999224874839E-001  0.115848433321029E+000 -0.693147180559945E+000 -0.158440410724549E+002
  0.320868671967534E-002  0.259849898841277E+002  0.440261954595451E-001  0.127568829731494E+000 -0.693147180559945E+000 -0.158446276669600E+002
  0.320868671967534E-002  0.330534764917001E+002  0.421183769518034E-001  0.614965431319270E-001 -0.693147180559945E+000 -0.193788709707463E+002
  0.320868671967534E-002  0.330551829040947E+002  0.641797004603863E-001  0.945148629001092E-001 -0.693147180559945E+000 -0.193797241769435E+002
  0.320868671967534E-002  0.260038469848314E+002  0.360683538594901E-001  0.843540716366204E-001 -0.693147180559945E+000 -0.158540562173119E+002
  0.320868671967534E-002  0.260085549892194E+002  0.840008635958991E-001  0.893218908372078E-001 -0.693147180559945E+000 -0.158564102195059E+002
  0.320868671967534E-002  0.425967421345016E+002  0.346352923508069E-001  0.173806261146343E-001 -0.693147180559945E+000 -0.241505037921470E+002
  0.320868671967534E-002  0.260186027413197E+002  0.506703843547469E-001  0.950133683164066E-001 -0.693147180559945E+000 -0.158614340955560E+002
  0.320868671967534E-002  0.260254981086223E+002  0.749554793834644E-001  0.759156884567709E-001 -0.693147180559945E+000 -0.158648817792074E+002
  0.320868671967534E-002  0.260470727313948E+002  0.557731999543092E-001  0.103176223368758E+000 -0.693147180559945E+000 -0.158756690905936E+002
  0.320868671967534E-002  0.261004991806283E+002  0.442241274553510E-001  0.880280963848724E-001 -0.693147180559945E+000 -0.159023823152104E+002
  0.320868671967534E-002  0.261281668560367E+002  0.746106781866913E-001  0.944470869135409E-001 -0.693147180559945E+000 -0.159162161529146E+002
  0.320868671967534E-002  0.261775091045120E+002  0.697002636732358E-001  0.712564013303650E-001 -0.693147180559945E+000 -0.159408872771522E+002
  0.320868671967534E-002  0.261824475286962E+002  0.398944061572448E-001  0.952217063730532E-001 -0.693147180559945E+000 -0.159433564892443E+002
  0.320868671967534E-002  0.262113006494191E+002  0.465486676202209E-001  0.935324173589892E-001 -0.693147180559945E+000 -0.159577830496057E+002
  0.320868671967534E-002  0.262211857338456E+002  0.609616848951418E-001  0.748519789617212E-001 -0.693147180559945E+000 -0.159627255918190E+002
  0.320868671967534E-002  0.262403197270714E+002  0.425240026683995E-001  0.142002150856700E+000 -0.693147180559945E+000 -0.159722925884319E+002
  0.320868671967534E-002  0.395766834671872E+002  0.157048505130160E-001  0.702745728397241E-001 -0.693147180559945E+000 -0.226404744584898E+002
  0.320868671967534E-002  0.331444279471183E+002  0.102652548622161E+000  0.554763377840118E-001 -0.693147180559945E+000 -0.194243466984554E+002
  0.320868671967534E-002  0.262747902673017E+002  0.609616139432592E-001  0.748519798945078E-001 -0.693147180559945E+000 -0.159895278585470E+002
  0.320868671967534E-002  0.262768626188778E+002  0.454976949446713E-001  0.112980829697122E+000 -0.693147180559945E+000 -0.159905640343351E+002
  0.320868671967534E-002  0.331693031388108E+002  0.881712009997819E-001  0.120649167681390E+000 -0.693147180559945E+000 -0.194367842943016E+002
  0.320868671967534E-002  0.262783037460040E+002  0.354224820078697E-001  0.119457049750273E+000 -0.693147180559945E+000 -0.159912845978982E+002
  0.320868671967534E-002  0.262858402369649E+002  0.397671754867368E-001  0.115243403980402E+000 -0.693147180559945E+000 -0.159950528433786E+002
  0.320868671967534E-002  0.331699357361319E+002  0.505382555634166E-001  0.586912095785827E-001 -0.693147180559945E+000 -0.194371005929621E+002
  0.320868671967534E-002  0.263026266617996E+002  0.128583583758144E-001  0.817730043759710E-001 -0.693147180559945E+000 -0.160034460557960E+002
  0.320868671967534E-002  0.364399748757158E+002  0.117101856233783E+000  0.111477201731351E+000 -0.693147180559945E+000 -0.210721201627541E+002
  0.320868671967534E-002  0.263289970214287E+002  0.462652243679240E-001  0.875389680617727E-001 -0.693147180559945E+000 -0.160166312356106E+002
  0.320868671967534E-002  0.263516341618819E+002  0.420955282011306E-001  0.772108602233233E-001 -0.693147180559945E+000 -0.160279498058371E+002
  0.320868671967534E-002  0.263919770081978E+002  0.524333033051165E-001  0.916149503224805E-001 -0.693147180559945E+000 -0.160481212289951E+002
  0.320868671967534E-002  0.264128606363972E+002  0.513174661220033E-001  0.910211769638709E-001 -0.693147180559945E+000 -0.160585630430948E+002
  0.320868671967534E-002  0.265006856679023E+002  0.504008263679845E-001  0.864539380404305E-001 -0.693147180559945E+000 -0.161024755588473E+002
  0.320868671967534E-002  0.265044213002327E+002  0.605018370228985E-001  0.800696437032117E-001 -0.693147180559945E+000 -0.161043433750126E+002
  0.320868671967534E-002  0.364606394931280E+002  0.354549052072108E-001  0.793787959966028E-001 -0.693147180559945E+000 -0.210824524714602E+002
  0.320868671967534E-002  0.364833092697400E+002  0.480557557230861E-001  0.739089846436538E-001 -0.693147180559945E+000 -0.210937873597662E+002
  0.320868671967534E-002  0.265064552331523E+002  0.398955082673791E-001  0.952202336335159E-001 -0.693147180559945E+000 -0.161053603414723E+002
  0.320868671967534E-002  0.265076671714760E+002  0.777731275763140E-001  0.996517078587281E-001 -0.693147180559945E+000 -0.161059663106342E+002
  0.320868671967534E-002  0.299241389851210E+002  0.990193072933778E-001  0.132343219584047E+000 -0.693147180559945E+000 -0.178142022174567E+002
  0.320868671967534E-002  0.265158504639460E+002  0.777722655743747E-001  0.996519092094320E-001 -0.693147180559945E+000 -0.161100579568692E+002
  0.320868671967534E-002  0.265394099817046E+002  0.804334601922450E-001  0.783027790517379E-001 -0.693147180559945E+000 -0.161218377157485E+002
  0.320868671967534E-002  0.436094693327215E+002  0.108269460819383E-001  0.638386798318578E-001 -0.693147180559945E+000 -0.246568673912569E+002
  0.320868671967534E-002  0.265884733950613E+002  0.644928393282145E-001  0.703565234144086E-001 -0.693147180559945E+000 -0.161463694224268E+002
  0.320868671967534E-002  0.299340511356263E+002  0.699832387926118E-001  0.956542963913238E-001 -0.693147180559945E+000 -0.178191582927093E+002
  0.320868671967534E-002  0.265944138415555E+002  0.780243278688606E-001  0.818681471162856E-001 -0.693147180559945E+000 -0.161493396456739E+002
  0.320868671967534E-002  0.266046640951793E+002  0.661472985196139E-001  0.163049408021873E+000 -0.693147180559945E+000 -0.161544647724858E+002
  0.320868671967534E-002  0.266153282464920E+002  0.420955581685021E-001  0.772108674815791E-001 -0.693147180559945E+000 -0.161597968481422E+002
  0.320868671967534E-002  0.266202053303265E+002  0.772161497507224E-001  0.982808835125338E-001 -0.693147180559945E+000 -0.161622353900595E+002
  0.320868671967534E-002  0.332667569433727E+002  0.726772277438135E-001  0.447404492548040E-001 -0.693147180559945E+000 -0.194855111965825E+002
  0.320868671967534E-002  0.266636120551654E+002  0.408562004842534E-001  0.911168730982403E-001 -0.693147180559945E+000 -0.161839387524789E+002
  0.320868671967534E-002  0.266647681598700E+002  0.615397386365164E-001  0.117315208400292E+000 -0.693147180559945E+000 -0.161845168048312E+002
  0.320868671967534E-002  0.266683466316541E+002  0.128583583758062E-001  0.817730043759696E-001 -0.693147180559945E+000 -0.161863060407233E+002
  0.320868671967534E-002  0.266960407717494E+002  0.761006349069058E-001  0.926353249966655E-001 -0.693147180559945E+000 -0.162001531107709E+002
  0.320868671967534E-002  0.266968486807712E+002  0.765796207896541E-001  0.111911123342343E+000 -0.693147180559945E+000 -0.162005570652818E+002
  0.320868671967534E-002  0.332838164353156E+002  0.117599528643919E-002  0.135161893904172E+000 -0.693147180559945E+000 -0.194940409425540E+002
  0.320868671967534E-002  0.267061294232746E+002  0.416421088907215E-001  0.141980803890300E+000 -0.693147180559945E+000 -0.162051974365335E+002
  0.320868671967534E-002  0.267254814018683E+002  0.532955336259433E-001  0.911786960396493E-001 -0.693147180559945E+000 -0.162148734258303E+002
  0.320868671967534E-002  0.268086696195040E+002  0.519085019233474E-001  0.614405759789979E-001 -0.693147180559945E+000 -0.162564675346482E+002
  0.320868671967534E-002  0.268247243179208E+002  0.714574451513410E-001  0.105451668419573E+000 -0.693147180559945E+000 -0.162644948838566E+002
  0.320868671967534E-002  0.333201032851524E+002  0.683815970517070E-001  0.112792505785186E+000 -0.693147180559945E+000 -0.195121843674724E+002
  0.320868671967534E-002  0.268277548180906E+002  0.602760316682767E-001  0.754674020117851E-001 -0.693147180559945E+000 -0.162660101339415E+002
  0.320868671967534E-002  0.268558098528040E+002  0.740330921675967E-001  0.850214275794180E-001 -0.693147180559945E+000 -0.162800376512982E+002
  0.320868671967534E-002  0.268838525860147E+002  0.262774922317031E-001  0.880253302260832E-001 -0.693147180559945E+000 -0.162940590179035E+002
  0.320868671967534E-002  0.268855248817852E+002  0.466352570925563E-001  0.894382306404208E-001 -0.693147180559945E+000 -0.162948951657888E+002
  0.320868671967534E-002  0.268951958966295E+002  0.770873535620462E-001  0.859569237584676E-001 -0.693147180559945E+000 -0.162997306732109E+002
  0.320868671967534E-002  0.398188008987267E+002  0.104132972835147E+000  0.152393992706126E+000 -0.693147180559945E+000 -0.227615331742595E+002
  0.320868671967534E-002  0.269017888855475E+002  0.740654193795576E-001  0.850897832610254E-001 -0.693147180559945E+000 -0.163030271676700E+002
  0.320868671967534E-002  0.366559557598181E+002  0.547972135652153E-001  0.708142711569541E-001 -0.693147180559945E+000 -0.211801106048052E+002
  0.320868671967534E-002  0.398519779860368E+002  0.684294840893658E-001  0.931784918147298E-001 -0.693147180559945E+000 -0.227781217179146E+002
  0.320868671967534E-002  0.269365183666637E+002  0.375075247216472E-001  0.916016430852907E-001 -0.693147180559945E+000 -0.163203919082280E+002
  0.320868671967534E-002  0.269403726252234E+002  0.239058120826896E-001  0.774205326866863E-001 -0.693147180559945E+000 -0.163223190375079E+002
  0.320868671967534E-002  0.269468822785162E+002  0.746106781999281E-001  0.944470869049194E-001 -0.693147180559945E+000 -0.163255738641543E+002
  0.320868671967534E-002  0.269909403640015E+002  0.772161509203015E-001  0.982808842925074E-001 -0.693147180559945E+000 -0.163476029068969E+002
  0.320868671967534E-002  0.269913286287961E+002  0.397766204979872E-001  0.100837762209222E+000 -0.693147180559945E+000 -0.163477970392943E+002
  0.320868671967534E-002  0.269997304416538E+002  0.325145990687765E-001  0.852835467201400E-001 -0.693147180559945E+000 -0.163519979457231E+002
  0.320868671967534E-002  0.333344769447126E+002  0.484475219862084E-001  0.959334285970825E-001 -0.693147180559945E+000 -0.195193711972525E+002
  0.320868671967534E-002  0.367237869902246E+002  0.689749067866818E-001  0.550290011557681E-001 -0.693147180559945E+000 -0.212140262200085E+002
  0.320868671967534E-002  0.270568637306979E+002  0.765785520085605E-001  0.111911659997724E+000 -0.693147180559945E+000 -0.163805645902451E+002
  0.320868671967534E-002  0.270732195982229E+002  0.293246723305007E-001  0.109839959496583E+000 -0.693147180559945E+000 -0.163887425240076E+002
  0.320868671967534E-002  0.333405143730389E+002  0.966004452376512E-001  0.699937202924251E-001 -0.693147180559945E+000 -0.195223899114156E+002
  0.320868671967534E-002  0.271375633819888E+002  0.910559780981830E-001  0.117142683863625E+000 -0.693147180559945E+000 -0.164209144158906E+002
  0.320868671967534E-002  0.333496591094357E+002  0.722543117705943E-001  0.104418309389474E+000 -0.693147180559945E+000 -0.195269622796140E+002
  0.320868671967534E-002  0.275510364576309E+002  0.326280361431890E-001  0.651872503806617E-001 -0.693147180559945E+000 -0.166276509537116E+002
  0.320868671967534E-002  0.271793410652894E+002  0.462652243679149E-001  0.875389680618068E-001 -0.693147180559945E+000 -0.164418032575409E+002
  0.320868671967534E-002  0.271914765220570E+002  0.420955320946952E-001  0.772108603844384E-001 -0.693147180559945E+000 -0.164478709859247E+002
  0.320868671967534E-002  0.272028250134517E+002  0.695208370903795E-001  0.751799177817409E-001 -0.693147180559945E+000 -0.164535452316220E+002
  0.320868671967534E-002  0.333580880164810E+002  0.602778125728460E-001  0.755236703561706E-001 -0.693147180559945E+000 -0.195311767331367E+002
  0.320868671967534E-002  0.272271654910737E+002  0.602760391147030E-001  0.754673864633468E-001 -0.693147180559945E+000 -0.164657154704330E+002
  0.320868671967534E-002  0.272488046399795E+002  0.410411495042802E-001  0.950882049528670E-001 -0.693147180559945E+000 -0.164765350448859E+002
  0.320868671967534E-002  0.272742487836916E+002  0.697002636639863E-001  0.712564013321333E-001 -0.693147180559945E+000 -0.164892571167420E+002
  0.320868671967534E-002  0.272749015087777E+002  0.502595105196686E-001  0.951883156805462E-001 -0.693147180559945E+000 -0.164895834792850E+002
  0.320868671967534E-002  0.273045119999070E+002  0.605018472552292E-001  0.800696439448689E-001 -0.693147180559945E+000 -0.165043887248497E+002
  0.320868671967534E-002  0.273112988858884E+002  0.442447287883485E-001  0.880494126003554E-001 -0.693147180559945E+000 -0.165077821678404E+002
  0.320868671967534E-002  0.273722191129831E+002  0.409761769840895E-001  0.114622692007387E+000 -0.693147180559945E+000 -0.165382422813877E+002
  0.320868671967534E-002  0.273772499218214E+002  0.609615157258305E-001  0.748519513401425E-001 -0.693147180559945E+000 -0.165407576858069E+002
  0.320868671967534E-002  0.273941992941289E+002  0.315754029068274E-001  0.902417636589538E-001 -0.693147180559945E+000 -0.165492323719606E+002
  0.320868671967534E-002  0.274246048024505E+002  0.545992291778712E-001  0.742667516375147E-001 -0.693147180559945E+000 -0.165644351261214E+002
  0.320868671967534E-002  0.274251358373007E+002  0.239091321904192E-001  0.774246691286532E-001 -0.693147180559945E+000 -0.165647006435465E+002
  0.320868671967534E-002  0.300370992616360E+002  0.846463760925111E-001  0.129339086262576E+000 -0.693147180559945E+000 -0.178706823557142E+002
  0.320868671967534E-002  0.274290344223798E+002  0.315053513280297E-001  0.905679898093416E-001 -0.693147180559945E+000 -0.165666499360861E+002
  0.320868671967534E-002  0.274427233054102E+002  0.609616139467086E-001  0.748519798986127E-001 -0.693147180559945E+000 -0.165734943776013E+002
  0.320868671967534E-002  0.282382997373145E+002  0.599307477372240E-001  0.924813756405764E-001 -0.693147180559945E+000 -0.169712825935535E+002
  0.320868671967534E-002  0.400915402179442E+002  0.149249723027702E-001  0.566961796400418E-001 -0.693147180559945E+000 -0.228979028338683E+002
  0.320868671967534E-002  0.370250149786828E+002  0.348667621883467E-001  0.307599084320140E-001 -0.693147180559945E+000 -0.213646402142376E+002
  0.320868671967534E-002  0.282640492461761E+002  0.470975253723758E-001  0.879091079728121E-001 -0.693147180559945E+000 -0.169841573479842E+002
  0.320868671967534E-002  0.282647865623066E+002  0.378196787149916E-001  0.582753927082183E-001 -0.693147180559945E+000 -0.169845260060495E+002
  0.320868671967534E-002  0.335464027464690E+002  0.479960813017755E-001  0.630639652806053E-001 -0.693147180559945E+000 -0.196253340981307E+002
  0.320868671967534E-002  0.283072503181664E+002  0.705126282715089E-001  0.107922421055398E+000 -0.693147180559945E+000 -0.170057578839794E+002
  0.320868671967534E-002  0.283431601058384E+002  0.263692242358073E-001  0.880447144766065E-001 -0.693147180559945E+000 -0.170237127778154E+002
  0.320868671967534E-002  0.283723166719574E+002  0.670824444352158E-001  0.121145110403472E+000 -0.693147180559945E+000 -0.170382910608749E+002
  0.320868671967534E-002  0.335772013932711E+002  0.310607344281701E-001  0.153382249739082E+000 -0.693147180559945E+000 -0.196407334215317E+002
  0.320868671967534E-002  0.283826520627363E+002  0.540267282509101E-001  0.901786493177567E-001 -0.693147180559945E+000 -0.170434587562644E+002
  0.320868671967534E-002  0.283920218061389E+002  0.509027064770857E-001  0.952989666614739E-001 -0.693147180559945E+000 -0.170481436279656E+002
  0.320868671967534E-002  0.284136106078244E+002  0.761868792645986E-001  0.928931858994795E-001 -0.693147180559945E+000 -0.170589380288084E+002
  0.320868671967534E-002  0.284168372226749E+002  0.710894999016918E-001  0.119446912234047E+000 -0.693147180559945E+000 -0.170605513362336E+002
  0.320868671967534E-002  0.285175152804413E+002  0.853030155868244E-001  0.705388620454626E-001 -0.693147180559945E+000 -0.171108903651168E+002
  0.320868671967534E-002  0.402964559595796E+002  0.179122275981387E-001  0.103940791844867E+000 -0.693147180559945E+000 -0.230003607046860E+002
  0.320868671967534E-002  0.285274939303436E+002  0.605015439671057E-001  0.800696488862856E-001 -0.693147180559945E+000 -0.171158796900680E+002
  0.320868671967534E-002  0.285361228915812E+002  0.746556509418761E-001  0.860822366729115E-001 -0.693147180559945E+000 -0.171201941706868E+002
  0.320868671967534E-002  0.285564131246356E+002  0.608227086740769E-001  0.746739476869063E-001 -0.693147180559945E+000 -0.171303392872140E+002
  0.320868671967534E-002  0.418345676674472E+002  0.745821158234088E-001  0.325027751359094E-001 -0.693147180559945E+000 -0.237694165586198E+002
  0.320868671967534E-002  0.300858017685935E+002 -0.115183255443131E-001  0.966812547315220E-001 -0.693147180559945E+000 -0.178950336091929E+002
  0.320868671967534E-002  0.285720031295269E+002  0.480599420998622E-001  0.879628083849352E-001 -0.693147180559945E+000 -0.171381342896596E+002
  0.320868671967534E-002  0.417746515316357E+002  0.292426787574795E-001  0.326023850152939E-002 -0.693147180559945E+000 -0.237394584907140E+002
  0.320868671967534E-002  0.417736960345145E+002  0.651601151275962E-001  0.142691064818796E-001 -0.693147180559945E+000 -0.237389807421534E+002
  0.320868671967534E-002  0.285919728189257E+002  0.421433966385385E-001  0.715749751643013E-001 -0.693147180559945E+000 -0.171481191343590E+002
  0.320868671967534E-002  0.403407867424474E+002  0.195942691603612E-001  0.911642561702729E-001 -0.693147180559945E+000 -0.230225260961199E+002
  0.320868671967534E-002  0.281802030291652E+002  0.252353781490595E-001  0.644398914611253E-001 -0.693147180559945E+000 -0.169422342394788E+002
  0.320868671967534E-002  0.286678862183120E+002  0.993091694572612E-001  0.876916733227204E-001 -0.693147180559945E+000 -0.171860758340522E+002
  0.320868671967534E-002  0.286828386420062E+002  0.442446792910887E-001  0.880495456043337E-001 -0.693147180559945E+000 -0.171935520458993E+002
  0.320868671967534E-002  0.286953861239594E+002  0.111772608733774E+000  0.143007059663636E+000 -0.693147180559945E+000 -0.171998257868759E+002
  0.320868671967534E-002  0.287133936601740E+002  0.505702227885161E-001  0.106873618069694E+000 -0.693147180559945E+000 -0.172088295549832E+002
  0.320868671967534E-002  0.276089560134794E+002  0.404635903941235E-001  0.954850497295599E-001 -0.693147180559945E+000 -0.166566107316359E+002
  0.320868671967534E-002  0.371876157972884E+002  0.908044746340542E-003  0.413318820424186E-001 -0.693147180559945E+000 -0.214459406235404E+002
  0.320868671967534E-002  0.287498649817412E+002  0.716193136399645E-001  0.972598586244961E-001 -0.693147180559945E+000 -0.172270652157668E+002
  0.320868671967534E-002  0.336320589958382E+002  0.266919634751313E-001  0.624663273576196E-001 -0.693147180559945E+000 -0.196681622228153E+002
  0.320868671967534E-002  0.287645924176863E+002  0.556998798413813E-001  0.103130932485903E+000 -0.693147180559945E+000 -0.172344289337393E+002
  0.320868671967534E-002  0.281636860288835E+002  0.748815342706921E-001  0.762115397759712E-001 -0.693147180559945E+000 -0.169339757393379E+002
  0.320868671967534E-002  0.287760217071435E+002  0.503389370006375E-001  0.874310748102451E-001 -0.693147180559945E+000 -0.172401435784680E+002
  0.320868671967534E-002  0.288051879229797E+002  0.441474027547053E-001  0.803585819621553E-001 -0.693147180559945E+000 -0.172547266863860E+002
  0.320868671967534E-002  0.288085837101037E+002  0.758097723201310E-001  0.926994395556667E-001 -0.693147180559945E+000 -0.172564245799480E+002
  0.320868671967534E-002  0.372552646791435E+002  0.326646085819220E-001  0.632796795177551E-001 -0.693147180559945E+000 -0.214797650644679E+002
  0.320868671967534E-002  0.288108022590780E+002  0.425995548920539E-001  0.794110867213741E-001 -0.693147180559945E+000 -0.172575338544352E+002
  0.320868671967534E-002  0.288130677261889E+002  0.648424332055553E-001  0.103856566366201E+000 -0.693147180559945E+000 -0.172586665879906E+002
  0.320868671967534E-002  0.288350415850746E+002  0.636150367271382E-002  0.601711304684014E-001 -0.693147180559945E+000 -0.172696535174335E+002
  0.320868671967534E-002  0.288415483613219E+002  0.421657135578506E-001  0.719212652931245E-001 -0.693147180559945E+000 -0.172729069055571E+002
  0.320868671967534E-002  0.414965881951193E+002  0.619230792506369E-001  0.130873161085812E-001 -0.693147180559945E+000 -0.236004268224558E+002
  0.320868671967534E-002  0.288449210624718E+002  0.519298393248793E-001  0.908083041959296E-001 -0.693147180559945E+000 -0.172745932561321E+002
  0.320868671967534E-002  0.405972655887101E+002 -0.274817956037692E-001  0.805160047718945E-001 -0.693147180559945E+000 -0.231507655192512E+002
  0.320868671967534E-002  0.337310577159137E+002  0.866101325738715E-001  0.970998922697361E-001 -0.693147180559945E+000 -0.197176615828530E+002
  0.320868671967534E-002  0.288688532611026E+002 -0.185063078952397E-002  0.129894588457963E+000 -0.693147180559945E+000 -0.172865593554475E+002
  0.320868671967534E-002  0.337670599542096E+002  0.261872702350434E-001  0.679312160169596E-001 -0.693147180559945E+000 -0.197356627020010E+002
  0.320868671967534E-002  0.337877772729308E+002  0.673052932165177E-001  0.733710786185518E-001 -0.693147180559945E+000 -0.197460213613616E+002
  0.320868671967534E-002  0.281594659326824E+002  0.765796207917975E-001  0.111911123337903E+000 -0.693147180559945E+000 -0.169318656912374E+002
  0.320868671967534E-002  0.281556095896727E+002  0.356763549868693E-001  0.870619418008601E-001 -0.693147180559945E+000 -0.169299375197325E+002
  0.320868671967534E-002  0.289174564517529E+002  0.695302087413536E-001  0.751833025622801E-001 -0.693147180559945E+000 -0.173108609507726E+002
  0.320868671967534E-002  0.289455694933308E+002  0.468789452049416E-001  0.438865402490371E-001 -0.693147180559945E+000 -0.173249174715616E+002
  0.320868671967534E-002  0.281541656217558E+002  0.667108849599110E-001  0.177949591174688E+000 -0.693147180559945E+000 -0.169292155357741E+002
  0.320868671967534E-002  0.338204685217580E+002  0.113116681137830E-001  0.193611221864826E+000 -0.693147180559945E+000 -0.197623669857752E+002
  0.320868671967534E-002  0.290043093126888E+002  0.749072852726302E-001  0.542613550989462E-001 -0.693147180559945E+000 -0.173542873812406E+002
  0.320868671967534E-002  0.290116150413494E+002  0.470882000971047E-001  0.875900729446648E-001 -0.693147180559945E+000 -0.173579402455709E+002
  0.320868671967534E-002  0.290140537509970E+002  0.622297791330260E-001  0.933181839136999E-001 -0.693147180559945E+000 -0.173591596003947E+002
  0.320868671967534E-002  0.290634414907861E+002  0.230834680856571E-001  0.108155297016822E+000 -0.693147180559945E+000 -0.173838534702893E+002
  0.320868671967534E-002  0.290688042906838E+002  0.644928030707161E-001  0.703565145534957E-001 -0.693147180559945E+000 -0.173865348702381E+002
  0.320868671967534E-002  0.374134664112358E+002  0.781350209268215E-001  0.114027460034520E+000 -0.693147180559945E+000 -0.215588659305141E+002
  0.320868671967534E-002  0.374286700553517E+002  0.495128791087407E-001  0.568238735173284E-001 -0.693147180559945E+000 -0.215664677525720E+002
  0.320868671967534E-002  0.374477988450354E+002  0.942268478673529E-001  0.280817055589399E-001 -0.693147180559945E+000 -0.215760321474139E+002
  0.320868671967534E-002  0.290882618365156E+002  0.596491524965461E-001  0.755689262275182E-001 -0.693147180559945E+000 -0.173962636431540E+002
  0.320868671967534E-002  0.374901602137657E+002  0.785315072662649E-001  0.600577254266767E-001 -0.693147180559945E+000 -0.215972128317791E+002
  0.320868671967534E-002  0.338436931021272E+002  0.111035146837222E-001  0.535148228187483E-001 -0.693147180559945E+000 -0.197739792759598E+002
  0.320868671967534E-002  0.291068004968811E+002  0.601467962614366E-001  0.759673482775691E-001 -0.693147180559945E+000 -0.174055329733367E+002
  0.320868671967534E-002  0.413075433347066E+002  0.634220143497826E-001  0.822023516779403E-001 -0.693147180559945E+000 -0.235059043922495E+002
  0.320868671967534E-002  0.291099650849460E+002  0.647966648692946E-001  0.103704030397651E+000 -0.693147180559945E+000 -0.174071152673692E+002
  0.320868671967534E-002  0.408022750542501E+002  0.522522288724481E-001  0.674330399105268E-001 -0.693147180559945E+000 -0.232532702520213E+002
  0.320868671967534E-002  0.291463219736917E+002  0.379770356276543E-001  0.142527730016981E+000 -0.693147180559945E+000 -0.174252937117420E+002
  0.320868671967534E-002  0.291496548016790E+002  0.470975301133882E-001  0.879091014628088E-001 -0.693147180559945E+000 -0.174269601257357E+002
  0.320868671967534E-002  0.291975320854498E+002  0.741411266484795E-001  0.996749621218018E-001 -0.693147180559945E+000 -0.174508987676211E+002
  0.320868671967534E-002  0.281398188202079E+002  0.464053308511814E-001  0.751398069393148E-001 -0.693147180559945E+000 -0.169220421350001E+002
  0.320868671967534E-002  0.339142641811848E+002  0.897222564344691E-001  0.567761325803015E-001 -0.693147180559945E+000 -0.198092648154886E+002
  0.320868671967534E-002  0.276296250983498E+002  0.508876015723398E-001  0.124219138658786E+000 -0.693147180559945E+000 -0.166669452740711E+002
  0.320868671967534E-002  0.280808071230919E+002  0.519337062791250E-001  0.908083411866821E-001 -0.693147180559945E+000 -0.168925362864421E+002
  0.320868671967534E-002  0.280728896347427E+002  0.465829562143325E-001  0.935309551623691E-001 -0.693147180559945E+000 -0.168885775422675E+002
  0.320868671967534E-002  0.293306768177588E+002  0.453304456300181E-001  0.112521610341430E+000 -0.693147180559945E+000 -0.175174711337756E+002
  0.320868671967534E-002  0.293475523836384E+002  0.523365678628216E-001  0.899937353366227E-001 -0.693147180559945E+000 -0.175259089167154E+002
  0.320868671967534E-002  0.294373873787991E+002  0.957128076138600E-001  0.707541684573152E-001 -0.693147180559945E+000 -0.175708264142958E+002
  0.320868671967534E-002  0.294488765235675E+002  0.441704753096903E-001  0.111816697847850E+000 -0.693147180559945E+000 -0.175765709866799E+002
  0.320868671967534E-002  0.294672192336786E+002  0.123790728739497E-001  0.810891624383834E-001 -0.693147180559945E+000 -0.175857423417355E+002
  0.320868671967534E-002  0.294977938812232E+002  0.701164322290591E-001  0.862338556460706E-001 -0.693147180559945E+000 -0.176010296655078E+002
  0.320868671967534E-002  0.411564877901502E+002  0.891882790054641E-001  0.598435177473632E-001 -0.693147180559945E+000 -0.234303766199713E+002
  0.320868671967534E-002  0.295495062277967E+002  0.715961513061147E-001  0.972668623266910E-001 -0.693147180559945E+000 -0.176268858387945E+002
  0.320868671967534E-002  0.295778677941718E+002  0.370802748260157E-001  0.998032087427828E-001 -0.693147180559945E+000 -0.176410666219821E+002
  0.320868671967534E-002  0.276448559825746E+002  0.252073507119768E-001  0.790390161596348E-001 -0.693147180559945E+000 -0.166745607161835E+002
  0.320868671967534E-002  0.302148764505136E+002  0.130961347378846E+000  0.869279326605290E-001 -0.693147180559945E+000 -0.179595709501530E+002
  0.320868671967534E-002  0.339390856116571E+002  0.896370606512664E-002  0.971414523335128E-001 -0.693147180559945E+000 -0.198216755307248E+002
  0.320868671967534E-002  0.339405219791065E+002  0.833623982795804E-001  0.844024248141362E-001 -0.693147180559945E+000 -0.198223937144494E+002
  0.320868671967534E-002  0.295906300869569E+002  0.282131530904497E-001  0.126630439168818E+000 -0.693147180559945E+000 -0.176474477683747E+002
  0.320868671967534E-002  0.295984973536433E+002 -0.652418109507202E-002  0.888824473143861E-001 -0.693147180559945E+000 -0.176513814017178E+002
  0.320868671967534E-002  0.296156498836681E+002  0.459013846215961E-001  0.873733813666473E-001 -0.693147180559945E+000 -0.176599576667302E+002
  0.320868671967534E-002  0.296317719987771E+002  0.503025652780049E-001  0.952576251562800E-001 -0.693147180559945E+000 -0.176680187242847E+002
  0.320868671967534E-002  0.302187130291221E+002  0.436302269891202E-001  0.724498074719515E-001 -0.693147180559945E+000 -0.179614892394572E+002
  0.320868671967534E-002  0.296496734004378E+002  0.273796819587648E-001  0.775430125887443E-001 -0.693147180559945E+000 -0.176769694251151E+002
  0.320868671967534E-002  0.340136292377649E+002  0.102491905261371E+000  0.695485762327788E-001 -0.693147180559945E+000 -0.198589473437786E+002
  0.320868671967534E-002  0.296609881028236E+002  0.678877515653782E-001  0.877955911161207E-001 -0.693147180559945E+000 -0.176826267763080E+002
  0.320868671967534E-002  0.296616196004161E+002  0.394842634757162E-001  0.885171439296430E-001 -0.693147180559945E+000 -0.176829425251043E+002
  0.320868671967534E-002  0.296637294088937E+002  0.752825993781312E-001  0.944846432030179E-001 -0.693147180559945E+000 -0.176839974293430E+002
  0.320868671967534E-002  0.296825777847186E+002  0.272957671324099E-001  0.125419612631184E+000 -0.693147180559945E+000 -0.176934216172555E+002
  0.320868671967534E-002  0.280297830478508E+002  0.404642348558795E-001  0.954774730941091E-001 -0.693147180559945E+000 -0.168670242488216E+002
  0.320868671967534E-002  0.297749984779499E+002  0.773282662605066E-001  0.115311870846293E+000 -0.693147180559945E+000 -0.177396319638711E+002
  0.320868671967534E-002  0.297892506037170E+002  0.647565501019012E-001  0.952900166167976E-001 -0.693147180559945E+000 -0.177467580267547E+002
  0.320868671967534E-002  0.280224044295248E+002  0.710094128469871E-001  0.119417210190615E+000 -0.693147180559945E+000 -0.168633349396586E+002
  0.320868671967534E-002  0.298076789604344E+002  0.637580199656875E-001  0.754373312876382E-001 -0.693147180559945E+000 -0.177559722051134E+002
  0.320868671967534E-002  0.390065332678752E+002  0.536626376547917E-001  0.287558468613431E-001 -0.693147180559945E+000 -0.223553993588338E+002
  0.320868671967534E-002  0.307802291314600E+002  0.301118758872900E-001  0.119602974638942E+000 -0.693147180559945E+000 -0.182422472906262E+002
  0.320868671967534E-002  0.308119060182417E+002  0.266064917390767E-001  0.724430322832361E-001 -0.693147180559945E+000 -0.182580857340170E+002
  0.320868671967534E-002  0.308230733584977E+002  0.410270936695463E-001  0.114654149882361E+000 -0.693147180559945E+000 -0.182636694041450E+002
  0.320868671967534E-002  0.308562871978391E+002  0.294969923901021E-001  0.118896270963636E+000 -0.693147180559945E+000 -0.182802763238158E+002
  0.320868671967534E-002  0.306882453259319E+002  0.554564325283500E-001  0.916488130174700E-001 -0.693147180559945E+000 -0.181962553878621E+002
  0.320868671967534E-002  0.308971684104346E+002  0.417419422694998E-001  0.616613388479603E-001 -0.693147180559945E+000 -0.183007169301135E+002
  0.320868671967534E-002  0.309004979809889E+002  0.442241279931905E-001  0.880280872903936E-001 -0.693147180559945E+000 -0.183023817153907E+002
  0.320868671967534E-002  0.341975150819224E+002  0.799785420880934E-001  0.641949482022172E-001 -0.693147180559945E+000 -0.199508902658574E+002
  0.320868671967534E-002  0.306651053981030E+002  0.835862978017361E-001  0.387785084055558E-001 -0.693147180559945E+000 -0.181846854239477E+002
  0.320868671967534E-002  0.309313296460513E+002  0.795328521693102E-001  0.952377637556780E-001 -0.693147180559945E+000 -0.183177975479218E+002
  0.320868671967534E-002  0.309367818358456E+002  0.239983438929945E-001  0.126336434138143E+000 -0.693147180559945E+000 -0.183205236428190E+002
  0.320868671967534E-002  0.309470013346250E+002  0.459312754670431E-001  0.162969442061130E+000 -0.693147180559945E+000 -0.183256333922087E+002
  0.320868671967534E-002  0.311608154305743E+002  0.604094773895310E-001  0.800829629479244E-001 -0.693147180559945E+000 -0.184325404401833E+002
  0.320868671967534E-002  0.312018852622019E+002  0.523694545300046E-001  0.644641441055525E-001 -0.693147180559945E+000 -0.184530753559971E+002
  0.320868671967534E-002  0.302858344956561E+002  0.636259626085180E-001  0.727892162062603E-001 -0.693147180559945E+000 -0.179950499727243E+002
  0.320868671967534E-002  0.312381645887384E+002  0.604091417049166E-001  0.800827073956210E-001 -0.693147180559945E+000 -0.184712150192654E+002
  0.320868671967534E-002  0.312557380897561E+002  0.387861472760989E-001  0.719836354535059E-001 -0.693147180559945E+000 -0.184800017697742E+002
  0.320868671967534E-002  0.313115162798387E+002 -0.115182992211054E-001  0.966812568191770E-001 -0.693147180559945E+000 -0.185078908648155E+002
  0.320868671967534E-002  0.279559069407060E+002  0.565133790539643E-001  0.710306786069208E-001 -0.693147180559945E+000 -0.168300861952492E+002
  0.320868671967534E-002  0.313798657096237E+002  0.111679430387583E-001  0.534182342272656E-001 -0.693147180559945E+000 -0.185420655797080E+002
  0.320868671967534E-002  0.313823408587043E+002  0.440542047029735E-001  0.920710300724775E-001 -0.693147180559945E+000 -0.185433031542483E+002
  0.320868671967534E-002  0.279366883949790E+002  0.912593352008015E-001  0.119862186639074E+000 -0.693147180559945E+000 -0.168204769223857E+002
  0.320868671967534E-002  0.314222177050684E+002  0.293208279453809E-001  0.109838607492253E+000 -0.693147180559945E+000 -0.185632415774304E+002
  0.320868671967534E-002  0.276980262098547E+002  0.749072852790122E-001  0.542613550957985E-001 -0.693147180559945E+000 -0.167011458298235E+002
  0.320868671967534E-002  0.343040066577293E+002  0.608188178381739E-001  0.484293187911138E-001 -0.693147180559945E+000 -0.200041360537608E+002
  0.320868671967534E-002  0.279305702107134E+002  0.496451800053916E-001  0.809366151650839E-001 -0.693147180559945E+000 -0.168174178302529E+002
  0.320868671967534E-002  0.380765685329367E+002  0.550539995482224E-002  0.109003339385668E+000 -0.693147180559945E+000 -0.218904169913645E+002
  0.320868671967534E-002  0.314607191296804E+002  0.975135088586716E-001  0.868476535767309E-001 -0.693147180559945E+000 -0.185824922897364E+002
  0.320868671967534E-002  0.381176292126921E+002  0.593858806935617E-001  0.422749789690954E-001 -0.693147180559945E+000 -0.219109473312422E+002
  0.320868671967534E-002  0.314641681496399E+002  0.100887390874290E+000  0.875357441870604E-001 -0.693147180559945E+000 -0.185842167997161E+002
  0.320868671967534E-002  0.314759950349965E+002  0.624418187759475E-001  0.967676918975476E-001 -0.693147180559945E+000 -0.185901302423944E+002
  0.320868671967534E-002  0.315376581233045E+002  0.237074435852813E-001  0.117415326678537E+000 -0.693147180559945E+000 -0.186209617865484E+002
  0.320868671967534E-002  0.381634031868091E+002 -0.354332293198748E-001  0.685250998683966E-001 -0.693147180559945E+000 -0.219338343183007E+002
  0.320868671967534E-002  0.315518727983781E+002  0.130878336661592E+000  0.872037964893208E-001 -0.693147180559945E+000 -0.186280691240852E+002
  0.320868671967534E-002  0.385353682488556E+002  0.338613543466606E-001  0.659630324912323E-001 -0.693147180559945E+000 -0.221198168493240E+002
  0.320868671967534E-002  0.382422609106728E+002  0.498215791529020E-001  0.255854980351871E-001 -0.693147180559945E+000 -0.219732631802326E+002
  0.320868671967534E-002  0.279074734933736E+002  0.398953245026643E-001  0.952179387874774E-001 -0.693147180559945E+000 -0.168058694715830E+002
  0.320868671967534E-002  0.343279897996313E+002  0.864911482412305E-001  0.454141414101870E-001 -0.693147180559945E+000 -0.200161276247118E+002
  0.320868671967534E-002  0.316053794314939E+002  0.584976519593137E-001  0.113416478172933E+000 -0.693147180559945E+000 -0.186548224406431E+002
  0.320868671967534E-002  0.384849073789489E+002 -0.376096889490729E-002  0.532036148841798E-001 -0.693147180559945E+000 -0.220945864143706E+002
  0.320868671967534E-002  0.305144025270229E+002  0.740113677564782E-001  0.850787099003899E-001 -0.693147180559945E+000 -0.181093339884076E+002
  0.320868671967534E-002  0.316560864081877E+002  0.117599003485602E-002  0.135161891376192E+000 -0.693147180559945E+000 -0.186801759289901E+002
  0.320868671967534E-002  0.316816949488777E+002  0.711578225608207E-001  0.871549546503226E-001 -0.693147180559945E+000 -0.186929801993350E+002
  0.320868671967534E-002  0.316884469718726E+002  0.921181427098205E-001  0.672704062595997E-001 -0.693147180559945E+000 -0.186963562108325E+002
  0.320868671967534E-002  0.317671045800797E+002  0.225812840843949E-001  0.943315591892681E-001 -0.693147180559945E+000 -0.187356850149361E+002
  0.320868671967534E-002  0.383877481904081E+002  0.447722625189484E-001  0.153416249753727E-001 -0.693147180559945E+000 -0.220460068201003E+002
  0.320868671967534E-002  0.318174358824601E+002  0.440647663975537E-001  0.920641098472160E-001 -0.693147180559945E+000 -0.187608506661262E+002
  0.320868671967534E-002  0.318432590224942E+002  0.740123938372292E-001  0.850795604305047E-001 -0.693147180559945E+000 -0.187737622361433E+002
  0.320868671967534E-002  0.319489103844435E+002  0.410257780590759E-001  0.114652326291391E+000 -0.693147180559945E+000 -0.188265879171179E+002
  0.320868671967534E-002  0.357462714294974E+002  0.741185351508000E-002  0.513238989302231E-001 -0.693147180559945E+000 -0.207252684396449E+002
  0.320868671967534E-002  0.319814467489891E+002  0.797764783499655E-001  0.988192100773186E-001 -0.693147180559945E+000 -0.188428560993907E+002
  0.320868671967534E-002  0.357367529916438E+002  0.351038798957171E-002  0.823318773457158E-001 -0.693147180559945E+000 -0.207205092207181E+002
  0.320868671967534E-002  0.319843195054261E+002  0.387866004121160E-001  0.852047440854025E-001 -0.693147180559945E+000 -0.188442924776093E+002
  0.320868671967534E-002  0.321152341478672E+002  0.172588912984724E-001  0.829008158457827E-001 -0.693147180559945E+000 -0.189097497988298E+002
  0.320868671967534E-002  0.278828416193720E+002  0.377921963897274E-001  0.866997445175598E-001 -0.693147180559945E+000 -0.167935535345822E+002
  0.320868671967534E-002  0.321701879820324E+002  0.986254975870495E-001  0.132433329461860E+000 -0.693147180559945E+000 -0.189372267159124E+002
  0.320868671967534E-002  0.278737988580027E+002  0.404642348938353E-001  0.954774732249084E-001 -0.693147180559945E+000 -0.167890321538976E+002
  0.320868671967534E-002  0.321930475948748E+002  0.421284713504146E-001  0.715518400350672E-001 -0.693147180559945E+000 -0.189486565223336E+002
  0.320868671967534E-002  0.304566707505943E+002  0.671892030850865E-001  0.121281983346754E+000 -0.693147180559945E+000 -0.180804681001933E+002
  0.320868671967534E-002  0.356007684936225E+002  0.860105492202980E-001  0.148835905101552E+000 -0.693147180559945E+000 -0.206525169717075E+002
  0.320868671967534E-002  0.322192358120884E+002  0.254210710360891E-001  0.106285087775852E+000 -0.693147180559945E+000 -0.189617506309404E+002
  0.320868671967534E-002  0.344535829794864E+002  0.753016784697391E-001  0.857662331771756E-001 -0.693147180559945E+000 -0.200789242146394E+002
  0.320868671967534E-002  0.322331112953295E+002  0.191741284520359E-001  0.108739794950309E+000 -0.693147180559945E+000 -0.189686883725609E+002
  0.320868671967534E-002  0.322505529424717E+002  0.853480710350474E-001  0.127107051377347E+000 -0.693147180559945E+000 -0.189774091961320E+002
  0.320868671967534E-002  0.322797332915782E+002  0.907039089859243E-001  0.116991221947042E+000 -0.693147180559945E+000 -0.189919993706853E+002
  0.320868671967534E-002  0.323018846775653E+002  0.897360172060526E-001  0.635569220829398E-001 -0.693147180559945E+000 -0.190030750636788E+002
  0.320868671967534E-002  0.323150973291652E+002  0.431303599112796E-001  0.904413302850936E-001 -0.693147180559945E+000 -0.190096813894788E+002
  0.320868671967534E-002  0.323904690373670E+002  0.867500294911154E-001  0.148444071921777E+000 -0.693147180559945E+000 -0.190473672435797E+002
  0.320868671967534E-002  0.323971503960885E+002  0.107795813661625E+000  0.870527416776998E-001 -0.693147180559945E+000 -0.190507079229404E+002
  0.320868671967534E-002  0.354373838822843E+002  0.890127570912691E-002  0.795280470557609E-001 -0.693147180559945E+000 -0.205708246660383E+002
  0.320868671967534E-002  0.324206499452396E+002 -0.362105331662463E-001  0.131207118605550E+000 -0.693147180559945E+000 -0.190624576975160E+002
  0.320868671967534E-002  0.324307266027572E+002  0.846212661024557E-001  0.104813683709492E+000 -0.693147180559945E+000 -0.190674960262748E+002
  0.320868671967534E-002  0.278624866493575E+002  0.410428137979282E-001  0.950919370665842E-001 -0.693147180559945E+000 -0.167833760495749E+002
  0.320868671967534E-002  0.303960212947549E+002  0.420944379209369E-001  0.715588249110616E-001 -0.693147180559945E+000 -0.180501433722736E+002
  0.320868671967534E-002  0.278459181495653E+002  0.604449483643341E-001  0.801553853026692E-001 -0.693147180559945E+000 -0.167750917996788E+002
  0.320868671967534E-002  0.278344917814707E+002  0.496451859714300E-001  0.809366269268068E-001 -0.693147180559945E+000 -0.167693786156316E+002
  0.320868671967534E-002  0.303299710186021E+002  0.425212469654344E-001  0.141916705742909E+000 -0.693147180559945E+000 -0.180171182341972E+002
  0.320868671967534E-002  0.278293753089984E+002  0.662379679184306E-001  0.803420666251824E-001 -0.693147180559945E+000 -0.167668203793954E+002
  0.320868671967534E-002  0.326085774013549E+002  0.710746670491824E-001  0.978002950617294E-001 -0.693147180559945E+000 -0.191564214255737E+002
  0.320868671967534E-002  0.326332704584046E+002  0.384878106981228E-001  0.848776989037745E-001 -0.693147180559945E+000 -0.191687679540985E+002
  0.320868671967534E-002  0.326495890784246E+002  0.354231691149267E-001  0.119455057809135E+000 -0.693147180559945E+000 -0.191769272641085E+002
  0.320868671967534E-002  0.303863528005106E+002  0.505701692945022E-001  0.106873683476979E+000 -0.693147180559945E+000 -0.180453091251515E+002
  0.320868671967534E-002  0.303797588146557E+002  0.111861925690354E+000  0.925511222677311E-001 -0.693147180559945E+000 -0.180420121322240E+002
  0.320868671967534E-002  0.327441417015331E+002  0.284025393374343E-001  0.456801695496868E-001 -0.693147180559945E+000 -0.192242035756627E+002
  0.320868671967534E-002  0.327494904595016E+002  0.294948587074642E-001  0.118890078277136E+000 -0.693147180559945E+000 -0.192268779546470E+002
  0.320868671967534E-002  0.345528698092296E+002  0.574670977459486E-001  0.459952763339333E-001 -0.693147180559945E+000 -0.201285676295110E+002
  0.320868671967534E-002  0.345614031819963E+002  0.787069833945382E-001  0.966971579288283E-001 -0.693147180559945E+000 -0.201328343158943E+002
  0.320868671967534E-002  0.347092527919999E+002  0.991689964666091E-001  0.132430732016369E+000 -0.693147180559945E+000 -0.202067591208961E+002
  0.320868671967534E-002  0.349098070260132E+002  0.282103682110961E-001  0.126560957245089E+000 -0.693147180559945E+000 -0.203070362379028E+002
  0.320868671967534E-002  0.346865746280661E+002  0.301688698579587E-001  0.998434413380944E-001 -0.693147180559945E+000 -0.201954200389293E+002
  0.320868671967534E-002  0.349587972713837E+002  0.152593477424978E-001  0.149789334484817E+000 -0.693147180559945E+000 -0.203315313605880E+002
  0.320868671967534E-002  0.303374901012665E+002  0.294980666761395E-001  0.118911787671941E+000 -0.693147180559945E+000 -0.180208777755295E+002
  0.320868671967534E-002  0.350429265141237E+002  0.672390234100175E-001  0.528171011828715E-001 -0.693147180559945E+000 -0.203735959819580E+002
  0.320868671967534E-002  0.350868244918060E+002  0.101800394498387E+000  0.620303003707354E-001 -0.693147180559945E+000 -0.203955449707992E+002
  0.320868671967534E-002  0.351044003670793E+002  0.337673931335807E-001  0.126478467602441E+000 -0.693147180559945E+000 -0.204043329084358E+002
  0.320868671967534E-002  0.277894823335917E+002  0.647968095619902E-001  0.103704090150913E+000 -0.693147180559945E+000 -0.167468738916920E+002
  0.320868671967534E-002  0.346247486423441E+002 -0.249183984408774E-002  0.824763817021973E-001 -0.693147180559945E+000 -0.201645070460682E+002
  0.320868671967534E-002  0.272294640618306E+002  0.615384933125638E-001  0.117314283645507E+000 -0.693147180559945E+000 -0.136147320309153E+002
  0.320868671967534E-002  0.266032389679695E+002  0.615384862576329E-001  0.117314287254426E+000 -0.693147180559945E+000 -0.133016194839847E+002
  0.320868671967534E-002  0.245601808469606E+002  0.615384843418125E-001  0.117314287554841E+000 -0.693147180559945E+000 -0.122800904234803E+002
