  0.101394498635559E-001  0.334785032910867E+002  0.111935039568491E-001  0.534258932348132E-001 -0.693147180559945E+000 -0.192287666228838E+002
  0.101394498635559E-001  0.305558401642729E+002  0.630495344553497E-001  0.790683122290604E-001 -0.693147180559945E+000 -0.177674350594769E+002
  0.101394498635559E-001  0.246826944891158E+002  0.714834644282485E-001  0.119243082422446E+000 -0.693147180559945E+000 -0.123413472445579E+002
  0.101394498635559E-001  0.268841544565279E+002  0.714834640579316E-001  0.119243083104991E+000 -0.693147180559945E+000 -0.134420772282640E+002
  0.101394498635559E-001  0.259560267681293E+002  0.502583850993086E-001  0.951886258784853E-001 -0.693147180559945E+000 -0.154675283614051E+002
  0.101394498635559E-001  0.333463956488642E+002  0.124053659004785E+000  0.157585714552923E+000 -0.693147180559945E+000 -0.191627128017725E+002
  0.101394498635559E-001  0.492949753139014E+002 -0.221126188873095E-001  0.472144036956154E-002 -0.693147180559945E+000 -0.271370026342911E+002
  0.101394498635559E-001  0.335305535023011E+002  0.294948544016360E-001  0.118890052183763E+000 -0.693147180559945E+000 -0.192547917284910E+002
  0.101394498635559E-001  0.311134464000034E+002  0.788197488195810E-001  0.630784837939156E-001 -0.693147180559945E+000 -0.180462381773422E+002
  0.101394498635559E-001  0.356586928007971E+002  0.111772767650490E+000  0.143007187528563E+000 -0.693147180559945E+000 -0.203188613777390E+002
  0.101394498635559E-001  0.353743186553343E+002  0.536181987409490E-001  0.764231700737864E-001 -0.693147180559945E+000 -0.201766743050076E+002
  0.101394498635559E-001  0.282254251550379E+002  0.512696985868286E-001  0.901328449428331E-001 -0.693147180559945E+000 -0.166022275548594E+002
  0.101394498635559E-001  0.285597272765822E+002  0.496451859714300E-001  0.809366269268068E-001 -0.693147180559945E+000 -0.167693786156316E+002
  0.101394498635559E-001  0.260491498586807E+002  0.513707263879888E-001  0.909883234845301E-001 -0.693147180559945E+000 -0.155140899066808E+002
  0.101394498635559E-001  0.260536007833822E+002  0.436963732847473E-001  0.118040158899533E+000 -0.693147180559945E+000 -0.155163153690315E+002
  0.101394498635559E-001  0.285824762556734E+002  0.607799293055424E-001  0.746771190476097E-001 -0.693147180559945E+000 -0.167807531051771E+002
  0.101394498635559E-001  0.305663504479208E+002  0.546823100872136E-001  0.626063430841457E-001 -0.693147180559945E+000 -0.177726902013009E+002
  0.101394498635559E-001  0.311212567898663E+002  0.420944379209369E-001  0.715588249110616E-001 -0.693147180559945E+000 -0.180501433722736E+002
  0.101394498635559E-001  0.357258217585586E+002  0.526158403843731E-001  0.780407290668736E-001 -0.693147180559945E+000 -0.203524258566198E+002
  0.101394498635559E-001  0.332370071539334E+002  0.121994271131366E+000  0.103604037779163E+000 -0.693147180559945E+000 -0.191080185543072E+002
  0.101394498635559E-001  0.311350840628098E+002  0.392755588714322E-001  0.565686445470161E-001 -0.693147180559945E+000 -0.180570570087454E+002
  0.101394498635559E-001  0.329749874305119E+002  0.752392774395045E-001  0.557657160204115E-001 -0.693147180559945E+000 -0.189770086925964E+002
  0.101394498635559E-001  0.310852768232221E+002 -0.313653377045953E-002  0.110936939793587E+000 -0.693147180559945E+000 -0.180321533889515E+002
  0.101394498635559E-001  0.261495927986903E+002  0.503842562296266E-001  0.850682998601733E-001 -0.693147180559945E+000 -0.155643113766856E+002
  0.101394498635559E-001  0.329182830899862E+002  0.421284713504146E-001  0.715518400350672E-001 -0.693147180559945E+000 -0.189486565223336E+002
  0.101394498635559E-001  0.328691764760739E+002  0.272474534610601E-001  0.125280500400837E+000 -0.693147180559945E+000 -0.189241032153774E+002
  0.101394498635559E-001  0.261519061341902E+002  0.760935303583057E-001  0.926356091861850E-001 -0.693147180559945E+000 -0.155654680444355E+002
  0.101394498635559E-001  0.327416199638276E+002  0.753424445259085E-001  0.963479714504755E-001 -0.693147180559945E+000 -0.188603249592543E+002
  0.101394498635559E-001  0.261988383367838E+002  0.410522466522172E-001  0.950924848771071E-001 -0.693147180559945E+000 -0.155889341457324E+002
  0.101394498635559E-001  0.262390833071496E+002  0.760115152984422E-001  0.929496769676500E-001 -0.693147180559945E+000 -0.156090566309153E+002
  0.101394498635559E-001  0.282426072261992E+002 -0.108974987422643E-001  0.105766500184354E+000 -0.693147180559945E+000 -0.166108185904401E+002
  0.101394498635559E-001  0.262464806932412E+002  0.719593170108241E-001  0.129554943329434E+000 -0.693147180559945E+000 -0.156127553239611E+002
  0.101394498635559E-001  0.327404388619804E+002  0.401066451974590E-001  0.114157841232660E+000 -0.693147180559945E+000 -0.188597344083307E+002
  0.101394498635559E-001  0.305758811712145E+002  0.700189919017038E-001  0.699516650744772E-001 -0.693147180559945E+000 -0.177774555629477E+002
  0.101394498635559E-001  0.305847757171939E+002  0.740677639919352E-001  0.850944044666707E-001 -0.693147180559945E+000 -0.177819028359374E+002
  0.101394498635559E-001  0.262768076355007E+002  0.761250673257987E-001  0.617962460719132E-001 -0.693147180559945E+000 -0.156279187950908E+002
  0.101394498635559E-001  0.262863477539615E+002  0.694203728368044E-001  0.836217926297413E-001 -0.693147180559945E+000 -0.156326888543212E+002
  0.101394498635559E-001  0.263011302469156E+002  0.749198905926252E-001  0.945989414625243E-001 -0.693147180559945E+000 -0.156400801007983E+002
  0.101394498635559E-001  0.263015636691029E+002  0.644928393291102E-001  0.703565234075496E-001 -0.693147180559945E+000 -0.156402968118919E+002
  0.101394498635559E-001  0.263329630830853E+002  0.538630310967023E-001  0.898159280290191E-001 -0.693147180559945E+000 -0.156559965188831E+002
  0.101394498635559E-001  0.285147178287032E+002  0.647968095619902E-001  0.103704090150913E+000 -0.693147180559945E+000 -0.167468738916920E+002
  0.101394498635559E-001  0.310760068412248E+002  0.695302087414391E-001  0.751833025622248E-001 -0.693147180559945E+000 -0.180275183979528E+002
  0.101394498635559E-001  0.305884416324935E+002  0.301703215096729E-001  0.100955700669578E+000 -0.693147180559945E+000 -0.177837357935872E+002
  0.101394498635559E-001  0.326397417470252E+002 -0.195958600373285E-001  0.100688555915483E+000 -0.693147180559945E+000 -0.188093858508530E+002
  0.101394498635559E-001  0.353150412871760E+002  0.786181697867949E-001  0.100484079461098E+000 -0.693147180559945E+000 -0.201470356209285E+002
  0.101394498635559E-001  0.310627255963780E+002  0.294980666761395E-001  0.118911787671941E+000 -0.693147180559945E+000 -0.180208777755295E+002
  0.101394498635559E-001  0.264357905340806E+002  0.749198820396502E-001  0.945989447703293E-001 -0.693147180559945E+000 -0.157074102443807E+002
  0.101394498635559E-001  0.325684945176057E+002  0.740123938372292E-001  0.850795604305047E-001 -0.693147180559945E+000 -0.187737622361433E+002
  0.101394498635559E-001  0.264729988797455E+002  0.619101035409879E-001  0.125849443991686E+000 -0.693147180559945E+000 -0.157260144172132E+002
  0.101394498635559E-001  0.306027774649918E+002  0.503357229970525E-001  0.875790868721330E-001 -0.693147180559945E+000 -0.177909037098364E+002
  0.101394498635559E-001  0.264752642055021E+002  0.466398393840672E-001  0.934331605674857E-001 -0.693147180559945E+000 -0.157271470800915E+002
  0.101394498635559E-001  0.324890508855396E+002  0.614773909319020E-001  0.117168024933699E+000 -0.693147180559945E+000 -0.187340404201103E+002
  0.101394498635559E-001  0.352866386771077E+002  0.787069833945382E-001  0.966971579288283E-001 -0.693147180559945E+000 -0.201328343158943E+002
  0.101394498635559E-001  0.352748248515877E+002  0.334986303756437E-001  0.104963520016849E+000 -0.693147180559945E+000 -0.201269274031343E+002
  0.101394498635559E-001  0.360557287809574E+002  0.108589068183052E+000  0.100707499651939E+000 -0.693147180559945E+000 -0.205173793678192E+002
  0.101394498635559E-001  0.312389585956202E+002  0.440688687600173E-001  0.917058095875658E-001 -0.693147180559945E+000 -0.181089942751506E+002
  0.101394498635559E-001  0.323306149266053E+002  0.584976519593137E-001  0.113416478172933E+000 -0.693147180559945E+000 -0.186548224406431E+002
  0.101394498635559E-001  0.306154347369050E+002  0.438119158772754E-001  0.807040141155536E-001 -0.693147180559945E+000 -0.177972323457930E+002
  0.101394498635559E-001  0.322951536656803E+002  0.599366699561568E-001  0.806500051727276E-001 -0.693147180559945E+000 -0.186370918101806E+002
  0.101394498635559E-001  0.286327089884851E+002  0.398953245026643E-001  0.952179387874774E-001 -0.693147180559945E+000 -0.168058694715830E+002
  0.101394498635559E-001  0.432993671572793E+002 -0.532277386172164E-002  0.419802858280810E-001 -0.693147180559945E+000 -0.241391985559801E+002
  0.101394498635559E-001  0.322628936184160E+002  0.237074435852813E-001  0.117415326678537E+000 -0.693147180559945E+000 -0.186209617865484E+002
  0.101394498635559E-001  0.321859546247918E+002  0.975135088586716E-001  0.868476535767309E-001 -0.693147180559945E+000 -0.185824922897364E+002
  0.101394498635559E-001  0.266322978042115E+002  0.502583850845970E-001  0.951886258517428E-001 -0.693147180559945E+000 -0.158056638794462E+002
  0.101394498635559E-001  0.352241157807274E+002  0.859645439228691E-001  0.148889288192303E+000 -0.693147180559945E+000 -0.201015728677042E+002
  0.101394498635559E-001  0.286558057058248E+002  0.496451800053916E-001  0.809366151650839E-001 -0.693147180559945E+000 -0.168174178302529E+002
  0.101394498635559E-001  0.321474532001799E+002  0.293208279453809E-001  0.109838607492253E+000 -0.693147180559945E+000 -0.185632415774304E+002
  0.101394498635559E-001  0.337864276155517E+002 -0.281776854144425E-001  0.164526872325243E+000 -0.693147180559945E+000 -0.193827287851163E+002
  0.101394498635559E-001  0.267039528236754E+002  0.490716021615538E-001  0.871270042473062E-001 -0.693147180559945E+000 -0.158414913891782E+002
  0.101394498635559E-001  0.267058578826282E+002  0.662885895491536E-001  0.992773610024928E-001 -0.693147180559945E+000 -0.158424439186546E+002
  0.101394498635559E-001  0.267090521902290E+002  0.393999224874839E-001  0.115848433321029E+000 -0.693147180559945E+000 -0.158440410724549E+002
  0.101394498635559E-001  0.267337904843308E+002  0.840008635958991E-001  0.893218908372078E-001 -0.693147180559945E+000 -0.158564102195059E+002
  0.101394498635559E-001  0.351973477046185E+002  0.236939005188597E-001  0.117421142294127E+000 -0.693147180559945E+000 -0.200881888296497E+002
  0.101394498635559E-001  0.351797845161537E+002  0.522022977883516E-001  0.428094588588333E-001 -0.693147180559945E+000 -0.200794072354173E+002
  0.101394498635559E-001  0.321051012047351E+002  0.111679430387583E-001  0.534182342272656E-001 -0.693147180559945E+000 -0.185420655797080E+002
  0.101394498635559E-001  0.338307799748357E+002  0.683942270326272E-001  0.112795095632452E+000 -0.693147180559945E+000 -0.194049049647583E+002
  0.101394498635559E-001  0.268534023511482E+002  0.746106781866913E-001  0.944470869135409E-001 -0.693147180559945E+000 -0.159162161529146E+002
  0.101394498635559E-001  0.363260039887340E+002  0.860105492202980E-001  0.148835905101552E+000 -0.693147180559945E+000 -0.206525169717075E+002
  0.101394498635559E-001  0.320997510388222E+002  0.681020663937844E-001  0.531287408244821E-001 -0.693147180559945E+000 -0.185393904967516E+002
  0.101394498635559E-001  0.338499417044673E+002  0.111772771824135E+000  0.143007186869296E+000 -0.693147180559945E+000 -0.194144858295741E+002
  0.101394498635559E-001  0.268723048150274E+002  0.521080552294402E-001  0.613287186438992E-001 -0.693147180559945E+000 -0.159256673848542E+002
  0.101394498635559E-001  0.268910574551018E+002  0.490716507534157E-001  0.871270799105010E-001 -0.693147180559945E+000 -0.159350437048914E+002
  0.101394498635559E-001  0.269076830238076E+002  0.398944061572448E-001  0.952217063730532E-001 -0.693147180559945E+000 -0.159433564892443E+002
  0.101394498635559E-001  0.312931005556809E+002  0.668386618519470E-001  0.108186270780486E+000 -0.693147180559945E+000 -0.181360652551809E+002
  0.101394498635559E-001  0.320716407036570E+002  0.349481546163766E-003  0.113539543350521E+000 -0.693147180559945E+000 -0.185253353291690E+002
  0.101394498635559E-001  0.371116301217032E+002  0.654005364190557E-001  0.625324338789804E-001 -0.693147180559945E+000 -0.210453300381921E+002
  0.101394498635559E-001  0.351646732995729E+002  0.343268766468123E-001  0.495004395974151E-001 -0.693147180559945E+000 -0.200718516271269E+002
  0.101394498635559E-001  0.286853324488508E+002  0.404635839546426E-001  0.954849729122541E-001 -0.693147180559945E+000 -0.168321812017659E+002
  0.101394498635559E-001  0.365066759620040E+002  0.277963300677364E-001  0.513053015138958E-001 -0.693147180559945E+000 -0.207428529583425E+002
  0.101394498635559E-001  0.313046683581308E+002  0.767962895133925E-001  0.519168213192149E-001 -0.693147180559945E+000 -0.181418491564058E+002
  0.101394498635559E-001  0.286920426869918E+002  0.519298126528795E-001  0.908082861089481E-001 -0.693147180559945E+000 -0.168355363208364E+002
  0.101394498635559E-001  0.371748816327318E+002  0.289893934592811E-001  0.126566889895508E+000 -0.693147180559945E+000 -0.210769557937064E+002
  0.101394498635559E-001  0.270274271747763E+002  0.516380604179170E-001  0.115177144529722E+000 -0.693147180559945E+000 -0.160032285647286E+002
  0.101394498635559E-001  0.270487674075759E+002  0.292820928887776E-001  0.109908765727369E+000 -0.693147180559945E+000 -0.160138986811284E+002
  0.101394498635559E-001  0.271172125033092E+002  0.524333033051165E-001  0.916149503224805E-001 -0.693147180559945E+000 -0.160481212289951E+002
  0.101394498635559E-001  0.339185839745727E+002  0.548481186469330E-003  0.113600778271458E+000 -0.693147180559945E+000 -0.194488069646268E+002
  0.101394498635559E-001  0.271304907478473E+002  0.394838781070816E-001  0.885172032866101E-001 -0.693147180559945E+000 -0.160547603512641E+002
  0.101394498635559E-001  0.271380961315087E+002  0.513174661220033E-001  0.910211769638709E-001 -0.693147180559945E+000 -0.160585630430948E+002
  0.101394498635559E-001  0.318870275638052E+002 -0.210654304386271E-003  0.596582906372269E-001 -0.693147180559945E+000 -0.184330287592431E+002
  0.101394498635559E-001  0.284575289774052E+002  0.513707299236694E-001  0.909882383800492E-001 -0.693147180559945E+000 -0.167182794660430E+002
  0.101394498635559E-001  0.318216039642801E+002  0.251691219535688E-001  0.106373432954060E+000 -0.693147180559945E+000 -0.184003169594805E+002
  0.101394498635559E-001  0.443654282636050E+002  0.313436742103117E-001  0.561866709248528E-001 -0.693147180559945E+000 -0.246722291091430E+002
  0.101394498635559E-001  0.317857592980013E+002  0.747833648383445E-001  0.544082263305293E-001 -0.693147180559945E+000 -0.183823946263411E+002
  0.101394498635559E-001  0.317750898503064E+002  0.258693026958741E-001  0.981146901426990E-001 -0.693147180559945E+000 -0.183770599024937E+002
  0.101394498635559E-001  0.389978615859585E+002  0.953349420858016E-001  0.360407594363026E-001 -0.693147180559945E+000 -0.219884457703197E+002
  0.101394498635559E-001  0.392497294325428E+002  0.620742034789996E-001  0.595032018498441E-001 -0.693147180559945E+000 -0.221143796936118E+002
  0.101394498635559E-001  0.271951658100523E+002  0.400371553545091E-001  0.880286288180197E-001 -0.693147180559945E+000 -0.160870978823666E+002
  0.101394498635559E-001  0.272299847188178E+002  0.772161496564563E-001  0.982808834915499E-001 -0.693147180559945E+000 -0.161045073367494E+002
  0.101394498635559E-001  0.339720855858977E+002  0.258236196752761E-001  0.555438197195216E-001 -0.693147180559945E+000 -0.194755577702893E+002
  0.101394498635559E-001  0.272968077828492E+002  0.695301935167953E-001  0.751833089943290E-001 -0.693147180559945E+000 -0.161379188687650E+002
  0.101394498635559E-001  0.316832377968591E+002  0.436190049848948E-001  0.842305546426895E-001 -0.693147180559945E+000 -0.183311338757700E+002
  0.101394498635559E-001  0.350313310301945E+002  0.290119960283735E-001  0.423848661238275E-001 -0.693147180559945E+000 -0.200051804924377E+002
  0.101394498635559E-001  0.316567149809047E+002  0.117474333965896E+000  0.449732016629765E-001 -0.693147180559945E+000 -0.183178724677928E+002
  0.101394498635559E-001  0.372610033735949E+002  0.404149266995184E-001  0.864716195564197E-001 -0.693147180559945E+000 -0.211200166641379E+002
  0.101394498635559E-001  0.273730390695073E+002  0.300523211216333E-001  0.957493970441704E-001 -0.693147180559945E+000 -0.161760345120941E+002
  0.101394498635559E-001  0.316565651411627E+002  0.795328521693102E-001  0.952377637556780E-001 -0.693147180559945E+000 -0.183177975479218E+002
  0.101394498635559E-001  0.274107711573893E+002  0.648336123069939E-001  0.103858229307060E+000 -0.693147180559945E+000 -0.161949005560351E+002
  0.101394498635559E-001  0.405177019954931E+002  0.976842996091154E-001  0.131793606515113E+000 -0.693147180559945E+000 -0.227483659750870E+002
  0.101394498635559E-001  0.306847587071546E+002  0.759490907046891E-001  0.926503325557007E-001 -0.693147180559945E+000 -0.178318943309177E+002
  0.101394498635559E-001  0.393218535219543E+002  0.480889466562144E-001  0.178212317083815E-001 -0.693147180559945E+000 -0.221504417383176E+002
  0.101394498635559E-001  0.274507168969797E+002  0.532955336259433E-001  0.911786960396493E-001 -0.693147180559945E+000 -0.162148734258303E+002
  0.101394498635559E-001  0.388428647078036E+002  0.593858806935617E-001  0.422749789690954E-001 -0.693147180559945E+000 -0.219109473312422E+002
  0.101394498635559E-001  0.275455573931274E+002  0.635834598811837E-001  0.128905723195300E+000 -0.693147180559945E+000 -0.162622936739042E+002
  0.101394498635559E-001  0.307237946325397E+002  0.874696292908617E-002  0.794600601387572E-001 -0.693147180559945E+000 -0.178514122936103E+002
  0.101394498635559E-001  0.388018040280481E+002  0.550539995482224E-002  0.109003339385668E+000 -0.693147180559945E+000 -0.218904169913645E+002
  0.101394498635559E-001  0.316509549084242E+002  0.759919634851987E-001  0.926452458590620E-001 -0.693147180559945E+000 -0.183149924315525E+002
  0.101394498635559E-001  0.275810453479155E+002  0.740330921675967E-001  0.850214275794180E-001 -0.693147180559945E+000 -0.162800376512982E+002
  0.101394498635559E-001  0.314866280069257E+002  0.123932579247708E-001  0.810909210831723E-001 -0.693147180559945E+000 -0.182328289808033E+002
  0.101394498635559E-001  0.284143580853969E+002  0.648336123224165E-001  0.103858229309186E+000 -0.693147180559945E+000 -0.166966940200389E+002
  0.101394498635559E-001  0.373811912549295E+002  0.547972135652153E-001  0.708142711569541E-001 -0.693147180559945E+000 -0.211801106048052E+002
  0.101394498635559E-001  0.314893882215222E+002  0.620539804455009E-001  0.935378747123662E-001 -0.693147180559945E+000 -0.182342090881016E+002
  0.101394498635559E-001  0.276257394581961E+002  0.586787595029827E-001  0.113613773153766E+000 -0.693147180559945E+000 -0.163023847064385E+002
  0.101394498635559E-001  0.287369700072775E+002  0.109180156718350E+000  0.751569726811936E-001 -0.693147180559945E+000 -0.168579999809792E+002
  0.101394498635559E-001  0.373991629181453E+002  0.389280606324727E-001  0.116020764761632E+000 -0.693147180559945E+000 -0.211890964364131E+002
  0.101394498635559E-001  0.276591135178727E+002  0.690313951462669E-001  0.770273793604775E-001 -0.693147180559945E+000 -0.163190717362768E+002
  0.101394498635559E-001  0.305144860988285E+002  0.647565501019012E-001  0.952900166167976E-001 -0.693147180559945E+000 -0.177467580267547E+002
  0.101394498635559E-001  0.276619843518479E+002  0.534232823010508E-001  0.962942102839202E-001 -0.693147180559945E+000 -0.163205071532644E+002
  0.101394498635559E-001  0.304690589374567E+002  0.678862284989148E-001  0.877923966179679E-001 -0.693147180559945E+000 -0.177240444460688E+002
  0.101394498635559E-001  0.374490224853361E+002  0.689749067866818E-001  0.550290011557681E-001 -0.693147180559945E+000 -0.212140262200085E+002
  0.101394498635559E-001  0.276656081203349E+002  0.239058120826896E-001  0.774205326866863E-001 -0.693147180559945E+000 -0.163223190375079E+002
  0.101394498635559E-001  0.276790962988705E+002  0.684551649276832E-001  0.987491498593989E-001 -0.693147180559945E+000 -0.163290631267757E+002
  0.101394498635559E-001  0.303905174146261E+002  0.602698537424082E-001  0.754577654389344E-001 -0.693147180559945E+000 -0.176847736846535E+002
  0.101394498635559E-001  0.309931720753019E+002  0.311411169485447E-001  0.891477032261344E-001 -0.693147180559945E+000 -0.179861010149914E+002
  0.101394498635559E-001  0.340748946045472E+002  0.722543117705943E-001  0.104418309389474E+000 -0.693147180559945E+000 -0.195269622796140E+002
  0.101394498635559E-001  0.303660811056456E+002  0.109805482140505E+000  0.928567143448374E-001 -0.693147180559945E+000 -0.176725555301632E+002
  0.101394498635559E-001  0.307529152433998E+002  0.896987695365126E-001  0.568431619704591E-001 -0.693147180559945E+000 -0.178659725990404E+002
  0.101394498635559E-001  0.396280350093372E+002  0.116418094249224E-001  0.515009981100933E-001 -0.693147180559945E+000 -0.223035324820091E+002
  0.101394498635559E-001  0.282918244407208E+002  0.644928393279369E-001  0.703565234066767E-001 -0.693147180559945E+000 -0.166354271977009E+002
  0.101394498635559E-001  0.303408853787795E+002  0.459013846215961E-001  0.873733813666473E-001 -0.693147180559945E+000 -0.176599576667302E+002
  0.101394498635559E-001  0.303205639360081E+002  0.354198488865236E-001  0.119457023734061E+000 -0.693147180559945E+000 -0.176497969453445E+002
  0.101394498635559E-001  0.341326802907560E+002  0.978216853882123E-001  0.940461677454686E-001 -0.693147180559945E+000 -0.195558551227185E+002
  0.101394498635559E-001  0.303158655820684E+002  0.282131530904497E-001  0.126630439168818E+000 -0.693147180559945E+000 -0.176474477683747E+002
  0.101394498635559E-001  0.277338352336603E+002  0.765430690206665E-001  0.111895584516697E+000 -0.693147180559945E+000 -0.163564325941706E+002
  0.101394498635559E-001  0.397592759936641E+002  0.500648069605016E-001  0.126632128172561E+000 -0.693147180559945E+000 -0.223691529741725E+002
  0.101394498635559E-001  0.277483218186418E+002  0.502583663953524E-001  0.951886804279165E-001 -0.693147180559945E+000 -0.163636758866613E+002
  0.101394498635559E-001  0.277820992258093E+002  0.765785520085605E-001  0.111911659997724E+000 -0.693147180559945E+000 -0.163805645902451E+002
  0.101394498635559E-001  0.277847943620205E+002  0.710524867710647E-001  0.119440014902526E+000 -0.693147180559945E+000 -0.163819121583507E+002
  0.101394498635559E-001  0.302643254131044E+002  0.660764023989568E-001  0.943798671491957E-001 -0.693147180559945E+000 -0.176216776838926E+002
  0.101394498635559E-001  0.284048590379671E+002  0.602760169510377E-001  0.754673721545127E-001 -0.693147180559945E+000 -0.166919444963240E+002
  0.101394498635559E-001  0.347664352270139E+002  0.208913372159987E-001  0.810151307126798E-001 -0.693147180559945E+000 -0.198727325908474E+002
  0.101394498635559E-001  0.278912026452779E+002  0.409761785834881E-001  0.114622684282506E+000 -0.693147180559945E+000 -0.164351162999794E+002
  0.101394498635559E-001  0.309475163954586E+002  0.333136463549761E-001  0.652485790528344E-001 -0.693147180559945E+000 -0.179632731750697E+002
  0.101394498635559E-001  0.279175628781535E+002  0.662098537482390E-001  0.101759499094932E+000 -0.693147180559945E+000 -0.164482964164172E+002
  0.101394498635559E-001  0.301924547287900E+002  0.123790728739497E-001  0.810891624383834E-001 -0.693147180559945E+000 -0.175857423417355E+002
  0.101394498635559E-001  0.279524009861851E+002  0.602760391147030E-001  0.754673864633468E-001 -0.693147180559945E+000 -0.164657154704330E+002
  0.101394498635559E-001  0.279558182026025E+002  0.291732075074589E-001  0.109473642041599E+000 -0.693147180559945E+000 -0.164674240786417E+002
  0.101394498635559E-001  0.342469394937219E+002  0.831566122728125E-001  0.725042094974552E-001 -0.693147180559945E+000 -0.196129847242014E+002
  0.101394498635559E-001  0.279825263125163E+002  0.556994250801992E-001  0.103130606239660E+000 -0.693147180559945E+000 -0.164807781335986E+002
  0.101394498635559E-001  0.418298988826064E+002 -0.305964406039267E-001  0.131501201311214E+000 -0.693147180559945E+000 -0.234044644186437E+002
  0.101394498635559E-001  0.279953188328198E+002  0.502583850843679E-001  0.951886258517011E-001 -0.693147180559945E+000 -0.164871743937504E+002
  0.101394498635559E-001  0.301318639440456E+002  0.651411049158057E-001  0.123460291566112E+000 -0.693147180559945E+000 -0.175554469493633E+002
  0.101394498635559E-001  0.300750786929071E+002  0.562363272063555E-001  0.721700723145271E-001 -0.693147180559945E+000 -0.175270543237940E+002
  0.101394498635559E-001  0.287981251298541E+002  0.465829562143325E-001  0.935309551623691E-001 -0.693147180559945E+000 -0.168885775422675E+002
  0.101394498635559E-001  0.299984180325278E+002  0.532455772600500E-001  0.911697658421076E-001 -0.693147180559945E+000 -0.174887239936043E+002
  0.101394498635559E-001  0.309232560478996E+002  0.670210364712023E-001  0.103726777685018E+000 -0.693147180559945E+000 -0.179511430012903E+002
  0.101394498635559E-001  0.280683833665003E+002  0.540265770485135E-001  0.901787622958421E-001 -0.693147180559945E+000 -0.165237066605906E+002
  0.101394498635559E-001  0.418887719760338E+002  0.153208476593773E+000  0.100750753413114E+000 -0.693147180559945E+000 -0.234339009653574E+002
  0.101394498635559E-001  0.281208557990278E+002 -0.313653377054790E-002  0.110936939793659E+000 -0.693147180559945E+000 -0.165499428768543E+002
  0.101394498635559E-001  0.410216914546911E+002  0.179122275981387E-001  0.103940791844867E+000 -0.693147180559945E+000 -0.230003607046860E+002
  0.101394498635559E-001  0.288415247319104E+002  0.272474574198822E-001  0.125280493479389E+000 -0.693147180559945E+000 -0.169102773432957E+002
  0.101394498635559E-001  0.281561206610962E+002  0.405325928272868E-001  0.865130008033421E-001 -0.693147180559945E+000 -0.165675753078886E+002
  0.101394498635559E-001  0.410233417187901E+002  0.923230502650265E-001  0.598402239792273E-001 -0.693147180559945E+000 -0.230011858367355E+002
  0.101394498635559E-001  0.281679588005217E+002  0.609616139467086E-001  0.748519798986127E-001 -0.693147180559945E+000 -0.165734943776013E+002
  0.101394498635559E-001  0.288650543153193E+002  0.464053308511814E-001  0.751398069393148E-001 -0.693147180559945E+000 -0.169220421350001E+002
  0.101394498635559E-001  0.346340638601980E+002  0.574078859537586E-001  0.461645902906465E-001 -0.693147180559945E+000 -0.198065469074395E+002
  0.101394498635559E-001  0.298352005800574E+002  0.647966648692946E-001  0.103704030397651E+000 -0.693147180559945E+000 -0.174071152673692E+002
  0.101394498635559E-001  0.289635352324260E+002  0.599307477372240E-001  0.924813756405764E-001 -0.693147180559945E+000 -0.169712825935535E+002
  0.101394498635559E-001  0.283463939942588E+002  0.420955282368083E-001  0.772108601538865E-001 -0.693147180559945E+000 -0.166627119744699E+002
  0.101394498635559E-001  0.298320359919925E+002  0.601467962614366E-001  0.759673482775691E-001 -0.693147180559945E+000 -0.174055329733367E+002
  0.101394498635559E-001  0.296986876145352E+002  0.746050777973775E-001  0.944485482712803E-001 -0.693147180559945E+000 -0.173388587846080E+002
  0.101394498635559E-001  0.290356815112267E+002  0.713964106078959E-001  0.960571597893758E-001 -0.693147180559945E+000 -0.170073557329538E+002
  0.101394498635559E-001  0.290378961137991E+002  0.130878336661592E+000  0.872037964893208E-001 -0.693147180559945E+000 -0.170084630342400E+002
  0.101394498635559E-001  0.414352047662936E+002  0.175882037533823E+000  0.124879575986418E+000 -0.693147180559945E+000 -0.232071173604873E+002
  0.101394498635559E-001  0.296860059302023E+002  0.271954677116708E-001  0.125362884357496E+000 -0.693147180559945E+000 -0.173325179424416E+002
  0.101394498635559E-001  0.296778840883065E+002  0.503842559850465E-001  0.850683022831831E-001 -0.693147180559945E+000 -0.173284570214937E+002
  0.101394498635559E-001  0.379128512923998E+002  0.908044746340542E-003  0.413318820424186E-001 -0.693147180559945E+000 -0.214459406235404E+002
  0.101394498635559E-001  0.291450463046327E+002  0.507428773356930E-001  0.954211971755975E-001 -0.693147180559945E+000 -0.170620381296568E+002
  0.101394498635559E-001  0.291964752605514E+002  0.505702224524838E-001  0.106873618172889E+000 -0.693147180559945E+000 -0.170877526076162E+002
  0.101394498635559E-001  0.292038777040771E+002  0.556998799316180E-001  0.103130932518252E+000 -0.693147180559945E+000 -0.170914538293790E+002
  0.101394498635559E-001  0.288808450847841E+002  0.356763549868693E-001  0.870619418008601E-001 -0.693147180559945E+000 -0.169299375197325E+002
  0.101394498635559E-001  0.295927251250863E+002  0.775239713175429E-001  0.117955482137932E+000 -0.693147180559945E+000 -0.172858775398836E+002
  0.101394498635559E-001  0.295360377541894E+002  0.425995548920539E-001  0.794110867213741E-001 -0.693147180559945E+000 -0.172575338544352E+002
  0.101394498635559E-001  0.292784708581699E+002  0.420957115829064E-001  0.772111091337956E-001 -0.693147180559945E+000 -0.171287504064254E+002
  0.101394498635559E-001  0.295012572022550E+002  0.503389370006375E-001  0.874310748102451E-001 -0.693147180559945E+000 -0.172401435784680E+002
  0.101394498635559E-001  0.293197039861913E+002  0.592250818347340E-001  0.735348636214039E-001 -0.693147180559945E+000 -0.171493669704361E+002
  0.101394498635559E-001  0.422474843039879E+002  0.478804223379254E-001  0.116095570675382E-002 -0.693147180559945E+000 -0.236132571293344E+002
  0.101394498635559E-001  0.293725194272522E+002  0.659574631311686E-001  0.118675399894004E+000 -0.693147180559945E+000 -0.171757746909666E+002
  0.101394498635559E-001  0.294140463882189E+002  0.125521330571519E-001  0.815661104601662E-001 -0.693147180559945E+000 -0.171965381714499E+002
  0.101394498635559E-001  0.345130127680422E+002  0.673052932165177E-001  0.733710786185518E-001 -0.693147180559945E+000 -0.197460213613616E+002
  0.101394498635559E-001  0.344922954493210E+002  0.261872702350434E-001  0.679312160169596E-001 -0.693147180559945E+000 -0.197356627020010E+002
  0.101394498635559E-001  0.294898279127977E+002  0.556998798413813E-001  0.103130932485903E+000 -0.693147180559945E+000 -0.172344289337393E+002
  0.101394498635559E-001  0.232458401606762E+002  0.714832486703652E-001  0.119243206017928E+000 -0.693147180559945E+000 -0.116229200803381E+002
