  0.356190666159421E+000  0.228806510616647E+002  0.606680717670889E-001  0.807140031050694E-001 -0.693147180559945E+000 -0.114403255308323E+002
  0.356190666159421E+000  0.221614117555983E+002  0.506918529716665E-001  0.927355926126730E-001 -0.693147180559945E+000 -0.110807058777992E+002
  0.356190666159421E+000  0.222475332118532E+002  0.420253982103618E-001  0.946541599732195E-001 -0.693147180559945E+000 -0.111237666059266E+002
  0.356190666159421E+000  0.228633475462283E+002  0.513707304354076E-001  0.909882384636128E-001 -0.693147180559945E+000 -0.114316737731141E+002
  0.356190666159421E+000  0.239179503676900E+002  0.389850082737604E-001  0.889349513463166E-001 -0.693147180559945E+000 -0.119589751838450E+002
  0.356190666159421E+000  0.332667362388747E+002  0.616253174787513E-001  0.857306456718142E-001 -0.693147180559945E+000 -0.170498568304449E+002
  0.356190666159421E+000  0.534410278465671E+002 -0.221126188873095E-001  0.472144036956154E-002 -0.693147180559945E+000 -0.271370026342911E+002
  0.356190666159421E+000  0.398718742912244E+002  0.526158403843731E-001  0.780407290668736E-001 -0.693147180559945E+000 -0.203524258566198E+002
  0.356190666159421E+000  0.440159433960029E+002  0.178271807798571E-001  0.656734361140364E-001 -0.693147180559945E+000 -0.224244604090091E+002
  0.356190666159421E+000  0.240210377513074E+002  0.398955859969672E-001  0.952202270499656E-001 -0.693147180559945E+000 -0.120105188756537E+002
  0.356190666159421E+000  0.388849172655421E+002  0.102491905261371E+000  0.695485762327788E-001 -0.693147180559945E+000 -0.198589473437786E+002
  0.356190666159421E+000  0.264225748725011E+002  0.789284319507031E-001  0.987568034150820E-001 -0.693147180559945E+000 -0.132112874362505E+002
  0.356190666159421E+000  0.282413832046934E+002  0.442446413037441E-001  0.880495834112436E-001 -0.693147180559945E+000 -0.143841835846230E+002
  0.356190666159421E+000  0.247664329458799E+002  0.398952547119602E-001  0.952194393175996E-001 -0.693147180559945E+000 -0.123832164729399E+002
  0.356190666159421E+000  0.341590136482192E+002  0.599758843572356E-001  0.757193139782179E-001 -0.693147180559945E+000 -0.174959955351172E+002
  0.356190666159421E+000  0.336954465393854E+002  0.647607704435667E-001  0.103862024161966E+000 -0.693147180559945E+000 -0.172642119807003E+002
  0.356190666159421E+000  0.419007663175468E+002  0.568500957766531E-001  0.478158142221021E-001 -0.693147180559945E+000 -0.213668718697810E+002
  0.356190666159421E+000  0.279301716032476E+002  0.381290910026113E-001  0.995273009762670E-001 -0.693147180559945E+000 -0.139650858016238E+002
  0.356190666159421E+000  0.330780695733713E+002  0.606900745497687E-001  0.749970326578714E-001 -0.693147180559945E+000 -0.169555234976932E+002
  0.356190666159421E+000  0.248955974637344E+002  0.372992330638289E-001  0.100288278729744E+000 -0.693147180559945E+000 -0.124477987318672E+002
  0.356190666159421E+000  0.276464166265359E+002  0.447083461795659E-001  0.883311971168055E-001 -0.693147180559945E+000 -0.138232083132679E+002
  0.356190666159421E+000  0.392941973787203E+002  0.636275392843308E-001  0.966401946631411E-001 -0.693147180559945E+000 -0.200635874003677E+002
  0.356190666159421E+000  0.408396781616834E+002  0.755755060878305E-002  0.798578136369769E-001 -0.693147180559945E+000 -0.208363277918493E+002
  0.356190666159421E+000  0.305614450149368E+002  0.905549454172752E-001  0.116967735826672E+000 -0.693147180559945E+000 -0.156972112184760E+002
  0.356190666159421E+000  0.286984107555979E+002 -0.654271126204842E-002  0.888675038998154E-001 -0.693147180559945E+000 -0.146126973600752E+002
  0.356190666159421E+000  0.250429679310940E+002  0.375071846013721E-001  0.916016038131632E-001 -0.693147180559945E+000 -0.125214839655470E+002
  0.356190666159421E+000  0.309031636141802E+002  0.462525039908039E-001  0.875318023049625E-001 -0.693147180559945E+000 -0.158680705180977E+002
  0.356190666159421E+000  0.240415938877877E+002  0.513696387124618E-001  0.909887540967209E-001 -0.693147180559945E+000 -0.120207969438938E+002
  0.356190666159421E+000  0.333538019449043E+002  0.602760391735169E-001  0.754673864776643E-001 -0.693147180559945E+000 -0.170933896834597E+002
  0.356190666159421E+000  0.376946132890549E+002  0.862797880542792E-001  0.644969236852558E-001 -0.693147180559945E+000 -0.192637953555351E+002
  0.356190666159421E+000  0.287681699329634E+002  0.908806131461102E-001  0.116985738004934E+000 -0.693147180559945E+000 -0.146475769487580E+002
  0.356190666159421E+000  0.251779530463445E+002  0.420956194096775E-001  0.772107340079163E-001 -0.693147180559945E+000 -0.125889765231723E+002
  0.356190666159421E+000  0.245198526265708E+002  0.756323654500448E-001  0.975491509599993E-001 -0.693147180559945E+000 -0.122599263132854E+002
  0.356190666159421E+000  0.288011135767057E+002  0.648771768638619E-001  0.103996098441734E+000 -0.693147180559945E+000 -0.146640487706291E+002
  0.356190666159421E+000  0.366199784879139E+002  0.378055281413709E-001  0.114755865977151E+000 -0.693147180559945E+000 -0.187264779549646E+002
  0.356190666159421E+000  0.251830296373615E+002  0.760770954556120E-001  0.926244981157783E-001 -0.693147180559945E+000 -0.125915148186808E+002
  0.356190666159421E+000  0.288685585935879E+002  0.648771779278967E-001  0.103996099524658E+000 -0.693147180559945E+000 -0.146977712790702E+002
  0.356190666159421E+000  0.323325892080298E+002  0.904043692849099E-001  0.116544466715864E+000 -0.693147180559945E+000 -0.165827833150225E+002
  0.356190666159421E+000  0.323140113331874E+002  0.609616139467086E-001  0.748519798986127E-001 -0.693147180559945E+000 -0.165734943776013E+002
  0.356190666159421E+000  0.308500053563412E+002  0.490716021615538E-001  0.871270042473062E-001 -0.693147180559945E+000 -0.158414913891782E+002
  0.356190666159421E+000  0.289171764561209E+002  0.746981129262627E-001  0.970499320077556E-001 -0.693147180559945E+000 -0.147220802103368E+002
  0.356190666159421E+000  0.289376227973924E+002  0.538545090340965E-001  0.898196112996469E-001 -0.693147180559945E+000 -0.147323033809725E+002
  0.356190666159421E+000  0.335087952013075E+002  0.576124865820933E-001  0.110387654378792E+000 -0.693147180559945E+000 -0.171708863116613E+002
  0.356190666159421E+000  0.252872630318867E+002  0.504008781977483E-001  0.864501644814821E-001 -0.693147180559945E+000 -0.126436315159434E+002
  0.356190666159421E+000  0.291038949190333E+002  0.380344671690735E-001  0.995662295763175E-001 -0.693147180559945E+000 -0.148154394417929E+002
  0.356190666159421E+000  0.349073457962245E+002  0.639665160034797E-001  0.730574373642369E-001 -0.693147180559945E+000 -0.178701616091198E+002
  0.356190666159421E+000  0.309555450509987E+002  0.648336123221027E-001  0.103858229308253E+000 -0.693147180559945E+000 -0.158942612365069E+002
  0.356190666159421E+000  0.334657565188571E+002  0.592250818347340E-001  0.735348636214039E-001 -0.693147180559945E+000 -0.171493669704361E+002
  0.356190666159421E+000  0.316210980841279E+002  0.609615189231862E-001  0.748519501838151E-001 -0.693147180559945E+000 -0.162270377530716E+002
  0.356190666159421E+000  0.304471827795814E+002  0.749198905926252E-001  0.945989414625243E-001 -0.693147180559945E+000 -0.156400801007983E+002
  0.356190666159421E+000  0.326035815100709E+002  0.513707299236694E-001  0.909882383800492E-001 -0.693147180559945E+000 -0.167182794660430E+002
  0.356190666159421E+000  0.345538658124958E+002  0.272957671324099E-001  0.125419612631184E+000 -0.693147180559945E+000 -0.176934216172555E+002
  0.356190666159421E+000  0.366511869191028E+002  0.624526140431956E-001  0.967606127792070E-001 -0.693147180559945E+000 -0.187420821705590E+002
  0.356190666159421E+000  0.322669083316935E+002 -0.313653377054790E-002  0.110936939793659E+000 -0.693147180559945E+000 -0.165499428768543E+002
  0.356190666159421E+000  0.358809311912603E+002  0.696086232453685E-001  0.951369600251767E-001 -0.693147180559945E+000 -0.183569543066377E+002
  0.356190666159421E+000  0.354868760815011E+002  0.933362482287667E-001  0.981872279699582E-001 -0.693147180559945E+000 -0.181599267517582E+002
  0.356190666159421E+000  0.293328444351477E+002  0.442241274553512E-001  0.880280963848723E-001 -0.693147180559945E+000 -0.149299141998501E+002
  0.356190666159421E+000  0.336211530095184E+002  0.716193136399645E-001  0.972598586244961E-001 -0.693147180559945E+000 -0.172270652157668E+002
  0.356190666159421E+000  0.327908005890592E+002  0.354253775355484E-001  0.119422063518567E+000 -0.693147180559945E+000 -0.168118890055372E+002
  0.356190666159421E+000  0.379095654312729E+002  0.159534815331490E-001  0.756933950074199E-001 -0.693147180559945E+000 -0.193712714266440E+002
  0.356190666159421E+000  0.293959832390880E+002  0.506517072429375E-001  0.954043426285008E-001 -0.693147180559945E+000 -0.149614836018203E+002
  0.356190666159421E+000  0.318622283917787E+002  0.772161509203015E-001  0.982808842925074E-001 -0.693147180559945E+000 -0.163476029068969E+002
  0.356190666159421E+000  0.294528848234439E+002  0.569326770645060E-001  0.103283407569601E+000 -0.693147180559945E+000 -0.149899343939983E+002
  0.356190666159421E+000  0.336264182994209E+002  0.764341114900882E-001  0.107054392173330E+000 -0.693147180559945E+000 -0.172296978607181E+002
  0.356190666159421E+000  0.361206205520069E+002  0.613215790801482E-001  0.805828794992354E-001 -0.693147180559945E+000 -0.184767989870110E+002
  0.356190666159421E+000  0.363472830627737E+002  0.624418187759475E-001  0.967676918975476E-001 -0.693147180559945E+000 -0.185901302423944E+002
  0.356190666159421E+000  0.279630322162977E+002  0.513707300317623E-001  0.909882382690494E-001 -0.693147180559945E+000 -0.139815161081489E+002
  0.356190666159421E+000  0.337387776577520E+002  0.775239713175429E-001  0.117955482137932E+000 -0.693147180559945E+000 -0.172858775398836E+002
  0.356190666159421E+000  0.263489930887639E+002  0.772158801020610E-001  0.982815872009790E-001 -0.693147180559945E+000 -0.131744965443819E+002
  0.356190666159421E+000  0.331683710343304E+002  0.503801979321916E-001  0.864554711143010E-001 -0.693147180559945E+000 -0.170006742281728E+002
  0.356190666159421E+000  0.324223244854081E+002  0.326280361431890E-001  0.651872503806617E-001 -0.693147180559945E+000 -0.166276509537116E+002
  0.356190666159421E+000  0.256827411887664E+002  0.407090021656595E-001  0.954000851113316E-001 -0.693147180559945E+000 -0.128413705943832E+002
  0.356190666159421E+000  0.335985471955535E+002  0.466551363823859E-001  0.934600174000637E-001 -0.693147180559945E+000 -0.172157623087843E+002
  0.356190666159421E+000  0.240608512698658E+002  0.392439069593069E-001  0.937669662398887E-001 -0.693147180559945E+000 -0.120304256349329E+002
  0.356190666159421E+000  0.426889377243226E+002  0.671397916834950E-001  0.115235599438866E+000 -0.693147180559945E+000 -0.217609575731689E+002
  0.356190666159421E+000  0.330268976174499E+002  0.356763549868693E-001  0.870619418008601E-001 -0.693147180559945E+000 -0.169299375197325E+002
  0.356190666159421E+000  0.330648907607797E+002  0.609615157348802E-001  0.748519513585745E-001 -0.693147180559945E+000 -0.169489340913974E+002
  0.356190666159421E+000  0.301641965629946E+002  0.743181524176382E-001  0.874269067493670E-001 -0.693147180559945E+000 -0.154985869925049E+002
  0.356190666159421E+000  0.297475386219577E+002  0.590939233295551E-001  0.755434374497846E-001 -0.693147180559945E+000 -0.151372612932551E+002
  0.356190666159421E+000  0.379959942371330E+002  0.111772771824135E+000  0.143007186869296E+000 -0.693147180559945E+000 -0.194144858295741E+002
  0.356190666159421E+000  0.431135489384500E+002  0.498215791529020E-001  0.255854980351871E-001 -0.693147180559945E+000 -0.219732631802326E+002
  0.356190666159421E+000  0.380157159748955E+002  0.102652548622161E+000  0.554763377840118E-001 -0.693147180559945E+000 -0.194243466984554E+002
  0.356190666159421E+000  0.258337480186762E+002  0.609344823187343E-001  0.817417899591516E-001 -0.693147180559945E+000 -0.129168740093381E+002
  0.356190666159421E+000  0.350693085805654E+002  0.670210364712023E-001  0.103726777685018E+000 -0.693147180559945E+000 -0.179511430012903E+002
  0.356190666159421E+000  0.385033470236154E+002  0.266919634751313E-001  0.624663273576196E-001 -0.693147180559945E+000 -0.196681622228153E+002
  0.356190666159421E+000  0.268981946525912E+002  0.389943285981591E-001  0.889406813466420E-001 -0.693147180559945E+000 -0.134490973262956E+002
  0.356190666159421E+000  0.412599254400774E+002  0.497084197506423E-001  0.328277412464715E-001 -0.693147180559945E+000 -0.210464514310463E+002
  0.356190666159421E+000  0.298352863163181E+002  0.712543778328674E-001  0.958484007956720E-001 -0.693147180559945E+000 -0.151811351404353E+002
  0.356190666159421E+000  0.298601020565484E+002  0.518453011261490E-001  0.916463260732373E-001 -0.693147180559945E+000 -0.151935430105505E+002
  0.356190666159421E+000  0.413112629034930E+002  0.117101856233783E+000  0.111477201731351E+000 -0.693147180559945E+000 -0.210721201627541E+002
  0.356190666159421E+000  0.281040092265953E+002  0.639054305399258E-001  0.711303720459975E-001 -0.693147180559945E+000 -0.140520046132976E+002
  0.356190666159421E+000  0.389705045259365E+002  0.599031575530837E-001  0.728691104431776E-001 -0.693147180559945E+000 -0.199017409739759E+002
  0.356190666159421E+000  0.307654534143897E+002  0.719573881964588E-001  0.129563144368175E+000 -0.693147180559945E+000 -0.157992154182024E+002
  0.356190666159421E+000  0.299689164416487E+002  0.513707300021484E-001  0.909882384168628E-001 -0.693147180559945E+000 -0.152479502031007E+002
  0.356190666159421E+000  0.326423312748719E+002  0.897205848154905E-001  0.112971255390427E+000 -0.693147180559945E+000 -0.167376543484435E+002
  0.356190666159421E+000  0.415950750180018E+002  0.689749067866818E-001  0.550290011557681E-001 -0.693147180559945E+000 -0.212140262200085E+002
  0.356190666159421E+000  0.260061820504716E+002  0.504008838244929E-001  0.864501579513886E-001 -0.693147180559945E+000 -0.130030910252358E+002
  0.356190666159421E+000  0.338069884583819E+002  0.603679163903876E-001  0.801506263230007E-001 -0.693147180559945E+000 -0.173199829401985E+002
  0.356190666159421E+000  0.355783327348173E+002  0.531674021107782E-001  0.111036007420513E+000 -0.693147180559945E+000 -0.182056550784163E+002
  0.356190666159421E+000  0.434558353054810E+002  0.382741397999469E-001  0.271933236565749E-001 -0.693147180559945E+000 -0.221444063637481E+002
  0.356190666159421E+000  0.362798509378575E+002  0.187924376375470E-001  0.839483065611986E-001 -0.693147180559945E+000 -0.185564141799364E+002
  0.356190666159421E+000  0.339403745802197E+002  0.648684578039309E-001  0.103878641742546E+000 -0.693147180559945E+000 -0.173866760011174E+002
  0.356190666159421E+000  0.439053285263298E+002  0.500648069605016E-001  0.126632128172561E+000 -0.693147180559945E+000 -0.223691529741725E+002
  0.356190666159421E+000  0.336764759507569E+002  0.441474027547053E-001  0.803585819621553E-001 -0.693147180559945E+000 -0.172547266863860E+002
  0.356190666159421E+000  0.304979937055481E+002  0.760770958580839E-001  0.926244982393799E-001 -0.693147180559945E+000 -0.156654855637816E+002
  0.356190666159421E+000  0.350900010568993E+002  0.436302269891202E-001  0.724498074719515E-001 -0.693147180559945E+000 -0.179614892394572E+002
  0.356190666159421E+000  0.309802730840010E+002  0.648424469932065E-001  0.103856555819461E+000 -0.693147180559945E+000 -0.159066252530081E+002
  0.356190666159421E+000  0.302918156213698E+002  0.502500210359234E-001  0.952558385631026E-001 -0.693147180559945E+000 -0.154093997929612E+002
  0.356190666159421E+000  0.265418408093284E+002  0.403283634214482E-001  0.949001036901431E-001 -0.693147180559945E+000 -0.132709204046642E+002
  0.356190666159421E+000  0.348155037748280E+002  0.143837934307247E-001  0.837000405830856E-001 -0.693147180559945E+000 -0.178242405984216E+002
  0.356190666159421E+000  0.318939731041997E+002  0.103327025031165E+000  0.247191716383990E+000 -0.693147180559945E+000 -0.163634752631074E+002
  0.356190666159421E+000  0.333586460295838E+002  0.507090123413503E-001  0.949371159609352E-001 -0.693147180559945E+000 -0.170958117257995E+002
  0.356190666159421E+000  0.305286330889293E+002  0.746106781866260E-001  0.944470869134451E-001 -0.693147180559945E+000 -0.156808052554723E+002
  0.356190666159421E+000  0.351579262698869E+002  0.360701367679874E-001  0.843541112323620E-001 -0.693147180559945E+000 -0.179954518459510E+002
  0.356190666159421E+000  0.367370390938486E+002  0.482837201578776E-001  0.692438841791109E-001 -0.693147180559945E+000 -0.187850082579319E+002
  0.356190666159421E+000  0.388893116599859E+002  0.673672432066406E-001  0.113550503289390E+000 -0.693147180559945E+000 -0.198611445410006E+002
  0.356190666159421E+000  0.304977514438961E+002  0.503801979321929E-001  0.864554711143096E-001 -0.693147180559945E+000 -0.156653644329556E+002
  0.356190666159421E+000  0.346036122985852E+002  0.251691556521347E-001  0.106373454438174E+000 -0.693147180559945E+000 -0.177182948603002E+002
  0.356190666159421E+000  0.375493818630530E+002  0.517036242389672E-001  0.612980722422181E-001 -0.693147180559945E+000 -0.191911796425341E+002
  0.356190666159421E+000  0.303880785710825E+002  0.668158221680197E-001  0.821650278876933E-001 -0.693147180559945E+000 -0.156105279965488E+002
  0.356190666159421E+000  0.273653082127316E+002  0.526286112628527E-001  0.779247757830754E-001 -0.693147180559945E+000 -0.136826541063658E+002
  0.356190666159421E+000  0.356951331904490E+002  0.624307524140308E-001  0.764443262442822E-001 -0.693147180559945E+000 -0.182640553062321E+002
  0.356190666159421E+000  0.414672293710257E+002  0.366302975075408E-001  0.222353596036415E-001 -0.693147180559945E+000 -0.211501033965204E+002
  0.356190666159421E+000  0.310238922055335E+002  0.639053869401600E-001  0.711304099285660E-001 -0.693147180559945E+000 -0.159284348137743E+002
  0.356190666159421E+000  0.275354199009829E+002  0.389943286593257E-001  0.889406848104033E-001 -0.693147180559945E+000 -0.137677099504915E+002
  0.356190666159421E+000  0.309994548838139E+002  0.746106781866913E-001  0.944470869135409E-001 -0.693147180559945E+000 -0.159162161529146E+002
  0.356190666159421E+000  0.214841783208184E+002  0.761358968743491E-001  0.965742405202156E-001 -0.693147180559945E+000 -0.107420891604092E+002
