  0.114502731898488E-001  0.319582749165730E+002  0.578679333646541E-001  0.843880703911115E-001 -0.693147180559945E+000 -0.182462345568576E+002
  0.114502731898488E-001  0.309949556512140E+002  0.301703234932282E-001  0.100955698403849E+000 -0.693147180559945E+000 -0.177645749241781E+002
  0.114502731898488E-001  0.320672396630848E+002  0.417419422694998E-001  0.616613388479603E-001 -0.693147180559945E+000 -0.183007169301135E+002
  0.114502731898488E-001  0.309450697306001E+002  0.773282662605066E-001  0.115311870846293E+000 -0.693147180559945E+000 -0.177396319638711E+002
  0.114502731898488E-001  0.308824818394236E+002  0.537511261445083E-001  0.761693862284237E-001 -0.693147180559945E+000 -0.177083380182828E+002
  0.114502731898488E-001  0.308526490373689E+002  0.272957671324099E-001  0.125419612631184E+000 -0.693147180559945E+000 -0.176934216172555E+002
  0.114502731898488E-001  0.307857211363183E+002  0.459013846215961E-001  0.873733813666473E-001 -0.693147180559945E+000 -0.176599576667302E+002
  0.114502731898488E-001  0.307366340248998E+002  0.752826049545541E-001  0.944846402482491E-001 -0.693147180559945E+000 -0.176354141110209E+002
  0.114502731898488E-001  0.291368784445306E+002  0.519298126528795E-001  0.908082861089481E-001 -0.693147180559945E+000 -0.168355363208364E+002
  0.114502731898488E-001  0.504710076118788E+002 -0.108673250916169E-001  0.163887586438837E-001 -0.693147180559945E+000 -0.275026009045105E+002
  0.114502731898488E-001  0.305176236362886E+002  0.523365678628216E-001  0.899937353366227E-001 -0.693147180559945E+000 -0.175259089167154E+002
  0.114502731898488E-001  0.324582239263926E+002  0.705126463586152E-001  0.107922562460988E+000 -0.693147180559945E+000 -0.184962090617674E+002
  0.114502731898488E-001  0.264707584451848E+002  0.760770959515367E-001  0.926244983576853E-001 -0.693147180559945E+000 -0.155024763211635E+002
  0.114502731898488E-001  0.304808334609548E+002  0.752825993781312E-001  0.944846432030179E-001 -0.693147180559945E+000 -0.175075138290485E+002
  0.114502731898488E-001  0.292553928036335E+002  0.896693996700877E-001  0.112966839212971E+000 -0.693147180559945E+000 -0.168947935003878E+002
  0.114502731898488E-001  0.324833469583188E+002  0.743973923487360E-001  0.114862444591907E+000 -0.693147180559945E+000 -0.185087705777305E+002
  0.114502731898488E-001  0.325499369622739E+002  0.111679430387583E-001  0.534182342272656E-001 -0.693147180559945E+000 -0.185420655797080E+002
  0.114502731898488E-001  0.303822280246439E+002  0.263620408579888E-001  0.113848411439894E+000 -0.693147180559945E+000 -0.174582111108930E+002
  0.114502731898488E-001  0.303603874244346E+002  0.739644036803775E-001  0.866889734098403E-001 -0.693147180559945E+000 -0.174472908107884E+002
  0.114502731898488E-001  0.326777015792581E+002  0.659433088896513E-001  0.103222469231541E+000 -0.693147180559945E+000 -0.186059478882001E+002
  0.114502731898488E-001  0.327077293759548E+002  0.237074435852813E-001  0.117415326678537E+000 -0.693147180559945E+000 -0.186209617865484E+002
  0.114502731898488E-001  0.403441080365008E+002  0.374171024521059E-001  0.857750192325651E-001 -0.693147180559945E+000 -0.224391511168214E+002
  0.114502731898488E-001  0.316851662768576E+002  0.636374990475308E-001  0.950024403507000E-001 -0.693147180559945E+000 -0.181096802369998E+002
  0.114502731898488E-001  0.302800363375963E+002  0.647966648692946E-001  0.103704030397651E+000 -0.693147180559945E+000 -0.174071152673692E+002
  0.114502731898488E-001  0.327754506841442E+002  0.584976519593137E-001  0.113416478172933E+000 -0.693147180559945E+000 -0.186548224406431E+002
  0.114502731898488E-001  0.328261576608380E+002  0.117599003485602E-002  0.135161891376192E+000 -0.693147180559945E+000 -0.186801759289901E+002
  0.114502731898488E-001  0.328979938541875E+002  0.117599565529281E-002  0.135161894407339E+000 -0.693147180559945E+000 -0.187160940256648E+002
  0.114502731898488E-001  0.329751005125178E+002  0.985070603239520E-001  0.885464772352252E-001 -0.693147180559945E+000 -0.187546473548300E+002
  0.114502731898488E-001  0.339926175758652E+002  0.812695655598816E-001  0.662857631923512E-001 -0.693147180559945E+000 -0.192634058865037E+002
  0.114502731898488E-001  0.301156407459810E+002  0.468789452049416E-001  0.438865402490371E-001 -0.693147180559945E+000 -0.173249174715616E+002
  0.114502731898488E-001  0.331852746195192E+002  0.401066451974590E-001  0.114157841232660E+000 -0.693147180559945E+000 -0.188597344083307E+002
  0.114502731898488E-001  0.300019076999565E+002  0.470504281833146E-001  0.785084402863174E-001 -0.693147180559945E+000 -0.172680509485493E+002
  0.114502731898488E-001  0.316456941357144E+002  0.349467801376693E-001  0.936105280585205E-001 -0.693147180559945E+000 -0.180899441664283E+002
  0.114502731898488E-001  0.299549149312046E+002  0.326280361431821E-001  0.651872503806645E-001 -0.693147180559945E+000 -0.172445545641733E+002
  0.114502731898488E-001  0.333631188475250E+002  0.421284713504146E-001  0.715518400350672E-001 -0.693147180559945E+000 -0.189486565223336E+002
  0.114502731898488E-001  0.334676288745973E+002  0.277910601571563E-003  0.114152968061008E+000 -0.693147180559945E+000 -0.190009115358697E+002
  0.114502731898488E-001  0.297645397437301E+002  0.592250818347340E-001  0.735348636214039E-001 -0.693147180559945E+000 -0.171493669704361E+002
  0.114502731898488E-001  0.266479626061858E+002  0.293008118257163E-001  0.118297011557308E+000 -0.693147180559945E+000 -0.155910784016640E+002
  0.114502731898488E-001  0.315874292101108E+002  0.490844863801589E-001  0.114670693089873E+000 -0.693147180559945E+000 -0.180608117036265E+002
  0.114502731898488E-001  0.335661634883106E+002  0.759588791989598E-001  0.611686910476644E-001 -0.693147180559945E+000 -0.190501788427264E+002
  0.114502731898488E-001  0.297466948130567E+002 -0.313652214382809E-002  0.110936940833001E+000 -0.693147180559945E+000 -0.171404445050994E+002
  0.114502731898488E-001  0.297233066157087E+002  0.420957115829064E-001  0.772111091337956E-001 -0.693147180559945E+000 -0.171287504064254E+002
  0.114502731898488E-001  0.297026952764705E+002  0.817194650289810E-001  0.134859892826054E+000 -0.693147180559945E+000 -0.171184447368063E+002
  0.114502731898488E-001  0.296875865330916E+002  0.853030155868244E-001  0.705388620454626E-001 -0.693147180559945E+000 -0.171108903651168E+002
  0.114502731898488E-001  0.315603657132945E+002  0.701164322414718E-001  0.862338556101983E-001 -0.693147180559945E+000 -0.180472799552183E+002
  0.114502731898488E-001  0.296487134616159E+002  0.556998799316180E-001  0.103130932518252E+000 -0.693147180559945E+000 -0.170914538293790E+002
  0.114502731898488E-001  0.296192713973385E+002  0.503439051874812E-001  0.875615376549870E-001 -0.693147180559945E+000 -0.170767327972403E+002
  0.114502731898488E-001  0.295655194637477E+002  0.616253174787513E-001  0.857306456718142E-001 -0.693147180559945E+000 -0.170498568304449E+002
  0.114502731898488E-001  0.295527233153866E+002  0.540267282509101E-001  0.901786493177567E-001 -0.693147180559945E+000 -0.170434587562644E+002
  0.114502731898488E-001  0.294576347544701E+002  0.561206615781249E-001  0.687762591099901E-001 -0.693147180559945E+000 -0.169959144758061E+002
  0.114502731898488E-001  0.358566458807164E+002  0.301688698579587E-001  0.998434413380944E-001 -0.693147180559945E+000 -0.201954200389293E+002
  0.114502731898488E-001  0.293863082040702E+002  0.332158348187754E-001  0.940226061367694E-001 -0.693147180559945E+000 -0.169602512006062E+002
  0.114502731898488E-001  0.357997158682030E+002  0.557578104861869E-001  0.716781109197989E-001 -0.693147180559945E+000 -0.201669550326726E+002
  0.114502731898488E-001  0.285089372178943E+002  0.398953245171096E-001  0.952179387912162E-001 -0.693147180559945E+000 -0.165215657075182E+002
  0.114502731898488E-001  0.357598770447148E+002  0.786181697867949E-001  0.100484079461098E+000 -0.693147180559945E+000 -0.201470356209285E+002
  0.114502731898488E-001  0.365274828302709E+002  0.425108898834261E-001  0.479563519502372E-001 -0.693147180559945E+000 -0.205308385137065E+002
  0.114502731898488E-001  0.283360384028167E+002  0.409761785834881E-001  0.114622684282506E+000 -0.693147180559945E+000 -0.164351162999794E+002
  0.114502731898488E-001  0.283040596879098E+002  0.398949391307069E-001  0.952188959275983E-001 -0.693147180559945E+000 -0.164191269425260E+002
  0.114502731898488E-001  0.282421019362089E+002  0.716193950562718E-001  0.972598816318373E-001 -0.693147180559945E+000 -0.163881480666755E+002
  0.114502731898488E-001  0.367573774934148E+002  0.669145974195788E-001  0.120878993498333E+000 -0.693147180559945E+000 -0.206457858452785E+002
  0.114502731898488E-001  0.289112489647246E+002  0.910590572269343E-001  0.117146862122278E+000 -0.693147180559945E+000 -0.167227215809334E+002
  0.114502731898488E-001  0.289100886660002E+002  0.640110906114393E-001  0.732868807530758E-001 -0.693147180559945E+000 -0.167221414315711E+002
  0.114502731898488E-001  0.267292554311795E+002  0.272804507927999E-001  0.125293883854850E+000 -0.693147180559945E+000 -0.156317248141608E+002
  0.114502731898488E-001  0.354740779103795E+002  0.608188178381739E-001  0.484293187911138E-001 -0.693147180559945E+000 -0.200041360537608E+002
  0.114502731898488E-001  0.267337702498388E+002  0.473782208722702E-001  0.936133129765037E-001 -0.693147180559945E+000 -0.156339822234905E+002
  0.114502731898488E-001  0.288680974625049E+002  0.749072852790122E-001  0.542613550957985E-001 -0.693147180559945E+000 -0.167011458298235E+002
  0.114502731898488E-001  0.342252541567449E+002  0.641797004603863E-001  0.945148629001092E-001 -0.693147180559945E+000 -0.193797241769435E+002
  0.114502731898488E-001  0.354612092489396E+002  0.289653877237339E-002  0.653945501705366E-001 -0.693147180559945E+000 -0.199977017230408E+002
  0.114502731898488E-001  0.288586815765863E+002  0.508359122394617E-001  0.767947684413829E-001 -0.693147180559945E+000 -0.166964378868642E+002
  0.114502731898488E-001  0.279750450432146E+002  0.502595105196686E-001  0.951883156805462E-001 -0.693147180559945E+000 -0.162546196201783E+002
  0.114502731898488E-001  0.454583770504219E+002  0.344743732079023E-002  0.126369414748964E+000 -0.693147180559945E+000 -0.249962856237820E+002
  0.114502731898488E-001  0.279042121157093E+002  0.609612669184159E-001  0.748518493337425E-001 -0.693147180559945E+000 -0.162192031564257E+002
  0.114502731898488E-001  0.314253804132460E+002  0.330664687959956E-001  0.652623924777528E-001 -0.693147180559945E+000 -0.179797873051941E+002
  0.114502731898488E-001  0.352112709845527E+002  0.208913372159987E-001  0.810151307126798E-001 -0.693147180559945E+000 -0.198727325908474E+002
  0.114502731898488E-001  0.278178748270462E+002  0.300523211216333E-001  0.957493970441704E-001 -0.693147180559945E+000 -0.161760345120941E+002
  0.114502731898488E-001  0.313680918054384E+002  0.670210364712023E-001  0.103726777685018E+000 -0.693147180559945E+000 -0.179511430012903E+002
  0.114502731898488E-001  0.420355384145980E+002  0.493348576300625E-001  0.594099632369664E-001 -0.693147180559945E+000 -0.232848663058701E+002
  0.114502731898488E-001  0.350843354338350E+002  0.897222564344691E-001  0.567761325803015E-001 -0.693147180559945E+000 -0.198092648154886E+002
  0.114502731898488E-001  0.287912297517976E+002  0.420955282368083E-001  0.772108601538865E-001 -0.693147180559945E+000 -0.166627119744699E+002
  0.114502731898488E-001  0.342947774620061E+002  0.111772771824135E+000  0.143007186869296E+000 -0.693147180559945E+000 -0.194144858295741E+002
  0.114502731898488E-001  0.350137643547774E+002  0.111035146837222E-001  0.535148228187483E-001 -0.693147180559945E+000 -0.197739792759598E+002
  0.114502731898488E-001  0.386178700976856E+002  0.942268478673529E-001  0.280817055589399E-001 -0.693147180559945E+000 -0.215760321474139E+002
  0.114502731898488E-001  0.385627586581415E+002  0.110452145579902E-001  0.678586235611736E-001 -0.693147180559945E+000 -0.215484764276418E+002
  0.114502731898488E-001  0.383576870499386E+002  0.908044746340542E-003  0.413318820424186E-001 -0.693147180559945E+000 -0.214459406235404E+002
  0.114502731898488E-001  0.273358932126406E+002  0.490716507534157E-001  0.871270799105010E-001 -0.693147180559945E+000 -0.159350437048914E+002
  0.114502731898488E-001  0.375564658792420E+002  0.654005364190557E-001  0.625324338789804E-001 -0.693147180559945E+000 -0.210453300381921E+002
  0.114502731898488E-001  0.272982381086870E+002  0.746106781866913E-001  0.944470869135409E-001 -0.693147180559945E+000 -0.159162161529146E+002
  0.114502731898488E-001  0.272790563088740E+002  0.648424469932065E-001  0.103856555819461E+000 -0.693147180559945E+000 -0.159066252530081E+002
  0.114502731898488E-001  0.272171439840451E+002  0.557731999543092E-001  0.103176223368758E+000 -0.693147180559945E+000 -0.158756690905936E+002
  0.114502731898488E-001  0.271487885812142E+002  0.490716021615538E-001  0.871270042473062E-001 -0.693147180559945E+000 -0.158414913891782E+002
  0.114502731898488E-001  0.442316273312744E+002  0.304106820123045E-001  0.879198790540734E-002 -0.693147180559945E+000 -0.243829107642083E+002
  0.114502731898488E-001  0.268265463683152E+002  0.441113442725971E-001  0.102479210417288E+000 -0.693147180559945E+000 -0.156803702827287E+002
  0.114502731898488E-001  0.270771335617503E+002  0.502583850845970E-001  0.951886258517428E-001 -0.693147180559945E+000 -0.158056638794462E+002
  0.114502731898488E-001  0.311977510009386E+002  0.896987695365126E-001  0.568431619704591E-001 -0.693147180559945E+000 -0.178659725990404E+002
  0.114502731898488E-001  0.270424317280810E+002  0.635660312528110E-001  0.709540939812756E-001 -0.693147180559945E+000 -0.157883129626116E+002
  0.114502731898488E-001  0.270268722238232E+002  0.402991593365261E-001  0.906922733023025E-001 -0.693147180559945E+000 -0.157805332104827E+002
  0.114502731898488E-001  0.378568397977923E+002  0.256115289516532E-001  0.544233479148593E-001 -0.693147180559945E+000 -0.211955169974672E+002
  0.114502731898488E-001  0.376533805223902E+002  0.480557557230861E-001  0.739089846436538E-001 -0.693147180559945E+000 -0.210937873597662E+002
  0.114502731898488E-001  0.287022638062507E+002  0.910093921337138E-001  0.117128599317832E+000 -0.693147180559945E+000 -0.166182290016964E+002
  0.114502731898488E-001  0.270172048736486E+002  0.700534954551912E-001  0.126808108939741E+000 -0.693147180559945E+000 -0.157756995353954E+002
  0.114502731898488E-001  0.269851919767284E+002  0.910603340851719E-001  0.117152535496917E+000 -0.693147180559945E+000 -0.157596930869353E+002
  0.114502731898488E-001  0.409067299913140E+002  0.731492739187913E-001  0.716491608885745E-001 -0.693147180559945E+000 -0.227204620942281E+002
  0.114502731898488E-001  0.311142869997010E+002  0.143837934307247E-001  0.837000405830856E-001 -0.693147180559945E+000 -0.178242405984216E+002
  0.114502731898488E-001  0.222705975051561E+002  0.615384653743793E-001  0.117314127965858E+000 -0.693147180559945E+000 -0.111352987525781E+002
