  0.326809550057594E-001  0.289999108583690E+002  0.375075247216472E-001  0.916016430852907E-001 -0.693147180559945E+000 -0.163203919082280E+002
  0.326809550057594E-001  0.252674540229554E+002  0.761358894562267E-001  0.965742414879154E-001 -0.693147180559945E+000 -0.143011667617899E+002
  0.326809550057594E-001  0.322614130444934E+002  0.670210364712023E-001  0.103726777685018E+000 -0.693147180559945E+000 -0.179511430012903E+002
  0.326809550057594E-001  0.302393594901029E+002  0.758097594070422E-001  0.926994646262239E-001 -0.693147180559945E+000 -0.169401162240950E+002
  0.326809550057594E-001  0.321303448606740E+002  0.379770657615623E-001  0.142527728415342E+000 -0.693147180559945E+000 -0.178856089093806E+002
  0.326809550057594E-001  0.451249485703295E+002  0.304106820123045E-001  0.879198790540734E-002 -0.693147180559945E+000 -0.243829107642083E+002
  0.326809550057594E-001  0.286787207381973E+002  0.420955581685021E-001  0.772108674815791E-001 -0.693147180559945E+000 -0.161597968481422E+002
  0.326809550057594E-001  0.290704356305912E+002  0.592689937603830E-001  0.869469374540616E-001 -0.693147180559945E+000 -0.163556542943392E+002
  0.326809550057594E-001  0.412080478599310E+002  0.178271807798571E-001  0.656734361140364E-001 -0.693147180559945E+000 -0.224244604090091E+002
  0.326809550057594E-001  0.277739475306744E+002  0.749198820396502E-001  0.945989447703293E-001 -0.693147180559945E+000 -0.157074102443807E+002
  0.326809550057594E-001  0.275466864086224E+002  0.648771764149616E-001  0.103996092119879E+000 -0.693147180559945E+000 -0.137733432043112E+002
  0.326809550057594E-001  0.272087455507022E+002  0.760770954556078E-001  0.926244981157863E-001 -0.693147180559945E+000 -0.152718125256633E+002
  0.326809550057594E-001  0.317758030784786E+002  0.537511261445083E-001  0.761693862284237E-001 -0.693147180559945E+000 -0.177083380182828E+002
  0.326809550057594E-001  0.291978175090090E+002  0.410428240009753E-001  0.950919181920280E-001 -0.693147180559945E+000 -0.164193452335481E+002
  0.326809550057594E-001  0.387871794819299E+002  0.689749067866818E-001  0.550290011557681E-001 -0.693147180559945E+000 -0.212140262200085E+002
  0.326809550057594E-001  0.271101085851017E+002  0.383852243570828E-001  0.997655612119370E-001 -0.693147180559945E+000 -0.152224940428631E+002
  0.326809550057594E-001  0.291993896197791E+002  0.710894999016918E-001  0.119446912234047E+000 -0.693147180559945E+000 -0.164201312889331E+002
  0.326809550057594E-001  0.299294458453714E+002  0.607070634487117E-001  0.808077411548557E-001 -0.693147180559945E+000 -0.167851594017292E+002
  0.326809550057594E-001  0.255436910282177E+002  0.761368039566224E-001  0.926429575733146E-001 -0.693147180559945E+000 -0.144392852644211E+002
  0.326809550057594E-001  0.370628533511830E+002  0.469842852683122E-001  0.750953921320823E-001 -0.693147180559945E+000 -0.203518631546350E+002
  0.326809550057594E-001  0.337459496448265E+002  0.377998589248703E-001  0.867094742990556E-001 -0.693147180559945E+000 -0.186934113014568E+002
  0.326809550057594E-001  0.270261975954281E+002  0.908701906549423E-001  0.116992822265271E+000 -0.693147180559945E+000 -0.151805385480263E+002
  0.326809550057594E-001  0.312933457004628E+002  0.719605154686884E-001  0.129557809255611E+000 -0.693147180559945E+000 -0.174671093292749E+002
  0.326809550057594E-001  0.324870681174604E+002  0.531747933691187E-001  0.111038879615163E+000 -0.693147180559945E+000 -0.180639705377737E+002
  0.326809550057594E-001  0.293679044916123E+002  0.605018472552292E-001  0.800696439448689E-001 -0.693147180559945E+000 -0.165043887248497E+002
  0.326809550057594E-001  0.331185130788462E+002  0.420955323537509E-001  0.772108605974825E-001 -0.693147180559945E+000 -0.183796930184667E+002
  0.326809550057594E-001  0.352927994557744E+002  0.346162790618314E-001  0.600870557594323E-001 -0.693147180559945E+000 -0.194668362069308E+002
  0.326809550057594E-001  0.267122821892371E+002  0.781529504026364E-001  0.822866385357791E-001 -0.693147180559945E+000 -0.150235808449308E+002
  0.326809550057594E-001  0.364863018426484E+002  0.636275392843308E-001  0.966401946631411E-001 -0.693147180559945E+000 -0.200635874003677E+002
  0.326809550057594E-001  0.310089619850361E+002  0.468789452049416E-001  0.438865402490371E-001 -0.693147180559945E+000 -0.173249174715616E+002
  0.326809550057594E-001  0.325390153747694E+002  0.349467801376693E-001  0.936105280585205E-001 -0.693147180559945E+000 -0.180899441664283E+002
  0.326809550057594E-001  0.302796294431252E+002  0.332158348187754E-001  0.940226061367694E-001 -0.693147180559945E+000 -0.169602512006062E+002
  0.326809550057594E-001  0.313408524253891E+002  0.503842614552736E-001  0.850682966059267E-001 -0.693147180559945E+000 -0.174908626917381E+002
  0.326809550057594E-001  0.299796362877775E+002  0.123543900415741E-001  0.924039445658908E-001 -0.693147180559945E+000 -0.168102546229323E+002
  0.326809550057594E-001  0.266046756042030E+002  0.609618307148940E-001  0.748520635866260E-001 -0.693147180559945E+000 -0.149697775524137E+002
  0.326809550057594E-001  0.314618538725670E+002  0.852878526880099E-001  0.127173239750873E+000 -0.693147180559945E+000 -0.175513634153270E+002
  0.326809550057594E-001  0.265845166101586E+002  0.705110909551128E-001  0.107915949105876E+000 -0.693147180559945E+000 -0.149596980553915E+002
  0.326809550057594E-001  0.303443138350169E+002  0.261258069201986E-001  0.799684269340646E-001 -0.693147180559945E+000 -0.169925933965520E+002
  0.326809550057594E-001  0.424041792341526E+002  0.195942691603612E-001  0.911642561702729E-001 -0.693147180559945E+000 -0.230225260961199E+002
  0.326809550057594E-001  0.264623509335588E+002  0.602570457527678E-001  0.108219754328994E+000 -0.693147180559945E+000 -0.148986152170917E+002
  0.326809550057594E-001  0.303706428098717E+002  0.705126282715089E-001  0.107922421055398E+000 -0.693147180559945E+000 -0.170057578839794E+002
  0.326809550057594E-001  0.351168689834054E+002  0.421183769518034E-001  0.614965431319270E-001 -0.693147180559945E+000 -0.193788709707463E+002
  0.326809550057594E-001  0.278353996320271E+002  0.252073507119643E-001  0.790390161596470E-001 -0.693147180559945E+000 -0.157381362950571E+002
  0.326809550057594E-001  0.414210157580858E+002  0.488807905749702E-001  0.401537800086993E-001 -0.693147180559945E+000 -0.225309443580865E+002
  0.326809550057594E-001  0.277144730506965E+002  0.710613015037420E-001  0.963642906122154E-001 -0.693147180559945E+000 -0.156776730043918E+002
  0.326809550057594E-001  0.204265208143880E+002  0.647964195534168E-001  0.103703982399738E+000 -0.693147180559945E+000 -0.102132604071940E+002
