  0.147740971179936E-001  0.439119547166896E+002  0.304106820123045E-001  0.879198790540734E-002 -0.693147180559945E+000 -0.243829107642083E+002
  0.147740971179936E-001  0.261558869386011E+002  0.731479952597802E-001  0.105566318986697E+000 -0.693147180559945E+000 -0.155048768751640E+002
  0.147740971179936E-001  0.342766725667367E+002  0.978936225214613E-001  0.779111754207842E-001 -0.693147180559945E+000 -0.195652696892318E+002
  0.147740971179936E-001  0.261743130016347E+002  0.513707263879888E-001  0.909883234845301E-001 -0.693147180559945E+000 -0.155140899066808E+002
  0.147740971179936E-001  0.247669554402306E+002  0.710894998514313E-001  0.119446912235770E+000 -0.693147180559945E+000 -0.123834777201153E+002
  0.147740971179936E-001  0.306253971160153E+002  0.773282662605066E-001  0.115311870846293E+000 -0.693147180559945E+000 -0.177396319638711E+002
  0.147740971179936E-001  0.284169875836748E+002  0.644928393279369E-001  0.703565234066767E-001 -0.693147180559945E+000 -0.166354271977009E+002
  0.147740971179936E-001  0.308780783863538E+002  0.896987695365126E-001  0.568431619704591E-001 -0.693147180559945E+000 -0.178659725990404E+002
  0.147740971179936E-001  0.305195458101640E+002  0.239983376907469E-001  0.126336429997685E+000 -0.693147180559945E+000 -0.176867063109455E+002
  0.147740971179936E-001  0.262513854023171E+002  0.602570694118449E-001  0.108219782073941E+000 -0.693147180559945E+000 -0.155526261070220E+002
  0.147740971179936E-001  0.346174585922751E+002  0.261872702350434E-001  0.679312160169596E-001 -0.693147180559945E+000 -0.197356627020010E+002
  0.147740971179936E-001  0.304779192707699E+002  0.688086822900507E-001  0.107496965242071E+000 -0.693147180559945E+000 -0.176658930412484E+002
  0.147740971179936E-001  0.304743721464999E+002  0.354232616825938E-001  0.119455220339921E+000 -0.693147180559945E+000 -0.176641194791134E+002
  0.147740971179936E-001  0.303999048658621E+002  0.715961513061147E-001  0.972668623266910E-001 -0.693147180559945E+000 -0.176268858387945E+002
  0.147740971179936E-001  0.264133088685699E+002  0.465730080674953E-001  0.935267559243171E-001 -0.693147180559945E+000 -0.156335878401484E+002
  0.147740971179936E-001  0.303748517974638E+002  0.127718516823812E-001  0.812161797036836E-001 -0.693147180559945E+000 -0.176143593045954E+002
  0.147740971179936E-001  0.335284924733412E+002  0.517036242389672E-001  0.612980722422181E-001 -0.693147180559945E+000 -0.191911796425341E+002
  0.147740971179936E-001  0.264267268120570E+002  0.644928393291102E-001  0.703565234075496E-001 -0.693147180559945E+000 -0.156402968118919E+002
  0.147740971179936E-001  0.302488600189271E+002  0.852878526880099E-001  0.127173239750873E+000 -0.693147180559945E+000 -0.175513634153270E+002
  0.147740971179936E-001  0.431394628055385E+002  0.905216072691184E-001  0.415407809752881E-001 -0.693147180559945E+000 -0.239966648086327E+002
  0.147740971179936E-001  0.301216714965200E+002  0.752826145216159E-001  0.944848486434621E-001 -0.693147180559945E+000 -0.174877691541234E+002
  0.147740971179936E-001  0.347774077893592E+002  0.465355547485951E-001  0.728050113916412E-001 -0.693147180559945E+000 -0.198156373005430E+002
  0.147740971179936E-001  0.368187887719717E+002  0.755755060878305E-002  0.798578136369769E-001 -0.693147180559945E+000 -0.208363277918493E+002
  0.147740971179936E-001  0.264953286551720E+002  0.292820995252512E-001  0.109908769562939E+000 -0.693147180559945E+000 -0.156745977334495E+002
  0.147740971179936E-001  0.368248545787356E+002  0.923253046494603E-001  0.694872518860102E-001 -0.693147180559945E+000 -0.208393606952312E+002
  0.147740971179936E-001  0.470263051338694E+002 -0.730289257753842E-001  0.145573789315528E+000 -0.693147180559945E+000 -0.259400859727981E+002
  0.147740971179936E-001  0.289902174582733E+002  0.464053308511814E-001  0.751398069393148E-001 -0.693147180559945E+000 -0.169220421350001E+002
  0.147740971179936E-001  0.300407148098498E+002  0.739644036803775E-001  0.866889734098403E-001 -0.693147180559945E+000 -0.174472908107884E+002
  0.147740971179936E-001  0.299738830749024E+002  0.812729445303100E-001  0.865655253662979E-001 -0.693147180559945E+000 -0.174138749433147E+002
  0.147740971179936E-001  0.298644523890625E+002  0.622297791330260E-001  0.933181839136999E-001 -0.693147180559945E+000 -0.173591596003947E+002
  0.147740971179936E-001  0.362078102156861E+002  0.425108898834261E-001  0.479563519502372E-001 -0.693147180559945E+000 -0.205308385137065E+002
  0.147740971179936E-001  0.265734174209262E+002  0.712452446357268E-001  0.958489016307536E-001 -0.693147180559945E+000 -0.157136421163266E+002
  0.147740971179936E-001  0.298031673850526E+002  0.199648660785423E-001  0.825218147417496E-001 -0.693147180559945E+000 -0.173285170983898E+002
  0.147740971179936E-001  0.297860990686701E+002  0.603679163903876E-001  0.801506263230007E-001 -0.693147180559945E+000 -0.173199829401985E+002
  0.147740971179936E-001  0.297759459511040E+002  0.619682925584963E-001  0.115840442103141E+000 -0.693147180559945E+000 -0.173149063814155E+002
  0.147740971179936E-001  0.266553353058335E+002  0.504010266303334E-001  0.864503123160784E-001 -0.693147180559945E+000 -0.157546010587802E+002
  0.147740971179936E-001  0.267012734130506E+002  0.466398391382619E-001  0.934331608863300E-001 -0.693147180559945E+000 -0.157775701123888E+002
  0.147740971179936E-001  0.267445640246779E+002  0.719573881964588E-001  0.129563144368175E+000 -0.693147180559945E+000 -0.157992154182024E+002
  0.147740971179936E-001  0.337391969236800E+002  0.106269008735644E+000  0.582438085514808E-001 -0.693147180559945E+000 -0.192965318677035E+002
  0.147740971179936E-001  0.353694808167795E+002  0.444341223425315E-002  0.572170212225896E-001 -0.693147180559945E+000 -0.201116738142532E+002
  0.147740971179936E-001  0.288333691405617E+002  0.985072118191408E-001  0.885462473451677E-001 -0.693147180559945E+000 -0.168436179761443E+002
  0.147740971179936E-001  0.401725639878973E+002  0.896350611845764E-001  0.146034802562365E+000 -0.693147180559945E+000 -0.225132153998121E+002
  0.147740971179936E-001  0.295734227078992E+002  0.266094810277697E-001  0.724484570156239E-001 -0.693147180559945E+000 -0.172136447598130E+002
  0.147740971179936E-001  0.362771186037470E+002  0.773545348755447E-001  0.110671162632990E+000 -0.693147180559945E+000 -0.205654927077370E+002
  0.147740971179936E-001  0.290306016672307E+002  0.252353781490595E-001  0.644398914611253E-001 -0.693147180559945E+000 -0.169422342394788E+002
  0.147740971179936E-001  0.294224017675924E+002  0.480599420998622E-001  0.879628083849352E-001 -0.693147180559945E+000 -0.171381342896596E+002
  0.147740971179936E-001  0.310454627336107E+002  0.263742387617347E-001  0.719980689497229E-001 -0.693147180559945E+000 -0.179496647726688E+002
  0.147740971179936E-001  0.340798056021346E+002  0.346162790618314E-001  0.600870557594323E-001 -0.693147180559945E+000 -0.194668362069308E+002
  0.147740971179936E-001  0.373480987556856E+002  0.847136448856904E-001  0.615914331627179E-001 -0.693147180559945E+000 -0.211009827837063E+002
  0.147740971179936E-001  0.292995987827537E+002  0.503439051874812E-001  0.875615376549870E-001 -0.693147180559945E+000 -0.170767327972403E+002
  0.147740971179936E-001  0.292207927675803E+002  0.668158222000022E-001  0.821650280796433E-001 -0.693147180559945E+000 -0.170373297896536E+002
  0.147740971179936E-001  0.271661221967378E+002  0.247490857854356E-001  0.144306400297542E+000 -0.693147180559945E+000 -0.160099945042324E+002
  0.147740971179936E-001  0.292097862682115E+002  0.320465757709882E-001  0.901874102136351E-001 -0.693147180559945E+000 -0.170318265399692E+002
  0.147740971179936E-001  0.310726795384126E+002  0.333136463549761E-001  0.652485790528344E-001 -0.693147180559945E+000 -0.179632731750697E+002
  0.147740971179936E-001  0.321061367278215E+002  0.387861472760989E-001  0.719836354535059E-001 -0.693147180559945E+000 -0.184800017697742E+002
  0.147740971179936E-001  0.312739114058720E+002  0.300337410876421E-001  0.119470267421364E+000 -0.693147180559945E+000 -0.180638891087995E+002
  0.147740971179936E-001  0.275140106932308E+002  0.408562004842534E-001  0.911168730982403E-001 -0.693147180559945E+000 -0.161839387524789E+002
  0.147740971179936E-001  0.352733079890086E+002  0.636275392843308E-001  0.966401946631411E-001 -0.693147180559945E+000 -0.200635874003677E+002
  0.147740971179936E-001  0.290740428615487E+002  0.397671755014828E-001  0.115243403983087E+000 -0.693147180559945E+000 -0.169639548366378E+002
  0.147740971179936E-001  0.282794330604453E+002  0.315053513280297E-001  0.905679898093416E-001 -0.693147180559945E+000 -0.165666499360861E+002
  0.147740971179936E-001  0.313270412550440E+002  0.722820316904398E-001  0.585565963069741E-001 -0.693147180559945E+000 -0.180904540333854E+002
  0.147740971179936E-001  0.379443264964260E+002  0.909155359752574E-001  0.190882225122422E+000 -0.693147180559945E+000 -0.213990966540764E+002
  0.147740971179936E-001  0.275758800399337E+002  0.532955336259433E-001  0.911786960396493E-001 -0.693147180559945E+000 -0.162148734258303E+002
  0.147740971179936E-001  0.365966700675629E+002  0.741185351508000E-002  0.513238989302231E-001 -0.693147180559945E+000 -0.207252684396449E+002
  0.147740971179936E-001  0.281616975239539E+002  0.442447287883485E-001  0.880494126003554E-001 -0.693147180559945E+000 -0.165077821678404E+002
  0.147740971179936E-001  0.281590654930273E+002  0.329591989531690E-001  0.118686658814803E+000 -0.693147180559945E+000 -0.165064661523771E+002
  0.147740971179936E-001  0.327161497041369E+002  0.482837201578776E-001  0.692438841791109E-001 -0.693147180559945E+000 -0.187850082579319E+002
  0.147740971179936E-001  0.416526736923156E+002  0.522522288724481E-001  0.674330399105268E-001 -0.693147180559945E+000 -0.232532702520213E+002
  0.147740971179936E-001  0.277844624099072E+002  0.538630311616104E-001  0.898159375462742E-001 -0.693147180559945E+000 -0.163191646108171E+002
  0.147740971179936E-001  0.392381468284736E+002  0.447722625189484E-001  0.153416249753727E-001 -0.693147180559945E+000 -0.220460068201003E+002
  0.147740971179936E-001  0.389269671710021E+002  0.550539995482224E-002  0.109003339385668E+000 -0.693147180559945E+000 -0.218904169913645E+002
  0.147740971179936E-001  0.394349459157692E+002  0.382741397999469E-001  0.271933236565749E-001 -0.693147180559945E+000 -0.221444063637481E+002
  0.147740971179936E-001  0.327110966118660E+002  0.491839537940473E-001  0.867644566733559E-001 -0.693147180559945E+000 -0.187824817117965E+002
  0.147740971179936E-001  0.224971885873374E+002  0.710894998514313E-001  0.119446912235770E+000 -0.693147180559945E+000 -0.112485942936687E+002
