  0.356746564206972E-001  0.322449521557994E+002 -0.284538990168814E-002  0.112805842566901E+000 -0.693147180559945E+000 -0.179305662506481E+002
  0.356746564206972E-001  0.276958126922695E+002  0.538630310967023E-001  0.898159280290191E-001 -0.693147180559945E+000 -0.156559965188831E+002
  0.356746564206972E-001  0.340724046097218E+002  0.387866004121160E-001  0.852047440854025E-001 -0.693147180559945E+000 -0.188442924776093E+002
  0.356746564206972E-001  0.252726928881910E+002  0.638446828730848E-001  0.711070998088128E-001 -0.693147180559945E+000 -0.142914398881126E+002
  0.356746564206972E-001  0.284170821257244E+002  0.462652243679240E-001  0.875389680617727E-001 -0.693147180559945E+000 -0.160166312356106E+002
  0.356746564206972E-001  0.234434571108825E+002  0.768006072418890E-001  0.104738706842894E+000 -0.693147180559945E+000 -0.117217285554412E+002
  0.356746564206972E-001  0.391853195745288E+002  0.111484876251150E+000  0.902646573877626E-001 -0.693147180559945E+000 -0.214007499600128E+002
  0.356746564206972E-001  0.295190883301021E+002  0.852878522452112E-001  0.127173239386346E+000 -0.693147180559945E+000 -0.165676343377994E+002
  0.356746564206972E-001  0.313758107247377E+002  0.599758843572356E-001  0.757193139782179E-001 -0.693147180559945E+000 -0.174959955351172E+002
  0.356746564206972E-001  0.304312452101340E+002  0.263692242358073E-001  0.880447144766065E-001 -0.693147180559945E+000 -0.170237127778154E+002
  0.356746564206972E-001  0.404632210197165E+002 -0.186096068405339E-002  0.404678255707403E-001 -0.693147180559945E+000 -0.220397006826066E+002
  0.356746564206972E-001  0.282742228086673E+002  0.605009488217039E-001  0.800840146048748E-001 -0.693147180559945E+000 -0.159452015770820E+002
  0.356746564206972E-001  0.313002418762893E+002  0.263620408579888E-001  0.113848411439894E+000 -0.693147180559945E+000 -0.174582111108930E+002
  0.356746564206972E-001  0.348968753937033E+002  0.854197238622305E-001  0.103763604149931E+000 -0.693147180559945E+000 -0.192565278696000E+002
  0.356746564206972E-001  0.282604617778051E+002  0.710613014982229E-001  0.963642906103384E-001 -0.693147180559945E+000 -0.159383210616509E+002
  0.356746564206972E-001  0.340025913562094E+002 -0.195958600373285E-001  0.100688555915483E+000 -0.693147180559945E+000 -0.188093858508530E+002
  0.356746564206972E-001  0.280668024328596E+002  0.490716021615538E-001  0.871270042473062E-001 -0.693147180559945E+000 -0.158414913891782E+002
  0.356746564206972E-001  0.296635668545152E+002  0.521319091739654E-001  0.613370574255483E-001 -0.693147180559945E+000 -0.166398736000060E+002
  0.356746564206972E-001  0.288135665061639E+002  0.532955336259433E-001  0.911786960396493E-001 -0.693147180559945E+000 -0.162148734258303E+002
  0.356746564206972E-001  0.339963570097249E+002  0.759446370984247E-001  0.611480418329730E-001 -0.693147180559945E+000 -0.188062686776108E+002
  0.356746564206972E-001  0.321251843659317E+002  0.846463760925111E-001  0.129339086262576E+000 -0.693147180559945E+000 -0.178706823557142E+002
  0.356746564206972E-001  0.314386193893023E+002  0.108251204017145E+000  0.764848782331045E-001 -0.693147180559945E+000 -0.175273998673995E+002
  0.356746564206972E-001  0.395358839493310E+002  0.942268478673529E-001  0.280817055589399E-001 -0.693147180559945E+000 -0.215760321474139E+002
  0.356746564206972E-001  0.254931177118583E+002  0.372951150043843E-001  0.961933623765512E-001 -0.693147180559945E+000 -0.144016522999462E+002
  0.356746564206972E-001  0.306444982289312E+002  0.608227086740769E-001  0.746739476869063E-001 -0.693147180559945E+000 -0.171303392872140E+002
  0.356746564206972E-001  0.294984301865348E+002  0.910590725377238E-001  0.117146862718703E+000 -0.693147180559945E+000 -0.165573052660158E+002
  0.356746564206972E-001  0.332316910921551E+002 -0.115357833621288E-001  0.966863702034542E-001 -0.693147180559945E+000 -0.184239357188259E+002
  0.356746564206972E-001  0.255356500203374E+002  0.361029829093544E-001  0.917732591049898E-001 -0.693147180559945E+000 -0.144229184541858E+002
  0.356746564206972E-001  0.272771860209606E+002  0.909807332700563E-001  0.117447511211324E+000 -0.693147180559945E+000 -0.152936864544974E+002
  0.356746564206972E-001  0.294691351804757E+002  0.410428274085450E-001  0.950919197460472E-001 -0.693147180559945E+000 -0.165426577629862E+002
  0.356746564206972E-001  0.281199606906987E+002  0.462525039908039E-001  0.875318023049625E-001 -0.693147180559945E+000 -0.158680705180977E+002
  0.356746564206972E-001  0.255598204701907E+002  0.648353634026630E-001  0.103857834564956E+000 -0.693147180559945E+000 -0.144350036791124E+002
  0.356746564206972E-001  0.275616879459680E+002  0.410522466522172E-001  0.950924848771071E-001 -0.693147180559945E+000 -0.155889341457324E+002
  0.356746564206972E-001  0.278111038871564E+002  0.712452446357268E-001  0.958489016307536E-001 -0.693147180559945E+000 -0.157136421163266E+002
  0.356746564206972E-001  0.354195324683707E+002  0.413728836817087E-001  0.961017676952600E-001 -0.693147180559945E+000 -0.195178564069337E+002
  0.356746564206972E-001  0.325939924635378E+002  0.533863733493278E-001  0.761602305090519E-001 -0.693147180559945E+000 -0.181050864045173E+002
  0.356746564206972E-001  0.297237057580643E+002  0.449344888332113E-001  0.109553834580725E+000 -0.693147180559945E+000 -0.166699430517805E+002
  0.356746564206972E-001  0.429535522662434E+002  0.493348576300625E-001  0.594099632369664E-001 -0.693147180559945E+000 -0.232848663058701E+002
  0.356746564206972E-001  0.326031801285030E+002  0.636374990475308E-001  0.950024403507000E-001 -0.693147180559945E+000 -0.181096802369998E+002
  0.356746564206972E-001  0.308729287828499E+002  0.326280361431821E-001  0.651872503806645E-001 -0.693147180559945E+000 -0.172445545641733E+002
  0.356746564206972E-001  0.345188117070529E+002  0.846212661024557E-001  0.104813683709492E+000 -0.693147180559945E+000 -0.190674960262748E+002
  0.356746564206972E-001  0.289845752325905E+002  0.644928393281985E-001  0.703565234144196E-001 -0.693147180559945E+000 -0.163003777890436E+002
  0.356746564206972E-001  0.309011528304845E+002  0.648424332055553E-001  0.103856566366201E+000 -0.693147180559945E+000 -0.172586665879906E+002
  0.356746564206972E-001  0.265481994968334E+002  0.394341013631103E-001  0.829720654712081E-001 -0.693147180559945E+000 -0.149291931924338E+002
  0.356746564206972E-001  0.281217023813198E+002  0.508359121589044E-001  0.767947684556309E-001 -0.693147180559945E+000 -0.158689413634083E+002
  0.356746564206972E-001  0.265443031928114E+002  0.543539093173462E-001  0.902482260573893E-001 -0.693147180559945E+000 -0.149272450404227E+002
  0.356746564206972E-001  0.258448317239450E+002  0.647994339756579E-001  0.103703566973833E+000 -0.693147180559945E+000 -0.145775093059896E+002
  0.356746564206972E-001  0.334626006480064E+002  0.681020663937844E-001  0.531287408244821E-001 -0.693147180559945E+000 -0.185393904967516E+002
  0.356746564206972E-001  0.372016975603231E+002  0.863686628215217E-001  0.972470896949111E-001 -0.693147180559945E+000 -0.204089389529099E+002
  0.356746564206972E-001  0.334013608099642E+002  0.743973923487360E-001  0.114862444591907E+000 -0.693147180559945E+000 -0.185087705777305E+002
  0.356746564206972E-001  0.310083955855804E+002  0.111861925690379E+000  0.925511222677195E-001 -0.693147180559945E+000 -0.173122879655386E+002
  0.356746564206972E-001  0.281353980835436E+002  0.502583850993050E-001  0.951886258784981E-001 -0.693147180559945E+000 -0.158757892145201E+002
  0.356746564206972E-001  0.290246034709594E+002  0.375075247216472E-001  0.916016430852907E-001 -0.693147180559945E+000 -0.163203919082280E+002
  0.356746564206972E-001  0.414889169620219E+002  0.927421526218954E-001  0.362104728714299E-001 -0.693147180559945E+000 -0.225525486537593E+002
  0.356746564206972E-001  0.446622167664635E+002 -0.532277386172164E-002  0.419802858280810E-001 -0.693147180559945E+000 -0.241391985559801E+002
  0.356746564206972E-001  0.279389598792808E+002  0.466398391382619E-001  0.934331608863300E-001 -0.693147180559945E+000 -0.157775701123888E+002
  0.356746564206972E-001  0.198879212913780E+002  0.731350955989416E-001  0.105554553064234E+000 -0.693147180559945E+000 -0.994396064568900E+001
