  0.135473583692451E-002  0.242593104059884E+002  0.619107068973028E-001  0.125850139633027E+000 -0.693147180559945E+000 -0.143711564790012E+002
  0.135473583692451E-002  0.241884545245153E+002  0.502583850993086E-001  0.951886258784853E-001 -0.693147180559945E+000 -0.154675283614051E+002
  0.135473583692451E-002  0.242648821069082E+002  0.451142590904832E-001  0.119341146609363E+000 -0.693147180559945E+000 -0.143739423294610E+002
  0.135473583692451E-002  0.264440850093703E+002  0.219648839151940E-001  0.118355652993262E+000 -0.693147180559945E+000 -0.165953436038326E+002
  0.135473583692451E-002  0.264494617027644E+002  0.910582483620395E-001  0.117146404037811E+000 -0.693147180559945E+000 -0.165980319505297E+002
  0.135473583692451E-002  0.242003903895052E+002  0.381127945501918E-001  0.863583639547817E-001 -0.693147180559945E+000 -0.154734962939001E+002
  0.135473583692451E-002  0.242934765804915E+002  0.411789659125734E-001  0.115313380338239E+000 -0.693147180559945E+000 -0.143882395662527E+002
  0.135473583692451E-002  0.243883470602054E+002  0.411103019745418E-001  0.115198798511574E+000 -0.693147180559945E+000 -0.144356748061096E+002
  0.135473583692451E-002  0.381023186197231E+002  0.178271807798571E-001  0.656734361140364E-001 -0.693147180559945E+000 -0.224244604090091E+002
  0.135473583692451E-002  0.243899726158709E+002  0.541081630584970E-001  0.126942038319512E+000 -0.693147180559945E+000 -0.144364875839424E+002
  0.135473583692451E-002  0.244412097693483E+002  0.272226532583588E-001  0.125276082464730E+000 -0.693147180559945E+000 -0.144621061606811E+002
  0.135473583692451E-002  0.246106703789845E+002  0.397671740398748E-001  0.115243403470636E+000 -0.693147180559945E+000 -0.145468364654992E+002
  0.135473583692451E-002  0.242505717867148E+002  0.743181524176382E-001  0.874269067493670E-001 -0.693147180559945E+000 -0.154985869925049E+002
  0.135473583692451E-002  0.317664535409051E+002  0.854197238622305E-001  0.103763604149931E+000 -0.693147180559945E+000 -0.192565278696000E+002
  0.135473583692451E-002  0.242579806091264E+002  0.877321265678466E-001  0.959195571961898E-001 -0.693147180559945E+000 -0.155022914037107E+002
  0.135473583692451E-002  0.348876694485289E+002  0.102929745441494E+000  0.680839709877164E-001 -0.693147180559945E+000 -0.208171358234119E+002
  0.135473583692451E-002  0.287987782043068E+002  0.546823100872136E-001  0.626063430841457E-001 -0.693147180559945E+000 -0.177726902013009E+002
  0.135473583692451E-002  0.246643482013612E+002  0.219648536452088E-001  0.118355670079692E+000 -0.693147180559945E+000 -0.145736753766875E+002
  0.135473583692451E-002  0.349227986184001E+002  0.530457423780317E-001  0.226875690238719E-001 -0.693147180559945E+000 -0.208347004083475E+002
  0.135473583692451E-002  0.248763934336148E+002  0.630945406351555E-001  0.127103831317837E+000 -0.693147180559945E+000 -0.146796979928143E+002
  0.135473583692451E-002  0.249507187524661E+002  0.272268199434844E-001  0.125226141314172E+000 -0.693147180559945E+000 -0.147168606522400E+002
  0.135473583692451E-002  0.381317000353479E+002  0.374171024521059E-001  0.857750192325651E-001 -0.693147180559945E+000 -0.224391511168214E+002
  0.135473583692451E-002  0.349260533854036E+002  0.755755060878305E-002  0.798578136369769E-001 -0.693147180559945E+000 -0.208363277918493E+002
  0.135473583692451E-002  0.242583504440320E+002  0.760770959515367E-001  0.926244983576853E-001 -0.693147180559945E+000 -0.155024763211635E+002
  0.135473583692451E-002  0.249806124738605E+002  0.450051328033980E-001  0.112710159276126E+000 -0.693147180559945E+000 -0.147318075129372E+002
  0.135473583692451E-002  0.242799296260310E+002  0.473778912443568E-001  0.936132504303759E-001 -0.693147180559945E+000 -0.155132659121630E+002
  0.135473583692451E-002  0.250001680018837E+002  0.503210935352425E-001  0.123624082608274E+000 -0.693147180559945E+000 -0.147415852769488E+002
  0.135473583692451E-002  0.412828877669813E+002  0.359886521643544E-001  0.439540351300345E-001 -0.693147180559945E+000 -0.240147449826381E+002
  0.135473583692451E-002  0.250539501984305E+002  0.219648534261949E-001  0.118355669685463E+000 -0.693147180559945E+000 -0.147684763752222E+002
  0.135473583692451E-002  0.242849013681366E+002  0.614757096968379E-001  0.127100655886868E+000 -0.693147180559945E+000 -0.155157517832158E+002
  0.135473583692451E-002  0.264750349825851E+002 -0.108974987422643E-001  0.105766500184354E+000 -0.693147180559945E+000 -0.166108185904401E+002
  0.135473583692451E-002  0.252064343917905E+002  0.630945412890758E-001  0.127103828743352E+000 -0.693147180559945E+000 -0.148447184719022E+002
  0.135473583692451E-002  0.382417429682675E+002  0.550158300040362E-001  0.365684655350103E-001 -0.693147180559945E+000 -0.224941725832812E+002
  0.135473583692451E-002  0.252246129880107E+002  0.403823003006727E-001  0.116745902571552E+000 -0.693147180559945E+000 -0.148538077700123E+002
  0.135473583692451E-002  0.288172034735799E+002  0.740677639919352E-001  0.850944044666707E-001 -0.693147180559945E+000 -0.177819028359374E+002
  0.135473583692451E-002  0.349932729289725E+002  0.705747454578252E-001  0.108961368782134E+000 -0.693147180559945E+000 -0.208699375636337E+002
  0.135473583692451E-002  0.318157005985854E+002  0.118684484318604E+000  0.595643431395650E-001 -0.693147180559945E+000 -0.192811513984402E+002
  0.135473583692451E-002  0.318158860446354E+002  0.355160196615270E-001  0.893795109353035E-001 -0.693147180559945E+000 -0.192812441214652E+002
  0.135473583692451E-002  0.254228699154986E+002  0.219650433872822E-001  0.118355622643689E+000 -0.693147180559945E+000 -0.149529362337562E+002
  0.135473583692451E-002  0.242860285397681E+002  0.436963732847473E-001  0.118040158899533E+000 -0.693147180559945E+000 -0.155163153690315E+002
  0.135473583692451E-002  0.255512821678669E+002  0.354253774798829E-001  0.119422063552940E+000 -0.693147180559945E+000 -0.150171423599404E+002
  0.135473583692451E-002  0.382798286013292E+002  0.896350611845764E-001  0.146034802562365E+000 -0.693147180559945E+000 -0.225132153998121E+002
  0.135473583692451E-002  0.242878155621714E+002  0.670824444091496E-001  0.121145110280453E+000 -0.693147180559945E+000 -0.155172088802332E+002
  0.135473583692451E-002  0.288258543571577E+002  0.586039110667882E-001  0.114567254752879E+000 -0.693147180559945E+000 -0.177862282777264E+002
  0.135473583692451E-002  0.255523524075125E+002  0.283969097949719E-001  0.134449644007751E+000 -0.693147180559945E+000 -0.150176774797632E+002
  0.135473583692451E-002  0.257193404485610E+002  0.219648554509266E-001  0.118355671821090E+000 -0.693147180559945E+000 -0.151011715002874E+002
  0.135473583692451E-002  0.440730022949055E+002 -0.463999225398626E-002  0.967486409899405E-001 -0.693147180559945E+000 -0.254098022466002E+002
  0.135473583692451E-002  0.258071482693622E+002  0.451142583033439E-001  0.119341147230666E+000 -0.693147180559945E+000 -0.151450754106880E+002
  0.135473583692451E-002  0.258273749263330E+002  0.219260639146426E-001  0.118384409961806E+000 -0.693147180559945E+000 -0.151551887391735E+002
  0.135473583692451E-002  0.288352052213778E+002  0.503357229970525E-001  0.875790868721330E-001 -0.693147180559945E+000 -0.177909037098364E+002
  0.135473583692451E-002  0.351593717149503E+002  0.851221426751831E-001  0.700033170686156E-001 -0.693147180559945E+000 -0.209529869566226E+002
  0.135473583692451E-002  0.351636834327655E+002 -0.380732641168802E-002  0.602326181786700E-001 -0.693147180559945E+000 -0.209551428155302E+002
  0.135473583692451E-002  0.319328334025161E+002  0.444834881071807E-001  0.706134876628680E-001 -0.693147180559945E+000 -0.193397178004055E+002
  0.135473583692451E-002  0.319759878405797E+002  0.454321066301242E-001  0.916061836544655E-001 -0.693147180559945E+000 -0.193612950194373E+002
  0.135473583692451E-002  0.262328392936890E+002  0.219648838969413E-001  0.118355652997572E+000 -0.693147180559945E+000 -0.153579209228514E+002
  0.135473583692451E-002  0.319787571035868E+002  0.429955217841373E-001  0.681856767721762E-001 -0.693147180559945E+000 -0.193626796509409E+002
  0.135473583692451E-002  0.288401809106174E+002  0.420942541982290E-001  0.772107734343741E-001 -0.693147180559945E+000 -0.177933915544562E+002
  0.135473583692451E-002  0.261710721958317E+002  0.772161497280082E-001  0.982808835646880E-001 -0.693147180559945E+000 -0.164588371970634E+002
  0.135473583692451E-002  0.261848287425711E+002  0.602760391147030E-001  0.754673864633468E-001 -0.693147180559945E+000 -0.164657154704330E+002
  0.135473583692451E-002  0.242950910338519E+002  0.670611313074989E-001  0.924700878893210E-001 -0.693147180559945E+000 -0.155208466160734E+002
  0.135473583692451E-002  0.415317949136653E+002 -0.532277386172164E-002  0.419802858280810E-001 -0.693147180559945E+000 -0.241391985559801E+002
  0.135473583692451E-002  0.320096665129743E+002  0.701162372044890E-001  0.862338681871371E-001 -0.693147180559945E+000 -0.193781343556346E+002
  0.135473583692451E-002  0.242979486012137E+002  0.761358894562192E-001  0.965742414879121E-001 -0.693147180559945E+000 -0.155222753997543E+002
  0.135473583692451E-002  0.264846891498761E+002  0.355888543808636E-003  0.113502668217659E+000 -0.693147180559945E+000 -0.166156456740855E+002
  0.135473583692451E-002  0.261674898890875E+002  0.561495018435763E-001  0.687584878800702E-001 -0.693147180559945E+000 -0.164570460436912E+002
  0.135473583692451E-002  0.320111397431975E+002  0.421183769518034E-001  0.614965431319270E-001 -0.693147180559945E+000 -0.193788709707463E+002
  0.135473583692451E-002  0.262064678914769E+002  0.410411495042802E-001  0.950882049528670E-001 -0.693147180559945E+000 -0.164765350448859E+002
  0.135473583692451E-002  0.320188553719376E+002 -0.281776854144425E-001  0.164526872325243E+000 -0.693147180559945E+000 -0.193827287851163E+002
  0.135473583692451E-002  0.262104003985328E+002  0.688085317987033E-001  0.107497256578902E+000 -0.693147180559945E+000 -0.164785012984139E+002
  0.135473583692451E-002  0.415544053859990E+002  0.346352923508069E-001  0.173806261146343E-001 -0.693147180559945E+000 -0.241505037921470E+002
  0.135473583692451E-002  0.432459690492690E+002  0.344743732079023E-002  0.126369414748964E+000 -0.693147180559945E+000 -0.249962856237820E+002
  0.135473583692451E-002  0.352881260982383E+002  0.793182063578264E-001  0.509792564205760E-001 -0.693147180559945E+000 -0.210173641482666E+002
  0.135473583692451E-002  0.262149540689022E+002  0.556994250801992E-001  0.103130606239660E+000 -0.693147180559945E+000 -0.164807781335986E+002
  0.135473583692451E-002  0.243336551287294E+002  0.292820928887771E-001  0.109908765727367E+000 -0.693147180559945E+000 -0.155401286635122E+002
  0.135473583692451E-002  0.384763578774935E+002  0.366571536187281E-001  0.245742303171766E-001 -0.693147180559945E+000 -0.226114800378942E+002
  0.135473583692451E-002  0.261499906345394E+002  0.662098537482390E-001  0.101759499094932E+000 -0.693147180559945E+000 -0.164482964164172E+002
  0.135473583692451E-002  0.243561168486150E+002  0.503212326093196E-001  0.123624296812618E+000 -0.693147180559945E+000 -0.155513595234550E+002
  0.135473583692451E-002  0.262297605832153E+002  0.677697552951058E-001  0.768836074111942E-001 -0.693147180559945E+000 -0.164881813907552E+002
  0.135473583692451E-002  0.415551502853258E+002  0.872051858090614E-001  0.723836145177660E-002 -0.693147180559945E+000 -0.241508762418104E+002
  0.135473583692451E-002  0.243667595753608E+002  0.293011252389430E-001  0.118297003824528E+000 -0.693147180559945E+000 -0.155566808868279E+002
  0.135473583692451E-002  0.385343467186846E+002  0.157048505130160E-001  0.702745728397241E-001 -0.693147180559945E+000 -0.226404744584898E+002
  0.135473583692451E-002  0.321020911986157E+002  0.102652548622161E+000  0.554763377840118E-001 -0.693147180559945E+000 -0.194243466984554E+002
  0.135473583692451E-002  0.321256996721166E+002  0.858881888377325E-001  0.649773606588666E-001 -0.693147180559945E+000 -0.194361509352058E+002
  0.135473583692451E-002  0.262325647602751E+002  0.502595105196686E-001  0.951883156805462E-001 -0.693147180559945E+000 -0.164895834792850E+002
  0.135473583692451E-002  0.262402085155504E+002  0.747823872236004E-001  0.944948722529545E-001 -0.693147180559945E+000 -0.164934053569227E+002
  0.135473583692451E-002  0.353440578780892E+002  0.654005364190557E-001  0.625324338789804E-001 -0.693147180559945E+000 -0.210453300381921E+002
  0.135473583692451E-002  0.353463006637976E+002  0.497084197506423E-001  0.328277412464715E-001 -0.693147180559945E+000 -0.210464514310463E+002
  0.135473583692451E-002  0.261370043167868E+002  0.462652243679149E-001  0.875389680618068E-001 -0.693147180559945E+000 -0.164418032575409E+002
  0.135473583692451E-002  0.321318707634112E+002  0.334695588157481E-001  0.122154327524721E+000 -0.693147180559945E+000 -0.194392364808531E+002
  0.135473583692451E-002  0.353976381272132E+002  0.117101856233783E+000  0.111477201731351E+000 -0.693147180559945E+000 -0.210721201627541E+002
  0.135473583692451E-002  0.354072006375162E+002  0.241392504415503E-001  0.596259196012176E-001 -0.693147180559945E+000 -0.210769014179056E+002
  0.135473583692451E-002  0.262663301064593E+002  0.329591989531690E-001  0.118686658814803E+000 -0.693147180559945E+000 -0.165064661523771E+002
  0.135473583692451E-002  0.262738176762666E+002  0.562441961366076E-001  0.703758085239321E-001 -0.693147180559945E+000 -0.165102099372808E+002
  0.135473583692451E-002  0.321412436267929E+002  0.131049521489018E+000  0.870650378106937E-001 -0.693147180559945E+000 -0.194439229125440E+002
  0.135473583692451E-002  0.260952266334862E+002  0.910559780981830E-001  0.117142683863625E+000 -0.693147180559945E+000 -0.164209144158906E+002
  0.135473583692451E-002  0.321510117309586E+002  0.548481186469330E-003  0.113600778271458E+000 -0.693147180559945E+000 -0.194488069646268E+002
  0.135473583692451E-002  0.354183027446254E+002  0.354549052072108E-001  0.793787959966028E-001 -0.693147180559945E+000 -0.210824524714602E+002
  0.135473583692451E-002  0.354409725212374E+002  0.480557557230861E-001  0.739089846436538E-001 -0.693147180559945E+000 -0.210937873597662E+002
  0.135473583692451E-002  0.262965292167415E+002  0.398953245171096E-001  0.952179387912162E-001 -0.693147180559945E+000 -0.165215657075182E+002
  0.135473583692451E-002  0.386351607608951E+002  0.632676667124230E-001  0.601800132631258E-001 -0.693147180559945E+000 -0.226908814795950E+002
  0.135473583692451E-002  0.262993488148215E+002  0.521319160502003E-001  0.613370560660535E-001 -0.693147180559945E+000 -0.165229755065583E+002
  0.135473583692451E-002  0.243958621107406E+002  0.557722758030188E-001  0.103178664963295E+000 -0.693147180559945E+000 -0.155712321545178E+002
  0.135473583692451E-002  0.244137997597772E+002  0.420249353901052E-001  0.946549600527706E-001 -0.693147180559945E+000 -0.155802009790361E+002
  0.135473583692451E-002  0.263643298258601E+002  0.115747090292437E-001  0.696776357578825E-001 -0.693147180559945E+000 -0.165554660120775E+002
  0.135473583692451E-002  0.244154174750907E+002  0.538630313867992E-001  0.898159377936950E-001 -0.693147180559945E+000 -0.155810098366929E+002
  0.135473583692451E-002  0.263680083337366E+002  0.910590725377238E-001  0.117146862718703E+000 -0.693147180559945E+000 -0.165573052660158E+002
  0.135473583692451E-002  0.244217283062236E+002  0.716347301856357E-001  0.973631437274697E-001 -0.693147180559945E+000 -0.155841652522593E+002
  0.135473583692451E-002  0.263827990887981E+002  0.239091321904192E-001  0.774246691286532E-001 -0.693147180559945E+000 -0.165647006435465E+002
  0.135473583692451E-002  0.260916516867569E+002  0.398949391307069E-001  0.952188959275983E-001 -0.693147180559945E+000 -0.164191269425260E+002
  0.135473583692451E-002  0.244285408923002E+002  0.509788918308929E-001  0.911331582329425E-001 -0.693147180559945E+000 -0.155875715452976E+002
  0.135473583692451E-002  0.322244201948701E+002  0.726772277438135E-001  0.447404492548040E-001 -0.693147180559945E+000 -0.194855111965825E+002
  0.135473583692451E-002  0.263886664773038E+002  0.852878522452112E-001  0.127173239386346E+000 -0.693147180559945E+000 -0.165676343377994E+002
  0.135473583692451E-002  0.264062272471177E+002  0.496459013840111E-001  0.809384600045478E-001 -0.693147180559945E+000 -0.165764147227063E+002
  0.135473583692451E-002  0.354934311299809E+002  0.404149266995184E-001  0.864716195564197E-001 -0.693147180559945E+000 -0.211200166641379E+002
  0.135473583692451E-002  0.264117975510073E+002  0.261258071106574E-001  0.799684266331460E-001 -0.693147180559945E+000 -0.165791998746511E+002
  0.135473583692451E-002  0.271739002029173E+002  0.332158348187754E-001  0.940226061367694E-001 -0.693147180559945E+000 -0.169602512006062E+002
  0.135473583692451E-002  0.244324447203099E+002  0.503846948926154E-001  0.864561743481214E-001 -0.693147180559945E+000 -0.155895234593024E+002
  0.135473583692451E-002  0.271977706120881E+002  0.637411575231650E-002  0.601581381279186E-001 -0.693147180559945E+000 -0.169721864051916E+002
  0.135473583692451E-002  0.272055600188713E+002  0.772161452668989E-001  0.982808838258598E-001 -0.693147180559945E+000 -0.169760811085831E+002
  0.135473583692451E-002  0.423413249874518E+002  0.299118989192690E-001  0.368336631681049E-001 -0.693147180559945E+000 -0.245439635928734E+002
  0.135473583692451E-002  0.355428204940719E+002  0.273032250957845E-001  0.316127825790670E-001 -0.693147180559945E+000 -0.211447113461834E+002
  0.135473583692451E-002  0.244355546050330E+002  0.293008118257163E-001  0.118297011557308E+000 -0.693147180559945E+000 -0.155910784016640E+002
  0.135473583692451E-002  0.355536045947459E+002  0.366302975075408E-001  0.222353596036415E-001 -0.693147180559945E+000 -0.211501033965204E+002
  0.135473583692451E-002  0.289562223889256E+002  0.874696292908617E-002  0.794600601387572E-001 -0.693147180559945E+000 -0.178514122936103E+002
  0.135473583692451E-002  0.387747819227328E+002 -0.341515343632137E-003  0.988743047120657E-001 -0.693147180559945E+000 -0.227606920605139E+002
  0.135473583692451E-002  0.260145269821953E+002  0.765785520085605E-001  0.111911659997724E+000 -0.693147180559945E+000 -0.163805645902451E+002
  0.135473583692451E-002  0.265061035188002E+002  0.783864498370146E-001  0.104038647887125E+000 -0.693147180559945E+000 -0.166263528585476E+002
  0.135473583692451E-002  0.387764641502241E+002  0.104132972835147E+000  0.152393992706126E+000 -0.693147180559945E+000 -0.227615331742595E+002
  0.135473583692451E-002  0.244442185659607E+002  0.407731958394759E-001  0.910460883376455E-001 -0.693147180559945E+000 -0.155954103821278E+002
  0.135473583692451E-002  0.356136190113155E+002  0.547972135652153E-001  0.708142711569541E-001 -0.693147180559945E+000 -0.211801106048052E+002
  0.135473583692451E-002  0.388096412375342E+002  0.684294840893658E-001  0.931784918147298E-001 -0.693147180559945E+000 -0.227781217179146E+002
  0.135473583692451E-002  0.272238007482758E+002  0.567904286844068E-001  0.788672556214912E-001 -0.693147180559945E+000 -0.169852014732854E+002
  0.135473583692451E-002  0.244512883692046E+002  0.915252189184146E-001  0.116698664417668E+000 -0.693147180559945E+000 -0.155989452837498E+002
  0.135473583692451E-002  0.356315906745313E+002  0.389280606324727E-001  0.116020764761632E+000 -0.693147180559945E+000 -0.211890964364131E+002
  0.135473583692451E-002  0.244523038248413E+002  0.293240896566309E-001  0.109839480416379E+000 -0.693147180559945E+000 -0.155994530115681E+002
  0.135473583692451E-002  0.356418356238882E+002 -0.286877252746998E-002  0.652337272888870E-001 -0.693147180559945E+000 -0.211942189110916E+002
  0.135473583692451E-002  0.356444317966395E+002  0.256115289516532E-001  0.544233479148593E-001 -0.693147180559945E+000 -0.211955169974672E+002
  0.135473583692451E-002  0.322921401962100E+002  0.484475219862084E-001  0.959334285970825E-001 -0.693147180559945E+000 -0.195193711972525E+002
  0.135473583692451E-002  0.272337461343605E+002  0.465486327872160E-001  0.935322427574328E-001 -0.693147180559945E+000 -0.169901741663277E+002
  0.135473583692451E-002  0.259758321355401E+002  0.561439967952171E-001  0.687604126598339E-001 -0.693147180559945E+000 -0.163612171669176E+002
  0.135473583692451E-002  0.244533245434801E+002  0.375046231083132E-001  0.915968029471114E-001 -0.693147180559945E+000 -0.155999633708876E+002
  0.135473583692451E-002  0.322981776245363E+002  0.966004452376512E-001  0.699937202924251E-001 -0.693147180559945E+000 -0.195223899114156E+002
  0.135473583692451E-002  0.388894573786966E+002  0.770682479479359E-001  0.823301252029356E-001 -0.693147180559945E+000 -0.228180297884958E+002
  0.135473583692451E-002  0.323073223609331E+002  0.722543117705943E-001  0.104418309389474E+000 -0.693147180559945E+000 -0.195269622796140E+002
  0.135473583692451E-002  0.265086997091283E+002  0.326280361431890E-001  0.651872503806617E-001 -0.693147180559945E+000 -0.166276509537116E+002
  0.135473583692451E-002  0.289853429997858E+002  0.896987695365126E-001  0.568431619704591E-001 -0.693147180559945E+000 -0.178659725990404E+002
  0.135473583692451E-002  0.272649135696638E+002  0.705126282715089E-001  0.107922421055398E+000 -0.693147180559945E+000 -0.170057578839794E+002
  0.135473583692451E-002  0.265242521971067E+002  0.644928393279369E-001  0.703565234066767E-001 -0.693147180559945E+000 -0.166354271977009E+002
  0.135473583692451E-002  0.259707549906027E+002  0.373208061735273E-001  0.118906916521224E+000 -0.693147180559945E+000 -0.163586785944488E+002
  0.135473583692451E-002  0.323361610585051E+002  0.456093120259629E-001  0.707518119718172E-001 -0.693147180559945E+000 -0.195413816284000E+002
  0.135473583692451E-002  0.323651080471420E+002  0.978216853882123E-001  0.940461677454686E-001 -0.693147180559945E+000 -0.195558551227185E+002
  0.135473583692451E-002  0.259662629900463E+002  0.765430690206665E-001  0.111895584516697E+000 -0.693147180559945E+000 -0.163564325941706E+002
  0.135473583692451E-002  0.420192193301216E+002  0.304106820123045E-001  0.879198790540734E-002 -0.693147180559945E+000 -0.243829107642083E+002
  0.135473583692451E-002  0.323902660251339E+002  0.885174871821299E-001  0.879559136605298E-001 -0.693147180559945E+000 -0.195684341117144E+002
  0.135473583692451E-002  0.389767519253392E+002  0.110765488192562E+000  0.166103167399202E+000 -0.693147180559945E+000 -0.228616770618171E+002
  0.135473583692451E-002  0.265277080773723E+002  0.509699670072374E-001  0.911299803749973E-001 -0.693147180559945E+000 -0.166371551378336E+002
  0.135473583692451E-002  0.244643537558051E+002  0.697002718863982E-001  0.712564496120107E-001 -0.693147180559945E+000 -0.156054779770500E+002
  0.135473583692451E-002  0.324109108046680E+002  0.324226385384294E-001  0.121869207517862E+000 -0.693147180559945E+000 -0.195787565014815E+002
  0.135473583692451E-002  0.324431250122854E+002  0.643972304337921E-001  0.970859958598809E-001 -0.693147180559945E+000 -0.195948636052902E+002
  0.135473583692451E-002  0.289937210199447E+002  0.639665160034797E-001  0.730574373642369E-001 -0.693147180559945E+000 -0.178701616091198E+002
  0.135473583692451E-002  0.289947625131334E+002  0.846463760925111E-001  0.129339086262576E+000 -0.693147180559945E+000 -0.178706823557142E+002
  0.135473583692451E-002  0.359250936708600E+002  0.536045947355115E-001  0.384428497005369E-001 -0.693147180559945E+000 -0.213358479345775E+002
  0.135473583692451E-002  0.259647063903833E+002  0.592689937603830E-001  0.869469374540616E-001 -0.693147180559945E+000 -0.163556542943392E+002
  0.135473583692451E-002  0.265306847787750E+002  0.770857244520422E-001  0.859572933241201E-001 -0.693147180559945E+000 -0.166386434885350E+002
  0.135473583692451E-002  0.259412951168507E+002  0.602760070839836E-001  0.754674152995448E-001 -0.693147180559945E+000 -0.163439486575728E+002
  0.135473583692451E-002  0.244744537948027E+002  0.668158221680197E-001  0.821650278876933E-001 -0.693147180559945E+000 -0.156105279965488E+002
  0.135473583692451E-002  0.244813003885080E+002  0.684081199867126E-001  0.125894940230871E+000 -0.693147180559945E+000 -0.156139512934015E+002
  0.135473583692451E-002  0.245168474300267E+002  0.272804507927999E-001  0.125293883854850E+000 -0.693147180559945E+000 -0.156317248141608E+002
  0.135473583692451E-002  0.245187755103474E+002  0.694203728368044E-001  0.836217926297413E-001 -0.693147180559945E+000 -0.156326888543212E+002
  0.135473583692451E-002  0.272841569490043E+002  0.130961502215888E+000  0.869309807413243E-001 -0.693147180559945E+000 -0.170153795736496E+002
  0.135473583692451E-002  0.273008233573358E+002  0.263692242358073E-001  0.880447144766065E-001 -0.693147180559945E+000 -0.170237127778154E+002
  0.135473583692451E-002  0.290246156204662E+002  0.379770657615623E-001  0.142527728415342E+000 -0.693147180559945E+000 -0.178856089093806E+002
  0.135473583692451E-002  0.325348646447685E+002  0.310607344281701E-001  0.153382249739082E+000 -0.693147180559945E+000 -0.196407334215317E+002
  0.135473583692451E-002  0.265393047524741E+002  0.602820470106218E-001  0.754596061273710E-001 -0.693147180559945E+000 -0.166429534753845E+002
  0.135473583692451E-002  0.265424330989176E+002  0.294973721642020E-001  0.118896433900426E+000 -0.693147180559945E+000 -0.166445176486063E+002
  0.135473583692451E-002  0.360437273890831E+002  0.978954057386798E-001  0.937726164458854E-001 -0.693147180559945E+000 -0.213951647936891E+002
  0.135473583692451E-002  0.325669604614507E+002  0.598940459285715E-001  0.728996297687870E-001 -0.693147180559945E+000 -0.196567813298728E+002
  0.135473583692451E-002  0.290384432259055E+002  0.734777846691648E-001  0.779106340831985E-001 -0.693147180559945E+000 -0.178925227121002E+002
  0.135473583692451E-002  0.392541192110770E+002  0.179122275981387E-001  0.103940791844867E+000 -0.693147180559945E+000 -0.230003607046860E+002
  0.135473583692451E-002  0.360515911098579E+002  0.909155359752574E-001  0.190882225122422E+000 -0.693147180559945E+000 -0.213990966540764E+002
  0.135473583692451E-002  0.265451260476234E+002  0.503213960591256E-001  0.123624220723047E+000 -0.693147180559945E+000 -0.166458641229592E+002
  0.135473583692451E-002  0.245205734820019E+002  0.465730080674953E-001  0.935267559243171E-001 -0.693147180559945E+000 -0.156335878401484E+002
  0.135473583692451E-002  0.273117612102587E+002  0.765665302998466E-001  0.510863342651655E-001 -0.693147180559945E+000 -0.170291817042768E+002
  0.135473583692451E-002  0.290434650200909E+002 -0.115183255443131E-001  0.966812547315220E-001 -0.693147180559945E+000 -0.178950336091929E+002
  0.135473583692451E-002  0.392601774535831E+002  0.408107078699078E-001  0.197878429224164E-001 -0.693147180559945E+000 -0.230033898259391E+002
  0.135473583692451E-002  0.273130911894408E+002  0.252913842463447E-001  0.121108577217753E+000 -0.693147180559945E+000 -0.170298466938679E+002
  0.135473583692451E-002  0.259338385565098E+002  0.710894999089857E-001  0.119446912221065E+000 -0.693147180559945E+000 -0.163402203774024E+002
  0.135473583692451E-002  0.265540951200495E+002  0.350806697659427E-001  0.112353766239334E+000 -0.693147180559945E+000 -0.166503486591722E+002
  0.135473583692451E-002  0.259282340490793E+002  0.423275149602937E-001  0.798312090026165E-001 -0.693147180559945E+000 -0.163374181236872E+002
  0.135473583692451E-002  0.245339914254889E+002  0.644928393291102E-001  0.703565234075496E-001 -0.693147180559945E+000 -0.156402968118919E+002
  0.135473583692451E-002  0.360548977217306E+002  0.111484876251150E+000  0.902646573877626E-001 -0.693147180559945E+000 -0.214007499600128E+002
  0.135473583692451E-002  0.245369234223412E+002  0.743181524773182E-001  0.874269067601290E-001 -0.693147180559945E+000 -0.156417628103181E+002
  0.135473583692451E-002  0.273299799234548E+002  0.670824444352158E-001  0.121145110403472E+000 -0.693147180559945E+000 -0.170382910608749E+002
  0.135473583692451E-002  0.245437500072693E+002  0.670816199575990E-001  0.121136013534472E+000 -0.693147180559945E+000 -0.156451761027822E+002
  0.135473583692451E-002  0.265666192649768E+002  0.404635903941235E-001  0.954850497295599E-001 -0.693147180559945E+000 -0.166566107316359E+002
  0.135473583692451E-002  0.361452790487858E+002  0.908044746340542E-003  0.413318820424186E-001 -0.693147180559945E+000 -0.214459406235404E+002
  0.135473583692451E-002  0.325881648159866E+002  0.121994270980372E+000  0.103604036655570E+000 -0.693147180559945E+000 -0.196673835071408E+002
  0.135473583692451E-002  0.325897222473356E+002  0.266919634751313E-001  0.624663273576196E-001 -0.693147180559945E+000 -0.196681622228153E+002
  0.135473583692451E-002  0.273304425536944E+002  0.276548512572325E-001  0.116188936006555E+000 -0.693147180559945E+000 -0.170385223759947E+002
  0.135473583692451E-002  0.245558742229647E+002  0.101298270429486E+000  0.788646225987747E-001 -0.693147180559945E+000 -0.156512382106298E+002
  0.135473583692451E-002  0.394108921752867E+002  0.428215053190140E-001  0.184347034630436E-001 -0.693147180559945E+000 -0.230787471867908E+002
  0.135473583692451E-002  0.246025932686040E+002  0.292820995252512E-001  0.109908769562939E+000 -0.693147180559945E+000 -0.156745977334495E+002
  0.135473583692451E-002  0.273403153142337E+002  0.540267282509101E-001  0.901786493177567E-001 -0.693147180559945E+000 -0.170434587562644E+002
  0.135473583692451E-002  0.362129279306409E+002  0.326646085819220E-001  0.632796795177551E-001 -0.693147180559945E+000 -0.214797650644679E+002
  0.135473583692451E-002  0.246084534550026E+002  0.499838688805800E-001  0.917922253566224E-001 -0.693147180559945E+000 -0.156775278266488E+002
  0.135473583692451E-002  0.246087438104886E+002  0.710613015037420E-001  0.963642906122154E-001 -0.693147180559945E+000 -0.156776730043918E+002
  0.135473583692451E-002  0.246141383671624E+002  0.441113442725971E-001  0.102479210417288E+000 -0.693147180559945E+000 -0.156803702827287E+002
  0.135473583692451E-002  0.273496850576363E+002  0.509027064770857E-001  0.952989666614739E-001 -0.693147180559945E+000 -0.170481436279656E+002
  0.135473583692451E-002  0.404542514466167E+002  0.619230792506369E-001  0.130873161085812E-001 -0.693147180559945E+000 -0.236004268224558E+002
  0.135473583692451E-002  0.246182050770566E+002  0.731479951659901E-001  0.105566318906674E+000 -0.693147180559945E+000 -0.156824036376758E+002
  0.135473583692451E-002  0.273662595008791E+002  0.765430690218376E-001  0.111895584515809E+000 -0.693147180559945E+000 -0.170564308495870E+002
  0.135473583692451E-002  0.326887209674111E+002  0.866101325738715E-001  0.970998922697361E-001 -0.693147180559945E+000 -0.197176615828530E+002
  0.135473583692451E-002  0.246315504241322E+002  0.672833211240205E-001  0.761371011640596E-001 -0.693147180559945E+000 -0.156890763112136E+002
  0.135473583692451E-002  0.273712738593218E+002  0.761868792645986E-001  0.928931858994795E-001 -0.693147180559945E+000 -0.170589380288084E+002
  0.135473583692451E-002  0.327454405244282E+002  0.673052932165177E-001  0.733710786185518E-001 -0.693147180559945E+000 -0.197460213613616E+002
  0.135473583692451E-002  0.258980358767208E+002  0.239058120826896E-001  0.774205326866863E-001 -0.693147180559945E+000 -0.163223190375079E+002
  0.135473583692451E-002  0.246349853876340E+002  0.236781867489013E-001  0.785742637548146E-001 -0.693147180559945E+000 -0.156907937929645E+002
  0.135473583692451E-002  0.403629925376041E+002  0.927935159245232E-001  0.501990111252529E-001 -0.693147180559945E+000 -0.235547973679496E+002
  0.135473583692451E-002  0.291188107221665E+002  0.622245933447370E-001  0.933184936245108E-001 -0.693147180559945E+000 -0.179327064602307E+002
  0.135473583692451E-002  0.327538137341772E+002  0.422098012036678E-001  0.334975189824020E-001 -0.693147180559945E+000 -0.197502079662361E+002
  0.135473583692451E-002  0.274426994800973E+002  0.360683538594992E-001  0.843540716359535E-001 -0.693147180559945E+000 -0.170946508391962E+002
  0.135473583692451E-002  0.274450212533040E+002  0.507090123413503E-001  0.949371159609352E-001 -0.693147180559945E+000 -0.170958117257995E+002
  0.135473583692451E-002  0.363503506569887E+002  0.110452145579902E-001  0.678586235611736E-001 -0.693147180559945E+000 -0.215484764276418E+002
  0.135473583692451E-002  0.274509011967163E+002  0.127721943469952E-001  0.812160626919012E-001 -0.693147180559945E+000 -0.170987516975056E+002
  0.135473583692451E-002  0.396325096355463E+002  0.800883234866339E-001  0.316458789812200E-001 -0.693147180559945E+000 -0.231895559169206E+002
  0.135473583692451E-002  0.246436885881232E+002  0.199695141038254E-001  0.825099901154092E-001 -0.693147180559945E+000 -0.156951453932091E+002
  0.135473583692451E-002  0.363711296627332E+002  0.781350209268215E-001  0.114027460034520E+000 -0.693147180559945E+000 -0.215588659305141E+002
  0.135473583692451E-002  0.274902872753177E+002  0.817194650289810E-001  0.134859892826054E+000 -0.693147180559945E+000 -0.171184447368063E+002
  0.135473583692451E-002  0.274937861430786E+002  0.746556509418761E-001  0.860822366729115E-001 -0.693147180559945E+000 -0.171201941706868E+002
  0.135473583692451E-002  0.274989175879175E+002  0.125945454634446E-001  0.924100658773557E-001 -0.693147180559945E+000 -0.171227598931062E+002
  0.135473583692451E-002  0.364478234652631E+002  0.785315072662649E-001  0.600577254266767E-001 -0.693147180559945E+000 -0.215972128317791E+002
  0.135473583692451E-002  0.275108986145558E+002  0.420957115829064E-001  0.772111091337956E-001 -0.693147180559945E+000 -0.171287504064254E+002
  0.135473583692451E-002  0.265781914514070E+002  0.251590696609540E-001  0.144550408237110E+000 -0.693147180559945E+000 -0.166623968248510E+002
  0.135473583692451E-002  0.246478202386570E+002  0.905549454172752E-001  0.116967735826672E+000 -0.693147180559945E+000 -0.156972112184760E+002
  0.135473583692451E-002  0.328205219421244E+002  0.884444794221180E-001  0.418274265077447E-001 -0.693147180559945E+000 -0.197835620702097E+002
  0.135473583692451E-002  0.246493733755379E+002  0.879267128455457E-001  0.948092886176080E-001 -0.693147180559945E+000 -0.156979877869164E+002
  0.135473583692451E-002  0.271464950982576E+002  0.127718495880531E-001  0.812161790739201E-001 -0.693147180559945E+000 -0.169465486482763E+002
  0.135473583692451E-002  0.364790980696540E+002  0.374919725185181E-001  0.906714354125214E-001 -0.693147180559945E+000 -0.216128501339745E+002
  0.135473583692451E-002  0.275296663810243E+002  0.480599420998622E-001  0.879628083849352E-001 -0.693147180559945E+000 -0.171381342896596E+002
  0.135473583692451E-002  0.328664916165840E+002  0.574078859537586E-001  0.461645902906465E-001 -0.693147180559945E+000 -0.198065469074395E+002
  0.135473583692451E-002  0.258944121082338E+002  0.534232823010508E-001  0.962942102839202E-001 -0.693147180559945E+000 -0.163205071532644E+002
  0.135473583692451E-002  0.275496360704231E+002  0.421433966385385E-001  0.715749751643013E-001 -0.693147180559945E+000 -0.171481191343590E+002
  0.135473583692451E-002  0.365471451850634E+002  0.617732725548732E-001  0.849189170132646E-001 -0.693147180559945E+000 -0.216468736916792E+002
  0.135473583692451E-002  0.246674235961594E+002  0.695301934615278E-001  0.751833083363237E-001 -0.693147180559945E+000 -0.157070128972272E+002
  0.135473583692451E-002  0.275521317425773E+002  0.592250818347340E-001  0.735348636214039E-001 -0.693147180559945E+000 -0.171493669704361E+002
  0.135473583692451E-002  0.246682182904665E+002  0.749198820396502E-001  0.945989447703293E-001 -0.693147180559945E+000 -0.157074102443807E+002
  0.135473583692451E-002  0.246806820343581E+002  0.712452446357268E-001  0.958489016307536E-001 -0.693147180559945E+000 -0.157136421163266E+002
  0.135473583692451E-002  0.291556838042856E+002  0.670210364712023E-001  0.103726777685018E+000 -0.693147180559945E+000 -0.179511430012903E+002
  0.135473583692451E-002  0.265976248554663E+002  0.563156430005205E-001  0.614345556140390E-001 -0.693147180559945E+000 -0.166721135268807E+002
  0.135473583692451E-002  0.366103078196805E+002  0.644114897928354E-001  0.155444163043800E+000 -0.693147180559945E+000 -0.216784550089878E+002
  0.135473583692451E-002  0.401141510416476E+002  0.891882790054641E-001  0.598435177473632E-001 -0.693147180559945E+000 -0.234303766199713E+002
  0.135473583692451E-002  0.258915412742587E+002  0.690313951462669E-001  0.770273793604775E-001 -0.693147180559945E+000 -0.163190717362768E+002
  0.135473583692451E-002  0.275816897368430E+002  0.532962807560693E-001  0.876211323740227E-001 -0.693147180559945E+000 -0.171641459675690E+002
  0.135473583692451E-002  0.266025192340720E+002  0.252073507119768E-001  0.790390161596348E-001 -0.693147180559945E+000 -0.166745607161835E+002
  0.135473583692451E-002  0.291725397020110E+002  0.130961347378846E+000  0.869279326605290E-001 -0.693147180559945E+000 -0.179595709501530E+002
  0.135473583692451E-002  0.328967488631545E+002  0.896370606512664E-002  0.971414523335128E-001 -0.693147180559945E+000 -0.198216755307248E+002
  0.135473583692451E-002  0.246852072477229E+002  0.293240896566305E-001  0.109839480416379E+000 -0.693147180559945E+000 -0.157159047230090E+002
  0.135473583692451E-002  0.400623266389924E+002 -0.305964406039267E-001  0.131501201311214E+000 -0.693147180559945E+000 -0.234044644186437E+002
  0.135473583692451E-002  0.275951704250277E+002  0.576124865820933E-001  0.110387654378792E+000 -0.693147180559945E+000 -0.171708863116613E+002
  0.135473583692451E-002  0.400550388932430E+002  0.668894350778961E-001  0.260870818168639E-001 -0.693147180559945E+000 -0.234008205457690E+002
  0.135473583692451E-002  0.329167910466991E+002  0.989098358814480E-001  0.745591922982721E-001 -0.693147180559945E+000 -0.198316966224970E+002
  0.135473583692451E-002  0.276151696220770E+002  0.736368833966945E-001  0.858909289267722E-001 -0.693147180559945E+000 -0.171808859101860E+002
  0.135473583692451E-002  0.329634487000996E+002  0.619990836819746E-001  0.402131601178699E-001 -0.693147180559945E+000 -0.198550254491973E+002
  0.135473583692451E-002  0.329712924892623E+002  0.102491905261371E+000  0.695485762327788E-001 -0.693147180559945E+000 -0.198589473437786E+002
  0.135473583692451E-002  0.258594521370450E+002  0.740654193795576E-001  0.850897832610254E-001 -0.693147180559945E+000 -0.163030271676700E+002
  0.135473583692451E-002  0.246938575895093E+002  0.671035556453063E-001  0.121114905659754E+000 -0.693147180559945E+000 -0.157202298939021E+002
  0.135473583692451E-002  0.276311571062970E+002  0.378070071096921E-001  0.114753672563202E+000 -0.693147180559945E+000 -0.171888796522960E+002
  0.135473583692451E-002  0.329988629833999E+002  0.208913372159987E-001  0.810151307126798E-001 -0.693147180559945E+000 -0.198727325908474E+002
  0.135473583692451E-002  0.247054266361315E+002  0.619101035409879E-001  0.125849443991686E+000 -0.693147180559945E+000 -0.157260144172132E+002
  0.135473583692451E-002  0.367243990441457E+002  0.849464994205522E-001  0.521955920021659E-001 -0.693147180559945E+000 -0.217355006212203E+002
  0.135473583692451E-002  0.292129724120931E+002  0.330664687959956E-001  0.652623924777528E-001 -0.693147180559945E+000 -0.179797873051941E+002
  0.135473583692451E-002  0.330568797496568E+002  0.599031575530837E-001  0.728691104431776E-001 -0.693147180559945E+000 -0.199017409739759E+002
  0.135473583692451E-002  0.247059037280398E+002  0.420985914392531E-001  0.942809747528417E-001 -0.693147180559945E+000 -0.157262529631674E+002
  0.135473583692451E-002  0.276338535348576E+002  0.261257697727497E-001  0.799673609360049E-001 -0.693147180559945E+000 -0.171902278665763E+002
  0.135473583692451E-002  0.271336302498950E+002  0.758097594070422E-001  0.926994646262239E-001 -0.693147180559945E+000 -0.169401162240950E+002
  0.135473583692451E-002  0.331014626741745E+002  0.678105569284713E-001  0.160251419967412E+000 -0.693147180559945E+000 -0.199240324362347E+002
  0.135473583692451E-002  0.258547632562390E+002  0.381142027483807E-001  0.863592042292591E-001 -0.693147180559945E+000 -0.163006827272670E+002
  0.135473583692451E-002  0.276495287809164E+002  0.130256256300778E-001  0.820650392919965E-001 -0.693147180559945E+000 -0.171980654896057E+002
  0.135473583692451E-002  0.331471371450712E+002  0.671825077254005E-001  0.489284701124329E-001 -0.693147180559945E+000 -0.199468696716831E+002
  0.135473583692451E-002  0.378604627657231E+002  0.116418094249224E-001  0.515009981100933E-001 -0.693147180559945E+000 -0.223035324820091E+002
  0.135473583692451E-002  0.247295767377430E+002  0.272234203853494E-001  0.125275996125897E+000 -0.693147180559945E+000 -0.157380894680190E+002
  0.135473583692451E-002  0.331551783334198E+002  0.799785420880934E-001  0.641949482022172E-001 -0.693147180559945E+000 -0.199508902658574E+002
  0.135473583692451E-002  0.276625784669902E+002  0.261257697769417E-001  0.799673609554405E-001 -0.693147180559945E+000 -0.172045903326426E+002
  0.135473583692451E-002  0.258541533797923E+002  0.644928393281985E-001  0.703565234144196E-001 -0.693147180559945E+000 -0.163003777890436E+002
  0.135473583692451E-002  0.368137676960243E+002  0.897005869684733E-001  0.643015684412781E-001 -0.693147180559945E+000 -0.217801849471597E+002
  0.135473583692451E-002  0.266446303781567E+002  0.515811627646214E-001  0.869438343141285E-001 -0.693147180559945E+000 -0.166956162882258E+002
  0.135473583692451E-002  0.377688879917497E+002  0.763126835402246E-001  0.805750459362971E-001 -0.693147180559945E+000 -0.222577450950224E+002
  0.135473583692451E-002  0.332320021663987E+002  0.567877657959650E-001  0.118369479604331E+000 -0.693147180559945E+000 -0.199893021823468E+002
  0.135473583692451E-002  0.292434977471535E+002  0.636259626085180E-001  0.727892162062603E-001 -0.693147180559945E+000 -0.179950499727243E+002
  0.135473583692451E-002  0.276806873213311E+002  0.266094810277697E-001  0.724484570156239E-001 -0.693147180559945E+000 -0.172136447598130E+002
  0.135473583692451E-002  0.247727839755756E+002  0.910603340851719E-001  0.117152535496917E+000 -0.693147180559945E+000 -0.157596930869353E+002
  0.135473583692451E-002  0.369100223492626E+002  0.961797810694316E-001  0.836704563818733E-001 -0.693147180559945E+000 -0.218283122737788E+002
  0.135473583692451E-002  0.369472771379362E+002  0.117034701921175E+000  0.825694134403277E-001 -0.693147180559945E+000 -0.218469396681156E+002
  0.135473583692451E-002  0.276832393082374E+002  0.926062425241958E-002  0.853344556884515E-001 -0.693147180559945E+000 -0.172149207532662E+002
  0.135473583692451E-002  0.266467858417828E+002  0.648336123224165E-001  0.103858229309186E+000 -0.693147180559945E+000 -0.166966940200389E+002
  0.135473583692451E-002  0.332434092446829E+002  0.334307221482242E-001  0.896733934231457E-001 -0.693147180559945E+000 -0.199950057214890E+002
  0.135473583692451E-002  0.247968769147049E+002  0.602524660184189E-001  0.108238199871111E+000 -0.693147180559945E+000 -0.157717395564999E+002
  0.135473583692451E-002  0.266556894613521E+002  0.749072852790122E-001  0.542613550957985E-001 -0.693147180559945E+000 -0.167011458298235E+002
  0.135473583692451E-002  0.332616699092267E+002  0.608188178381739E-001  0.484293187911138E-001 -0.693147180559945E+000 -0.200041360537608E+002
  0.135473583692451E-002  0.370048963041988E+002  0.473887397717645E-001  0.648155773367381E-001 -0.693147180559945E+000 -0.218757492512469E+002
  0.135473583692451E-002  0.370342317844341E+002  0.550539995482224E-002  0.109003339385668E+000 -0.693147180559945E+000 -0.218904169913645E+002
  0.135473583692451E-002  0.292443014936071E+002  0.360701367679874E-001  0.843541112323620E-001 -0.693147180559945E+000 -0.179954518459510E+002
  0.135473583692451E-002  0.370752924641895E+002  0.593858806935617E-001  0.422749789690954E-001 -0.693147180559945E+000 -0.219109473312422E+002
  0.135473583692451E-002  0.276849224192737E+002  0.466551363823859E-001  0.934600174000637E-001 -0.693147180559945E+000 -0.172157623087843E+002
  0.135473583692451E-002  0.375542812783402E+002  0.480889466562144E-001  0.178212317083815E-001 -0.693147180559945E+000 -0.221504417383176E+002
  0.135473583692451E-002  0.248047968724958E+002  0.700534954551912E-001  0.126808108939741E+000 -0.693147180559945E+000 -0.157756995353954E+002
  0.135473583692451E-002  0.371210664383065E+002 -0.354332293198748E-001  0.685250998683966E-001 -0.693147180559945E+000 -0.219338343183007E+002
  0.135473583692451E-002  0.258528591481269E+002  0.770873535620462E-001  0.859569237584676E-001 -0.693147180559945E+000 -0.162997306732109E+002
  0.135473583692451E-002  0.276990980579783E+002  0.408558319978019E-001  0.911167820752490E-001 -0.693147180559945E+000 -0.172228501281366E+002
  0.135473583692451E-002  0.277108281402063E+002  0.607068187327287E-001  0.808087616952532E-001 -0.693147180559945E+000 -0.172287151692507E+002
  0.135473583692451E-002  0.374821571889287E+002  0.620742034789996E-001  0.595032018498441E-001 -0.693147180559945E+000 -0.221143796936118E+002
  0.135473583692451E-002  0.332856530511287E+002  0.864911482412305E-001  0.454141414101870E-001 -0.693147180559945E+000 -0.200161276247118E+002
  0.135473583692451E-002  0.277127935231412E+002  0.764341114900882E-001  0.107054392173330E+000 -0.693147180559945E+000 -0.172296978607181E+002
  0.135473583692451E-002  0.248256536375002E+002  0.411557034603767E-001  0.950768303731226E-001 -0.693147180559945E+000 -0.157861279178976E+002
  0.135473583692451E-002  0.372377735418848E+002  0.531499231023151E-001  0.394752378510056E-001 -0.693147180559945E+000 -0.219921878700899E+002
  0.135473583692451E-002  0.258415158375121E+002  0.262774922317031E-001  0.880253302260832E-001 -0.693147180559945E+000 -0.162940590179035E+002
  0.135473583692451E-002  0.266636361877998E+002  0.452293436941165E-001  0.827830304153309E-001 -0.693147180559945E+000 -0.167051191930474E+002
  0.135473583692451E-002  0.266899567337911E+002  0.513707299236694E-001  0.909882383800492E-001 -0.693147180559945E+000 -0.167182794660430E+002
  0.135473583692451E-002  0.266932510371221E+002  0.712670561587800E-001  0.958077709473386E-001 -0.693147180559945E+000 -0.167199266177085E+002
  0.135473583692451E-002  0.277187697471808E+002  0.816441834290234E-001  0.134782022222754E+000 -0.693147180559945E+000 -0.172326859727379E+002
  0.135473583692451E-002  0.258390529942473E+002  0.832092209202264E-001  0.778206502913225E-001 -0.693147180559945E+000 -0.162928275962712E+002
  0.135473583692451E-002  0.373327991669182E+002 -0.186096068405339E-002  0.404678255707403E-001 -0.693147180559945E+000 -0.220397006826066E+002
  0.135473583692451E-002  0.347391037183900E+002  0.277963300677364E-001  0.513053015138958E-001 -0.693147180559945E+000 -0.207428529583425E+002
  0.135473583692451E-002  0.248328118650894E+002  0.740483554895255E-001  0.110328452800804E+000 -0.693147180559945E+000 -0.157897070316922E+002
  0.135473583692451E-002  0.277403586170877E+002  0.736946822714986E-001  0.858046756324666E-001 -0.693147180559945E+000 -0.172434804076913E+002
  0.135473583692451E-002  0.258370449660353E+002  0.503213959885740E-001  0.123624220655842E+000 -0.693147180559945E+000 -0.162918235821651E+002
  0.135473583692451E-002  0.346562336129823E+002  0.517629721247814E-001  0.553793600282448E-001 -0.693147180559945E+000 -0.207014179056386E+002
  0.135473583692451E-002  0.333503411991868E+002  0.580379011075631E-001  0.378901082572163E-001 -0.693147180559945E+000 -0.200484716987409E+002
  0.135473583692451E-002  0.258134731043014E+002  0.740330921675967E-001  0.850214275794180E-001 -0.693147180559945E+000 -0.162800376512982E+002
  0.135473583692451E-002  0.333971010559588E+002  0.343268766468123E-001  0.495004395974151E-001 -0.693147180559945E+000 -0.200718516271269E+002
  0.135473583692451E-002  0.345729963093682E+002  0.771644089472798E-001  0.532361370330895E-001 -0.693147180559945E+000 -0.206597992538316E+002
  0.135473583692451E-002  0.277532636829324E+002  0.908784067185746E-001  0.116984447802979E+000 -0.693147180559945E+000 -0.172499329406137E+002
  0.135473583692451E-002  0.257854180695880E+002  0.602760316682767E-001  0.754674020117851E-001 -0.693147180559945E+000 -0.162660101339415E+002
  0.135473583692451E-002  0.345584317451199E+002  0.860105492202980E-001  0.148835905101552E+000 -0.693147180559945E+000 -0.206525169717075E+002
  0.135473583692451E-002  0.277707309776862E+002  0.648424332055553E-001  0.103856566366201E+000 -0.693147180559945E+000 -0.172586665879906E+002
  0.135473583692451E-002  0.334112462309838E+002  0.753016784697391E-001  0.857662331771756E-001 -0.693147180559945E+000 -0.200789242146394E+002
  0.135473583692451E-002  0.248647255605975E+002  0.502583850845970E-001  0.951886258517428E-001 -0.693147180559945E+000 -0.158056638794462E+002
  0.135473583692451E-002  0.277759596023683E+002  0.423234294562276E-001  0.798449060881566E-001 -0.693147180559945E+000 -0.172612809003316E+002
  0.135473583692451E-002  0.257823875694182E+002  0.714574451513410E-001  0.105451668419573E+000 -0.693147180559945E+000 -0.162644948838566E+002
  0.135473583692451E-002  0.257779851495134E+002  0.635834598811837E-001  0.128905723195300E+000 -0.693147180559945E+000 -0.162622936739042E+002
  0.135473583692451E-002  0.248701225788430E+002  0.398949314196086E-001  0.952188859637709E-001 -0.693147180559945E+000 -0.158083623885690E+002
  0.135473583692451E-002  0.257626370420617E+002  0.502595105196686E-001  0.951883156805462E-001 -0.693147180559945E+000 -0.162546196201783E+002
  0.135473583692451E-002  0.277954923656510E+002  0.394845201798979E-001  0.885193088781854E-001 -0.693147180559945E+000 -0.172710472819730E+002
  0.135473583692451E-002  0.343950471337817E+002  0.890127570912691E-002  0.795280470557609E-001 -0.693147180559945E+000 -0.205708246660383E+002
  0.135473583692451E-002  0.278025843139692E+002  0.519298393248793E-001  0.908083041959296E-001 -0.693147180559945E+000 -0.172745932561321E+002
  0.135473583692451E-002  0.278265165126000E+002 -0.185063078952397E-002  0.129894588457963E+000 -0.693147180559945E+000 -0.172865593554475E+002
  0.135473583692451E-002  0.271171291841798E+002  0.765796207917975E-001  0.111911123337903E+000 -0.693147180559945E+000 -0.169318656912374E+002
  0.135473583692451E-002  0.267243309673304E+002  0.908789628976185E-001  0.116984695045179E+000 -0.693147180559945E+000 -0.167354665828127E+002
  0.135473583692451E-002  0.278751197032503E+002  0.695302087413536E-001  0.751833025622801E-001 -0.693147180559945E+000 -0.173108609507726E+002
  0.135473583692451E-002  0.343202708980243E+002  0.928295296908996E-001  0.101079859064467E+000 -0.693147180559945E+000 -0.205334365481596E+002
  0.135473583692451E-002  0.292876342700995E+002  0.425212469654344E-001  0.141916705742909E+000 -0.693147180559945E+000 -0.180171182341972E+002
  0.135473583692451E-002  0.343150748291181E+002  0.425108898834261E-001  0.479563519502372E-001 -0.693147180559945E+000 -0.205308385137065E+002
  0.135473583692451E-002  0.249024940479654E+002  0.719573839178167E-001  0.129563143250285E+000 -0.693147180559945E+000 -0.158245481231302E+002
  0.135473583692451E-002  0.292899647364030E+002  0.696085885281088E-001  0.951369333436346E-001 -0.693147180559945E+000 -0.180182834673490E+002
  0.135473583692451E-002  0.278800121098994E+002  0.749026525538088E-001  0.541264363638571E-001 -0.693147180559945E+000 -0.173133071540972E+002
  0.135473583692451E-002  0.342881565373434E+002  0.108589068183052E+000  0.100707499651939E+000 -0.693147180559945E+000 -0.205173793678192E+002
  0.135473583692451E-002  0.278832105645360E+002  0.619682925584963E-001  0.115840442103141E+000 -0.693147180559945E+000 -0.173149063814155E+002
  0.135473583692451E-002  0.257368921224815E+002  0.635834593173870E-001  0.128905723640308E+000 -0.693147180559945E+000 -0.162417471603882E+002
  0.135473583692451E-002  0.278942886957660E+002  0.896693999262266E-001  0.112966839165887E+000 -0.693147180559945E+000 -0.173204454470305E+002
  0.135473583692451E-002  0.249380801731900E+002  0.538545090342322E-001  0.898196113001173E-001 -0.693147180559945E+000 -0.158423411857425E+002
  0.135473583692451E-002  0.257258762063327E+002  0.464053640317810E-001  0.751398388484867E-001 -0.693147180559945E+000 -0.162362392023138E+002
  0.135473583692451E-002  0.267287856663720E+002  0.544668467476386E-001  0.938548513523865E-001 -0.693147180559945E+000 -0.167376939323335E+002
  0.135473583692451E-002  0.249382856390142E+002  0.662885895491536E-001  0.992773610024928E-001 -0.693147180559945E+000 -0.158424439186546E+002
  0.135473583692451E-002  0.279032327448282E+002  0.468789452049416E-001  0.438865402490371E-001 -0.693147180559945E+000 -0.173249174715616E+002
  0.135473583692451E-002  0.335354684907895E+002  0.578595326335101E-001  0.858446092773529E-001 -0.693147180559945E+000 -0.201410353445422E+002
  0.135473583692451E-002  0.292951533527640E+002  0.294980666761395E-001  0.118911787671941E+000 -0.693147180559945E+000 -0.180208777755295E+002
  0.135473583692451E-002  0.267469316525679E+002  0.740654196896096E-001  0.850897828491691E-001 -0.693147180559945E+000 -0.167467669254314E+002
  0.135473583692451E-002  0.341450533975854E+002  0.740218304243048E-001  0.153206348505980E+000 -0.693147180559945E+000 -0.204458277979402E+002
  0.135473583692451E-002  0.335474690435620E+002  0.786181697867949E-001  0.100484079461098E+000 -0.693147180559945E+000 -0.201470356209285E+002
  0.135473583692451E-002  0.335668144769486E+002  0.739355662430221E-001  0.623102625458701E-001 -0.693147180559945E+000 -0.201567083376218E+002
  0.135473583692451E-002  0.249412289119229E+002  0.787448160637778E-001  0.819512220535547E-001 -0.693147180559945E+000 -0.158439155551089E+002
  0.135473583692451E-002  0.257143993495786E+002  0.557720558977186E-001  0.119256385153733E+000 -0.693147180559945E+000 -0.162305007739368E+002
  0.135473583692451E-002  0.293058079742263E+002  0.172591303255460E-001  0.829003538397567E-001 -0.693147180559945E+000 -0.180262050862606E+002
  0.135473583692451E-002  0.293084345976107E+002  0.695302087414391E-001  0.751833025622248E-001 -0.693147180559945E+000 -0.180275183979528E+002
  0.135473583692451E-002  0.279311153709211E+002  0.746050777973775E-001  0.944485482712803E-001 -0.693147180559945E+000 -0.173388587846080E+002
  0.135473583692451E-002  0.271081145112176E+002  0.492722437741921E-001  0.523032901610815E-001 -0.693147180559945E+000 -0.169273583547563E+002
  0.135473583692451E-002  0.249414799466149E+002  0.393999224874839E-001  0.115848433321029E+000 -0.693147180559945E+000 -0.158440410724549E+002
  0.135473583692451E-002  0.340620636185767E+002  0.337673931335807E-001  0.126478467602441E+000 -0.693147180559945E+000 -0.204043329084358E+002
  0.135473583692451E-002  0.249615102363288E+002  0.360683538594901E-001  0.843540716366204E-001 -0.693147180559945E+000 -0.158540562173119E+002
  0.135473583692451E-002  0.340543859706739E+002  0.239974456091958E-001  0.126336416779179E+000 -0.693147180559945E+000 -0.204004940844844E+002
  0.135473583692451E-002  0.340470309999660E+002  0.143350798453727E-001  0.713907538374877E-001 -0.693147180559945E+000 -0.203968165991305E+002
  0.135473583692451E-002  0.340444877433034E+002  0.101800394498387E+000  0.620303003707354E-001 -0.693147180559945E+000 -0.203955449707992E+002
  0.135473583692451E-002  0.293177045796081E+002 -0.313653377045953E-002  0.110936939793587E+000 -0.693147180559945E+000 -0.180321533889515E+002
  0.135473583692451E-002  0.340288589185419E+002  0.725611001675122E-001  0.552260986012568E-001 -0.693147180559945E+000 -0.203877305584184E+002
  0.135473583692451E-002  0.335870505804913E+002 -0.145881354993715E-004  0.114849156912917E+000 -0.693147180559945E+000 -0.201668263893932E+002
  0.135473583692451E-002  0.279619725641862E+002  0.749072852726302E-001  0.542613550989462E-001 -0.693147180559945E+000 -0.173542873812406E+002
  0.135473583692451E-002  0.279692782928468E+002  0.470882000971047E-001  0.875900729446648E-001 -0.693147180559945E+000 -0.173579402455709E+002
  0.135473583692451E-002  0.279717170024944E+002  0.622297791330260E-001  0.933181839136999E-001 -0.693147180559945E+000 -0.173591596003947E+002
  0.135473583692451E-002  0.339887865216935E+002  0.421478084116753E-001  0.334822577126521E-001 -0.693147180559945E+000 -0.203676943599943E+002
  0.135473583692451E-002  0.249762659928171E+002  0.506703843547469E-001  0.950133683164066E-001 -0.693147180559945E+000 -0.158614340955560E+002
  0.135473583692451E-002  0.279903882244743E+002  0.273025488390561E-001  0.774793859460153E-001 -0.693147180559945E+000 -0.173684952113846E+002
  0.135473583692451E-002  0.335873078670502E+002  0.557578104861869E-001  0.716781109197989E-001 -0.693147180559945E+000 -0.201669550326726E+002
  0.135473583692451E-002  0.249831613601197E+002  0.749554793834644E-001  0.759156884567709E-001 -0.693147180559945E+000 -0.158648817792074E+002
  0.135473583692451E-002  0.339582495149446E+002  0.526158403843731E-001  0.780407290668736E-001 -0.693147180559945E+000 -0.203524258566198E+002
  0.135473583692451E-002  0.339571241109751E+002  0.469842852683122E-001  0.750953921320823E-001 -0.693147180559945E+000 -0.203518631546350E+002
  0.135473583692451E-002  0.339399670256427E+002  0.981751189518838E-001  0.754256183393609E-001 -0.693147180559945E+000 -0.203432846119689E+002
  0.135473583692451E-002  0.279950979663438E+002  0.576126196246014E-001  0.110387525836937E+000 -0.693147180559945E+000 -0.173708500823194E+002
  0.135473583692451E-002  0.249912805285216E+002  0.508359121589044E-001  0.767947684556309E-001 -0.693147180559945E+000 -0.158689413634083E+002
  0.135473583692451E-002  0.250010364027343E+002  0.508997101145494E-001  0.949312549649349E-001 -0.693147180559945E+000 -0.158738193005146E+002
  0.135473583692451E-002  0.339143756562044E+002  0.332045696579788E-001  0.124401371270543E+000 -0.693147180559945E+000 -0.203304889272497E+002
  0.135473583692451E-002  0.250047359828922E+002  0.557731999543092E-001  0.103176223368758E+000 -0.693147180559945E+000 -0.158756690905936E+002
  0.135473583692451E-002  0.257133350117875E+002  0.252073075075274E-001  0.790389703770777E-001 -0.693147180559945E+000 -0.162299686050412E+002
  0.135473583692451E-002  0.280211047422835E+002  0.230834680856571E-001  0.108155297016822E+000 -0.693147180559945E+000 -0.173838534702893E+002
  0.135473583692451E-002  0.271013115170976E+002  0.671195032257139E-001  0.975338028059132E-001 -0.693147180559945E+000 -0.169239568576963E+002
  0.135473583692451E-002  0.250049762307453E+002  0.502583850993050E-001  0.951886258784981E-001 -0.693147180559945E+000 -0.158757892145201E+002
  0.135473583692451E-002  0.336669160434973E+002  0.991689964666091E-001  0.132430732016369E+000 -0.693147180559945E+000 -0.202067591208961E+002
  0.135473583692451E-002  0.336921301941617E+002  0.139672627679728E-001  0.143574335311965E+000 -0.693147180559945E+000 -0.202193661962283E+002
  0.135473583692451E-002  0.250143898800377E+002  0.515811627645435E-001  0.869438343150523E-001 -0.693147180559945E+000 -0.158804960391663E+002
  0.135473583692451E-002  0.317071537109990E+002  0.294948587074642E-001  0.118890078277136E+000 -0.693147180559945E+000 -0.192268779546470E+002
  0.135473583692451E-002  0.317018049530305E+002  0.284025393374343E-001  0.456801695496868E-001 -0.693147180559945E+000 -0.192242035756627E+002
  0.135473583692451E-002  0.293374220661531E+002  0.111861925690354E+000  0.925511222677311E-001 -0.693147180559945E+000 -0.180420121322240E+002
  0.135473583692451E-002  0.280267498039399E+002  0.648684578039309E-001  0.103878641742546E+000 -0.693147180559945E+000 -0.173866760011174E+002
  0.135473583692451E-002  0.280446878359634E+002  0.180488957306777E-001  0.107529276650196E+000 -0.693147180559945E+000 -0.173956450171292E+002
  0.135473583692451E-002  0.316072523299220E+002  0.354231691149267E-001  0.119455057809135E+000 -0.693147180559945E+000 -0.191769272641085E+002
  0.135473583692451E-002  0.315927024924585E+002  0.131618524275289E+000  0.871810527453295E-001 -0.693147180559945E+000 -0.191696523453767E+002
  0.135473583692451E-002  0.315909337099020E+002  0.384878106981228E-001  0.848776989037745E-001 -0.693147180559945E+000 -0.191687679540985E+002
  0.135473583692451E-002  0.280459250880130E+002  0.596491524965461E-001  0.755689262275182E-001 -0.693147180559945E+000 -0.173962636431540E+002
  0.135473583692451E-002  0.315788234052501E+002  0.124053659004785E+000  0.157585714552923E+000 -0.693147180559945E+000 -0.191627128017725E+002
  0.135473583692451E-002  0.250419202747189E+002  0.648336123221027E-001  0.103858229308253E+000 -0.693147180559945E+000 -0.158942612365069E+002
  0.135473583692451E-002  0.250581624321257E+002  0.442241274553510E-001  0.880280963848724E-001 -0.693147180559945E+000 -0.159023823152104E+002
  0.135473583692451E-002  0.280644637483785E+002  0.601467962614366E-001  0.759673482775691E-001 -0.693147180559945E+000 -0.174055329733367E+002
  0.135473583692451E-002  0.315662406528524E+002  0.710746670491824E-001  0.978002950617294E-001 -0.693147180559945E+000 -0.191564214255737E+002
  0.135473583692451E-002  0.280925104058728E+002  0.516282725687149E-001  0.109914831818888E+000 -0.693147180559945E+000 -0.174195563020839E+002
  0.135473583692451E-002  0.271012128517647E+002  0.602778897146157E-001  0.754627748102673E-001 -0.693147180559945E+000 -0.169239075250298E+002
  0.135473583692451E-002  0.281039852251891E+002  0.379770356276543E-001  0.142527730016981E+000 -0.693147180559945E+000 -0.174252937117420E+002
  0.135473583692451E-002  0.281188511101053E+002 -0.185063077357306E-002  0.129894588465069E+000 -0.693147180559945E+000 -0.174327266542002E+002
  0.135473583692451E-002  0.281195429448876E+002  0.852835900781239E-001  0.127139673281932E+000 -0.693147180559945E+000 -0.174330725715913E+002
  0.135473583692451E-002  0.250715442225160E+002  0.408542925140511E-001  0.911181576358385E-001 -0.693147180559945E+000 -0.159090732104055E+002
  0.135473583692451E-002  0.315052612782408E+002  0.329577511622692E-001  0.122971715048546E+000 -0.693147180559945E+000 -0.191259317382679E+002
  0.135473583692451E-002  0.250858301075341E+002  0.746106781866913E-001  0.944470869135409E-001 -0.693147180559945E+000 -0.159162161529146E+002
  0.135473583692451E-002  0.293536845462523E+002  0.420944379209369E-001  0.715588249110616E-001 -0.693147180559945E+000 -0.180501433722736E+002
  0.135473583692451E-002  0.314694349103194E+002  0.121994271131366E+000  0.103604037779163E+000 -0.693147180559945E+000 -0.191080185543072E+002
  0.135473583692451E-002  0.256932024682324E+002  0.748666552455322E-001  0.946111993438185E-001 -0.693147180559945E+000 -0.162199023332637E+002
  0.135473583692451E-002  0.281479794232818E+002  0.739644036803775E-001  0.866889734098403E-001 -0.693147180559945E+000 -0.174472908107884E+002
  0.135473583692451E-002  0.281551953369472E+002  0.741411266484795E-001  0.996749621218018E-001 -0.693147180559945E+000 -0.174508987676211E+002
  0.135473583692451E-002  0.314230133261435E+002  0.272471264571614E-001  0.125279980568968E+000 -0.693147180559945E+000 -0.190848077622192E+002
  0.135473583692451E-002  0.314147443728179E+002  0.599159394429738E-002  0.593914878690748E-001 -0.693147180559945E+000 -0.190806732855564E+002
  0.135473583692451E-002  0.268201499008549E+002  0.410428137979282E-001  0.950919370665842E-001 -0.693147180559945E+000 -0.167833760495749E+002
  0.135473583692451E-002  0.281698200234910E+002  0.263620408579888E-001  0.113848411439894E+000 -0.693147180559945E+000 -0.174582111108930E+002
  0.135473583692451E-002  0.313783131967370E+002 -0.362105331662463E-001  0.131207118605550E+000 -0.693147180559945E+000 -0.190624576975160E+002
  0.135473583692451E-002  0.293631727430191E+002  0.687286921703327E-001  0.137140783391651E+000 -0.693147180559945E+000 -0.180548874706570E+002
  0.135473583692451E-002  0.250998333370497E+002  0.503458562410870E-001  0.875641766241941E-001 -0.693147180559945E+000 -0.159232177676723E+002
  0.135473583692451E-002  0.313548136475859E+002  0.107795813661625E+000  0.870527416776998E-001 -0.693147180559945E+000 -0.190507079229404E+002
  0.135473583692451E-002  0.313537554871577E+002  0.759588791989598E-001  0.611686910476644E-001 -0.693147180559945E+000 -0.190501788427264E+002
  0.135473583692451E-002  0.251008667412588E+002  0.380861476778365E-001  0.863645228479132E-001 -0.693147180559945E+000 -0.159237344697769E+002
  0.135473583692451E-002  0.251047325714134E+002  0.521080552294402E-001  0.613287186438992E-001 -0.693147180559945E+000 -0.159256673848542E+002
  0.135473583692451E-002  0.293750212089579E+002  0.490844863801589E-001  0.114670693089873E+000 -0.693147180559945E+000 -0.180608117036265E+002
  0.135473583692451E-002  0.312745501155367E+002  0.788749426173312E-001  0.937904349836638E-001 -0.693147180559945E+000 -0.190105761569159E+002
  0.135473583692451E-002  0.312727605806626E+002  0.431303599112796E-001  0.904413302850936E-001 -0.693147180559945E+000 -0.190096813894788E+002
  0.135473583692451E-002  0.268237166051635E+002  0.607070634487117E-001  0.808077411548557E-001 -0.693147180559945E+000 -0.167851594017292E+002
  0.135473583692451E-002  0.312595479290627E+002  0.897360172060526E-001  0.635569220829398E-001 -0.693147180559945E+000 -0.190030750636788E+002
  0.135473583692451E-002  0.270974820717053E+002  0.464053308511814E-001  0.751398069393148E-001 -0.693147180559945E+000 -0.169220421350001E+002
  0.135473583692451E-002  0.312552208734445E+002  0.277910601571563E-003  0.114152968061008E+000 -0.693147180559945E+000 -0.190009115358697E+002
  0.135473583692451E-002  0.293811760193040E+002  0.300337410876421E-001  0.119470267421364E+000 -0.693147180559945E+000 -0.180638891087995E+002
  0.135473583692451E-002  0.293813388772525E+002  0.531747933691187E-001  0.111038879615163E+000 -0.693147180559945E+000 -0.180639705377737E+002
  0.135473583692451E-002  0.251063321389409E+002  0.886112888352852E-001  0.113470166489981E+000 -0.693147180559945E+000 -0.159264671686179E+002
  0.135473583692451E-002  0.312373965430756E+002  0.907039089859243E-001  0.116991221947042E+000 -0.693147180559945E+000 -0.189919993706853E+002
  0.135473583692451E-002  0.293944879374092E+002  0.840744138117506E-001  0.585323072633749E-001 -0.693147180559945E+000 -0.180705450678521E+002
  0.135473583692451E-002  0.256861582987320E+002  0.403547183736166E-001  0.956123086487878E-001 -0.693147180559945E+000 -0.162163802485135E+002
  0.135473583692451E-002  0.282284263794933E+002  0.379230915142044E-001  0.859526865499965E-001 -0.693147180559945E+000 -0.174875142888941E+002
  0.135473583692451E-002  0.312074151868978E+002  0.752392774395045E-001  0.557657160204115E-001 -0.693147180559945E+000 -0.189770086925964E+002
  0.135473583692451E-002  0.311928053076662E+002  0.650477362224877E-001  0.123321730801341E+000 -0.693147180559945E+000 -0.189697037529806E+002
  0.135473583692451E-002  0.311907745468269E+002  0.191741284520359E-001  0.108739794950309E+000 -0.693147180559945E+000 -0.189686883725609E+002
  0.135473583692451E-002  0.311812435283374E+002  0.423679994045423E-001  0.478782557895751E-001 -0.693147180559945E+000 -0.189639228633162E+002
  0.135473583692451E-002  0.251086921492595E+002  0.518453501793688E-001  0.916462960390103E-001 -0.693147180559945E+000 -0.159276471737772E+002
  0.135473583692451E-002  0.282289361099519E+002  0.752826145216159E-001  0.944848486434621E-001 -0.693147180559945E+000 -0.174877691541234E+002
  0.135473583692451E-002  0.282308457889137E+002  0.532455772600500E-001  0.911697658421076E-001 -0.693147180559945E+000 -0.174887239936043E+002
  0.135473583692451E-002  0.256831446533657E+002  0.532955336259433E-001  0.911786960396493E-001 -0.693147180559945E+000 -0.162148734258303E+002
  0.135473583692451E-002  0.282465828458788E+002  0.796553085701284E-001  0.832322468745884E-001 -0.693147180559945E+000 -0.174965925220869E+002
  0.135473583692451E-002  0.251234852114877E+002  0.490716507534157E-001  0.871270799105010E-001 -0.693147180559945E+000 -0.159350437048914E+002
  0.135473583692451E-002  0.311278512335298E+002  0.986254975870495E-001  0.132433329461860E+000 -0.693147180559945E+000 -0.189372267159124E+002
  0.135473583692451E-002  0.282684254598020E+002  0.752825993781312E-001  0.944846432030179E-001 -0.693147180559945E+000 -0.175075138290485E+002
  0.135473583692451E-002  0.311016042324598E+002  0.272474534610601E-001  0.125280500400837E+000 -0.693147180559945E+000 -0.189241032153774E+002
  0.135473583692451E-002  0.270384703745893E+002  0.519337062791250E-001  0.908083411866821E-001 -0.693147180559945E+000 -0.168925362864421E+002
  0.135473583692451E-002  0.310728973993646E+002  0.172588912984724E-001  0.829008158457827E-001 -0.693147180559945E+000 -0.189097497988298E+002
  0.135473583692451E-002  0.251300399250068E+002  0.710613014982229E-001  0.963642906103384E-001 -0.693147180559945E+000 -0.159383210616509E+002
  0.135473583692451E-002  0.251351723560094E+002  0.697002636732358E-001  0.712564013303650E-001 -0.693147180559945E+000 -0.159408872771522E+002
  0.135473583692451E-002  0.270305528862401E+002  0.465829562143325E-001  0.935309551623691E-001 -0.693147180559945E+000 -0.168885775422675E+002
  0.135473583692451E-002  0.256714853367533E+002  0.616465882681634E-001  0.976669063147205E-001 -0.693147180559945E+000 -0.162090437675241E+002
  0.135473583692451E-002  0.309862464999044E+002  0.938186585055021E-001  0.992378063762290E-001 -0.693147180559945E+000 -0.188664243490997E+002
  0.135473583692451E-002  0.251401107801936E+002  0.398944061572448E-001  0.952217063730532E-001 -0.693147180559945E+000 -0.159433564892443E+002
  0.135473583692451E-002  0.251438009558691E+002  0.605009488217039E-001  0.800840146048748E-001 -0.693147180559945E+000 -0.159452015770820E+002
  0.135473583692451E-002  0.294343058684759E+002  0.722820316904398E-001  0.585565963069741E-001 -0.693147180559945E+000 -0.180904540333854E+002
  0.135473583692451E-002  0.309419827569235E+002  0.387866004121160E-001  0.852047440854025E-001 -0.693147180559945E+000 -0.188442924776093E+002
  0.135473583692451E-002  0.282862665566157E+002  0.648336093329134E-001  0.103858235814175E+000 -0.693147180559945E+000 -0.175164343774553E+002
  0.135473583692451E-002  0.251467278617445E+002  0.609616139467088E-001  0.748519798986128E-001 -0.693147180559945E+000 -0.159466650300197E+002
  0.135473583692451E-002  0.270200459434895E+002  0.759754508463133E-001  0.979223351710980E-001 -0.693147180559945E+000 -0.168833240708922E+002
  0.135473583692451E-002  0.268522303846883E+002  0.507169983161158E-001  0.949221220042328E-001 -0.693147180559945E+000 -0.167994162914916E+002
  0.135473583692451E-002  0.283052156351358E+002  0.523365678628216E-001  0.899937353366227E-001 -0.693147180559945E+000 -0.175259089167154E+002
  0.135473583692451E-002  0.251554534642029E+002  0.519127405643802E-001  0.141284602475110E+000 -0.693147180559945E+000 -0.159510278312490E+002
  0.135473583692451E-002  0.308701419298500E+002  0.524192564415971E-001  0.785950021019713E-001 -0.693147180559945E+000 -0.188083720640725E+002
  0.135473583692451E-002  0.283075064492931E+002  0.562363272063555E-001  0.721700723145271E-001 -0.693147180559945E+000 -0.175270543237940E+002
  0.135473583692451E-002  0.283081975365041E+002  0.108251204017145E+000  0.764848782331045E-001 -0.693147180559945E+000 -0.175273998673995E+002
  0.135473583692451E-002  0.294351053301146E+002  0.480164195047794E-002  0.109456807822280E+000 -0.693147180559945E+000 -0.180908537642048E+002
  0.135473583692451E-002  0.308234143175688E+002  0.482837201578776E-001  0.692438841791109E-001 -0.693147180559945E+000 -0.187850082579319E+002
  0.135473583692451E-002  0.308232819835136E+002  0.661515084106739E-001  0.163051436812324E+000 -0.693147180559945E+000 -0.187849420909043E+002
  0.135473583692451E-002  0.251657743430886E+002  0.403285188747422E-001  0.949000834065293E-001 -0.693147180559945E+000 -0.159561882706918E+002
  0.135473583692451E-002  0.256534465628951E+002  0.420956138913129E-001  0.772107019940697E-001 -0.693147180559945E+000 -0.162000243805951E+002
  0.135473583692451E-002  0.251689639009165E+002  0.465486676202209E-001  0.935324173589892E-001 -0.693147180559945E+000 -0.159577830496057E+002
  0.135473583692451E-002  0.307750991339575E+002  0.440647663975537E-001  0.920641098472160E-001 -0.693147180559945E+000 -0.187608506661262E+002
  0.135473583692451E-002  0.283194569999612E+002  0.576126170920834E-001  0.110387525978557E+000 -0.693147180559945E+000 -0.175330295991281E+002
  0.135473583692451E-002  0.251813829597090E+002  0.604416674431634E-001  0.801557900932602E-001 -0.693147180559945E+000 -0.159639925790020E+002
  0.135473583692451E-002  0.283561246323591E+002  0.852878526880099E-001  0.127173239750873E+000 -0.693147180559945E+000 -0.175513634153270E+002
  0.135473583692451E-002  0.283591189736906E+002  0.602924874275439E-001  0.816361823618422E-001 -0.693147180559945E+000 -0.175528605859928E+002
  0.135473583692451E-002  0.307375621428230E+002  0.624526140431956E-001  0.967606127792070E-001 -0.693147180559945E+000 -0.187420821705590E+002
  0.135473583692451E-002  0.307247678315771E+002  0.225812840843949E-001  0.943315591892681E-001 -0.693147180559945E+000 -0.187356850149361E+002
  0.135473583692451E-002  0.283596595305913E+002  0.453266789744735E-001  0.924152407949726E-001 -0.693147180559945E+000 -0.175531308644431E+002
  0.135473583692451E-002  0.307201770330780E+002  0.873871893837364E-002  0.794512803197287E-001 -0.693147180559945E+000 -0.187333896156865E+002
  0.135473583692451E-002  0.252209268953869E+002  0.749554793834644E-001  0.759156884567709E-001 -0.693147180559945E+000 -0.159837645468409E+002
  0.135473583692451E-002  0.283642917004316E+002  0.651411049158057E-001  0.123460291566112E+000 -0.693147180559945E+000 -0.175554469493633E+002
  0.135473583692451E-002  0.306461102233700E+002  0.921181427098205E-001  0.672704062595997E-001 -0.693147180559945E+000 -0.186963562108325E+002
  0.135473583692451E-002  0.283950506302965E+002  0.957128076138600E-001  0.707541684573152E-001 -0.693147180559945E+000 -0.175708264142958E+002
  0.135473583692451E-002  0.306393582003751E+002  0.711578225608207E-001  0.871549546503226E-001 -0.693147180559945E+000 -0.186929801993350E+002
  0.135473583692451E-002  0.284065397750649E+002  0.441704753096903E-001  0.111816697847850E+000 -0.693147180559945E+000 -0.175765709866799E+002
  0.135473583692451E-002  0.306137496596851E+002  0.117599003485602E-002  0.135161891376192E+000 -0.693147180559945E+000 -0.186801759289901E+002
  0.135473583692451E-002  0.305892695819714E+002  0.650477485700207E-001  0.123321738895617E+000 -0.693147180559945E+000 -0.186679358901332E+002
  0.135473583692451E-002  0.305814656372610E+002  0.870402575243154E-001  0.887124738342571E-001 -0.693147180559945E+000 -0.186640339177780E+002
  0.135473583692451E-002  0.284248824851760E+002  0.123790728739497E-001  0.810891624383834E-001 -0.693147180559945E+000 -0.175857423417355E+002
  0.135473583692451E-002  0.270155267500842E+002  0.276813855460081E-001  0.116187912855312E+000 -0.693147180559945E+000 -0.168810644741896E+002
  0.135473583692451E-002  0.252236948908588E+002  0.765665302993908E-001  0.510863342649869E-001 -0.693147180559945E+000 -0.159851485445769E+002
  0.135473583692451E-002  0.305501267780555E+002  0.943984333160031E-001  0.546177278020820E-001 -0.693147180559945E+000 -0.186483644881752E+002
  0.135473583692451E-002  0.252324535187991E+002  0.609616139432592E-001  0.748519798945078E-001 -0.693147180559945E+000 -0.159895278585470E+002
  0.135473583692451E-002  0.294727582757047E+002  0.636374990475308E-001  0.950024403507000E-001 -0.693147180559945E+000 -0.181096802369998E+002
  0.135473583692451E-002  0.284554571327206E+002  0.701164322290591E-001  0.862338556460706E-001 -0.693147180559945E+000 -0.176010296655078E+002
  0.135473583692451E-002  0.305275814220663E+002  0.599366699561568E-001  0.806500051727276E-001 -0.693147180559945E+000 -0.186370918101806E+002
  0.135473583692451E-002  0.285033794090054E+002  0.252073507119768E-001  0.790390161596348E-001 -0.693147180559945E+000 -0.176249908036502E+002
  0.135473583692451E-002  0.305095360498755E+002  0.130878336661592E+000  0.872037964893208E-001 -0.693147180559945E+000 -0.186280691240852E+002
  0.135473583692451E-002  0.304953213748019E+002  0.237074435852813E-001  0.117415326678537E+000 -0.693147180559945E+000 -0.186209617865484E+002
  0.135473583692451E-002  0.256404579716582E+002  0.442445796227917E-001  0.880495870631006E-001 -0.693147180559945E+000 -0.161935300849766E+002
  0.135473583692451E-002  0.252345258703752E+002  0.454976949446713E-001  0.112980829697122E+000 -0.693147180559945E+000 -0.159905640343351E+002
  0.135473583692451E-002  0.268739070475696E+002  0.123543900415741E-001  0.924039445658908E-001 -0.693147180559945E+000 -0.168102546229323E+002
  0.135473583692451E-002  0.268771758127794E+002  0.354253775355484E-001  0.119422063518567E+000 -0.693147180559945E+000 -0.168118890055372E+002
  0.135473583692451E-002  0.304336582864939E+002  0.624418187759475E-001  0.967676918975476E-001 -0.693147180559945E+000 -0.185901302423944E+002
  0.135473583692451E-002  0.269960338375679E+002  0.993060848424856E-001  0.876756805830233E-001 -0.693147180559945E+000 -0.168713180179314E+002
  0.135473583692451E-002  0.285355310456693E+002  0.370802748260157E-001  0.998032087427828E-001 -0.693147180559945E+000 -0.176410666219821E+002
  0.135473583692451E-002  0.256260098831515E+002  0.128583583758062E-001  0.817730043759696E-001 -0.693147180559945E+000 -0.161863060407233E+002
  0.135473583692451E-002  0.256250295784538E+002  0.502583850845955E-001  0.951886258517344E-001 -0.693147180559945E+000 -0.161858158883744E+002
  0.135473583692451E-002  0.256224314113674E+002  0.615397386365164E-001  0.117315208400292E+000 -0.693147180559945E+000 -0.161845168048312E+002
  0.135473583692451E-002  0.285529916923941E+002  0.354198488865236E-001  0.119457023734061E+000 -0.693147180559945E+000 -0.176497969453445E+002
  0.135473583692451E-002  0.285561606051407E+002 -0.652418109507202E-002  0.888824473143861E-001 -0.693147180559945E+000 -0.176513814017178E+002
  0.135473583692451E-002  0.252435034884623E+002  0.397671754867368E-001  0.115243403980402E+000 -0.693147180559945E+000 -0.159950528433786E+002
  0.135473583692451E-002  0.252583242343825E+002  0.760764749058784E-001  0.926252654186929E-001 -0.693147180559945E+000 -0.160024632163387E+002
  0.135473583692451E-002  0.285764129603204E+002  0.969034193017977E-001  0.120504828133757E+000 -0.693147180559945E+000 -0.176615075793077E+002
  0.135473583692451E-002  0.256054668258933E+002  0.300523211216333E-001  0.957493970441704E-001 -0.693147180559945E+000 -0.161760345120941E+002
  0.135473583692451E-002  0.303534866784140E+002  0.658292062495047E-001  0.178757030143179E+000 -0.693147180559945E+000 -0.185500444383545E+002
  0.135473583692451E-002  0.303467020661297E+002  0.699850680633813E-001  0.956566532679145E-001 -0.693147180559945E+000 -0.185466521322123E+002
  0.135473583692451E-002  0.255778685818239E+002  0.772161497507224E-001  0.982808835125338E-001 -0.693147180559945E+000 -0.161622353900595E+002
  0.135473583692451E-002  0.303441570610226E+002  0.943984333279968E-001  0.546177278027374E-001 -0.693147180559945E+000 -0.185453796296588E+002
  0.135473583692451E-002  0.285851885389755E+002  0.645295534417585E-001  0.105333957305753E+000 -0.693147180559945E+000 -0.176658953686352E+002
  0.135473583692451E-002  0.303375289611211E+002  0.111679430387583E-001  0.534182342272656E-001 -0.693147180559945E+000 -0.185420655797080E+002
  0.135473583692451E-002  0.303321787952082E+002  0.681020663937844E-001  0.531287408244821E-001 -0.693147180559945E+000 -0.185393904967516E+002
  0.135473583692451E-002  0.285894352502745E+002  0.503025652780049E-001  0.952576251562800E-001 -0.693147180559945E+000 -0.176680187242847E+002
  0.135473583692451E-002  0.285985088620315E+002  0.109805482140505E+000  0.928567143448374E-001 -0.693147180559945E+000 -0.176725555301632E+002
  0.135473583692451E-002  0.295305928386377E+002  0.596691775577589E-001  0.186287455250324E+000 -0.693147180559945E+000 -0.181385975184663E+002
  0.135473583692451E-002  0.286186513543210E+002  0.678877515653782E-001  0.877955911161207E-001 -0.693147180559945E+000 -0.176826267763080E+002
  0.135473583692451E-002  0.269135701922034E+002  0.565133790539643E-001  0.710306786069208E-001 -0.693147180559945E+000 -0.168300861952492E+002
  0.135473583692451E-002  0.269177602052367E+002  0.404635839546426E-001  0.954849729122541E-001 -0.693147180559945E+000 -0.168321812017659E+002
  0.135473583692451E-002  0.295310375734489E+002  0.508359121643889E-001  0.767947684797194E-001 -0.693147180559945E+000 -0.181388198858719E+002
  0.135473583692451E-002  0.252598549311622E+002  0.516380604179170E-001  0.115177144529722E+000 -0.693147180559945E+000 -0.160032285647286E+002
  0.135473583692451E-002  0.302691795313361E+002 -0.115182992211054E-001  0.966812568191770E-001 -0.693147180559945E+000 -0.185078908648155E+002
  0.135473583692451E-002  0.252866602729261E+002  0.462652243679240E-001  0.875389680617727E-001 -0.693147180559945E+000 -0.160166312356106E+002
  0.135473583692451E-002  0.302511981334608E+002  0.716511671224744E-001  0.959315042702732E-001 -0.693147180559945E+000 -0.184989001658779E+002
  0.135473583692451E-002  0.252937965530724E+002  0.535220055648944E-001  0.762084167010070E-001 -0.693147180559945E+000 -0.160201993756837E+002
  0.135473583692451E-002  0.302458159252398E+002  0.705126463586152E-001  0.107922562460988E+000 -0.693147180559945E+000 -0.184962090617674E+002
  0.135473583692451E-002  0.302455846872202E+002  0.746017316142251E-001  0.929179795861261E-001 -0.693147180559945E+000 -0.184960934427576E+002
  0.135473583692451E-002  0.302201732452027E+002  0.749652615987473E-001  0.997621505210002E-001 -0.693147180559945E+000 -0.184833877217489E+002
  0.135473583692451E-002  0.302134013412535E+002  0.387861472760989E-001  0.719836354535059E-001 -0.693147180559945E+000 -0.184800017697742E+002
  0.135473583692451E-002  0.286192828519135E+002  0.394842634757162E-001  0.885171439296430E-001 -0.693147180559945E+000 -0.176829425251043E+002
  0.135473583692451E-002  0.302032950732247E+002  0.333090031481464E-001  0.652464896242122E-001 -0.693147180559945E+000 -0.184749486357598E+002
  0.135473583692451E-002  0.301958278402358E+002  0.604091417049166E-001  0.800827073956210E-001 -0.693147180559945E+000 -0.184712150192654E+002
  0.135473583692451E-002  0.253092974133793E+002  0.420955282011306E-001  0.772108602233233E-001 -0.693147180559945E+000 -0.160279498058371E+002
  0.135473583692451E-002  0.269244704433778E+002  0.519298126528795E-001  0.908082861089481E-001 -0.693147180559945E+000 -0.168355363208364E+002
  0.135473583692451E-002  0.253170894580489E+002  0.759590461369144E-001  0.611516637631855E-001 -0.693147180559945E+000 -0.160318458281720E+002
  0.135473583692451E-002  0.253232871907301E+002  0.639668503157271E-001  0.730575158334752E-001 -0.693147180559945E+000 -0.160349446945125E+002
  0.135473583692451E-002  0.255623273466767E+002  0.661472985196139E-001  0.163049408021873E+000 -0.693147180559945E+000 -0.161544647724858E+002
  0.135473583692451E-002  0.301351064032179E+002  0.757877720684248E-001  0.851456929817339E-001 -0.693147180559945E+000 -0.184408543007565E+002
  0.135473583692451E-002  0.301340083618787E+002  0.636728668914008E-001  0.732212817448519E-001 -0.693147180559945E+000 -0.184403052800869E+002
  0.135473583692451E-002  0.295485901527635E+002  0.101808914706842E+000  0.967475192816026E-001 -0.693147180559945E+000 -0.181475961755292E+002
  0.135473583692451E-002  0.295732513052213E+002  0.933362482287667E-001  0.981872279699582E-001 -0.693147180559945E+000 -0.181599267517582E+002
  0.135473583692451E-002  0.253373555279007E+002  0.648424336478890E-001  0.103856552719853E+000 -0.693147180559945E+000 -0.160419788630978E+002
  0.135473583692451E-002  0.301184786820717E+002  0.604094773895310E-001  0.800829629479244E-001 -0.693147180559945E+000 -0.184325404401833E+002
  0.135473583692451E-002  0.253467323177723E+002  0.555997432323148E-001  0.103688717663240E+000 -0.693147180559945E+000 -0.160466672580336E+002
  0.135473583692451E-002  0.301012692393568E+002 -0.115357833621288E-001  0.966863702034542E-001 -0.693147180559945E+000 -0.184239357188259E+002
  0.135473583692451E-002  0.269346709474927E+002  0.635786517324815E-001  0.128905900300657E+000 -0.693147180559945E+000 -0.168406365728938E+002
  0.135473583692451E-002  0.295879130400481E+002  0.349452912371984E-003  0.113539543216899E+000 -0.693147180559945E+000 -0.181672576191716E+002
  0.135473583692451E-002  0.286229451710121E+002  0.602698537424082E-001  0.754577654389344E-001 -0.693147180559945E+000 -0.176847736846535E+002
  0.135473583692451E-002  0.286402410362160E+002  0.272957671324099E-001  0.125419612631184E+000 -0.693147180559945E+000 -0.176934216172555E+002
  0.135473583692451E-002  0.300754882295245E+002  0.159153042952476E-001  0.820536078829903E-001 -0.693147180559945E+000 -0.184110452139098E+002
  0.135473583692451E-002  0.255520770930529E+002  0.780243278688606E-001  0.818681471162856E-001 -0.693147180559945E+000 -0.161493396456739E+002
  0.135473583692451E-002  0.286700738382707E+002  0.537511261445083E-001  0.761693862284237E-001 -0.693147180559945E+000 -0.177083380182828E+002
  0.135473583692451E-002  0.253824431358108E+002  0.350806563699120E-001  0.112353788897373E+000 -0.693147180559945E+000 -0.160645226670529E+002
  0.135473583692451E-002  0.286743179502217E+002  0.602760392398132E-001  0.754673865216222E-001 -0.693147180559945E+000 -0.177104600742584E+002
  0.135473583692451E-002  0.269890372821235E+002  0.505953280252662E-001  0.862227734001814E-001 -0.693147180559945E+000 -0.168678197402092E+002
  0.135473583692451E-002  0.300209108845062E+002  0.578745100165019E-001  0.844010683941332E-001 -0.693147180559945E+000 -0.183837565414006E+002
  0.135473583692451E-002  0.255480499681104E+002  0.101298270429993E+000  0.788646225988694E-001 -0.693147180559945E+000 -0.161473260832027E+002
  0.135473583692451E-002  0.300127838386383E+002  0.420955323537509E-001  0.772108605974825E-001 -0.693147180559945E+000 -0.183796930184667E+002
  0.135473583692451E-002  0.300075176066924E+002  0.258693026958741E-001  0.981146901426990E-001 -0.693147180559945E+000 -0.183770599024937E+002
  0.135473583692451E-002  0.299673064149805E+002  0.696086232453685E-001  0.951369600251767E-001 -0.693147180559945E+000 -0.183569543066377E+002
  0.135473583692451E-002  0.287075953483993E+002  0.239983465615217E-001  0.126336420740275E+000 -0.693147180559945E+000 -0.177270987733471E+002
  0.135473583692451E-002  0.287140433089641E+002  0.644862847567631E-001  0.516330139202443E-001 -0.693147180559945E+000 -0.177303227536295E+002
  0.135473583692451E-002  0.299156655532450E+002  0.436190049848948E-001  0.842305546426895E-001 -0.693147180559945E+000 -0.183311338757700E+002
  0.135473583692451E-002  0.255461366465587E+002  0.644928393282145E-001  0.703565234144086E-001 -0.693147180559945E+000 -0.161463694224268E+002
  0.135473583692451E-002  0.299046645861224E+002  0.459312754670431E-001  0.162969442061130E+000 -0.693147180559945E+000 -0.183256333922087E+002
  0.135473583692451E-002  0.253978953278972E+002  0.483327030210203E-001  0.914220758387252E-001 -0.693147180559945E+000 -0.160722487630961E+002
  0.135473583692451E-002  0.254024867963453E+002  0.326280361431890E-001  0.651872503806617E-001 -0.693147180559945E+000 -0.160745444973201E+002
  0.135473583692451E-002  0.255429122081151E+002  0.894795659264542E-001  0.112331779287932E+000 -0.693147180559945E+000 -0.161447572032050E+002
  0.135473583692451E-002  0.254198263283499E+002  0.350806697658526E-001  0.112353766244601E+000 -0.693147180559945E+000 -0.160832142633224E+002
  0.135473583692451E-002  0.298857232856222E+002  0.359059496639231E-001  0.119558038139716E+000 -0.693147180559945E+000 -0.183161627419586E+002
  0.135473583692451E-002  0.255398091758221E+002  0.622297805829179E-001  0.933181822362465E-001 -0.693147180559945E+000 -0.161432056870585E+002
  0.135473583692451E-002  0.287469138552144E+002  0.647565501019012E-001  0.952900166167976E-001 -0.693147180559945E+000 -0.177467580267547E+002
  0.135473583692451E-002  0.298641592574852E+002  0.288267205480803E-001  0.100960739663112E+000 -0.693147180559945E+000 -0.183053807278901E+002
  0.135473583692451E-002  0.287653643955154E+002  0.740541938390031E-001  0.866395475745281E-001 -0.693147180559945E+000 -0.177559832969052E+002
  0.135473583692451E-002  0.298548316619320E+002  0.417419422694998E-001  0.616613388479603E-001 -0.693147180559945E+000 -0.183007169301135E+002
  0.135473583692451E-002  0.287670342422385E+002  0.851917055690607E-001  0.671741686927538E-001 -0.693147180559945E+000 -0.177568182202667E+002
  0.135473583692451E-002  0.254653304229734E+002  0.777731275763140E-001  0.996517078587281E-001 -0.693147180559945E+000 -0.161059663106342E+002
  0.135473583692451E-002  0.254624124752038E+002  0.772161496564563E-001  0.982808834915499E-001 -0.693147180559945E+000 -0.161045073367494E+002
  0.135473583692451E-002  0.296647079585375E+002  0.531674021107782E-001  0.111036007420513E+000 -0.693147180559945E+000 -0.182056550784163E+002
  0.135473583692451E-002  0.298139504493365E+002  0.294969923901021E-001  0.118896270963636E+000 -0.693147180559945E+000 -0.182802763238158E+002
  0.135473583692451E-002  0.297953262704450E+002  0.684112170541258E-001  0.947266615517988E-001 -0.693147180559945E+000 -0.182709642343700E+002
  0.135473583692451E-002  0.254413387048548E+002  0.509788918210354E-001  0.911331582739646E-001 -0.693147180559945E+000 -0.160939704515749E+002
  0.135473583692451E-002  0.254620845517301E+002  0.605018370228985E-001  0.800696437032117E-001 -0.693147180559945E+000 -0.161043433750126E+002
  0.135473583692451E-002  0.297807366099951E+002  0.410270936695463E-001  0.114654149882361E+000 -0.693147180559945E+000 -0.182636694041450E+002
  0.135473583692451E-002  0.287825476500612E+002  0.301703234932282E-001  0.100955698403849E+000 -0.693147180559945E+000 -0.177645749241781E+002
  0.135473583692451E-002  0.254511747364772E+002  0.768006072804792E-001  0.104738706747526E+000 -0.693147180559945E+000 -0.160988884673861E+002
  0.135473583692451E-002  0.254466587509032E+002  0.491129753517665E-001  0.990586043066160E-001 -0.693147180559945E+000 -0.160966304745991E+002
  0.135473583692451E-002  0.254490920502568E+002  0.760770954556076E-001  0.926244981157867E-001 -0.693147180559945E+000 -0.160978471242759E+002
  0.135473583692451E-002  0.297378923829574E+002  0.301118758872900E-001  0.119602974638942E+000 -0.693147180559945E+000 -0.182422472906262E+002
  0.135473583692451E-002  0.238026518276557E+002  0.541084484744445E-001  0.126941997718043E+000 -0.693147180559945E+000 -0.119013259138279E+002
