  0.123164332313307E-001  0.238686041920068E+002  0.538630290701394E-001  0.898158755382157E-001 -0.693147180559945E+000 -0.143475692847045E+002
  0.123164332313307E-001  0.240434729808227E+002  0.648353634026630E-001  0.103857834564956E+000 -0.693147180559945E+000 -0.144350036791124E+002
  0.123164332313307E-001  0.242147801667897E+002  0.504008840492138E-001  0.864501709757358E-001 -0.693147180559945E+000 -0.145206572720960E+002
  0.123164332313307E-001  0.246660857446010E+002  0.705111108074366E-001  0.107915457948143E+000 -0.693147180559945E+000 -0.147463100610016E+002
  0.123164332313307E-001  0.250928617333808E+002  0.705110909551128E-001  0.107915949105876E+000 -0.693147180559945E+000 -0.149596980553915E+002
  0.123164332313307E-001  0.254836727420041E+002  0.538630314145203E-001  0.898159374186605E-001 -0.693147180559945E+000 -0.151551035597031E+002
  0.123164332313307E-001  0.257548274097479E+002  0.784527977798724E-001  0.103853661771160E+000 -0.693147180559945E+000 -0.152906808935750E+002
  0.123164332313307E-001  0.259434367105736E+002  0.772162240902350E-001  0.982816464630454E-001 -0.693147180559945E+000 -0.153849855439879E+002
  0.123164332313307E-001  0.271433099026653E+002  0.695301935167953E-001  0.751833089943290E-001 -0.693147180559945E+000 -0.161379188687650E+002
  0.123164332313307E-001  0.274669335115570E+002  0.770873535620462E-001  0.859569237584676E-001 -0.693147180559945E+000 -0.162997306732109E+002
  0.123164332313307E-001  0.266188103463224E+002  0.557731999543092E-001  0.103176223368758E+000 -0.693147180559945E+000 -0.158756690905936E+002
  0.123164332313307E-001  0.275134421668269E+002  0.425180695849106E-001  0.141919794542006E+000 -0.693147180559945E+000 -0.163229850008458E+002
  0.123164332313307E-001  0.275848293540328E+002  0.373208061735273E-001  0.118906916521224E+000 -0.693147180559945E+000 -0.163586785944488E+002
  0.123164332313307E-001  0.333805279043353E+002  0.854197238622305E-001  0.103763604149931E+000 -0.693147180559945E+000 -0.192565278696000E+002
  0.123164332313307E-001  0.277510786802169E+002  0.462652243679149E-001  0.875389680618068E-001 -0.693147180559945E+000 -0.164418032575409E+002
  0.123164332313307E-001  0.288789879330940E+002  0.705126282715089E-001  0.107922421055398E+000 -0.693147180559945E+000 -0.170057578839794E+002
  0.123164332313307E-001  0.293216025966688E+002  0.716193136399645E-001  0.972598586244961E-001 -0.693147180559945E+000 -0.172270652157668E+002
  0.123164332313307E-001  0.287354236438111E+002  0.748815342706921E-001  0.762115397759712E-001 -0.693147180559945E+000 -0.169339757393379E+002
  0.123164332313307E-001  0.264468862285195E+002  0.740483554895255E-001  0.110328452800804E+000 -0.693147180559945E+000 -0.157897070316922E+002
  0.123164332313307E-001  0.295857913659246E+002  0.622297791330260E-001  0.933181839136999E-001 -0.693147180559945E+000 -0.173591596003947E+002
  0.123164332313307E-001  0.303833218676543E+002  0.603679164012565E-001  0.801506263394196E-001 -0.693147180559945E+000 -0.177579248512595E+002
  0.123164332313307E-001  0.318596590506504E+002  0.746017316142251E-001  0.929179795861261E-001 -0.693147180559945E+000 -0.184960934427576E+002
  0.123164332313307E-001  0.319803005250079E+002  0.187924376375470E-001  0.839483065611986E-001 -0.693147180559945E+000 -0.185564141799364E+002
  0.123164332313307E-001  0.321658857164130E+002  0.400024824945016E-001  0.774618718325686E-001 -0.693147180559945E+000 -0.186492067756389E+002
  0.123164332313307E-001  0.326168852339718E+002  0.182978453645963E-001  0.110105597968668E+000 -0.693147180559945E+000 -0.188747065344183E+002
  0.123164332313307E-001  0.261491454636535E+002  0.910219166988355E-001  0.117136780745752E+000 -0.693147180559945E+000 -0.156408366492592E+002
  0.123164332313307E-001  0.309599485198195E+002  0.788197488195810E-001  0.630784837939156E-001 -0.693147180559945E+000 -0.180462381773422E+002
  0.123164332313307E-001  0.356429332819720E+002  0.725611001675122E-001  0.552260986012568E-001 -0.693147180559945E+000 -0.203877305584184E+002
  0.123164332313307E-001  0.356611053633962E+002  0.143350798453727E-001  0.713907538374877E-001 -0.693147180559945E+000 -0.203968165991305E+002
  0.123164332313307E-001  0.260693847549165E+002  0.697002687444599E-001  0.712564500187345E-001 -0.693147180559945E+000 -0.156009562948906E+002
  0.123164332313307E-001  0.350908197936416E+002  0.444341223425315E-002  0.572170212225896E-001 -0.693147180559945E+000 -0.201116738142532E+002
  0.123164332313307E-001  0.350438498244346E+002  0.236939005188597E-001  0.117421142294127E+000 -0.693147180559945E+000 -0.200881888296497E+002
  0.123164332313307E-001  0.350120317717818E+002  0.104840675086373E+000  0.457029718781773E-001 -0.693147180559945E+000 -0.200722798033233E+002
  0.123164332313307E-001  0.387351408017367E+002 -0.354332293198748E-001  0.685250998683966E-001 -0.693147180559945E+000 -0.219338343183007E+002
  0.123164332313307E-001  0.346129373468301E+002  0.208913372159987E-001  0.810151307126798E-001 -0.693147180559945E+000 -0.198727325908474E+002
  0.123164332313307E-001  0.260165356655472E+002  0.599761645823076E-001  0.757182931689709E-001 -0.693147180559945E+000 -0.155745317502060E+002
  0.123164332313307E-001  0.342107583388472E+002  0.602928591730667E-001  0.109637601766356E+000 -0.693147180559945E+000 -0.196716430868560E+002
  0.123164332313307E-001  0.305902525136052E+002  0.272474574375239E-001  0.125280493457017E+000 -0.693147180559945E+000 -0.178613901742350E+002
  0.123164332313307E-001  0.402492351243252E+002  0.632676667124230E-001  0.601800132631258E-001 -0.693147180559945E+000 -0.226908814795950E+002
  0.123164332313307E-001  0.370550468846675E+002  0.480557557230861E-001  0.739089846436538E-001 -0.693147180559945E+000 -0.210937873597662E+002
  0.123164332313307E-001  0.211000850294852E+002  0.647680948354683E-001  0.104042201268290E+000 -0.693147180559945E+000 -0.105500425147426E+002
