  0.286530568333251E-001  0.237984791640890E+002  0.525640173771666E-001  0.106954338532962E+000 -0.693147180559945E+000 -0.118992395820445E+002
  0.286530568333251E-001  0.239812402738823E+002  0.506345478893919E-001  0.107027341459051E+000 -0.693147180559945E+000 -0.119906201369411E+002
  0.286530568333251E-001  0.296721232516933E+002  0.705108347311558E-001  0.107915245283858E+000 -0.693147180559945E+000 -0.165866171337026E+002
  0.286530568333251E-001  0.366260637850236E+002  0.636275392843308E-001  0.966401946631411E-001 -0.693147180559945E+000 -0.200635874003677E+002
  0.286530568333251E-001  0.276754424837655E+002  0.160888534003925E-001  0.819553490706097E-001 -0.693147180559945E+000 -0.154352800210074E+002
  0.286530568333251E-001  0.276679563643284E+002  0.749554793794613E-001  0.759156884575939E-001 -0.693147180559945E+000 -0.154315369612889E+002
  0.286530568333251E-001  0.235928798229238E+002  0.521927138249596E-001  0.106797670515628E+000 -0.693147180559945E+000 -0.117964399114619E+002
  0.286530568333251E-001  0.333256495559582E+002  0.419532873313961E-001  0.853084211805894E-001 -0.693147180559945E+000 -0.184133802858351E+002
  0.286530568333251E-001  0.276373366942680E+002  0.760935303586776E-001  0.926356091859423E-001 -0.693147180559945E+000 -0.154162271262587E+002
  0.286530568333251E-001  0.295753735470635E+002  0.409761769840895E-001  0.114622692007387E+000 -0.693147180559945E+000 -0.165382422813877E+002
  0.286530568333251E-001  0.300656410834379E+002  0.410428137979282E-001  0.950919370665842E-001 -0.693147180559945E+000 -0.167833760495749E+002
  0.286530568333251E-001  0.405782903495013E+002 -0.186096068405339E-002  0.404678255707403E-001 -0.693147180559945E+000 -0.220397006826066E+002
  0.286530568333251E-001  0.343733424161129E+002  0.986254975870495E-001  0.132433329461860E+000 -0.693147180559945E+000 -0.189372267159124E+002
  0.286530568333251E-001  0.254289546715595E+002  0.609616139467088E-001  0.748519798986133E-001 -0.693147180559945E+000 -0.143120361149044E+002
  0.286530568333251E-001  0.350186838161854E+002  0.516348967887337E-001  0.134703774556840E+000 -0.693147180559945E+000 -0.192598974159487E+002
  0.286530568333251E-001  0.254359850601164E+002  0.480548087297776E-001  0.106662478014834E+000 -0.693147180559945E+000 -0.143155513091829E+002
  0.286530568333251E-001  0.278539446375856E+002  0.499838688805800E-001  0.917922253566224E-001 -0.693147180559945E+000 -0.156775278266488E+002
  0.286530568333251E-001  0.254481239932365E+002  0.761368039573755E-001  0.926429575736209E-001 -0.693147180559945E+000 -0.143216207757429E+002
  0.286530568333251E-001  0.254879628178230E+002  0.507170159546160E-001  0.949220489615475E-001 -0.693147180559945E+000 -0.143415401880362E+002
  0.286530568333251E-001  0.280025561177815E+002  0.507170159546269E-001  0.949220489615550E-001 -0.693147180559945E+000 -0.157518335667467E+002
  0.286530568333251E-001  0.305585823720239E+002  0.252913842463447E-001  0.121108577217753E+000 -0.693147180559945E+000 -0.170298466938679E+002
  0.286530568333251E-001  0.255072640469433E+002  0.509648752942076E-001  0.948641375444348E-001 -0.693147180559945E+000 -0.143511908025963E+002
  0.286530568333251E-001  0.255099309236552E+002  0.651371621380230E-001  0.934169395341097E-001 -0.693147180559945E+000 -0.143525242409523E+002
  0.286530568333251E-001  0.242436326238687E+002  0.506345831462613E-001  0.107027322930636E+000 -0.693147180559945E+000 -0.121218163119343E+002
  0.286530568333251E-001  0.299387422197051E+002  0.712670561587800E-001  0.958077709473386E-001 -0.693147180559945E+000 -0.167199266177085E+002
  0.286530568333251E-001  0.255275953242003E+002  0.746106781865696E-001  0.944470869135532E-001 -0.693147180559945E+000 -0.143613564412248E+002
  0.286530568333251E-001  0.295973537282093E+002  0.315754029068274E-001  0.902417636589538E-001 -0.693147180559945E+000 -0.165492323719606E+002
  0.286530568333251E-001  0.301193982301527E+002  0.123543900415741E-001  0.924039445658908E-001 -0.693147180559945E+000 -0.168102546229323E+002
  0.286530568333251E-001  0.303467040343477E+002  0.602778897146157E-001  0.754627748102673E-001 -0.693147180559945E+000 -0.169239075250298E+002
  0.286530568333251E-001  0.314153112060740E+002  0.263620408579888E-001  0.113848411439894E+000 -0.693147180559945E+000 -0.174582111108930E+002
  0.286530568333251E-001  0.280502880550788E+002  0.700534954551912E-001  0.126808108939741E+000 -0.693147180559945E+000 -0.157756995353954E+002
  0.286530568333251E-001  0.296098210084431E+002  0.115747090292437E-001  0.696776357578825E-001 -0.693147180559945E+000 -0.165554660120775E+002
  0.286530568333251E-001  0.288991952058298E+002  0.761006349069058E-001  0.926353249966655E-001 -0.693147180559945E+000 -0.162001531107709E+002
  0.286530568333251E-001  0.304267986575637E+002  0.397671755014828E-001  0.115243403983087E+000 -0.693147180559945E+000 -0.169639548366378E+002
  0.286530568333251E-001  0.256507193501222E+002  0.361029829093544E-001  0.917732591049898E-001 -0.693147180559945E+000 -0.144229184541858E+002
  0.286530568333251E-001  0.312722409865229E+002  0.648684578039309E-001  0.103878641742546E+000 -0.693147180559945E+000 -0.173866760011174E+002
  0.286530568333251E-001  0.276052052215581E+002  0.783866642876976E-001  0.104039415906314E+000 -0.693147180559945E+000 -0.154001613899037E+002
  0.286530568333251E-001  0.350613772272185E+002  0.355160196615270E-001  0.893795109353035E-001 -0.693147180559945E+000 -0.192812441214652E+002
  0.286530568333251E-001  0.333180620523381E+002  0.295066828284287E-001  0.811552100546597E-001 -0.693147180559945E+000 -0.184095865340250E+002
  0.286530568333251E-001  0.314739175620764E+002  0.379230915142044E-001  0.859526865499965E-001 -0.693147180559945E+000 -0.174875142888941E+002
  0.286530568333251E-001  0.257534164122905E+002  0.442241274553306E-001  0.880280963848567E-001 -0.693147180559945E+000 -0.144742669852699E+002
  0.286530568333251E-001  0.290337838381100E+002  0.483327044921018E-001  0.914220748468844E-001 -0.693147180559945E+000 -0.162674474269110E+002
  0.286530568333251E-001  0.278933114212400E+002  0.905549454172752E-001  0.116967735826672E+000 -0.693147180559945E+000 -0.156972112184760E+002
  0.286530568333251E-001  0.334656644277858E+002  0.749652615987473E-001  0.997621505210002E-001 -0.693147180559945E+000 -0.184833877217489E+002
  0.286530568333251E-001  0.407276483715117E+002  0.620742034789996E-001  0.595032018498441E-001 -0.693147180559945E+000 -0.221143796936118E+002
  0.286530568333251E-001  0.404454153447532E+002  0.498215791529020E-001  0.255854980351871E-001 -0.693147180559945E+000 -0.219732631802326E+002
  0.286530568333251E-001  0.274873896196108E+002  0.697003104564771E-001  0.712563797563466E-001 -0.693147180559945E+000 -0.154942503176614E+002
  0.286530568333251E-001  0.296134995163196E+002  0.910590725377238E-001  0.117146862718703E+000 -0.693147180559945E+000 -0.165573052660158E+002
  0.286530568333251E-001  0.351757990947110E+002  0.251591338087818E-001  0.144549862024226E+000 -0.693147180559945E+000 -0.193384550552115E+002
  0.286530568333251E-001  0.258159237925298E+002  0.557029850748585E-001  0.103147435651269E+000 -0.693147180559945E+000 -0.145055206753896E+002
  0.286530568333251E-001  0.292262407576108E+002  0.502583663953524E-001  0.951886804279165E-001 -0.693147180559945E+000 -0.163636758866613E+002
  0.286530568333251E-001  0.292162461731857E+002  0.373208061735273E-001  0.118906916521224E+000 -0.693147180559945E+000 -0.163586785944488E+002
  0.286530568333251E-001  0.258591439530950E+002  0.509648826844116E-001  0.948641612707710E-001 -0.693147180559945E+000 -0.145271307556722E+002
  0.286530568333251E-001  0.365092499691634E+002  0.290119960283735E-001  0.423848661238275E-001 -0.693147180559945E+000 -0.200051804924377E+002
  0.286530568333251E-001  0.291944830628766E+002  0.397766204979872E-001  0.100837762209222E+000 -0.693147180559945E+000 -0.163477970392943E+002
  0.286530568333251E-001  0.259263236656266E+002  0.513707284046896E-001  0.909882376040233E-001 -0.693147180559945E+000 -0.145607206119380E+002
  0.286530568333251E-001  0.259274703348113E+002  0.503805998416826E-001  0.864528633798668E-001 -0.693147180559945E+000 -0.145612939465303E+002
  0.286530568333251E-001  0.372998771532570E+002  0.239974456091958E-001  0.126336416779179E+000 -0.693147180559945E+000 -0.204004940844844E+002
  0.286530568333251E-001  0.384502251220819E+002  0.825653422671970E-001  0.385543306829235E-001 -0.693147180559945E+000 -0.209756680688969E+002
  0.286530568333251E-001  0.259841691101060E+002  0.761358894562192E-001  0.965742414879115E-001 -0.693147180559945E+000 -0.145896433341777E+002
  0.286530568333251E-001  0.373075548011597E+002  0.337673931335807E-001  0.126478467602441E+000 -0.693147180559945E+000 -0.204043329084358E+002
  0.286530568333251E-001  0.314920740284618E+002  0.796553085701284E-001  0.832322468745884E-001 -0.693147180559945E+000 -0.174965925220869E+002
  0.286530568333251E-001  0.466312326609994E+002  0.975452541557329E-001  0.749688782775317E-002 -0.693147180559945E+000 -0.250661718383557E+002
  0.286530568333251E-001  0.297301803324592E+002  0.355888543808636E-003  0.113502668217659E+000 -0.693147180559945E+000 -0.166156456740855E+002
  0.286530568333251E-001  0.289473520366688E+002  0.115747085086977E-001  0.696776364317912E-001 -0.693147180559945E+000 -0.162242315261904E+002
  0.286530568333251E-001  0.334487862558077E+002  0.333090031481464E-001  0.652464896242122E-001 -0.693147180559945E+000 -0.184749486357598E+002
  0.286530568333251E-001  0.343026840967421E+002  0.898217885674626E-001  0.128291377996293E+000 -0.693147180559945E+000 -0.189018975562270E+002
  0.286530568333251E-001  0.378184874919512E+002  0.771644089472798E-001  0.532361370330895E-001 -0.693147180559945E+000 -0.206597992538316E+002
  0.286530568333251E-001  0.312172081850774E+002  0.622297791330260E-001  0.933181839136999E-001 -0.693147180559945E+000 -0.173591596003947E+002
  0.286530568333251E-001  0.407997724609233E+002  0.480889466562144E-001  0.178212317083815E-001 -0.693147180559945E+000 -0.221504417383176E+002
  0.286530568333251E-001  0.291793297390928E+002  0.710894999089857E-001  0.119446912221065E+000 -0.693147180559945E+000 -0.163402203774024E+002
  0.286530568333251E-001  0.274959573049905E+002  0.442808978847811E-001  0.874361598131555E-001 -0.693147180559945E+000 -0.153455374316199E+002
  0.286530568333251E-001  0.260915488402756E+002  0.506777628559123E-001  0.105020748482254E+000 -0.693147180559945E+000 -0.146433331992625E+002
  0.286530568333251E-001  0.311639248691713E+002  0.271954677116708E-001  0.125362884357496E+000 -0.693147180559945E+000 -0.173325179424416E+002
  0.286530568333251E-001  0.417218490600766E+002  0.366571536187281E-001  0.245742303171766E-001 -0.693147180559945E+000 -0.226114800378942E+002
  0.286530568333251E-001  0.315260897086454E+002  0.662885319155577E-001  0.992773639322626E-001 -0.693147180559945E+000 -0.175136003621787E+002
  0.286530568333251E-001  0.463937268934335E+002  0.412414407795305E-001  0.112275140001782E+000 -0.693147180559945E+000 -0.249474189545727E+002
  0.286530568333251E-001  0.403207836467726E+002  0.593858806935617E-001  0.422749789690954E-001 -0.693147180559945E+000 -0.219109473312422E+002
  0.286530568333251E-001  0.311558030272755E+002  0.503842559850465E-001  0.850683022831831E-001 -0.693147180559945E+000 -0.173284570214937E+002
  0.286530568333251E-001  0.299926367676722E+002  0.647968095619902E-001  0.103704090150913E+000 -0.693147180559945E+000 -0.167468738916920E+002
  0.286530568333251E-001  0.286528407166616E+002  0.662885304185414E-001  0.992773666150524E-001 -0.693147180559945E+000 -0.160769758661868E+002
  0.286530568333251E-001  0.274769732659291E+002  0.504114576357695E-001  0.864011947786858E-001 -0.693147180559945E+000 -0.153360454120892E+002
  0.286530568333251E-001  0.315338312518392E+002  0.453304456300181E-001  0.112521610341430E+000 -0.693147180559945E+000 -0.175174711337756E+002
  0.286530568333251E-001  0.303573200558362E+002  0.667108849599110E-001  0.177949591174688E+000 -0.693147180559945E+000 -0.169292155357741E+002
  0.286530568333251E-001  0.281956727788827E+002  0.798350912053600E-001  0.105629300977596E+000 -0.693147180559945E+000 -0.158483918972973E+002
  0.286530568333251E-001  0.385895490606722E+002  0.654005364190557E-001  0.625324338789804E-001 -0.693147180559945E+000 -0.210453300381921E+002
  0.286530568333251E-001  0.366434485909347E+002  0.104840675086373E+000  0.457029718781773E-001 -0.693147180559945E+000 -0.200722798033233E+002
  0.286530568333251E-001  0.353730901702124E+002  0.505382555634166E-001  0.586912095785827E-001 -0.693147180559945E+000 -0.194371005929621E+002
  0.286530568333251E-001  0.332910753669097E+002  0.777357107705947E-001  0.792949752457724E-001 -0.693147180559945E+000 -0.183960931913108E+002
  0.286530568333251E-001  0.338857115872016E+002  0.377998589248703E-001  0.867094742990556E-001 -0.693147180559945E+000 -0.186934113014568E+002
  0.286530568333251E-001  0.275038416266150E+002  0.760770959515367E-001  0.926244983576853E-001 -0.693147180559945E+000 -0.155024763211635E+002
  0.286530568333251E-001  0.344529063694809E+002  0.752392774395045E-001  0.557657160204115E-001 -0.693147180559945E+000 -0.189770086925964E+002
  0.286530568333251E-001  0.278891797707062E+002  0.199695141038254E-001  0.825099901154092E-001 -0.693147180559945E+000 -0.156951453932091E+002
  0.286530568333251E-001  0.285056006774389E+002  0.506576889978001E-001  0.866733779401585E-001 -0.693147180559945E+000 -0.160033558465754E+002
  0.286530568333251E-001  0.305951762402193E+002  0.509027064770857E-001  0.952989666614739E-001 -0.693147180559945E+000 -0.170481436279656E+002
  0.286530568333251E-001  0.344537073765521E+002  0.853480710350474E-001  0.127107051377347E+000 -0.693147180559945E+000 -0.189774091961320E+002
  0.286530568333251E-001  0.386637939272084E+002  0.354549052072108E-001  0.793787959966028E-001 -0.693147180559945E+000 -0.210824524714602E+002
  0.286530568333251E-001  0.372460809482041E+002  0.672390234100175E-001  0.528171011828715E-001 -0.693147180559945E+000 -0.203735959819580E+002
  0.286530568333251E-001  0.262004249998911E+002  0.648771779278967E-001  0.103996099524658E+000 -0.693147180559945E+000 -0.146977712790702E+002
  0.286530568333251E-001  0.377904606748450E+002  0.669145974195788E-001  0.120878993498333E+000 -0.693147180559945E+000 -0.206457858452785E+002
  0.286530568333251E-001  0.348243145878332E+002  0.124053659004785E+000  0.157585714552923E+000 -0.693147180559945E+000 -0.191627128017725E+002
  0.286530568333251E-001  0.277094047837110E+002  0.805630134838542E-001  0.101949274040230E+000 -0.693147180559945E+000 -0.154522611709802E+002
  0.286530568333251E-001  0.387008545517006E+002  0.847136448856904E-001  0.615914331627179E-001 -0.693147180559945E+000 -0.211009827837063E+002
  0.286530568333251E-001  0.458126237668019E+002  0.108269460819383E-001  0.638386798318578E-001 -0.693147180559945E+000 -0.246568673912569E+002
  0.286530568333251E-001  0.401927683205192E+002  0.117034701921175E+000  0.825694134403277E-001 -0.693147180559945E+000 -0.218469396681156E+002
  0.286530568333251E-001  0.276592909423602E+002  0.420249353901052E-001  0.946549600527706E-001 -0.693147180559945E+000 -0.155802009790361E+002
  0.286530568333251E-001  0.274235846132794E+002  0.397661059733967E-001  0.100839405166265E+000 -0.693147180559945E+000 -0.153093510857644E+002
  0.286530568333251E-001  0.281869711291979E+002  0.393999224874839E-001  0.115848433321029E+000 -0.693147180559945E+000 -0.158440410724549E+002
  0.286530568333251E-001  0.335776699777912E+002  0.681020663937844E-001  0.531287408244821E-001 -0.693147180559945E+000 -0.185393904967516E+002
  0.286530568333251E-001  0.277660646645849E+002  0.465730080674953E-001  0.935267559243171E-001 -0.693147180559945E+000 -0.156335878401484E+002
  0.286530568333251E-001  0.274193343444493E+002  0.236252546445657E-001  0.784984540539664E-001 -0.693147180559945E+000 -0.153072259513493E+002
  0.286530568333251E-001  0.419398131727442E+002  0.731492739187913E-001  0.716491608885745E-001 -0.693147180559945E+000 -0.227204620942281E+002
  0.286530568333251E-001  0.321564261198888E+002  0.425213303569680E-001  0.141916683457394E+000 -0.693147180559945E+000 -0.178287685678004E+002
  0.286530568333251E-001  0.275333067447544E+002  0.670824444091496E-001  0.121145110280453E+000 -0.693147180559945E+000 -0.155172088802332E+002
  0.286530568333251E-001  0.344828877256586E+002  0.907039089859243E-001  0.116991221947042E+000 -0.693147180559945E+000 -0.189919993706853E+002
  0.286530568333251E-001  0.273922553507454E+002  0.909807332700563E-001  0.117447511211324E+000 -0.693147180559945E+000 -0.152936864544974E+002
  0.286530568333251E-001  0.354869708693961E+002  0.117599528643919E-002  0.135161893904172E+000 -0.693147180559945E+000 -0.194940409425540E+002
  0.286530568333251E-001  0.419956209344621E+002  0.976842996091154E-001  0.131793606515113E+000 -0.693147180559945E+000 -0.227483659750870E+002
  0.286530568333251E-001  0.321626776461235E+002  0.759490907046891E-001  0.926503325557007E-001 -0.693147180559945E+000 -0.178318943309177E+002
  0.286530568333251E-001  0.342317376824874E+002  0.938186585055021E-001  0.992378063762290E-001 -0.693147180559945E+000 -0.188664243490997E+002
  0.286530568333251E-001  0.306117506834622E+002  0.765430690218376E-001  0.111895584515809E+000 -0.693147180559945E+000 -0.170564308495870E+002
  0.286530568333251E-001  0.316520309576479E+002  0.441704753096903E-001  0.111816697847850E+000 -0.693147180559945E+000 -0.175765709866799E+002
  0.286530568333251E-001  0.327710194946498E+002  0.668386618519470E-001  0.108186270780486E+000 -0.693147180559945E+000 -0.181360652551809E+002
  0.286530568333251E-001  0.410143791743328E+002  0.763126835402246E-001  0.805750459362971E-001 -0.693147180559945E+000 -0.222577450950224E+002
  0.286530568333251E-001  0.262746396445909E+002  0.442446413024220E-001  0.880495834106073E-001 -0.693147180559945E+000 -0.147348786014201E+002
  0.286530568333251E-001  0.263403340625827E+002  0.606680306333840E-001  0.807139851998599E-001 -0.693147180559945E+000 -0.147677258104160E+002
  0.286530568333251E-001  0.276679061645576E+002  0.539589908658873E-001  0.103567060934068E+000 -0.693147180559945E+000 -0.155845085901348E+002
  0.286530568333251E-001  0.263466229672218E+002  0.449459607526388E-001  0.883616661870797E-001 -0.693147180559945E+000 -0.147708702627356E+002
  0.286530568333251E-001  0.283170354050991E+002  0.408542925140511E-001  0.911181576358385E-001 -0.693147180559945E+000 -0.159090732104055E+002
  0.286530568333251E-001  0.264377056671171E+002  0.458033133813409E-001  0.895165362271302E-001 -0.693147180559945E+000 -0.148164116126832E+002
  0.286530568333251E-001  0.420551324201173E+002  0.684294840893658E-001  0.931784918147298E-001 -0.693147180559945E+000 -0.227781217179146E+002
  0.286530568333251E-001  0.295118212890423E+002  0.329591989531690E-001  0.118686658814803E+000 -0.693147180559945E+000 -0.165064661523771E+002
  0.286530568333251E-001  0.373905445801684E+002  0.740218304243048E-001  0.153206348505980E+000 -0.693147180559945E+000 -0.204458277979402E+002
  0.286530568333251E-001  0.388770818571143E+002  0.389280606324727E-001  0.116020764761632E+000 -0.693147180559945E+000 -0.211890964364131E+002
  0.286530568333251E-001  0.326335597782928E+002  0.410270934166754E-001  0.114654149595834E+000 -0.693147180559945E+000 -0.180673353970024E+002
  0.286530568333251E-001  0.335495596426260E+002  0.349481546163766E-003  0.113539543350521E+000 -0.693147180559945E+000 -0.185253353291690E+002
  0.286530568333251E-001  0.279750679203261E+002  0.272234203853494E-001  0.125275996125897E+000 -0.693147180559945E+000 -0.157380894680190E+002
  0.286530568333251E-001  0.326268300598356E+002  0.531747933691187E-001  0.111038879615163E+000 -0.693147180559945E+000 -0.180639705377737E+002
  0.286530568333251E-001  0.288078185292597E+002  0.661472985196139E-001  0.163049408021873E+000 -0.693147180559945E+000 -0.161544647724858E+002
  0.286530568333251E-001  0.317488705915884E+002  0.252073507119768E-001  0.790390161596348E-001 -0.693147180559945E+000 -0.176249908036502E+002
  0.286530568333251E-001  0.302599318595398E+002  0.604416665664453E-001  0.801557876924989E-001 -0.693147180559945E+000 -0.168805214376259E+002
  0.286530568333251E-001  0.355436688071193E+002  0.966004452376512E-001  0.699937202924251E-001 -0.693147180559945E+000 -0.195223899114156E+002
  0.286530568333251E-001  0.279531831444711E+002  0.466398393840672E-001  0.934331605674857E-001 -0.693147180559945E+000 -0.157271470800915E+002
  0.286530568333251E-001  0.282598810626207E+002  0.515811627645435E-001  0.869438343150523E-001 -0.693147180559945E+000 -0.158804960391663E+002
  0.286530568333251E-001  0.297541908917113E+002  0.326280361431890E-001  0.651872503806617E-001 -0.693147180559945E+000 -0.166276509537116E+002
  0.286530568333251E-001  0.306817966430461E+002  0.556998799316180E-001  0.103130932518252E+000 -0.693147180559945E+000 -0.170914538293790E+002
  0.286530568333251E-001  0.340638524078810E+002  0.491839537940473E-001  0.867644566733559E-001 -0.693147180559945E+000 -0.187824817117965E+002
  0.286530568333251E-001  0.265211175800910E+002  0.408561332947388E-001  0.911169208230061E-001 -0.693147180559945E+000 -0.148581175691702E+002
  0.286530568333251E-001  0.265285799793551E+002  0.455637717846336E-001  0.870776949489612E-001 -0.693147180559945E+000 -0.148618487688022E+002
  0.286530568333251E-001  0.411038426923439E+002  0.703668683905316E-001  0.641846650486970E-001 -0.693147180559945E+000 -0.223024768540279E+002
  0.286530568333251E-001  0.317810222282523E+002  0.370802748260157E-001  0.998032087427828E-001 -0.693147180559945E+000 -0.176410666219821E+002
  0.286530568333251E-001  0.289169765193363E+002  0.616465882681634E-001  0.976669063147205E-001 -0.693147180559945E+000 -0.162090437675241E+002
  0.286530568333251E-001  0.317937845210374E+002  0.282131530904497E-001  0.126630439168818E+000 -0.693147180559945E+000 -0.176474477683747E+002
  0.286530568333251E-001  0.265666029348681E+002  0.381127945986288E-001  0.863583647494780E-001 -0.693147180559945E+000 -0.148808602465587E+002
  0.286530568333251E-001  0.279513949106228E+002  0.420985914392531E-001  0.942809747528417E-001 -0.693147180559945E+000 -0.157262529631674E+002
  0.286530568333251E-001  0.287975682756359E+002  0.780243278688606E-001  0.818681471162856E-001 -0.693147180559945E+000 -0.161493396456739E+002
  0.286530568333251E-001  0.305296481315873E+002  0.130961502215888E+000  0.869309807413243E-001 -0.693147180559945E+000 -0.170153795736496E+002
  0.286530568333251E-001  0.349472961356135E+002  0.284025393374343E-001  0.456801695496868E-001 -0.693147180559945E+000 -0.192242035756627E+002
  0.286530568333251E-001  0.318188043177485E+002  0.459013846215961E-001  0.873733813666473E-001 -0.693147180559945E+000 -0.176599576667302E+002
  0.286530568333251E-001  0.318306750667848E+002  0.688086822900507E-001  0.107496965242071E+000 -0.693147180559945E+000 -0.176658930412484E+002
  0.286530568333251E-001  0.303668404629640E+002  0.748815342706921E-001  0.762115397759712E-001 -0.693147180559945E+000 -0.169339757393379E+002
  0.286530568333251E-001  0.391705848534430E+002  0.536045947355115E-001  0.384428497005369E-001 -0.693147180559945E+000 -0.213358479345775E+002
  0.286530568333251E-001  0.286868298874378E+002  0.509788918210354E-001  0.911331582739646E-001 -0.693147180559945E+000 -0.160939704515749E+002
  0.286530568333251E-001  0.289529644904312E+002  0.609615189231862E-001  0.748519501838151E-001 -0.693147180559945E+000 -0.162270377530716E+002
  0.286530568333251E-001  0.309589857944466E+002  0.602760391753379E-001  0.754673864763835E-001 -0.693147180559945E+000 -0.172300484050793E+002
  0.286530568333251E-001  0.286921499334863E+002  0.491129753517665E-001  0.990586043066160E-001 -0.693147180559945E+000 -0.160966304745991E+002
  0.286530568333251E-001  0.275659194756481E+002  0.602758903574245E-001  0.754675007846225E-001 -0.693147180559945E+000 -0.155335152456800E+002
  0.286530568333251E-001  0.281818717626444E+002  0.490716021615538E-001  0.871270042473062E-001 -0.693147180559945E+000 -0.158414913891782E+002
  0.286530568333251E-001  0.296517184297007E+002  0.496459013840111E-001  0.809384600045478E-001 -0.693147180559945E+000 -0.165764147227063E+002
  0.286530568333251E-001  0.266593725225961E+002  0.543539093173462E-001  0.902482260573893E-001 -0.693147180559945E+000 -0.149272450404227E+002
  0.286530568333251E-001  0.287884033906981E+002  0.894795659264542E-001  0.112331779287932E+000 -0.693147180559945E+000 -0.161447572032050E+002
  0.286530568333251E-001  0.282117094232998E+002  0.840008635958991E-001  0.893218908372078E-001 -0.693147180559945E+000 -0.158564102195059E+002
  0.286530568333251E-001  0.366752666435874E+002  0.236939005188597E-001  0.117421142294127E+000 -0.693147180559945E+000 -0.200881888296497E+002
  0.286530568333251E-001  0.276485039702860E+002  0.420955377922405E-001  0.772109188096216E-001 -0.693147180559945E+000 -0.155748074929990E+002
  0.286530568333251E-001  0.266663629875435E+002  0.765785520085149E-001  0.111911659997725E+000 -0.693147180559945E+000 -0.149307402728964E+002
  0.286530568333251E-001  0.266870458653125E+002  0.442446413024078E-001  0.880495834106004E-001 -0.693147180559945E+000 -0.149410817117809E+002
  0.286530568333251E-001  0.273114664935378E+002  0.887994499120737E-001  0.111549982139858E+000 -0.693147180559945E+000 -0.152532920258936E+002
  0.286530568333251E-001  0.287853003584051E+002  0.622297805829179E-001  0.933181822362465E-001 -0.693147180559945E+000 -0.161432056870585E+002
  0.286530568333251E-001  0.305136004501957E+002  0.713964106078959E-001  0.960571597893758E-001 -0.693147180559945E+000 -0.170073557329538E+002
  0.286530568333251E-001  0.272936373786826E+002  0.760770923547953E-001  0.926244983382128E-001 -0.693147180559945E+000 -0.152443774684660E+002
  0.286530568333251E-001  0.279501762508170E+002  0.538545090340963E-001  0.898196112996476E-001 -0.693147180559945E+000 -0.157256436332645E+002
  0.286530568333251E-001  0.319155650208537E+002  0.537511261445083E-001  0.761693862284237E-001 -0.693147180559945E+000 -0.177083380182828E+002
  0.286530568333251E-001  0.319198091328048E+002  0.602760392398132E-001  0.754673865216222E-001 -0.693147180559945E+000 -0.177104600742584E+002
  0.286530568333251E-001  0.278804765702170E+002  0.236781867489013E-001  0.785742637548146E-001 -0.693147180559945E+000 -0.156907937929645E+002
  0.286530568333251E-001  0.425056686361662E+002  0.408107078699078E-001  0.197878429224164E-001 -0.693147180559945E+000 -0.230033898259391E+002
  0.286530568333251E-001  0.275938866966849E+002  0.711127054786789E-001  0.961364694291713E-001 -0.693147180559945E+000 -0.155474988561984E+002
  0.286530568333251E-001  0.299622691012141E+002  0.483214614273588E-001  0.916368973957473E-001 -0.693147180559945E+000 -0.167316900584630E+002
  0.286530568333251E-001  0.278037961799922E+002  0.759590376774737E-001  0.611516398931615E-001 -0.693147180559945E+000 -0.156524535978521E+002
  0.286530568333251E-001  0.319354787048885E+002  0.251691556521347E-001  0.106373454438174E+000 -0.693147180559945E+000 -0.177182948603002E+002
  0.286530568333251E-001  0.307357784579007E+002  0.817194650289810E-001  0.134859892826054E+000 -0.693147180559945E+000 -0.171184447368063E+002
  0.286530568333251E-001  0.271757078529934E+002  0.909807332675958E-001  0.117447510983752E+000 -0.693147180559945E+000 -0.151854127056214E+002
  0.286530568333251E-001  0.393152995586983E+002  0.270519585631515E-001  0.744413135168101E-001 -0.693147180559945E+000 -0.214082052872051E+002
  0.286530568333251E-001  0.331312144682052E+002  0.359059496639231E-001  0.119558038139716E+000 -0.693147180559945E+000 -0.183161627419586E+002
  0.286530568333251E-001  0.291448589859797E+002  0.425180695849106E-001  0.141919794542006E+000 -0.693147180559945E+000 -0.163229850008458E+002
  0.286530568333251E-001  0.276016080311981E+002  0.503212326093196E-001  0.123624296812618E+000 -0.693147180559945E+000 -0.155513595234550E+002
  0.286530568333251E-001  0.336638735637608E+002  0.975135088586716E-001  0.868476535767309E-001 -0.693147180559945E+000 -0.185824922897364E+002
  0.286530568333251E-001  0.358336559985696E+002  0.121994270980372E+000  0.103604036655570E+000 -0.693147180559945E+000 -0.196673835071408E+002
  0.286530568333251E-001  0.309445892405613E+002  0.408558319978019E-001  0.911167820752490E-001 -0.693147180559945E+000 -0.172228501281366E+002
  0.286530568333251E-001  0.279393487720923E+002  0.671035556453063E-001  0.121114905659754E+000 -0.693147180559945E+000 -0.157202298939021E+002
  0.286530568333251E-001  0.335164301397490E+002  0.743973923487360E-001  0.114862444591907E+000 -0.693147180559945E+000 -0.185087705777305E+002
  0.286530568333251E-001  0.426563833578697E+002  0.428215053190140E-001  0.184347034630436E-001 -0.693147180559945E+000 -0.230787471867908E+002
  0.286530568333251E-001  0.302273883531851E+002  0.499512178171726E-001  0.117607973884584E+000 -0.693147180559945E+000 -0.168642496844485E+002
  0.286530568333251E-001  0.358861985564840E+002  0.664677593039156E-001  0.993270158661679E-001 -0.693147180559945E+000 -0.196936547860979E+002
  0.286530568333251E-001  0.279306984303060E+002  0.293240896566305E-001  0.109839480416379E+000 -0.693147180559945E+000 -0.157159047230090E+002
  0.286530568333251E-001  0.358995784374290E+002  0.216396517687409E-001  0.543556484575401E-001 -0.693147180559945E+000 -0.197003447265705E+002
  0.286530568333251E-001  0.328682598321834E+002  0.835862978017361E-001  0.387785084055558E-001 -0.693147180559945E+000 -0.181846854239477E+002
  0.286530568333251E-001  0.341114263395097E+002  0.759446370984247E-001  0.611480418329730E-001 -0.693147180559945E+000 -0.188062686776108E+002
  0.286530568333251E-001  0.289286358359487E+002  0.532955336259433E-001  0.911786960396493E-001 -0.693147180559945E+000 -0.162148734258303E+002
  0.286530568333251E-001  0.320125254248215E+002  0.851917055690607E-001  0.671741686927538E-001 -0.693147180559945E+000 -0.177568182202667E+002
  0.286530568333251E-001  0.287108216055565E+002  0.777731275763140E-001  0.996517078587281E-001 -0.693147180559945E+000 -0.161059663106342E+002
  0.286530568333251E-001  0.375336477199264E+002  0.108589068183052E+000  0.100707499651939E+000 -0.693147180559945E+000 -0.205173793678192E+002
  0.286530568333251E-001  0.287096096672328E+002  0.398955082673791E-001  0.952202336335159E-001 -0.693147180559945E+000 -0.161053603414723E+002
  0.286530568333251E-001  0.320174707539006E+002  0.500795747616083E-001  0.117531099224171E+000 -0.693147180559945E+000 -0.177592908848063E+002
  0.286530568333251E-001  0.375389872328838E+002  0.111758474575128E-001  0.535468819825901E-001 -0.693147180559945E+000 -0.205200491242979E+002
  0.286530568333251E-001  0.268930859100994E+002  0.712455557069120E-001  0.958485800166560E-001 -0.693147180559945E+000 -0.150441017341744E+002
  0.286530568333251E-001  0.283755311075898E+002  0.710613014982229E-001  0.963642906103384E-001 -0.693147180559945E+000 -0.159383210616509E+002
  0.286530568333251E-001  0.308950199634995E+002  0.130256256300778E-001  0.820650392919965E-001 -0.693147180559945E+000 -0.171980654896057E+002
  0.286530568333251E-001  0.276479524847001E+002  0.599761645823076E-001  0.757182931689709E-001 -0.693147180559945E+000 -0.155745317502060E+002
  0.286530568333251E-001  0.278013654055478E+002  0.101298270429486E+000  0.788646225987747E-001 -0.693147180559945E+000 -0.156512382106298E+002
  0.286530568333251E-001  0.269048418047356E+002  0.400714075776272E-001  0.952374286854945E-001 -0.693147180559945E+000 -0.150499796814925E+002
  0.286530568333251E-001  0.320280388326442E+002  0.301703234932282E-001  0.100955698403849E+000 -0.693147180559945E+000 -0.177645749241781E+002
  0.286530568333251E-001  0.320307336569879E+002  0.293011260638671E-001  0.118297004195129E+000 -0.693147180559945E+000 -0.177659223363499E+002
  0.286530568333251E-001  0.395958418395717E+002  0.110452145579902E-001  0.678586235611736E-001 -0.693147180559945E+000 -0.215484764276418E+002
  0.286530568333251E-001  0.323827941175675E+002  0.957152842197111E-001  0.707529562096786E-001 -0.693147180559945E+000 -0.179419525666397E+002
  0.286530568333251E-001  0.308859930760866E+002  0.442446792910887E-001  0.880495456043337E-001 -0.693147180559945E+000 -0.171935520458993E+002
  0.286530568333251E-001  0.291399032908169E+002  0.534232823010508E-001  0.962942102839202E-001 -0.693147180559945E+000 -0.163205071532644E+002
  0.286530568333251E-001  0.276967795517877E+002  0.915252189184146E-001  0.116698664417668E+000 -0.693147180559945E+000 -0.155989452837498E+002
  0.286530568333251E-001  0.271615626850549E+002  0.942853070034189E-001  0.119293437723293E+000 -0.693147180559945E+000 -0.151783401216521E+002
  0.286530568333251E-001  0.341176606859942E+002 -0.195958600373285E-001  0.100688555915483E+000 -0.693147180559945E+000 -0.188093858508530E+002
  0.286530568333251E-001  0.279137094730496E+002  0.749198820396502E-001  0.945989447703293E-001 -0.693147180559945E+000 -0.157074102443807E+002
  0.286530568333251E-001  0.326205123915410E+002  0.490844863801589E-001  0.114670693089873E+000 -0.693147180559945E+000 -0.180608117036265E+002
  0.286530568333251E-001  0.308766482888800E+002  0.378070071096921E-001  0.114753672563202E+000 -0.693147180559945E+000 -0.171888796522960E+002
  0.286530568333251E-001  0.330269995967523E+002  0.624307524140308E-001  0.764443262442822E-001 -0.693147180559945E+000 -0.182640553062321E+002
  0.286530568333251E-001  0.271185665855956E+002  0.760771254060815E-001  0.926243414881309E-001 -0.693147180559945E+000 -0.151568420719225E+002
  0.286530568333251E-001  0.269709185060006E+002  0.403283634245963E-001  0.949001036922391E-001 -0.693147180559945E+000 -0.150830180321250E+002
  0.286530568333251E-001  0.300977215672713E+002  0.507169983161158E-001  0.949221220042328E-001 -0.693147180559945E+000 -0.167994162914916E+002
  0.286530568333251E-001  0.308271809194261E+002  0.532962807560693E-001  0.876211323740227E-001 -0.693147180559945E+000 -0.171641459675690E+002
  0.286530568333251E-001  0.397245892522370E+002  0.374919725185181E-001  0.906714354125214E-001 -0.693147180559945E+000 -0.216128501339745E+002
  0.286530568333251E-001  0.330594416319196E+002  0.294969923901021E-001  0.118896270963636E+000 -0.693147180559945E+000 -0.182802763238158E+002
  0.286530568333251E-001  0.361119827991670E+002  0.574078859537586E-001  0.461645902906465E-001 -0.693147180559945E+000 -0.198065469074395E+002
  0.286530568333251E-001  0.289598905321616E+002  0.557720558977186E-001  0.119256385153733E+000 -0.693147180559945E+000 -0.162305007739368E+002
  0.286530568333251E-001  0.307976229251603E+002  0.592250818347340E-001  0.735348636214039E-001 -0.693147180559945E+000 -0.171493669704361E+002
  0.286530568333251E-001  0.375605660117011E+002  0.425108898834261E-001  0.479563519502372E-001 -0.693147180559945E+000 -0.205308385137065E+002
  0.286530568333251E-001  0.327605882842923E+002  0.682571473188835E-001  0.944011584235237E-001 -0.693147180559945E+000 -0.181308496500021E+002
  0.286530568333251E-001  0.375857494883782E+002  0.571306997614707E-001  0.186451127688559E+000 -0.693147180559945E+000 -0.205434302520450E+002
  0.286530568333251E-001  0.300859960534524E+002  0.377921963897274E-001  0.866997445175598E-001 -0.693147180559945E+000 -0.167935535345822E+002
  0.286530568333251E-001  0.303919862808407E+002  0.127718495880531E-001  0.812161790739201E-001 -0.693147180559945E+000 -0.169465486482763E+002
  0.286530568333251E-001  0.328913997600123E+002  0.554564325283500E-001  0.916488130174700E-001 -0.693147180559945E+000 -0.181962553878621E+002
  0.286530568333251E-001  0.298431160380494E+002  0.563156430005205E-001  0.614345556140390E-001 -0.693147180559945E+000 -0.166721135268807E+002
  0.286530568333251E-001  0.270519872589251E+002  0.781529231767586E-001  0.822866378002670E-001 -0.693147180559945E+000 -0.151235524085872E+002
  0.286530568333251E-001  0.433596422242307E+002  0.891882790054641E-001  0.598435177473632E-001 -0.693147180559945E+000 -0.234303766199713E+002
  0.286530568333251E-001  0.299698221499134E+002  0.908789628976185E-001  0.116984695045179E+000 -0.693147180559945E+000 -0.167354665828127E+002
  0.286530568333251E-001  0.331003228445150E+002  0.417419422694998E-001  0.616613388479603E-001 -0.693147180559945E+000 -0.183007169301135E+002
  0.286530568333251E-001  0.331096504400683E+002  0.288267205480803E-001  0.100960739663112E+000 -0.693147180559945E+000 -0.183053807278901E+002
  0.286530568333251E-001  0.324180308845940E+002  0.130961347378846E+000  0.869279326605290E-001 -0.693147180559945E+000 -0.179595709501530E+002
  0.286530568333251E-001  0.276810457876160E+002  0.293008118257163E-001  0.118297011557308E+000 -0.693147180559945E+000 -0.155910784016640E+002
  0.286530568333251E-001  0.224483376630672E+002  0.524794644022228E-001  0.107036085609402E+000 -0.693147180559945E+000 -0.112241688315336E+002
