  0.608801948194180E-002  0.334252587765679E+002  0.111935039568491E-001  0.534258932348132E-001 -0.693147180559945E+000 -0.192287666228838E+002
  0.608801948194180E-002  0.251594174726348E+002  0.635855812355151E-001  0.128904735084411E+000 -0.693147180559945E+000 -0.125797087363174E+002
  0.608801948194180E-002  0.259027822536105E+002  0.502583850993086E-001  0.951886258784853E-001 -0.693147180559945E+000 -0.154675283614051E+002
  0.608801948194180E-002  0.259086805989900E+002  0.502500182504304E-001  0.952558341334312E-001 -0.693147180559945E+000 -0.154704775340949E+002
  0.608801948194180E-002  0.283221052103183E+002  0.635834182799830E-001  0.128905641504408E+000 -0.693147180559945E+000 -0.141610526051592E+002
  0.608801948194180E-002  0.245199586787101E+002  0.635834308572993E-001  0.128905632290211E+000 -0.693147180559945E+000 -0.122599793393551E+002
  0.608801948194180E-002  0.313790356876328E+002  0.531674021107782E-001  0.111036007420513E+000 -0.693147180559945E+000 -0.182056550784163E+002
  0.608801948194180E-002  0.289690739871459E+002  0.503801979321916E-001  0.864554711143010E-001 -0.693147180559945E+000 -0.170006742281728E+002
  0.608801948194180E-002  0.398166463488184E+002  0.178271807798571E-001  0.656734361140364E-001 -0.693147180559945E+000 -0.224244604090091E+002
  0.608801948194180E-002  0.315784869865805E+002  0.288267205480803E-001  0.100960739663112E+000 -0.693147180559945E+000 -0.183053807278901E+002
  0.608801948194180E-002  0.295074180417044E+002  0.404584945953228E-001  0.954784333146424E-001 -0.693147180559945E+000 -0.172698462554521E+002
  0.608801948194180E-002  0.259723083382216E+002  0.877321265678466E-001  0.959195571961898E-001 -0.693147180559945E+000 -0.155022914037107E+002
  0.608801948194180E-002  0.315977103939054E+002  0.759919634851987E-001  0.926452458590620E-001 -0.693147180559945E+000 -0.183149924315525E+002
  0.608801948194180E-002  0.334807812700003E+002  0.854197238622305E-001  0.103763604149931E+000 -0.693147180559945E+000 -0.192565278696000E+002
  0.608801948194180E-002  0.334875203626976E+002  0.516348967887337E-001  0.134703774556840E+000 -0.693147180559945E+000 -0.192598974159487E+002
  0.608801948194180E-002  0.366019971776241E+002  0.102929745441494E+000  0.680839709877164E-001 -0.693147180559945E+000 -0.208171358234119E+002
  0.608801948194180E-002  0.305131059334020E+002  0.546823100872136E-001  0.626063430841457E-001 -0.693147180559945E+000 -0.177726902013009E+002
  0.608801948194180E-002  0.259726781731272E+002  0.760770959515367E-001  0.926244983576853E-001 -0.693147180559945E+000 -0.155024763211635E+002
  0.608801948194180E-002  0.259774792811283E+002  0.731479952597802E-001  0.105566318986697E+000 -0.693147180559945E+000 -0.155048768751640E+002
  0.608801948194180E-002  0.429610551480657E+002  0.905216072691184E-001  0.415407809752881E-001 -0.693147180559945E+000 -0.239966648086327E+002
  0.608801948194180E-002  0.316033206266439E+002  0.795328521693102E-001  0.952377637556780E-001 -0.693147180559945E+000 -0.183177975479218E+002
  0.608801948194180E-002  0.294961494922009E+002  0.647607704435667E-001  0.103862024161966E+000 -0.693147180559945E+000 -0.172642119807003E+002
  0.608801948194180E-002  0.366403811144989E+002  0.755755060878305E-002  0.798578136369769E-001 -0.693147180559945E+000 -0.208363277918493E+002
  0.608801948194180E-002  0.334915775274254E+002  0.232549953582910E-001  0.113294687091723E+000 -0.693147180559945E+000 -0.192619259983126E+002
  0.608801948194180E-002  0.316034704663858E+002  0.117474333965896E+000  0.449732016629765E-001 -0.693147180559945E+000 -0.183178724677928E+002
  0.608801948194180E-002  0.315071949366685E+002  0.503439129555139E-001  0.875615697950468E-001 -0.693147180559945E+000 -0.182697347029341E+002
  0.608801948194180E-002  0.316087728164382E+002  0.239983438929945E-001  0.126336434138143E+000 -0.693147180559945E+000 -0.183205236428190E+002
  0.608801948194180E-002  0.429972154960765E+002  0.359886521643544E-001  0.439540351300345E-001 -0.693147180559945E+000 -0.240147449826381E+002
  0.608801948194180E-002  0.334945373038076E+002  0.812695655598816E-001  0.662857631923512E-001 -0.693147180559945E+000 -0.192634058865037E+002
  0.608801948194180E-002  0.316189923152176E+002  0.459312754670431E-001  0.162969442061130E+000 -0.693147180559945E+000 -0.183256333922087E+002
  0.608801948194180E-002  0.330607033377260E+002 -0.109532296566766E-001  0.105407217869150E+000 -0.693147180559945E+000 -0.190464889034629E+002
  0.608801948194180E-002  0.276531856764884E+002  0.644205300535681E-001  0.703740605571259E-001 -0.693147180559945E+000 -0.163427300728441E+002
  0.608801948194180E-002  0.399560706973627E+002  0.550158300040362E-001  0.365684655350103E-001 -0.693147180559945E+000 -0.224941725832812E+002
  0.608801948194180E-002  0.260094187629472E+002  0.670611313074989E-001  0.924700878893210E-001 -0.693147180559945E+000 -0.155208466160734E+002
  0.608801948194180E-002  0.314838969988343E+002  0.266064917390767E-001  0.724430322832361E-001 -0.693147180559945E+000 -0.182580857340170E+002
  0.608801948194180E-002  0.276540164260486E+002  0.381126933866389E-001  0.863585738671486E-001 -0.693147180559945E+000 -0.163431454476242E+002
  0.608801948194180E-002  0.335300283276806E+002  0.118684484318604E+000  0.595643431395650E-001 -0.693147180559945E+000 -0.192811513984402E+002
  0.608801948194180E-002  0.260479828578246E+002  0.292820928887771E-001  0.109908765727367E+000 -0.693147180559945E+000 -0.155401286635122E+002
  0.608801948194180E-002  0.289595544824125E+002  0.561206615781249E-001  0.687762591099901E-001 -0.693147180559945E+000 -0.169959144758061E+002
  0.608801948194180E-002  0.310775004721143E+002  0.687286921703327E-001  0.137140783391651E+000 -0.693147180559945E+000 -0.180548874706570E+002
  0.608801948194180E-002  0.285344776299501E+002  0.410428137979282E-001  0.950919370665842E-001 -0.693147180559945E+000 -0.167833760495749E+002
  0.608801948194180E-002  0.331290721019131E+002  0.599159394429738E-002  0.593914878690748E-001 -0.693147180559945E+000 -0.190806732855564E+002
  0.608801948194180E-002  0.260704445777103E+002  0.503212326093196E-001  0.123624296812618E+000 -0.693147180559945E+000 -0.155513595234550E+002
  0.608801948194180E-002  0.317325147834825E+002  0.747833648383445E-001  0.544082263305293E-001 -0.693147180559945E+000 -0.183823946263411E+002
  0.608801948194180E-002  0.331373410552387E+002  0.272471264571614E-001  0.125279980568968E+000 -0.693147180559945E+000 -0.190848077622192E+002
  0.608801948194180E-002  0.314089370888267E+002  0.845766198303253E-001  0.650413495523225E-001 -0.693147180559945E+000 -0.182206057790132E+002
  0.608801948194180E-002  0.457873300240008E+002 -0.463999225398626E-002  0.967486409899405E-001 -0.693147180559945E+000 -0.254098022466002E+002
  0.608801948194180E-002  0.317868985988503E+002  0.295066828284287E-001  0.811552100546597E-001 -0.693147180559945E+000 -0.184095865340250E+002
  0.608801948194180E-002  0.336446356412232E+002  0.251591338087818E-001  0.144549862024226E+000 -0.693147180559945E+000 -0.193384550552115E+002
  0.608801948194180E-002  0.331549149748667E+002  0.684082672164923E-001  0.125894637574420E+000 -0.693147180559945E+000 -0.190935947220332E+002
  0.608801948194180E-002  0.331572151261329E+002  0.501649540478846E-001  0.897091900252034E-001 -0.693147180559945E+000 -0.190947447976663E+002
  0.608801948194180E-002  0.261167890312123E+002  0.599761645823076E-001  0.757182931689709E-001 -0.693147180559945E+000 -0.155745317502060E+002
  0.608801948194180E-002  0.276087398373291E+002  0.534232823010508E-001  0.962942102839202E-001 -0.693147180559945E+000 -0.163205071532644E+002
  0.608801948194180E-002  0.276085093472563E+002  0.375075247216472E-001  0.916016430852907E-001 -0.693147180559945E+000 -0.163203919082280E+002
  0.608801948194180E-002  0.369026532473888E+002  0.620749940447030E-002  0.580971974463445E-001 -0.693147180559945E+000 -0.209674638582943E+002
  0.608801948194180E-002  0.288276005702653E+002  0.356763549868693E-001  0.870619418008601E-001 -0.693147180559945E+000 -0.169299375197325E+002
  0.608801948194180E-002  0.305545086397127E+002  0.420942541982290E-001  0.772107734343741E-001 -0.693147180559945E+000 -0.177933915544562E+002
  0.608801948194180E-002  0.294675914120277E+002  0.908784067185746E-001  0.116984447802979E+000 -0.693147180559945E+000 -0.172499329406137E+002
  0.608801948194180E-002  0.289102907179072E+002  0.599307477372240E-001  0.924813756405764E-001 -0.693147180559945E+000 -0.169712825935535E+002
  0.608801948194180E-002  0.317944861024704E+002  0.419532873313961E-001  0.853084211805894E-001 -0.693147180559945E+000 -0.184133802858351E+002
  0.608801948194180E-002  0.432461226427605E+002 -0.532277386172164E-002  0.419802858280810E-001 -0.693147180559945E+000 -0.241391985559801E+002
  0.608801948194180E-002  0.285380443342587E+002  0.607070634487117E-001  0.808077411548557E-001 -0.693147180559945E+000 -0.167851594017292E+002
  0.608801948194180E-002  0.332195890073360E+002  0.329577511622692E-001  0.122971715048546E+000 -0.693147180559945E+000 -0.191259317382679E+002
  0.608801948194180E-002  0.281990168789714E+002  0.355888543808636E-003  0.113502668217659E+000 -0.693147180559945E+000 -0.166156456740855E+002
  0.608801948194180E-002  0.400728228383189E+002  0.927421526218954E-001  0.362104728714299E-001 -0.693147180559945E+000 -0.225525486537593E+002
  0.608801948194180E-002  0.318155969684521E+002 -0.115357833621288E-001  0.966863702034542E-001 -0.693147180559945E+000 -0.184239357188259E+002
  0.608801948194180E-002  0.285179091301579E+002  0.604449483643341E-001  0.801553853026692E-001 -0.693147180559945E+000 -0.167750917996788E+002
  0.608801948194180E-002  0.337331831010329E+002 -0.281776854144425E-001  0.164526872325243E+000 -0.693147180559945E+000 -0.193827287851163E+002
  0.608801948194180E-002  0.281375352223819E+002  0.381109330024867E-001  0.863525114770220E-001 -0.693147180559945E+000 -0.165849048457908E+002
  0.608801948194180E-002  0.432687331150942E+002  0.346352923508069E-001  0.173806261146343E-001 -0.693147180559945E+000 -0.241505037921470E+002
  0.608801948194180E-002  0.449602967783643E+002  0.344743732079023E-002  0.126369414748964E+000 -0.693147180559945E+000 -0.249962856237820E+002
  0.608801948194180E-002  0.312875790343166E+002  0.933362482287667E-001  0.981872279699582E-001 -0.693147180559945E+000 -0.181599267517582E+002
  0.608801948194180E-002  0.312629178818587E+002  0.101808914706842E+000  0.967475192816026E-001 -0.693147180559945E+000 -0.181475961755292E+002
  0.608801948194180E-002  0.337491084776891E+002  0.637151626761903E-001  0.939585781986391E-001 -0.693147180559945E+000 -0.193906914734444E+002
  0.608801948194180E-002  0.314207438733601E+002  0.293746222394013E-001  0.107140723000970E+000 -0.693147180559945E+000 -0.182265091712799E+002
  0.608801948194180E-002  0.329738756581580E+002  0.897360172060526E-001  0.635569220829398E-001 -0.693147180559945E+000 -0.190030750636788E+002
  0.608801948194180E-002  0.318738762427945E+002  0.523694545300046E-001  0.644641441055525E-001 -0.693147180559945E+000 -0.184530753559971E+002
  0.608801948194180E-002  0.402232491943286E+002  0.538516721837048E-001  0.155233623618448E-001 -0.693147180559945E+000 -0.226277618317642E+002
  0.608801948194180E-002  0.432694780144210E+002  0.872051858090614E-001  0.723836145177660E-002 -0.693147180559945E+000 -0.241508762418104E+002
  0.608801948194180E-002  0.276556228459459E+002  0.602760070839836E-001  0.754674152995448E-001 -0.693147180559945E+000 -0.163439486575728E+002
  0.608801948194180E-002  0.261676522725754E+002  0.375046231083132E-001  0.915968029471114E-001 -0.693147180559945E+000 -0.155999633708876E+002
  0.608801948194180E-002  0.312590061447480E+002  0.483357894748926E-001  0.106196715452782E+000 -0.693147180559945E+000 -0.181456403069738E+002
  0.608801948194180E-002  0.338400274012118E+002  0.858881888377325E-001  0.649773606588666E-001 -0.693147180559945E+000 -0.194361509352058E+002
  0.608801948194180E-002  0.282027628055023E+002  0.640110906114002E-001  0.732868807530979E-001 -0.693147180559945E+000 -0.166175186373510E+002
  0.608801948194180E-002  0.261696381205815E+002  0.697002687444599E-001  0.712564500187345E-001 -0.693147180559945E+000 -0.156009562948906E+002
  0.608801948194180E-002  0.275790510840988E+002  0.563349924559480E-001  0.724013404658057E-001 -0.693147180559945E+000 -0.163056627766492E+002
  0.608801948194180E-002  0.261858387926308E+002  0.760115152984422E-001  0.929496769676500E-001 -0.693147180559945E+000 -0.156090566309153E+002
  0.608801948194180E-002  0.261932361787224E+002  0.719593170108241E-001  0.129554943329434E+000 -0.693147180559945E+000 -0.156127553239611E+002
  0.608801948194180E-002  0.338461984925064E+002  0.334695588157481E-001  0.122154327524721E+000 -0.693147180559945E+000 -0.194392364808531E+002
  0.608801948194180E-002  0.286387981724730E+002  0.519298126528795E-001  0.908082861089481E-001 -0.693147180559945E+000 -0.168355363208364E+002
  0.608801948194180E-002  0.371215283666114E+002  0.241392504415503E-001  0.596259196012176E-001 -0.693147180559945E+000 -0.210769014179056E+002
  0.608801948194180E-002  0.312514238436119E+002  0.767962895133925E-001  0.519168213192149E-001 -0.693147180559945E+000 -0.181418491564058E+002
  0.608801948194180E-002  0.294598208584081E+002 -0.410719324161404E-001  0.156257978703092E+000 -0.693147180559945E+000 -0.172460476638039E+002
  0.608801948194180E-002  0.332623390684044E+002  0.968571564324161E-001  0.133287339871483E+000 -0.693147180559945E+000 -0.191473067688021E+002
  0.608801948194180E-002  0.291570272091926E+002  0.360683538594992E-001  0.843540716359535E-001 -0.693147180559945E+000 -0.170946508391962E+002
  0.608801948194180E-002  0.338653394600539E+002  0.548481186469330E-003  0.113600778271458E+000 -0.693147180559945E+000 -0.194488069646268E+002
  0.608801948194180E-002  0.275737798661402E+002  0.740654193795576E-001  0.850897832610254E-001 -0.693147180559945E+000 -0.163030271676700E+002
  0.608801948194180E-002  0.302959644890271E+002  0.354232616825938E-001  0.119455220339921E+000 -0.693147180559945E+000 -0.176641194791134E+002
  0.608801948194180E-002  0.282041835341931E+002  0.910093921337138E-001  0.117128599317832E+000 -0.693147180559945E+000 -0.166182290016964E+002
  0.608801948194180E-002  0.284758658646184E+002  0.635887387974592E-001  0.161240151427804E+000 -0.693147180559945E+000 -0.167540701669091E+002
  0.608801948194180E-002  0.262404844874466E+002  0.473778942018694E-001  0.936132841896004E-001 -0.693147180559945E+000 -0.156363794783231E+002
  0.608801948194180E-002  0.332931511343454E+002  0.124053659004785E+000  0.157585714552923E+000 -0.693147180559945E+000 -0.191627128017725E+002
  0.608801948194180E-002  0.302907406894156E+002  0.969034193017977E-001  0.120504828133757E+000 -0.693147180559945E+000 -0.176615075793077E+002
  0.608801948194180E-002  0.314601946445154E+002  0.578679333646541E-001  0.843880703911115E-001 -0.693147180559945E+000 -0.182462345568576E+002
  0.608801948194180E-002  0.262478857323968E+002  0.749198905926252E-001  0.945989414625243E-001 -0.693147180559945E+000 -0.156400801007983E+002
  0.608801948194180E-002  0.262483191545841E+002  0.644928393291102E-001  0.703565234075496E-001 -0.693147180559945E+000 -0.156402968118919E+002
  0.608801948194180E-002  0.294546863461829E+002  0.736946822714986E-001  0.858046756324666E-001 -0.693147180559945E+000 -0.172434804076913E+002
  0.608801948194180E-002  0.329695486025397E+002  0.277910601571563E-003  0.114152968061008E+000 -0.693147180559945E+000 -0.190009115358697E+002
  0.608801948194180E-002  0.319213235048223E+002  0.613215790801482E-001  0.805828794992354E-001 -0.693147180559945E+000 -0.184767989870110E+002
  0.608801948194180E-002  0.275558435666074E+002  0.262774922317031E-001  0.880253302260832E-001 -0.693147180559945E+000 -0.162940590179035E+002
  0.608801948194180E-002  0.339387479239653E+002  0.726772277438135E-001  0.447404492548040E-001 -0.693147180559945E+000 -0.194855111965825E+002
  0.608801948194180E-002  0.296247597275798E+002  0.199648660785423E-001  0.825218147417496E-001 -0.693147180559945E+000 -0.173285170983898E+002
  0.608801948194180E-002  0.333215800590173E+002  0.354231691149267E-001  0.119455057809135E+000 -0.693147180559945E+000 -0.191769272641085E+002
  0.608801948194180E-002  0.296454431000163E+002  0.746050777973775E-001  0.944485482712803E-001 -0.693147180559945E+000 -0.173388587846080E+002
  0.608801948194180E-002  0.296763002932814E+002  0.749072852726302E-001  0.542613550989462E-001 -0.693147180559945E+000 -0.173542873812406E+002
  0.608801948194180E-002  0.339495773911363E+002  0.238855877621078E-001  0.882697081609594E-001 -0.693147180559945E+000 -0.194909259301680E+002
  0.608801948194180E-002  0.262797185685665E+002  0.538630310967023E-001  0.898159280290191E-001 -0.693147180559945E+000 -0.156559965188831E+002
  0.608801948194180E-002  0.303037629793697E+002  0.503025652780049E-001  0.952576251562800E-001 -0.693147180559945E+000 -0.176680187242847E+002
  0.608801948194180E-002  0.288356770094762E+002  0.748815342706921E-001  0.762115397759712E-001 -0.693147180559945E+000 -0.169339757393379E+002
  0.608801948194180E-002  0.440556527165470E+002  0.299118989192690E-001  0.368336631681049E-001 -0.693147180559945E+000 -0.245439635928734E+002
  0.608801948194180E-002  0.262986966583635E+002  0.760770958580839E-001  0.926244982393799E-001 -0.693147180559945E+000 -0.156654855637816E+002
  0.608801948194180E-002  0.263190753951022E+002  0.592689391270858E-001  0.869469780629092E-001 -0.693147180559945E+000 -0.156756749321510E+002
  0.608801948194180E-002  0.319345009742980E+002  0.749652615987473E-001  0.997621505210002E-001 -0.693147180559945E+000 -0.184833877217489E+002
  0.608801948194180E-002  0.314522201120526E+002  0.301118758872900E-001  0.119602974638942E+000 -0.693147180559945E+000 -0.182422472906262E+002
  0.608801948194180E-002  0.263227811840978E+002  0.499838688805800E-001  0.917922253566224E-001 -0.693147180559945E+000 -0.156775278266488E+002
  0.608801948194180E-002  0.263230715395839E+002  0.710613015037420E-001  0.963642906122154E-001 -0.693147180559945E+000 -0.156776730043918E+002
  0.608801948194180E-002  0.263284660962576E+002  0.441113442725971E-001  0.102479210417288E+000 -0.693147180559945E+000 -0.156803702827287E+002
  0.608801948194180E-002  0.275513726951306E+002  0.503213959885740E-001  0.123624220655842E+000 -0.693147180559945E+000 -0.162918235821651E+002
  0.608801948194180E-002  0.296860447315896E+002  0.622297791330260E-001  0.933181839136999E-001 -0.693147180559945E+000 -0.173591596003947E+002
  0.608801948194180E-002  0.373279467404107E+002  0.547972135652153E-001  0.708142711569541E-001 -0.693147180559945E+000 -0.211801106048052E+002
  0.608801948194180E-002  0.297047159535695E+002  0.273025488390561E-001  0.774793859460153E-001 -0.693147180559945E+000 -0.173684952113846E+002
  0.608801948194180E-002  0.340034383446677E+002  0.413728836817087E-001  0.961017676952600E-001 -0.693147180559945E+000 -0.195178564069337E+002
  0.608801948194180E-002  0.263325328061518E+002  0.731479951659901E-001  0.105566318906674E+000 -0.693147180559945E+000 -0.156824036376758E+002
  0.608801948194180E-002  0.281010254029725E+002  0.315053513280297E-001  0.905679898093416E-001 -0.693147180559945E+000 -0.165666499360861E+002
  0.608801948194180E-002  0.319835072604313E+002 -0.115182992211054E-001  0.966812568191770E-001 -0.693147180559945E+000 -0.185078908648155E+002
  0.608801948194180E-002  0.314361437070034E+002  0.620539804455009E-001  0.935378747123662E-001 -0.693147180559945E+000 -0.182342090881016E+002
  0.608801948194180E-002  0.373587595257347E+002  0.256115289516532E-001  0.544233479148593E-001 -0.693147180559945E+000 -0.211955169974672E+002
  0.608801948194180E-002  0.263637011046331E+002  0.879267128455457E-001  0.948092886176080E-001 -0.693147180559945E+000 -0.156979877869164E+002
  0.608801948194180E-002  0.373957779708173E+002  0.689749067866818E-001  0.550290011557681E-001 -0.693147180559945E+000 -0.212140262200085E+002
  0.608801948194180E-002  0.286320879343320E+002  0.404635839546426E-001  0.954849729122541E-001 -0.693147180559945E+000 -0.168321812017659E+002
  0.608801948194180E-002  0.274997457986832E+002  0.602760316682767E-001  0.754674020117851E-001 -0.693147180559945E+000 -0.162660101339415E+002
  0.608801948194180E-002  0.291895062610339E+002  0.853030155868244E-001  0.705388620454626E-001 -0.693147180559945E+000 -0.171108903651168E+002
  0.608801948194180E-002  0.406037851077919E+002  0.770682479479359E-001  0.823301252029356E-001 -0.693147180559945E+000 -0.228180297884958E+002
  0.608801948194180E-002  0.292040321986210E+002  0.458033133913176E-001  0.895165361908292E-001 -0.693147180559945E+000 -0.171181533339104E+002
  0.608801948194180E-002  0.282230274382235E+002  0.326280361431890E-001  0.651872503806617E-001 -0.693147180559945E+000 -0.166276509537116E+002
  0.608801948194180E-002  0.264070142650742E+002  0.372951166083002E-001  0.961933568695035E-001 -0.693147180559945E+000 -0.157196443671370E+002
  0.608801948194180E-002  0.329517242721708E+002  0.907039089859243E-001  0.116991221947042E+000 -0.693147180559945E+000 -0.189919993706853E+002
  0.608801948194180E-002  0.282385799262020E+002  0.644928393279369E-001  0.703565234066767E-001 -0.693147180559945E+000 -0.166354271977009E+002
  0.608801948194180E-002  0.274923128786086E+002  0.635834598811837E-001  0.128905723195300E+000 -0.693147180559945E+000 -0.162622936739042E+002
  0.608801948194180E-002  0.340504887876003E+002  0.456093120259629E-001  0.707518119718172E-001 -0.693147180559945E+000 -0.195413816284000E+002
  0.608801948194180E-002  0.340794357762372E+002  0.978216853882123E-001  0.940461677454686E-001 -0.693147180559945E+000 -0.195558551227185E+002
  0.608801948194180E-002  0.294365833982789E+002  0.556998798413813E-001  0.103130932485903E+000 -0.693147180559945E+000 -0.172344289337393E+002
  0.608801948194180E-002  0.292046150044129E+002  0.817194650289810E-001  0.134859892826054E+000 -0.693147180559945E+000 -0.171184447368063E+002
  0.608801948194180E-002  0.320518566902163E+002  0.111679430387583E-001  0.534182342272656E-001 -0.693147180559945E+000 -0.185420655797080E+002
  0.608801948194180E-002  0.320543318392969E+002  0.440542047029735E-001  0.920710300724775E-001 -0.693147180559945E+000 -0.185433031542483E+002
  0.608801948194180E-002  0.282420358064675E+002  0.509699670072374E-001  0.911299803749973E-001 -0.693147180559945E+000 -0.166371551378336E+002
  0.608801948194180E-002  0.303216643810304E+002  0.273796819587648E-001  0.775430125887443E-001 -0.693147180559945E+000 -0.176769694251151E+002
  0.608801948194180E-002  0.289984846780995E+002  0.130961502215888E+000  0.869309807413243E-001 -0.693147180559945E+000 -0.170153795736496E+002
  0.608801948194180E-002  0.264574256976675E+002  0.760770954556109E-001  0.926244981157774E-001 -0.693147180559945E+000 -0.157448500834336E+002
  0.608801948194180E-002  0.264713926642937E+002  0.507170159546269E-001  0.949220489615550E-001 -0.693147180559945E+000 -0.157518335667467E+002
  0.608801948194180E-002  0.280661902747215E+002  0.315754029068274E-001  0.902417636589538E-001 -0.693147180559945E+000 -0.165492323719606E+002
  0.608801948194180E-002  0.297204870230929E+002  0.576126170920834E-001  0.110387525978557E+000 -0.693147180559945E+000 -0.173763807461463E+002
  0.608801948194180E-002  0.356307882519763E+002  0.152593477424978E-001  0.149789334484817E+000 -0.693147180559945E+000 -0.203315313605880E+002
  0.608801948194180E-002  0.282450125078702E+002  0.770857244520422E-001  0.859572933241201E-001 -0.693147180559945E+000 -0.166386434885350E+002
  0.608801948194180E-002  0.264980748071365E+002  0.780243289518101E-001  0.818681469129226E-001 -0.693147180559945E+000 -0.157651746381681E+002
  0.608801948194180E-002  0.265160823529316E+002  0.716508190178045E-001  0.959311061497620E-001 -0.693147180559945E+000 -0.157741784110657E+002
  0.608801948194180E-002  0.286837254927587E+002  0.109180156718350E+000  0.751569726811936E-001 -0.693147180559945E+000 -0.168579999809792E+002
  0.608801948194180E-002  0.320805538906730E+002  0.187924376375470E-001  0.839483065611986E-001 -0.693147180559945E+000 -0.185564141799364E+002
  0.608801948194180E-002  0.342183937270617E+002  0.479960813017755E-001  0.630639652806053E-001 -0.693147180559945E+000 -0.196253340981307E+002
  0.608801948194180E-002  0.265287919517656E+002  0.402991593365261E-001  0.906922733023025E-001 -0.693147180559945E+000 -0.157805332104827E+002
  0.608801948194180E-002  0.282474727308122E+002  0.521319091739654E-001  0.613370574255483E-001 -0.693147180559945E+000 -0.166398736000060E+002
  0.608801948194180E-002  0.265443514560234E+002  0.635660312528110E-001  0.709540939812756E-001 -0.693147180559945E+000 -0.157883129626116E+002
  0.608801948194180E-002  0.265661563672051E+002  0.719573881964588E-001  0.129563144368175E+000 -0.693147180559945E+000 -0.157992154182024E+002
  0.608801948194180E-002  0.282536324815693E+002  0.602820470106218E-001  0.754596061273710E-001 -0.693147180559945E+000 -0.166429534753845E+002
  0.608801948194180E-002  0.282567608280128E+002  0.294973721642020E-001  0.118896433900426E+000 -0.693147180559945E+000 -0.166445176486063E+002
  0.608801948194180E-002  0.377580551181784E+002  0.978954057386798E-001  0.937726164458854E-001 -0.693147180559945E+000 -0.213951647936891E+002
  0.608801948194180E-002  0.342812881905460E+002  0.598940459285715E-001  0.728996297687870E-001 -0.693147180559945E+000 -0.196567813298728E+002
  0.608801948194180E-002  0.320942086856611E+002  0.293208279453809E-001  0.109838607492253E+000 -0.693147180559945E+000 -0.185632415774304E+002
  0.608801948194180E-002  0.294282982093647E+002  0.622293188846552E-001  0.933156117423915E-001 -0.693147180559945E+000 -0.172302863392822E+002
  0.608801948194180E-002  0.377659188389532E+002  0.909155359752574E-001  0.190882225122422E+000 -0.693147180559945E+000 -0.213990966540764E+002
  0.608801948194180E-002  0.265844503079382E+002  0.398949314196086E-001  0.952188859637709E-001 -0.693147180559945E+000 -0.158083623885690E+002
  0.608801948194180E-002  0.409700972042713E+002  0.923230502650265E-001  0.598402239792273E-001 -0.693147180559945E+000 -0.230011858367355E+002
  0.608801948194180E-002  0.425065586480399E+002  0.745821158234088E-001  0.325027751359094E-001 -0.693147180559945E+000 -0.237694165586198E+002
  0.608801948194180E-002  0.288156392461928E+002  0.671195032257139E-001  0.975338028059132E-001 -0.693147180559945E+000 -0.169239568576963E+002
  0.608801948194180E-002  0.265852901533898E+002  0.660118586358840E-001  0.834072502586231E-001 -0.693147180559945E+000 -0.158087823112948E+002
  0.608801948194180E-002  0.297407952712765E+002  0.644928030707161E-001  0.703565145534957E-001 -0.693147180559945E+000 -0.173865348702381E+002
  0.608801948194180E-002  0.265947822244225E+002  0.262780105018934E-001  0.880263818493127E-001 -0.693147180559945E+000 -0.158135283468111E+002
  0.608801948194180E-002  0.266141350466817E+002  0.503634519272753E-001  0.849690597922840E-001 -0.693147180559945E+000 -0.158232047579407E+002
  0.608801948194180E-002  0.294134257870735E+002  0.408558319978019E-001  0.911167820752490E-001 -0.693147180559945E+000 -0.172228501281366E+002
  0.608801948194180E-002  0.424121618485635E+002  0.519630216023390E-001  0.283176199691825E-001 -0.693147180559945E+000 -0.237222181588816E+002
  0.608801948194180E-002  0.280293678309760E+002  0.592016571567013E-001  0.735434010017451E-001 -0.693147180559945E+000 -0.165308211500879E+002
  0.608801948194180E-002  0.377841361052105E+002  0.270519585631515E-001  0.744413135168101E-001 -0.693147180559945E+000 -0.214082052872051E+002
  0.608801948194180E-002  0.280151388519815E+002  0.540265770485135E-001  0.901787622958421E-001 -0.693147180559945E+000 -0.165237066605906E+002
  0.608801948194180E-002  0.274512198515767E+002  0.635834593173870E-001  0.128905723640308E+000 -0.693147180559945E+000 -0.162417471603882E+002
  0.608801948194180E-002  0.282809469940720E+002  0.404635903941235E-001  0.954850497295599E-001 -0.693147180559945E+000 -0.166566107316359E+002
  0.608801948194180E-002  0.266459003659569E+002  0.419892541814939E-001  0.771709515161600E-001 -0.693147180559945E+000 -0.158390874175783E+002
  0.608801948194180E-002  0.280136765439168E+002  0.521319160502003E-001  0.613370560660535E-001 -0.693147180559945E+000 -0.165229755065583E+002
  0.608801948194180E-002  0.297990292634335E+002  0.758097593923259E-001  0.926994646216972E-001 -0.693147180559945E+000 -0.174156518663166E+002
  0.608801948194180E-002  0.280070447987486E+002  0.873638843677500E-001  0.912503228754016E-001 -0.693147180559945E+000 -0.165196596339742E+002
  0.608801948194180E-002  0.343110117045123E+002  0.602928591730667E-001  0.109637601766356E+000 -0.693147180559945E+000 -0.196716430868560E+002
  0.608801948194180E-002  0.329217429159931E+002  0.752392774395045E-001  0.557657160204115E-001 -0.693147180559945E+000 -0.189770086925964E+002
  0.608801948194180E-002  0.298068381349681E+002  0.516282725687149E-001  0.109914831818888E+000 -0.693147180559945E+000 -0.174195563020839E+002
  0.608801948194180E-002  0.266555566410181E+002  0.787448160637778E-001  0.819512220535547E-001 -0.693147180559945E+000 -0.158439155551089E+002
  0.608801948194180E-002  0.298080615123163E+002  0.459013846215961E-001  0.873733813666474E-001 -0.693147180559945E+000 -0.174201679907580E+002
  0.608801948194180E-002  0.329071330367614E+002  0.650477362224877E-001  0.123321730801341E+000 -0.693147180559945E+000 -0.189697037529806E+002
  0.608801948194180E-002  0.266558076757101E+002  0.393999224874839E-001  0.115848433321029E+000 -0.693147180559945E+000 -0.158440410724549E+002
  0.608801948194180E-002  0.274218010369434E+002  0.609615189231862E-001  0.748519501838151E-001 -0.693147180559945E+000 -0.162270377530716E+002
  0.608801948194180E-002  0.412487558109601E+002  0.538141776800958E-001  0.648428980056394E-001 -0.693147180559945E+000 -0.231405151400799E+002
  0.608801948194180E-002  0.293975670373326E+002  0.926062425241958E-002  0.853344556884515E-001 -0.693147180559945E+000 -0.172149207532662E+002
  0.608801948194180E-002  0.298331788392006E+002 -0.185063077357306E-002  0.129894588465069E+000 -0.693147180559945E+000 -0.174327266542002E+002
  0.608801948194180E-002  0.412692565693028E+002 -0.274817956037692E-001  0.805160047718945E-001 -0.693147180559945E+000 -0.231507655192512E+002
  0.608801948194180E-002  0.302582651888418E+002 -0.184846032388120E-002  0.129892257806721E+000 -0.693147180559945E+000 -0.176452698290208E+002
  0.608801948194180E-002  0.293950150504263E+002  0.266094810277697E-001  0.724484570156239E-001 -0.693147180559945E+000 -0.172136447598130E+002
  0.608801948194180E-002  0.285929007074950E+002  0.739623260908946E-001  0.865509613649529E-001 -0.693147180559945E+000 -0.168125875883474E+002
  0.608801948194180E-002  0.321479860155891E+002  0.624418187759475E-001  0.967676918975476E-001 -0.693147180559945E+000 -0.185901302423944E+002
  0.608801948194180E-002  0.412984336231003E+002  0.905571986722256E-001  0.608633620576019E-001 -0.693147180559945E+000 -0.231653540461500E+002
  0.608801948194180E-002  0.353034121771356E+002  0.117599004265578E-002  0.135161891378246E+000 -0.693147180559945E+000 -0.201678433231677E+002
  0.608801948194180E-002  0.420773202666994E+002  0.927935159245232E-001  0.501990111252529E-001 -0.693147180559945E+000 -0.235547973679496E+002
  0.608801948194180E-002  0.308331384512617E+002  0.622245933447370E-001  0.933184936245108E-001 -0.693147180559945E+000 -0.179327064602307E+002
  0.608801948194180E-002  0.344681414632725E+002  0.422098012036678E-001  0.334975189824020E-001 -0.693147180559945E+000 -0.197502079662361E+002
  0.608801948194180E-002  0.279765029804996E+002  0.605018472552292E-001  0.800696439448689E-001 -0.693147180559945E+000 -0.165043887248497E+002
  0.608801948194180E-002  0.329051022759222E+002  0.191741284520359E-001  0.108739794950309E+000 -0.693147180559945E+000 -0.189686883725609E+002
  0.608801948194180E-002  0.310329658034977E+002  0.440547545167533E-001  0.920718379131698E-001 -0.693147180559945E+000 -0.180326201363487E+002
  0.608801948194180E-002  0.267591920752042E+002  0.710524704174249E-001  0.119440005308707E+000 -0.693147180559945E+000 -0.158957332722020E+002
  0.608801948194180E-002  0.276901598646354E+002  0.561439967952171E-001  0.687604126598339E-001 -0.693147180559945E+000 -0.163612171669176E+002
  0.608801948194180E-002  0.308565538371502E+002  0.404579504075941E-001  0.954784251862959E-001 -0.693147180559945E+000 -0.179444141531750E+002
  0.608801948194180E-002  0.304863073004128E+002  0.500795747616083E-001  0.117531099224171E+000 -0.693147180559945E+000 -0.177592908848063E+002
  0.608801948194180E-002  0.267780989502840E+002  0.684551649585281E-001  0.987491498655410E-001 -0.693147180559945E+000 -0.159051867097419E+002
  0.608801948194180E-002  0.381197898256280E+002  0.942268478673529E-001  0.280817055589399E-001 -0.693147180559945E+000 -0.215760321474139E+002
  0.608801948194180E-002  0.413819602517748E+002  0.175882037533823E+000  0.124879575986418E+000 -0.693147180559945E+000 -0.232071173604873E+002
  0.608801948194180E-002  0.274004860278273E+002  0.403547183736166E-001  0.956123086487878E-001 -0.693147180559945E+000 -0.162163802485135E+002
  0.608801948194180E-002  0.357097092998666E+002  0.343582109869283E-001  0.874276337418444E-001 -0.693147180559945E+000 -0.203709918845332E+002
  0.608801948194180E-002  0.282925191805023E+002  0.251590696609540E-001  0.144550408237110E+000 -0.693147180559945E+000 -0.166623968248510E+002
  0.608801948194180E-002  0.311870860047999E+002  0.636374990475308E-001  0.950024403507000E-001 -0.693147180559945E+000 -0.181096802369998E+002
  0.608801948194180E-002  0.276950773041230E+002  0.502583663953524E-001  0.951886804279165E-001 -0.693147180559945E+000 -0.163636758866613E+002
  0.608801948194180E-002  0.273781204038673E+002  0.416421088907215E-001  0.141980803890300E+000 -0.693147180559945E+000 -0.162051974365335E+002
  0.608801948194180E-002  0.302518893931806E+002  0.421292230484573E-001  0.715516245031796E-001 -0.693147180559945E+000 -0.176420819311902E+002
  0.608801948194180E-002  0.273677742919904E+002  0.420956138913129E-001  0.772107019940697E-001 -0.693147180559945E+000 -0.162000243805951E+002
  0.608801948194180E-002  0.267842849925861E+002  0.503634522055589E-001  0.849690639835542E-001 -0.693147180559945E+000 -0.159082797308929E+002
  0.608801948194180E-002  0.302498587747645E+002  0.370802748260157E-001  0.998032087427828E-001 -0.693147180559945E+000 -0.176410666219821E+002
  0.608801948194180E-002  0.273403376122468E+002  0.128583583758062E-001  0.817730043759696E-001 -0.693147180559945E+000 -0.161863060407233E+002
  0.608801948194180E-002  0.357763913476719E+002  0.337673931335807E-001  0.126478467602441E+000 -0.693147180559945E+000 -0.204043329084358E+002
  0.608801948194180E-002  0.287038092931913E+002  0.399017843676541E-001  0.952074607736193E-001 -0.693147180559945E+000 -0.168680418811955E+002
  0.608801948194180E-002  0.302385537528421E+002  0.752826049545541E-001  0.944846402482491E-001 -0.693147180559945E+000 -0.176354141110209E+002
  0.608801948194180E-002  0.308670550761379E+002  0.263742387617347E-001  0.719980689497229E-001 -0.693147180559945E+000 -0.179496647726688E+002
  0.608801948194180E-002  0.323536859294703E+002  0.711578225608207E-001  0.871549546503226E-001 -0.693147180559945E+000 -0.186929801993350E+002
  0.608801948194180E-002  0.284614733141844E+002  0.647968095619902E-001  0.103704090150913E+000 -0.693147180559945E+000 -0.167468738916920E+002
  0.608801948194180E-002  0.293608018737001E+002  0.125521330571519E-001  0.815661104601662E-001 -0.693147180559945E+000 -0.171965381714499E+002
  0.608801948194180E-002  0.299019441893501E+002  0.719605154686884E-001  0.129557809255611E+000 -0.693147180559945E+000 -0.174671093292749E+002
  0.608801948194180E-002  0.383246355487758E+002  0.644114897928354E-001  0.155444163043800E+000 -0.693147180559945E+000 -0.216784550089878E+002
  0.608801948194180E-002  0.291545048977197E+002  0.602760391735169E-001  0.754673864776643E-001 -0.693147180559945E+000 -0.170933896834597E+002
  0.608801948194180E-002  0.323545481337138E+002  0.377998589248703E-001  0.867094742990556E-001 -0.693147180559945E+000 -0.186934113014568E+002
  0.608801948194180E-002  0.418175359634412E+002  0.523603872521807E-001  0.222642555770706E-001 -0.693147180559945E+000 -0.234249052163205E+002
  0.608801948194180E-002  0.290260889393539E+002  0.765665302998466E-001  0.510863342651655E-001 -0.693147180559945E+000 -0.170291817042768E+002
  0.608801948194180E-002  0.308868674311062E+002  0.130961347378846E+000  0.869279326605290E-001 -0.693147180559945E+000 -0.179595709501530E+002
  0.608801948194180E-002  0.290274189185361E+002  0.252913842463447E-001  0.121108577217753E+000 -0.693147180559945E+000 -0.170298466938679E+002
  0.608801948194180E-002  0.324345047621733E+002  0.873871893837364E-002  0.794512803197287E-001 -0.693147180559945E+000 -0.187333896156865E+002
  0.608801948194180E-002  0.268281451000923E+002  0.410411508446018E-001  0.950882046412769E-001 -0.693147180559945E+000 -0.159302097846460E+002
  0.608801948194180E-002  0.292132453170127E+002  0.125945454634446E-001  0.924100658773557E-001 -0.693147180559945E+000 -0.171227598931062E+002
  0.608801948194180E-002  0.324390955606724E+002  0.225812840843949E-001  0.943315591892681E-001 -0.693147180559945E+000 -0.187356850149361E+002
  0.608801948194180E-002  0.324518898719182E+002  0.624526140431956E-001  0.967606127792070E-001 -0.693147180559945E+000 -0.187420821705590E+002
  0.608801948194180E-002  0.277288547112905E+002  0.765785520085605E-001  0.111911659997724E+000 -0.693147180559945E+000 -0.163805645902451E+002
  0.608801948194180E-002  0.268378129405830E+002  0.490716507534157E-001  0.871270799105010E-001 -0.693147180559945E+000 -0.159350437048914E+002
  0.608801948194180E-002  0.273367591404626E+002  0.615397386365164E-001  0.117315208400292E+000 -0.693147180559945E+000 -0.161845168048312E+002
  0.608801948194180E-002  0.304283710380593E+002  0.644862847567631E-001  0.516330139202443E-001 -0.693147180559945E+000 -0.177303227536295E+002
  0.608801948194180E-002  0.268544385092888E+002  0.398944061572448E-001  0.952217063730532E-001 -0.693147180559945E+000 -0.159433564892443E+002
  0.608801948194180E-002  0.293548296225988E+002  0.442446792910887E-001  0.880495456043337E-001 -0.693147180559945E+000 -0.171935520458993E+002
  0.608801948194180E-002  0.347131907124951E+002  0.208913372159987E-001  0.810151307126798E-001 -0.693147180559945E+000 -0.198727325908474E+002
  0.608801948194180E-002  0.328650385754674E+002  0.421284713504146E-001  0.715518400350672E-001 -0.693147180559945E+000 -0.189486565223336E+002
  0.608801948194180E-002  0.268801020721838E+002  0.403285188747422E-001  0.949000834065293E-001 -0.693147180559945E+000 -0.159561882706918E+002
  0.608801948194180E-002  0.278853999249270E+002  0.772161497280082E-001  0.982808835646880E-001 -0.693147180559945E+000 -0.164588371970634E+002
  0.608801948194180E-002  0.268866752167008E+002  0.487224041528802E-001  0.120669801134465E+000 -0.693147180559945E+000 -0.159594748429503E+002
  0.608801948194180E-002  0.299536565168677E+002  0.573709870559078E-001  0.835017495799305E-001 -0.693147180559945E+000 -0.174929654930337E+002
  0.608801948194180E-002  0.396785242484679E+002  0.536626376547917E-001  0.287558468613431E-001 -0.693147180559945E+000 -0.223553993588338E+002
  0.608801948194180E-002  0.324770202404602E+002  0.985070603239520E-001  0.885464772352252E-001 -0.693147180559945E+000 -0.187546473548300E+002
  0.608801948194180E-002  0.269123107076640E+002  0.425240026683995E-001  0.142002150856700E+000 -0.693147180559945E+000 -0.159722925884319E+002
  0.608801948194180E-002  0.272921963109192E+002  0.772161497507224E-001  0.982808835125338E-001 -0.693147180559945E+000 -0.161622353900595E+002
  0.608801948194180E-002  0.384896406771380E+002  0.671397916834950E-001  0.115235599438866E+000 -0.693147180559945E+000 -0.217609575731689E+002
  0.608801948194180E-002  0.348614648741664E+002  0.671825077254005E-001  0.489284701124329E-001 -0.693147180559945E+000 -0.199468696716831E+002
  0.608801948194180E-002  0.269352546244821E+002  0.749554793834644E-001  0.759156884567709E-001 -0.693147180559945E+000 -0.159837645468409E+002
  0.608801948194180E-002  0.395726792388561E+002  0.703668683905316E-001  0.641846650486970E-001 -0.693147180559945E+000 -0.223024768540279E+002
  0.608801948194180E-002  0.285457898385954E+002  0.404642348938353E-001  0.954774732249084E-001 -0.693147180559945E+000 -0.167890321538976E+002
  0.608801948194180E-002  0.269467812478943E+002  0.609616139432592E-001  0.748519798945078E-001 -0.693147180559945E+000 -0.159895278585470E+002
  0.608801948194180E-002  0.287017740284434E+002  0.404642348558795E-001  0.954774730941091E-001 -0.693147180559945E+000 -0.168670242488216E+002
  0.608801948194180E-002  0.328302956419725E+002  0.919057429838011E-001  0.116970463166101E+000 -0.693147180559945E+000 -0.189312850555861E+002
  0.608801948194180E-002  0.283589581072520E+002  0.515811627646214E-001  0.869438343141285E-001 -0.693147180559945E+000 -0.166956162882258E+002
  0.608801948194180E-002  0.269488535994704E+002  0.454976949446713E-001  0.112980829697122E+000 -0.693147180559945E+000 -0.159905640343351E+002
  0.608801948194180E-002  0.349463298954939E+002  0.567877657959650E-001  0.118369479604331E+000 -0.693147180559945E+000 -0.199893021823468E+002
  0.608801948194180E-002  0.272623776972056E+002  0.101298270429993E+000  0.788646225988694E-001 -0.693147180559945E+000 -0.161473260832027E+002
  0.608801948194180E-002  0.269502947265967E+002  0.354224820078697E-001  0.119457049750273E+000 -0.693147180559945E+000 -0.159912845978982E+002
  0.608801948194180E-002  0.299609105749740E+002  0.796553085701284E-001  0.832322468745884E-001 -0.693147180559945E+000 -0.174965925220869E+002
  0.608801948194180E-002  0.386243500783578E+002  0.961797810694316E-001  0.836704563818733E-001 -0.693147180559945E+000 -0.218283122737788E+002
  0.608801948194180E-002  0.302214972083893E+002  0.715961513061147E-001  0.972668623266910E-001 -0.693147180559945E+000 -0.176268858387945E+002
  0.608801948194180E-002  0.290423851101075E+002  0.668158222000022E-001  0.821650280796433E-001 -0.693147180559945E+000 -0.170373297896536E+002
  0.608801948194180E-002  0.269726519634777E+002  0.760764749058784E-001  0.926252654186929E-001 -0.693147180559945E+000 -0.160024632163387E+002
  0.608801948194180E-002  0.349577369737782E+002  0.334307221482242E-001  0.896733934231457E-001 -0.693147180559945E+000 -0.199950057214890E+002
  0.608801948194180E-002  0.284431133954673E+002  0.544668467476386E-001  0.938548513523865E-001 -0.693147180559945E+000 -0.167376939323335E+002
  0.608801948194180E-002  0.277315498475017E+002  0.710524867710647E-001  0.119440014902526E+000 -0.693147180559945E+000 -0.163819121583507E+002
  0.608801948194180E-002  0.288479579789902E+002  0.758097594070422E-001  0.926994646262239E-001 -0.693147180559945E+000 -0.169401162240950E+002
  0.608801948194180E-002  0.270081242821676E+002  0.535220055648944E-001  0.762084167010070E-001 -0.693147180559945E+000 -0.160201993756837E+002
  0.608801948194180E-002  0.325804785591029E+002  0.133950777808121E+000  0.111332645457559E+000 -0.693147180559945E+000 -0.188063765141513E+002
  0.608801948194180E-002  0.299827531888972E+002  0.752825993781312E-001  0.944846432030179E-001 -0.693147180559945E+000 -0.175075138290485E+002
  0.608801948194180E-002  0.270314171871442E+002  0.759590461369144E-001  0.611516637631855E-001 -0.693147180559945E+000 -0.160318458281720E+002
  0.608801948194180E-002  0.270376149198253E+002  0.639668503157271E-001  0.730575158334752E-001 -0.693147180559945E+000 -0.160349446945125E+002
  0.608801948194180E-002  0.270516832569959E+002  0.648424336478890E-001  0.103856552719853E+000 -0.693147180559945E+000 -0.160419788630978E+002
  0.608801948194180E-002  0.392565382582964E+002  0.382741397999469E-001  0.271933236565749E-001 -0.693147180559945E+000 -0.221444063637481E+002
  0.608801948194180E-002  0.325844696589452E+002  0.524192564415971E-001  0.785950021019713E-001 -0.693147180559945E+000 -0.188083720640725E+002
  0.608801948194180E-002  0.270639679887904E+002  0.524333033051165E-001  0.916149503224805E-001 -0.693147180559945E+000 -0.160481212289951E+002
  0.608801948194180E-002  0.278634675026497E+002  0.420955320946952E-001  0.772108603844384E-001 -0.693147180559945E+000 -0.164478709859247E+002
  0.608801948194180E-002  0.326209013650361E+002  0.410257780590759E-001  0.114652326291391E+000 -0.693147180559945E+000 -0.188265879171179E+002
  0.608801948194180E-002  0.290918017901138E+002  0.507428773356930E-001  0.954211971755975E-001 -0.693147180559945E+000 -0.170620381296568E+002
  0.608801948194180E-002  0.292252263436510E+002  0.420957115829064E-001  0.772111091337956E-001 -0.693147180559945E+000 -0.171287504064254E+002
  0.608801948194180E-002  0.352215803370689E+002  0.334986303756437E-001  0.104963520016849E+000 -0.693147180559945E+000 -0.201269274031343E+002
  0.608801948194180E-002  0.270848516169898E+002  0.513174661220033E-001  0.910211769638709E-001 -0.693147180559945E+000 -0.160585630430948E+002
  0.608801948194180E-002  0.301697848618158E+002  0.701164322290591E-001  0.862338556460706E-001 -0.693147180559945E+000 -0.176010296655078E+002
  0.608801948194180E-002  0.271121769065642E+002  0.350806697658526E-001  0.112353766244601E+000 -0.693147180559945E+000 -0.160722256878820E+002
  0.608801948194180E-002  0.293398771989046E+002  0.993091694572612E-001  0.876916733227204E-001 -0.693147180559945E+000 -0.171860758340522E+002
  0.608801948194180E-002  0.284042844628864E+002  0.513707299236694E-001  0.909882383800492E-001 -0.693147180559945E+000 -0.167182794660430E+002
  0.608801948194180E-002  0.288521940097579E+002  0.252353781490595E-001  0.644398914611253E-001 -0.693147180559945E+000 -0.169422342394788E+002
  0.608801948194180E-002  0.326871943474616E+002  0.401066451974590E-001  0.114157841232660E+000 -0.693147180559945E+000 -0.188597344083307E+002
  0.608801948194180E-002  0.271122230569924E+002  0.483327030210203E-001  0.914220758387252E-001 -0.693147180559945E+000 -0.160722487630961E+002
  0.608801948194180E-002  0.293192749127334E+002  0.659574631311686E-001  0.118675399894004E+000 -0.693147180559945E+000 -0.171757746909666E+002
  0.608801948194180E-002  0.300225252655993E+002  0.108251204017145E+000  0.764848782331045E-001 -0.693147180559945E+000 -0.175273998673995E+002
  0.608801948194180E-002  0.364182624100901E+002  0.741185351508000E-002  0.513238989302231E-001 -0.693147180559945E+000 -0.207252684396449E+002
  0.608801948194180E-002  0.271216772631738E+002  0.662885304185414E-001  0.992773666150524E-001 -0.693147180559945E+000 -0.160769758661868E+002
  0.608801948194180E-002  0.364087439722364E+002  0.351038798957171E-002  0.823318773457158E-001 -0.693147180559945E+000 -0.207205092207181E+002
  0.608801948194180E-002  0.285548325999646E+002  0.377921963897274E-001  0.866997445175598E-001 -0.693147180559945E+000 -0.167935535345822E+002
  0.608801948194180E-002  0.350646689282821E+002  0.580379011075631E-001  0.378901082572163E-001 -0.693147180559945E+000 -0.200484716987409E+002
  0.608801948194180E-002  0.350949003315358E+002  0.636275392843308E-001  0.966401946631411E-001 -0.693147180559945E+000 -0.200635874003677E+002
  0.608801948194180E-002  0.303336105810088E+002  0.394842634757162E-001  0.885171439296430E-001 -0.693147180559945E+000 -0.176829425251043E+002
  0.608801948194180E-002  0.291506331895583E+002  0.556998799316180E-001  0.103130932518252E+000 -0.693147180559945E+000 -0.170914538293790E+002
  0.608801948194180E-002  0.271511856182036E+002  0.749554793794640E-001  0.759156884575938E-001 -0.693147180559945E+000 -0.160917300437017E+002
  0.608801948194180E-002  0.278277582535686E+002  0.773030637258505E-001  0.989811589992510E-001 -0.693147180559945E+000 -0.164300163613842E+002
  0.608801948194180E-002  0.300503268454117E+002  0.718771973950687E-001  0.129797522585546E+000 -0.693147180559945E+000 -0.175413006573057E+002
  0.608801948194180E-002  0.362592972213572E+002  0.669145974195788E-001  0.120878993498333E+000 -0.693147180559945E+000 -0.206457858452785E+002
  0.608801948194180E-002  0.360294025582133E+002  0.425108898834261E-001  0.479563519502372E-001 -0.693147180559945E+000 -0.205308385137065E+002
  0.608801948194180E-002  0.362081151333803E+002  0.727084848980490E-001  0.942838539368159E-001 -0.693147180559945E+000 -0.206201948012900E+002
  0.608801948194180E-002  0.351265400016349E+002  0.522022977883516E-001  0.428094588588333E-001 -0.693147180559945E+000 -0.200794072354173E+002
  0.608801948194180E-002  0.271634197793520E+002  0.760770954556076E-001  0.926244981157867E-001 -0.693147180559945E+000 -0.160978471242759E+002
  0.608801948194180E-002  0.292960174659383E+002  0.532962807560693E-001  0.876211323740227E-001 -0.693147180559945E+000 -0.171641459675690E+002
  0.608801948194180E-002  0.284327360484055E+002  0.602774880104096E-001  0.754629050953798E-001 -0.693147180559945E+000 -0.167325052588026E+002
  0.608801948194180E-002  0.327171385996369E+002  0.182978453645963E-001  0.110105597968668E+000 -0.693147180559945E+000 -0.188747065344183E+002
  0.608801948194180E-002  0.301392102142712E+002  0.123790728739497E-001  0.810891624383834E-001 -0.693147180559945E+000 -0.175857423417355E+002
  0.608801948194180E-002  0.292486145409991E+002 -0.313652214382809E-002  0.110936940833001E+000 -0.693147180559945E+000 -0.171404445050994E+002
  0.608801948194180E-002  0.284386586964256E+002  0.908789628976185E-001  0.116984695045179E+000 -0.693147180559945E+000 -0.167354665828127E+002
  0.608801948194180E-002  0.300739872596865E+002  0.453266789744735E-001  0.924152407949726E-001 -0.693147180559945E+000 -0.175531308644431E+002
  0.608801948194180E-002  0.278095543625814E+002  0.910559780981830E-001  0.117142683863625E+000 -0.693147180559945E+000 -0.164209144158906E+002
  0.608801948194180E-002  0.239542956058670E+002  0.635834182380273E-001  0.128905641519527E+000 -0.693147180559945E+000 -0.119771478029335E+002
