  0.666313133272723E-001  0.262469780314775E+002  0.397646913290939E-001  0.100844741728109E+000 -0.693147180559945E+000 -0.142943028795458E+002
  0.666313133272723E-001  0.290370611864082E+002  0.538545090342322E-001  0.898196113001173E-001 -0.693147180559945E+000 -0.158423411857425E+002
  0.666313133272723E-001  0.303391895287685E+002  0.747823872236004E-001  0.944948722529545E-001 -0.693147180559945E+000 -0.164934053569227E+002
  0.666313133272723E-001  0.284833149037943E+002  0.760935303583057E-001  0.926356091861850E-001 -0.693147180559945E+000 -0.155654680444355E+002
  0.666313133272723E-001  0.220194422386400E+002  0.888860038395689E-001  0.119094064730364E+000 -0.693147180559945E+000 -0.110097211193200E+002
  0.666313133272723E-001  0.389486181749120E+002  0.509440035206155E-001  0.511535004625181E-001 -0.693147180559945E+000 -0.207981196799944E+002
  0.666313133272723E-001  0.516263840835055E+002 -0.221126188873095E-001  0.472144036956154E-002 -0.693147180559945E+000 -0.271370026342911E+002
  0.666313133272723E-001  0.283209038307331E+002  0.760115719173089E-001  0.929494398791187E-001 -0.693147180559945E+000 -0.153312657791737E+002
  0.666313133272723E-001  0.283494471356256E+002  0.442808978847811E-001  0.874361598131555E-001 -0.693147180559945E+000 -0.153455374316199E+002
  0.666313133272723E-001  0.263535108417948E+002  0.538630290701394E-001  0.898158755382157E-001 -0.693147180559945E+000 -0.143475692847045E+002
  0.666313133272723E-001  0.282933338831129E+002  0.502500182504304E-001  0.952558341334312E-001 -0.693147180559945E+000 -0.154704775340949E+002
  0.666313133272723E-001  0.343445657004384E+002  0.746017316142251E-001  0.929179795861261E-001 -0.693147180559945E+000 -0.184960934427576E+002
  0.666313133272723E-001  0.302594692781672E+002  0.695208370903795E-001  0.751799177817409E-001 -0.693147180559945E+000 -0.164535452316220E+002
  0.666313133272723E-001  0.313143656084434E+002  0.261257697727690E-001  0.799673609360276E-001 -0.693147180559945E+000 -0.169809933967601E+002
  0.666313133272723E-001  0.306771724646252E+002  0.251590696609540E-001  0.144550408237110E+000 -0.693147180559945E+000 -0.166623968248510E+002
  0.666313133272723E-001  0.350092956963584E+002  0.780315343317348E-001  0.818656861639493E-001 -0.693147180559945E+000 -0.188284584407176E+002
  0.666313133272723E-001  0.344030494732611E+002  0.349481546163766E-003  0.113539543350521E+000 -0.693147180559945E+000 -0.185253353291690E+002
  0.666313133272723E-001  0.380561051241933E+002  0.469842852683122E-001  0.750953921320823E-001 -0.693147180559945E+000 -0.203518631546350E+002
  0.666313133272723E-001  0.356916835056766E+002  0.131618524275289E+000  0.871810527453295E-001 -0.693147180559945E+000 -0.191696523453767E+002
  0.666313133272723E-001  0.285633347690233E+002  0.697002718863982E-001  0.712564496120107E-001 -0.693147180559945E+000 -0.156054779770500E+002
  0.666313133272723E-001  0.283016132047577E+002  0.670816198319435E-001  0.121136013387676E+000 -0.693147180559945E+000 -0.154746171949173E+002
  0.666313133272723E-001  0.246896596902121E+002  0.942853034100903E-001  0.119293452927844E+000 -0.693147180559945E+000 -0.123448298451060E+002
  0.666313133272723E-001  0.380314745290824E+002  0.995811871354226E-001  0.133063388729443E+000 -0.693147180559945E+000 -0.203395478570796E+002
  0.666313133272723E-001  0.341171680676054E+002  0.747833648383445E-001  0.544082263305293E-001 -0.693147180559945E+000 -0.183823946263411E+002
  0.666313133272723E-001  0.404701106759513E+002  0.781350209268215E-001  0.114027460034520E+000 -0.693147180559945E+000 -0.215588659305141E+002
  0.666313133272723E-001  0.284471308823915E+002  0.504010004288644E-001  0.864503182164362E-001 -0.693147180559945E+000 -0.153943793050029E+002
  0.666313133272723E-001  0.304856786870954E+002  0.315053513280297E-001  0.905679898093416E-001 -0.693147180559945E+000 -0.165666499360861E+002
  0.666313133272723E-001  0.355657624840332E+002 -0.281776850284660E-001  0.164526872283258E+000 -0.693147180559945E+000 -0.191066918345550E+002
  0.666313133272723E-001  0.333866152833176E+002  0.425212469654344E-001  0.141916705742909E+000 -0.693147180559945E+000 -0.180171182341972E+002
  0.666313133272723E-001  0.282728241750844E+002  0.236252546445657E-001  0.784984540539664E-001 -0.693147180559945E+000 -0.153072259513493E+002
  0.666313133272723E-001  0.285289323144006E+002  0.160888534003925E-001  0.819553490706097E-001 -0.693147180559945E+000 -0.154352800210074E+002
  0.666313133272723E-001  0.291000174159524E+002  0.508997101145494E-001  0.949312549649349E-001 -0.693147180559945E+000 -0.158738193005146E+002
  0.666313133272723E-001  0.308233119805486E+002  0.908789628976185E-001  0.116984695045179E+000 -0.693147180559945E+000 -0.167354665828127E+002
  0.666313133272723E-001  0.368771127864735E+002  0.113116681137830E-001  0.193611221864826E+000 -0.693147180559945E+000 -0.197623669857752E+002
  0.666313133272723E-001  0.310880182953417E+002  0.505953280252662E-001  0.862227734001814E-001 -0.693147180559945E+000 -0.168678197402092E+002
  0.666313133272723E-001  0.268133908843649E+002  0.647994339756579E-001  0.103703566973833E+000 -0.693147180559945E+000 -0.145775093059896E+002
  0.666313133272723E-001  0.359146816118035E+002  0.118684484318604E+000  0.595643431395650E-001 -0.693147180559945E+000 -0.192811513984402E+002
  0.666313133272723E-001  0.342002502525750E+002 -0.115357833621288E-001  0.966863702034542E-001 -0.693147180559945E+000 -0.184239357188259E+002
  0.666313133272723E-001  0.342174596952898E+002  0.604094773895310E-001  0.800829629479244E-001 -0.693147180559945E+000 -0.184325404401833E+002
  0.666313133272723E-001  0.285302471063879E+002  0.410522466522172E-001  0.950924848771071E-001 -0.693147180559945E+000 -0.155889341457324E+002
  0.666313133272723E-001  0.341117648518565E+002  0.420955323537509E-001  0.772108605974825E-001 -0.693147180559945E+000 -0.183796930184667E+002
  0.666313133272723E-001  0.280899025127918E+002  0.175106553147161E+000  0.125963959737275E+000 -0.693147180559945E+000 -0.152157651202030E+002
  0.666313133272723E-001  0.285293229182276E+002  0.379098480858482E-001  0.806180438162653E-001 -0.693147180559945E+000 -0.154354753229209E+002
  0.666313133272723E-001  0.299637043682217E+002  0.563349924559480E-001  0.724013404658057E-001 -0.693147180559945E+000 -0.163056627766492E+002
  0.666313133272723E-001  0.343123823544716E+002  0.387861472760989E-001  0.719836354535059E-001 -0.693147180559945E+000 -0.184800017697742E+002
  0.666313133272723E-001  0.285576952991095E+002  0.502442806765808E-001  0.951452743602984E-001 -0.693147180559945E+000 -0.154496615133619E+002
  0.666313133272723E-001  0.436830869072233E+002  0.905571986722256E-001  0.608633620576019E-001 -0.693147180559945E+000 -0.231653540461500E+002
  0.666313133272723E-001  0.368444215376463E+002  0.673052932165177E-001  0.733710786185518E-001 -0.693147180559945E+000 -0.197460213613616E+002
  0.666313133272723E-001  0.279720564162307E+002  0.760771254060815E-001  0.926243414881309E-001 -0.693147180559945E+000 -0.151568420719225E+002
  0.666313133272723E-001  0.324349801295347E+002  0.718771973950687E-001  0.129797522585546E+000 -0.693147180559945E+000 -0.175413006573057E+002
  0.666313133272723E-001  0.392583527281685E+002  0.851221426751831E-001  0.700033170686156E-001 -0.693147180559945E+000 -0.209529869566226E+002
  0.666313133272723E-001  0.392626644459836E+002 -0.380732641168802E-002  0.602326181786700E-001 -0.693147180559945E+000 -0.209551428155302E+002
  0.666313133272723E-001  0.342184363334093E+002 -0.210654304386271E-003  0.596582906372269E-001 -0.693147180559945E+000 -0.184330287592431E+002
  0.666313133272723E-001  0.270675437615019E+002  0.517238135083260E-001  0.983336541646302E-001 -0.693147180559945E+000 -0.147045857445580E+002
  0.666313133272723E-001  0.334364030793712E+002  0.111861925690354E+000  0.925511222677311E-001 -0.693147180559945E+000 -0.180420121322240E+002
  0.666313133272723E-001  0.344456830793478E+002  0.699850680633813E-001  0.956566532679145E-001 -0.693147180559945E+000 -0.185466521322123E+002
  0.666313133272723E-001  0.289290047401463E+002  0.635660312528110E-001  0.709540939812756E-001 -0.693147180559945E+000 -0.157883129626116E+002
  0.666313133272723E-001  0.272123525281116E+002  0.908318133865385E-001  0.117037835432562E+000 -0.693147180559945E+000 -0.136061762640558E+002
  0.666313133272723E-001  0.298843990828061E+002  0.602760316682767E-001  0.754674020117851E-001 -0.693147180559945E+000 -0.162660101339415E+002
  0.666313133272723E-001  0.314392963274519E+002  0.540267282509101E-001  0.901786493177567E-001 -0.693147180559945E+000 -0.170434587562644E+002
  0.666313133272723E-001  0.456307759268834E+002 -0.532277386172164E-002  0.419802858280810E-001 -0.693147180559945E+000 -0.241391985559801E+002
  0.666313133272723E-001  0.349711505166293E+002 -0.195958600373285E-001  0.100688555915483E+000 -0.693147180559945E+000 -0.188093858508530E+002
  0.666313133272723E-001  0.314508039814485E+002  0.719577474795527E-001  0.129557680505898E+000 -0.693147180559945E+000 -0.170492125832627E+002
  0.666313133272723E-001  0.366956649886352E+002  0.602928591730667E-001  0.109637601766356E+000 -0.693147180559945E+000 -0.196716430868560E+002
  0.666313133272723E-001  0.424574761224418E+002  0.927421526218954E-001  0.362104728714299E-001 -0.693147180559945E+000 -0.225525486537593E+002
  0.666313133272723E-001  0.272301784258802E+002  0.712452446357268E-001  0.958489016307535E-001 -0.693147180559945E+000 -0.147859030767472E+002
  0.666313133272723E-001  0.272344277952797E+002  0.496220905104308E-001  0.809537524602965E-001 -0.693147180559945E+000 -0.147880277614470E+002
  0.666313133272723E-001  0.320893692376924E+002  0.273025488390561E-001  0.774793859460153E-001 -0.693147180559945E+000 -0.173684952113846E+002
  0.666313133272723E-001  0.307362678075712E+002  0.602760169510377E-001  0.754673721545127E-001 -0.693147180559945E+000 -0.166919444963240E+002
  0.666313133272723E-001  0.364147322811966E+002  0.602778125728460E-001  0.755236703561706E-001 -0.693147180559945E+000 -0.195311767331367E+002
  0.666313133272723E-001  0.297249908963697E+002  0.128583583758062E-001  0.817730043759696E-001 -0.693147180559945E+000 -0.161863060407233E+002
  0.666313133272723E-001  0.349173422385161E+002  0.491839537940473E-001  0.867644566733559E-001 -0.693147180559945E+000 -0.187824817117965E+002
  0.666313133272723E-001  0.292341533692276E+002  0.697002636732358E-001  0.712564013303650E-001 -0.693147180559945E+000 -0.159408872771522E+002
  0.666313133272723E-001  0.433974310071629E+002  0.195942691603612E-001  0.911642561702729E-001 -0.693147180559945E+000 -0.230225260961199E+002
  0.666313133272723E-001  0.425753388907117E+002  0.366571536187281E-001  0.245742303171766E-001 -0.693147180559945E+000 -0.226114800378942E+002
  0.666313133272723E-001  0.307457668550010E+002  0.648336123224165E-001  0.103858229309186E+000 -0.693147180559945E+000 -0.166966940200389E+002
  0.666313133272723E-001  0.321436688491816E+002  0.180488957306777E-001  0.107529276650196E+000 -0.693147180559945E+000 -0.173956450171292E+002
  0.666313133272723E-001  0.274135910836595E+002  0.731350764680596E-001  0.105554578098779E+000 -0.693147180559945E+000 -0.148776094056369E+002
  0.666313133272723E-001  0.285127807729953E+002  0.420249353901052E-001  0.946549600527706E-001 -0.693147180559945E+000 -0.155802009790361E+002
  0.666313133272723E-001  0.323341041983994E+002  0.503842614552736E-001  0.850682966059267E-001 -0.693147180559945E+000 -0.174908626917381E+002
  0.666313133272723E-001  0.274836154079973E+002  0.538634816061661E-001  0.898157578236787E-001 -0.693147180559945E+000 -0.149126215678058E+002
  0.666313133272723E-001  0.275198528181786E+002  0.765785520085149E-001  0.111911659997725E+000 -0.693147180559945E+000 -0.149307402728964E+002
  0.666313133272723E-001  0.348237488447953E+002  0.225812840843949E-001  0.943315591892681E-001 -0.693147180559945E+000 -0.187356850149361E+002
  0.666313133272723E-001  0.294082784265975E+002  0.420955282011306E-001  0.772108602233233E-001 -0.693147180559945E+000 -0.160279498058371E+002
  0.666313133272723E-001  0.275606945352173E+002  0.301790164913900E-001  0.881991011115546E-001 -0.693147180559945E+000 -0.149511611314158E+002
  0.666313133272723E-001  0.394430388913073E+002  0.654005364190557E-001  0.625324338789804E-001 -0.693147180559945E+000 -0.210453300381921E+002
  0.666313133272723E-001  0.328221941835044E+002  0.718342331062671E-002  0.919609090858319E-001 -0.693147180559945E+000 -0.177349076842906E+002
  0.666313133272723E-001  0.333424787603717E+002  0.636259626085180E-001  0.727892162062603E-001 -0.693147180559945E+000 -0.179950499727243E+002
  0.666313133272723E-001  0.283569616223446E+002  0.877321265678466E-001  0.959195571961898E-001 -0.693147180559945E+000 -0.155022914037107E+002
  0.666313133272723E-001  0.366030470111846E+002  0.479960813017755E-001  0.630639652806053E-001 -0.693147180559945E+000 -0.196253340981307E+002
  0.666313133272723E-001  0.323298268021319E+002  0.532455772600500E-001  0.911697658421076E-001 -0.693147180559945E+000 -0.174887239936043E+002
  0.666313133272723E-001  0.346620236962095E+002  0.584976519593137E-001  0.113416478172933E+000 -0.693147180559945E+000 -0.186548224406431E+002
  0.666313133272723E-001  0.295724947286615E+002  0.777722655743747E-001  0.996519092094320E-001 -0.693147180559945E+000 -0.161100579568692E+002
  0.666313133272723E-001  0.312368472938808E+002  0.252353781490595E-001  0.644398914611253E-001 -0.693147180559945E+000 -0.169422342394788E+002
  0.666313133272723E-001  0.334074156108289E+002  0.695302087414391E-001  0.751833025622248E-001 -0.693147180559945E+000 -0.180275183979528E+002
  0.666313133272723E-001  0.294363365411188E+002  0.648424336478890E-001  0.103856552719853E+000 -0.693147180559945E+000 -0.160419788630978E+002
  0.666313133272723E-001  0.276429260494724E+002  0.910219166988355E-001  0.117136780745752E+000 -0.693147180559945E+000 -0.149922768885433E+002
  0.666313133272723E-001  0.388380847316081E+002  0.277963300677364E-001  0.513053015138958E-001 -0.693147180559945E+000 -0.207428529583425E+002
  0.666313133272723E-001  0.352897555600451E+002  0.191741284520359E-001  0.108739794950309E+000 -0.693147180559945E+000 -0.189686883725609E+002
  0.666313133272723E-001  0.352802245415556E+002  0.423679994045423E-001  0.478782557895751E-001 -0.693147180559945E+000 -0.189639228633162E+002
  0.666313133272723E-001  0.213449627707141E+002  0.905874681432908E-001  0.116818324358773E+000 -0.693147180559945E+000 -0.106724813853571E+002
