  0.261355734372065E-001  0.239727769432545E+002  0.412266449623893E-001  0.115176635821754E+000 -0.693147180559945E+000 -0.119863884716273E+002
  0.261355734372065E-001  0.240890560673921E+002  0.412266422636360E-001  0.115176634751271E+000 -0.693147180559945E+000 -0.120445280336960E+002
  0.261355734372065E-001  0.275234870916275E+002  0.436964792342354E-001  0.118040126381963E+000 -0.693147180559945E+000 -0.144142179066467E+002
  0.261355734372065E-001  0.275325207993690E+002  0.411916156295293E-001  0.115278243477489E+000 -0.693147180559945E+000 -0.144187347605175E+002
  0.261355734372065E-001  0.330937193835930E+002  0.436190049848948E-001  0.842305546426895E-001 -0.693147180559945E+000 -0.183311338757700E+002
  0.261355734372065E-001  0.256755855943520E+002  0.449991250014981E-001  0.112714004673899E+000 -0.693147180559945E+000 -0.128377927971760E+002
  0.261355734372065E-001  0.281586663042084E+002  0.450051328033980E-001  0.112710159276126E+000 -0.693147180559945E+000 -0.147318075129372E+002
  0.261355734372065E-001  0.257035633952036E+002  0.449991249847672E-001  0.112714004697845E+000 -0.693147180559945E+000 -0.128517816976018E+002
  0.261355734372065E-001  0.258110246205704E+002  0.449991250015080E-001  0.112714004673872E+000 -0.693147180559945E+000 -0.129055123102852E+002
  0.261355734372065E-001  0.263022491614200E+002  0.449991229249287E-001  0.112714004509773E+000 -0.693147180559945E+000 -0.131511245807100E+002
  0.261355734372065E-001  0.327689936866462E+002  0.771759982635398E-001  0.982946468640139E-001 -0.693147180559945E+000 -0.181687710272966E+002
  0.261355734372065E-001  0.330422130878332E+002  0.288267205480803E-001  0.100960739663112E+000 -0.693147180559945E+000 -0.183053807278901E+002
  0.261355734372065E-001  0.289852020997102E+002  0.451142583033439E-001  0.119341147230666E+000 -0.693147180559945E+000 -0.151450754106880E+002
  0.261355734372065E-001  0.298226842085047E+002  0.515811627646214E-001  0.869438343141285E-001 -0.693147180559945E+000 -0.166956162882258E+002
  0.261355734372065E-001  0.291642428312239E+002  0.272234226256669E-001  0.125276002742802E+000 -0.693147180559945E+000 -0.152345957764449E+002
  0.261355734372065E-001  0.293432798037198E+002  0.300335784633838E-001  0.119470028114604E+000 -0.693147180559945E+000 -0.164559140858334E+002
  0.261355734372065E-001  0.362841034434111E+002  0.937959040713310E-001  0.992516623235024E-001 -0.693147180559945E+000 -0.199263259056791E+002
  0.261355734372065E-001  0.278802974230685E+002  0.397671754836950E-001  0.115243403977591E+000 -0.693147180559945E+000 -0.139401487115343E+002
  0.261355734372065E-001  0.293930078992502E+002  0.556994250801992E-001  0.103130606239660E+000 -0.693147180559945E+000 -0.164807781335986E+002
  0.261355734372065E-001  0.362795165045224E+002  0.678105569284713E-001  0.160251419967412E+000 -0.693147180559945E+000 -0.199240324362347E+002
  0.261355734372065E-001  0.413007347372515E+002  0.251847887554102E-001  0.992607325882841E-001 -0.693147180559945E+000 -0.224346415525993E+002
  0.261355734372065E-001  0.346833151085887E+002  0.329577511622692E-001  0.122971715048546E+000 -0.693147180559945E+000 -0.191259317382679E+002
  0.261355734372065E-001  0.328239624077772E+002  0.554564325283500E-001  0.916488130174700E-001 -0.693147180559945E+000 -0.181962553878621E+002
  0.261355734372065E-001  0.294120110478832E+002 -0.304321958964193E-002  0.963239898914401E-001 -0.693147180559945E+000 -0.164902797079151E+002
  0.261355734372065E-001  0.299702088633161E+002  0.496451859714300E-001  0.809366269268068E-001 -0.693147180559945E+000 -0.167693786156316E+002
  0.261355734372065E-001  0.274579834563790E+002  0.473778912443568E-001  0.936132504303759E-001 -0.693147180559945E+000 -0.155132659121630E+002
  0.261355734372065E-001  0.411422503497206E+002  0.536626376547917E-001  0.287558468613431E-001 -0.693147180559945E+000 -0.223553993588338E+002
  0.261355734372065E-001  0.347442944832003E+002  0.710746670491824E-001  0.978002950617294E-001 -0.693147180559945E+000 -0.191564214255737E+002
  0.261355734372065E-001  0.362349335800047E+002  0.599031575530837E-001  0.728691104431776E-001 -0.693147180559945E+000 -0.199017409739759E+002
  0.261355734372065E-001  0.345318093175057E+002  0.759588791989598E-001  0.611686910476644E-001 -0.693147180559945E+000 -0.190501788427264E+002
  0.261355734372065E-001  0.296530888129331E+002 -0.108974987422643E-001  0.105766500184354E+000 -0.693147180559945E+000 -0.166108185904401E+002
  0.261355734372065E-001  0.294745830470894E+002  0.398953245171096E-001  0.952179387912162E-001 -0.693147180559945E+000 -0.165215657075182E+002
  0.261355734372065E-001  0.414197967986154E+002  0.550158300040362E-001  0.365684655350103E-001 -0.693147180559945E+000 -0.224941725832812E+002
  0.261355734372065E-001  0.319863627579484E+002  0.700189919017038E-001  0.699516650744772E-001 -0.693147180559945E+000 -0.177774555629477E+002
  0.261355734372065E-001  0.295167671580255E+002  0.410428274085450E-001  0.950919197460472E-001 -0.693147180559945E+000 -0.165426577629862E+002
  0.261355734372065E-001  0.331453602453284E+002  0.696086232453685E-001  0.951369600251767E-001 -0.693147180559945E+000 -0.183569543066377E+002
  0.261355734372065E-001  0.331855714370403E+002  0.258693026958741E-001  0.981146901426990E-001 -0.693147180559945E+000 -0.183770599024937E+002
  0.261355734372065E-001  0.282128357379954E+002  0.508997100409370E-001  0.949312550849646E-001 -0.693147180559945E+000 -0.158906920529712E+002
  0.261355734372065E-001  0.361769168137478E+002  0.208913372159987E-001  0.810151307126798E-001 -0.693147180559945E+000 -0.198727325908474E+002
  0.261355734372065E-001  0.274640823701161E+002  0.436963732847473E-001  0.118040158899533E+000 -0.693147180559945E+000 -0.155163153690315E+002
  0.261355734372065E-001  0.278827388985819E+002  0.538545090340963E-001  0.898196112996476E-001 -0.693147180559945E+000 -0.157256436332645E+002
  0.261355734372065E-001  0.278719114198572E+002  0.671035556453063E-001  0.121114905659754E+000 -0.693147180559945E+000 -0.157202298939021E+002
  0.261355734372065E-001  0.274658693925193E+002  0.670824444091496E-001  0.121145110280453E+000 -0.693147180559945E+000 -0.155172088802332E+002
  0.261355734372065E-001  0.320039081875057E+002  0.586039110667882E-001  0.114567254752879E+000 -0.693147180559945E+000 -0.177862282777264E+002
  0.261355734372065E-001  0.325593927076005E+002  0.531747933691187E-001  0.111038879615163E+000 -0.693147180559945E+000 -0.180639705377737E+002
  0.261355734372065E-001  0.286193925352027E+002  0.509788918210354E-001  0.911331582739646E-001 -0.693147180559945E+000 -0.160939704515749E+002
  0.261355734372065E-001  0.472510561252535E+002 -0.463999225398626E-002  0.967486409899405E-001 -0.693147180559945E+000 -0.254098022466002E+002
  0.261355734372065E-001  0.329587904403430E+002  0.410270936695463E-001  0.114654149882361E+000 -0.693147180559945E+000 -0.182636694041450E+002
  0.261355734372065E-001  0.325220698823560E+002  0.505701692945022E-001  0.106873683476979E+000 -0.693147180559945E+000 -0.180453091251515E+002
  0.261355734372065E-001  0.361415025304476E+002  0.619990836819746E-001  0.402131601178699E-001 -0.693147180559945E+000 -0.198550254491973E+002
  0.261355734372065E-001  0.329476231000870E+002  0.266064917390767E-001  0.724430322832361E-001 -0.693147180559945E+000 -0.182580857340170E+002
  0.261355734372065E-001  0.303758244424361E+002  0.637411575231650E-002  0.601581381279186E-001 -0.693147180559945E+000 -0.169721864051916E+002
  0.261355734372065E-001  0.303836138492192E+002  0.772161452668989E-001  0.982808838258598E-001 -0.693147180559945E+000 -0.169760811085831E+002
  0.261355734372065E-001  0.303934384255731E+002  0.261257697727690E-001  0.799673609360276E-001 -0.693147180559945E+000 -0.169809933967601E+002
  0.261355734372065E-001  0.281924437103856E+002  0.515811627645435E-001  0.869438343150523E-001 -0.693147180559945E+000 -0.158804960391663E+002
  0.261355734372065E-001  0.343688283771749E+002  0.191741284520359E-001  0.108739794950309E+000 -0.693147180559945E+000 -0.189686883725609E+002
  0.261355734372065E-001  0.320182347409654E+002  0.420942541982290E-001  0.772107734343741E-001 -0.693147180559945E+000 -0.177933915544562E+002
  0.261355734372065E-001  0.320259163236389E+002  0.438119158772754E-001  0.807040141155536E-001 -0.693147180559945E+000 -0.177972323457930E+002
  0.261355734372065E-001  0.383827877698468E+002  0.825653422671970E-001  0.385543306829235E-001 -0.693147180559945E+000 -0.209756680688969E+002
  0.261355734372065E-001  0.279351187655464E+002  0.507170159546269E-001  0.949220489615550E-001 -0.693147180559945E+000 -0.157518335667467E+002
  0.261355734372065E-001  0.447098487440132E+002 -0.532277386172164E-002  0.419802858280810E-001 -0.693147180559945E+000 -0.241391985559801E+002
  0.261355734372065E-001  0.400880761796105E+002  0.961797810694316E-001  0.836704563818733E-001 -0.693147180559945E+000 -0.218283122737788E+002
  0.261355734372065E-001  0.286247125812512E+002  0.491129753517665E-001  0.990586043066160E-001 -0.693147180559945E+000 -0.160966304745991E+002
  0.261355734372065E-001  0.432403804693403E+002 -0.305964406039267E-001  0.131501201311214E+000 -0.693147180559945E+000 -0.234044644186437E+002
  0.261355734372065E-001  0.401253309682841E+002  0.117034701921175E+000  0.825694134403277E-001 -0.693147180559945E+000 -0.218469396681156E+002
  0.261355734372065E-001  0.291427602207313E+002  0.592689937603830E-001  0.869469374540616E-001 -0.693147180559945E+000 -0.163556542943392E+002
  0.261355734372065E-001  0.351908999859400E+002  0.641797004603863E-001  0.945148629001092E-001 -0.693147180559945E+000 -0.193797241769435E+002
  0.261355734372065E-001  0.304767822873000E+002  0.392610329668763E-001  0.565652725782270E-001 -0.693147180559945E+000 -0.170226653276235E+002
  0.261355734372065E-001  0.304911450197888E+002  0.252913842463447E-001  0.121108577217753E+000 -0.693147180559945E+000 -0.170298466938679E+002
  0.261355734372065E-001  0.343059050638778E+002  0.986254975870495E-001  0.132433329461860E+000 -0.693147180559945E+000 -0.189372267159124E+002
  0.261355734372065E-001  0.279618009083892E+002  0.780243289518101E-001  0.818681469129226E-001 -0.693147180559945E+000 -0.157651746381681E+002
  0.261355734372065E-001  0.342796580628078E+002  0.272474534610601E-001  0.125280500400837E+000 -0.693147180559945E+000 -0.189241032153774E+002
  0.261355734372065E-001  0.283080937553548E+002  0.710613014982229E-001  0.963642906103384E-001 -0.693147180559945E+000 -0.159383210616509E+002
  0.261355734372065E-001  0.301474515940114E+002  0.109180156718350E+000  0.751569726811936E-001 -0.693147180559945E+000 -0.168579999809792E+002
  0.261355734372065E-001  0.305298767985783E+002  0.719577474795527E-001  0.129557680505898E+000 -0.693147180559945E+000 -0.170492125832627E+002
  0.261355734372065E-001  0.286404663055517E+002  0.772161496564563E-001  0.982808834915499E-001 -0.693147180559945E+000 -0.161045073367494E+002
  0.261355734372065E-001  0.275341706789630E+002  0.503212326093196E-001  0.123624296812618E+000 -0.693147180559945E+000 -0.155513595234550E+002
  0.261355734372065E-001  0.305308838626821E+002  0.462636273194055E-001  0.875413130197046E-001 -0.693147180559945E+000 -0.170497161153146E+002
  0.261355734372065E-001  0.281612151904677E+002  0.749554793834644E-001  0.759156884567709E-001 -0.693147180559945E+000 -0.158648817792074E+002
  0.261355734372065E-001  0.275448134057088E+002  0.293011252389430E-001  0.118297003824528E+000 -0.693147180559945E+000 -0.155566808868279E+002
  0.261355734372065E-001  0.417124005490326E+002  0.157048505130160E-001  0.702745728397241E-001 -0.693147180559945E+000 -0.226404744584898E+002
  0.261355734372065E-001  0.332403336537933E+002  0.239984921530974E-001  0.126336097748553E+000 -0.693147180559945E+000 -0.184044410108702E+002
  0.261355734372065E-001  0.326123596988239E+002  0.722820316904398E-001  0.585565963069741E-001 -0.693147180559945E+000 -0.180904540333854E+002
  0.261355734372065E-001  0.324966919047504E+002  0.440547545167533E-001  0.920718379131698E-001 -0.693147180559945E+000 -0.180326201363487E+002
  0.261355734372065E-001  0.305849172265336E+002  0.503439051874812E-001  0.875615376549870E-001 -0.693147180559945E+000 -0.170767327972403E+002
  0.261355734372065E-001  0.286433842533214E+002  0.777731275763140E-001  0.996517078587281E-001 -0.693147180559945E+000 -0.161059663106342E+002
  0.261355734372065E-001  0.283247816920924E+002  0.609616139467088E-001  0.748519798986128E-001 -0.693147180559945E+000 -0.159466650300197E+002
  0.261355734372065E-001  0.306230750836519E+002  0.507090123413503E-001  0.949371159609352E-001 -0.693147180559945E+000 -0.170958117257995E+002
  0.261355734372065E-001  0.353099245937591E+002  0.334695588157481E-001  0.122154327524721E+000 -0.693147180559945E+000 -0.194392364808531E+002
  0.261355734372065E-001  0.306289550270642E+002  0.127721943469952E-001  0.812160626919012E-001 -0.693147180559945E+000 -0.170987516975056E+002
  0.261355734372065E-001  0.286747041096087E+002  0.272474376431751E-001  0.125280429441974E+000 -0.693147180559945E+000 -0.161216262387778E+002
  0.261355734372065E-001  0.275600743854241E+002  0.503842562296266E-001  0.850682998601733E-001 -0.693147180559945E+000 -0.155643113766856E+002
  0.261355734372065E-001  0.306532323622866E+002  0.853030155868244E-001  0.705388620454626E-001 -0.693147180559945E+000 -0.171108903651168E+002
  0.261355734372065E-001  0.306632110121889E+002  0.605015439671057E-001  0.800696488862856E-001 -0.693147180559945E+000 -0.171158796900680E+002
  0.261355734372065E-001  0.306677582998737E+002  0.458033133913176E-001  0.895165361908292E-001 -0.693147180559945E+000 -0.171181533339104E+002
  0.261355734372065E-001  0.371668403520415E+002  0.421478084116753E-001  0.334822577126521E-001 -0.693147180559945E+000 -0.203676943599943E+002
  0.261355734372065E-001  0.300302842150362E+002  0.507169983161158E-001  0.949221220042328E-001 -0.693147180559945E+000 -0.167994162914916E+002
  0.261355734372065E-001  0.306889524449038E+002  0.420957115829064E-001  0.772111091337956E-001 -0.693147180559945E+000 -0.171287504064254E+002
  0.261355734372065E-001  0.371786435959690E+002  0.672390234100175E-001  0.528171011828715E-001 -0.693147180559945E+000 -0.203735959819580E+002
  0.261355734372065E-001  0.319249676855624E+002  0.647565501019012E-001  0.952900166167976E-001 -0.693147180559945E+000 -0.177467580267547E+002
  0.261355734372065E-001  0.275623877209241E+002  0.760935303583057E-001  0.926356091861850E-001 -0.693147180559945E+000 -0.155654680444355E+002
  0.261355734372065E-001  0.290695951046066E+002  0.690313951462669E-001  0.770273793604775E-001 -0.693147180559945E+000 -0.163190717362768E+002
  0.261355734372065E-001  0.298337432917000E+002  0.749072852790122E-001  0.542613550957985E-001 -0.693147180559945E+000 -0.167011458298235E+002
  0.261355734372065E-001  0.307597435671910E+002  0.532962807560693E-001  0.876211323740227E-001 -0.693147180559945E+000 -0.171641459675690E+002
  0.261355734372065E-001  0.283335072945509E+002  0.519127405643802E-001  0.141284602475110E+000 -0.693147180559945E+000 -0.159510278312490E+002
  0.261355734372065E-001  0.307932234524250E+002  0.736368833966945E-001  0.858909289267722E-001 -0.693147180559945E+000 -0.171808859101860E+002
  0.261355734372065E-001  0.340442046603556E+002  0.133950777808121E+000  0.111332645457559E+000 -0.693147180559945E+000 -0.188063765141513E+002
  0.261355734372065E-001  0.324957584099560E+002 -0.313653377045953E-002  0.110936939793587E+000 -0.693147180559945E+000 -0.180321533889515E+002
  0.261355734372065E-001  0.353825671726316E+002  0.258236196752761E-001  0.555438197195216E-001 -0.693147180559945E+000 -0.194755577702893E+002
  0.261355734372065E-001  0.285247861481202E+002  0.555997432323148E-001  0.103688717663240E+000 -0.693147180559945E+000 -0.160466672580336E+002
  0.261355734372065E-001  0.354024740252180E+002  0.726772277438135E-001  0.447404492548040E-001 -0.693147180559945E+000 -0.194855111965825E+002
  0.261355734372065E-001  0.418723758205091E+002  0.731492739187913E-001  0.716491608885745E-001 -0.693147180559945E+000 -0.227204620942281E+002
  0.261355734372065E-001  0.308119073652055E+002  0.261257697727497E-001  0.799673609360049E-001 -0.693147180559945E+000 -0.171902278665763E+002
  0.261355734372065E-001  0.326131591604626E+002  0.480164195047794E-002  0.109456807822280E+000 -0.693147180559945E+000 -0.180908537642048E+002
  0.261355734372065E-001  0.303116840802429E+002  0.758097594070422E-001  0.926994646262239E-001 -0.693147180559945E+000 -0.169401162240950E+002
  0.261355734372065E-001  0.287301309234008E+002  0.780243278688606E-001  0.818681471162856E-001 -0.693147180559945E+000 -0.161493396456739E+002
  0.261355734372065E-001  0.308245279749528E+002  0.125521330571519E-001  0.815661104601662E-001 -0.693147180559945E+000 -0.171965381714499E+002
  0.261355734372065E-001  0.360445454469319E+002  0.574078859537586E-001  0.461645902906465E-001 -0.693147180559945E+000 -0.198065469074395E+002
  0.261355734372065E-001  0.308311032058047E+002  0.111772608733774E+000  0.143007059663636E+000 -0.693147180559945E+000 -0.171998257868759E+002
  0.261355734372065E-001  0.283438281734365E+002  0.403285188747422E-001  0.949000834065293E-001 -0.693147180559945E+000 -0.159561882706918E+002
  0.261355734372065E-001  0.308587411516791E+002  0.266094810277697E-001  0.724484570156239E-001 -0.693147180559945E+000 -0.172136447598130E+002
  0.261355734372065E-001  0.396658633865689E+002  0.118288800085320E+000  0.403399854385198E-001 -0.693147180559945E+000 -0.216172058772580E+002
  0.261355734372065E-001  0.332965325124196E+002  0.604094773895310E-001  0.800829629479244E-001 -0.693147180559945E+000 -0.184325404401833E+002
  0.261355734372065E-001  0.321342762192736E+002  0.874696292908617E-002  0.794600601387572E-001 -0.693147180559945E+000 -0.178514122936103E+002
  0.261355734372065E-001  0.287559224121719E+002  0.772161497507224E-001  0.982808835125338E-001 -0.693147180559945E+000 -0.161622353900595E+002
  0.261355734372065E-001  0.290195696678601E+002  0.262774922317031E-001  0.880253302260832E-001 -0.693147180559945E+000 -0.162940590179035E+002
  0.261355734372065E-001  0.407323351086882E+002  0.480889466562144E-001  0.178212317083815E-001 -0.693147180559945E+000 -0.221504417383176E+002
  0.261355734372065E-001  0.308968235775287E+002  0.816441834290234E-001  0.134782022222754E+000 -0.693147180559945E+000 -0.172326859727379E+002
  0.261355734372065E-001  0.287993291370107E+002  0.408562004842534E-001  0.911168730982403E-001 -0.693147180559945E+000 -0.161839387524789E+002
  0.261355734372065E-001  0.302994031107289E+002  0.748815342706921E-001  0.762115397759712E-001 -0.693147180559945E+000 -0.169339757393379E+002
  0.261355734372065E-001  0.419876950678822E+002  0.684294840893658E-001  0.931784918147298E-001 -0.693147180559945E+000 -0.227781217179146E+002
  0.261355734372065E-001  0.289915269346494E+002  0.740330921675967E-001  0.850214275794180E-001 -0.693147180559945E+000 -0.162800376512982E+002
  0.261355734372065E-001  0.297562452817550E+002  0.251590696609540E-001  0.144550408237110E+000 -0.693147180559945E+000 -0.166623968248510E+002
  0.261355734372065E-001  0.338982308634260E+002  0.873871893837364E-002  0.794512803197287E-001 -0.693147180559945E+000 -0.187333896156865E+002
  0.261355734372065E-001  0.338182742349666E+002  0.377998589248703E-001  0.867094742990556E-001 -0.693147180559945E+000 -0.186934113014568E+002
  0.261355734372065E-001  0.289604413997661E+002  0.714574451513410E-001  0.105451668419573E+000 -0.693147180559945E+000 -0.162644948838566E+002
  0.261355734372065E-001  0.309707586669199E+002  0.636150367271382E-002  0.601711304684014E-001 -0.693147180559945E+000 -0.172696535174335E+002
  0.261355734372065E-001  0.326494401823541E+002  0.440688687600173E-001  0.917058095875658E-001 -0.693147180559945E+000 -0.181089942751506E+002
  0.261355734372065E-001  0.281192827422708E+002  0.787448160637778E-001  0.819512220535547E-001 -0.693147180559945E+000 -0.158439155551089E+002
  0.261355734372065E-001  0.284017487212068E+002  0.765665302993908E-001  0.510863342649869E-001 -0.693147180559945E+000 -0.159851485445769E+002
  0.261355734372065E-001  0.276313783738281E+002  0.375046231083132E-001  0.915968029471114E-001 -0.693147180559945E+000 -0.155999633708876E+002
  0.261355734372065E-001  0.289406908724096E+002  0.502595105196686E-001  0.951883156805462E-001 -0.693147180559945E+000 -0.162546196201783E+002
  0.261355734372065E-001  0.284105073491470E+002  0.609616139432592E-001  0.748519798945078E-001 -0.693147180559945E+000 -0.159895278585470E+002
  0.261355734372065E-001  0.354853761912810E+002  0.722543117705943E-001  0.104418309389474E+000 -0.693147180559945E+000 -0.195269622796140E+002
  0.261355734372065E-001  0.326508121060527E+002  0.636374990475308E-001  0.950024403507000E-001 -0.693147180559945E+000 -0.181096802369998E+002
  0.261355734372065E-001  0.300402680497674E+002  0.128000833189601E-001  0.812226450096667E-001 -0.693147180559945E+000 -0.168044082088572E+002
  0.261355734372065E-001  0.317342144354887E+002 -0.652418109507202E-002  0.888824473143861E-001 -0.693147180559945E+000 -0.176513814017178E+002
  0.261355734372065E-001  0.310215298436326E+002  0.262297820922757E-001  0.880499220859741E-001 -0.693147180559945E+000 -0.172950391057898E+002
  0.261355734372065E-001  0.300431905752190E+002  0.398953245026643E-001  0.952179387874774E-001 -0.693147180559945E+000 -0.168058694715830E+002
  0.261355734372065E-001  0.281163394693621E+002  0.662885895491536E-001  0.992773610024928E-001 -0.693147180559945E+000 -0.158424439186546E+002
  0.261355734372065E-001  0.300552296431273E+002  0.354253775355484E-001  0.119422063518567E+000 -0.693147180559945E+000 -0.168118890055372E+002
  0.261355734372065E-001  0.281161340035380E+002  0.538545090342322E-001  0.898196113001173E-001 -0.693147180559945E+000 -0.158423411857425E+002
  0.261355734372065E-001  0.280881508552950E+002  0.602757240593728E-001  0.754661969607583E-001 -0.693147180559945E+000 -0.158283496116210E+002
  0.261355734372065E-001  0.324680185667510E+002  0.696085885281088E-001  0.951369333436346E-001 -0.693147180559945E+000 -0.180182834673490E+002
  0.261355734372065E-001  0.317263471688023E+002  0.282131530904497E-001  0.126630439168818E+000 -0.693147180559945E+000 -0.176474477683747E+002
  0.261355734372065E-001  0.317022798540948E+002  0.752826049545541E-001  0.944846402482491E-001 -0.693147180559945E+000 -0.176354141110209E+002
  0.261355734372065E-001  0.279865918568305E+002  0.466398391382619E-001  0.934331608863300E-001 -0.693147180559945E+000 -0.157775701123888E+002
  0.261355734372065E-001  0.299023847976784E+002  0.908789628976185E-001  0.116984695045179E+000 -0.693147180559945E+000 -0.167354665828127E+002
  0.261355734372065E-001  0.356211788426333E+002  0.643972304337921E-001  0.970859958598809E-001 -0.693147180559945E+000 -0.195948636052902E+002
  0.261355734372065E-001  0.364637068814766E+002  0.864911482412305E-001  0.454141414101870E-001 -0.693147180559945E+000 -0.200161276247118E+002
  0.261355734372065E-001  0.316814332393533E+002  0.252073507119768E-001  0.790390161596348E-001 -0.693147180559945E+000 -0.176249908036502E+002
  0.261355734372065E-001  0.366345973674613E+002  0.859645439228691E-001  0.148889288192303E+000 -0.693147180559945E+000 -0.201015728677042E+002
  0.261355734372065E-001  0.284363780647304E+002  0.760764749058784E-001  0.926252654186929E-001 -0.693147180559945E+000 -0.160024632163387E+002
  0.261355734372065E-001  0.316029363155239E+002  0.123790728739497E-001  0.810891624383834E-001 -0.693147180559945E+000 -0.175857423417355E+002
  0.261355734372065E-001  0.322968645525144E+002  0.622245933447370E-001  0.933184936245108E-001 -0.693147180559945E+000 -0.179327064602307E+002
  0.261355734372065E-001  0.311473321231948E+002  0.470882000971047E-001  0.875900729446648E-001 -0.693147180559945E+000 -0.173579402455709E+002
  0.261355734372065E-001  0.435410463679521E+002  0.927935159245232E-001  0.501990111252529E-001 -0.693147180559945E+000 -0.235547973679496E+002
  0.261355734372065E-001  0.276949012603746E+002  0.272804507927999E-001  0.125293883854850E+000 -0.693147180559945E+000 -0.156317248141608E+002
  0.261355734372065E-001  0.276968293406954E+002  0.694203728368044E-001  0.836217926297413E-001 -0.693147180559945E+000 -0.156326888543212E+002
  0.261355734372065E-001  0.333850496060750E+002  0.613215790801482E-001  0.805828794992354E-001 -0.693147180559945E+000 -0.184767989870110E+002
  0.261355734372065E-001  0.311731517966917E+002  0.576126196246014E-001  0.110387525836937E+000 -0.693147180559945E+000 -0.173708500823194E+002
  0.261355734372065E-001  0.379171575487379E+002  0.277963300677364E-001  0.513053015138958E-001 -0.693147180559945E+000 -0.207428529583425E+002
  0.261355734372065E-001  0.357129184751165E+002  0.310607344281701E-001  0.153382249739082E+000 -0.693147180559945E+000 -0.196407334215317E+002
  0.261355734372065E-001  0.278094619678608E+002  0.749198819521144E-001  0.945989448059753E-001 -0.693147180559945E+000 -0.156890051679039E+002
  0.261355734372065E-001  0.297204869292656E+002  0.294973721642020E-001  0.118896433900426E+000 -0.693147180559945E+000 -0.166445176486063E+002
  0.261355734372065E-001  0.288855271381961E+002  0.609615189231862E-001  0.748519501838151E-001 -0.693147180559945E+000 -0.162270377530716E+002
  0.261355734372065E-001  0.301980997738374E+002  0.759754508463133E-001  0.979223351710980E-001 -0.693147180559945E+000 -0.168833240708922E+002
  0.261355734372065E-001  0.302086067165880E+002  0.465829562143325E-001  0.935309551623691E-001 -0.693147180559945E+000 -0.168885775422675E+002
  0.261355734372065E-001  0.378768888075682E+002  0.183079426164030E-001  0.711280901663446E-001 -0.693147180559945E+000 -0.207227185877576E+002
  0.261355734372065E-001  0.392296449402059E+002  0.909155359752574E-001  0.190882225122422E+000 -0.693147180559945E+000 -0.213990966540764E+002
  0.261355734372065E-001  0.297231798779714E+002  0.503213960591256E-001  0.123624220723047E+000 -0.693147180559945E+000 -0.166458641229592E+002
  0.261355734372065E-001  0.312239789183609E+002  0.596491524965461E-001  0.755689262275182E-001 -0.693147180559945E+000 -0.173962636431540E+002
  0.261355734372065E-001  0.439702847492926E+002  0.745821158234088E-001  0.325027751359094E-001 -0.693147180559945E+000 -0.237694165586198E+002
  0.261355734372065E-001  0.314069899402999E+002  0.752826145216159E-001  0.944848486434621E-001 -0.693147180559945E+000 -0.174877691541234E+002
  0.261355734372065E-001  0.312425175787264E+002  0.601467962614366E-001  0.759673482775691E-001 -0.693147180559945E+000 -0.174055329733367E+002
  0.261355734372065E-001  0.298948317489790E+002  0.483214614273588E-001  0.916368973957473E-001 -0.693147180559945E+000 -0.167316900584630E+002
  0.261355734372065E-001  0.312627553646862E+002  0.758097593923259E-001  0.926994646216972E-001 -0.693147180559945E+000 -0.174156518663166E+002
  0.261355734372065E-001  0.297321489503975E+002  0.350806697659427E-001  0.112353766239334E+000 -0.693147180559945E+000 -0.166503486591722E+002
  0.261355734372065E-001  0.312705642362208E+002  0.516282725687149E-001  0.109914831818888E+000 -0.693147180559945E+000 -0.174195563020839E+002
  0.261355734372065E-001  0.334821222903909E+002  0.349481546163766E-003  0.113539543350521E+000 -0.693147180559945E+000 -0.185253353291690E+002
  0.261355734372065E-001  0.366078292913524E+002  0.236939005188597E-001  0.117421142294127E+000 -0.693147180559945E+000 -0.200881888296497E+002
  0.261355734372065E-001  0.277149772526892E+002  0.743181524773182E-001  0.874269067601290E-001 -0.693147180559945E+000 -0.156417628103181E+002
  0.261355734372065E-001  0.277164116625642E+002  0.372951174774594E-001  0.961933579781961E-001 -0.693147180559945E+000 -0.156424800152556E+002
  0.261355734372065E-001  0.377230233226099E+002  0.669145974195788E-001  0.120878993498333E+000 -0.693147180559945E+000 -0.206457858452785E+002
  0.261355734372065E-001  0.357677760776835E+002  0.266919634751313E-001  0.624663273576196E-001 -0.693147180559945E+000 -0.196681622228153E+002
  0.261355734372065E-001  0.312969049404533E+002 -0.185063077357306E-002  0.129894588465069E+000 -0.693147180559945E+000 -0.174327266542002E+002
  0.261355734372065E-001  0.312970652017968E+002  0.399016594180979E-001  0.952053113409482E-001 -0.693147180559945E+000 -0.174328067848719E+002
  0.261355734372065E-001  0.232674793579233E+002  0.412266422637377E-001  0.115176634751477E+000 -0.693147180559945E+000 -0.116337396789617E+002
