  0.196116848442323E-001  0.285810630667425E+002  0.276021079976707E-001  0.111121365498450E+000 -0.693147180559945E+000 -0.142905315333713E+002
  0.196116848442323E-001  0.295454103774550E+002  0.508876015723398E-001  0.124219138658786E+000 -0.693147180559945E+000 -0.166669452740711E+002
  0.196116848442323E-001  0.284591213205398E+002  0.292820995254146E-001  0.109908769563416E+000 -0.693147180559945E+000 -0.142295606602699E+002
  0.196116848442323E-001  0.328415046924180E+002  0.759919634851987E-001  0.926452458590620E-001 -0.693147180559945E+000 -0.183149924315525E+002
  0.196116848442323E-001  0.271559498794036E+002  0.538630311673240E-001  0.898159375522706E-001 -0.693147180559945E+000 -0.154722150250453E+002
  0.196116848442323E-001  0.281304695152134E+002  0.487224041528802E-001  0.120669801134465E+000 -0.693147180559945E+000 -0.159594748429503E+002
  0.196116848442323E-001  0.271607542191474E+002  0.670816198319435E-001  0.121136013387676E+000 -0.693147180559945E+000 -0.154746171949173E+002
  0.196116848442323E-001  0.281940890251093E+002  0.354224820078697E-001  0.119457049750273E+000 -0.693147180559945E+000 -0.159912845978982E+002
  0.196116848442323E-001  0.303870250445452E+002  0.505702224524838E-001  0.106873618172889E+000 -0.693147180559945E+000 -0.170877526076162E+002
  0.196116848442323E-001  0.272026898467968E+002  0.772161497280182E-001  0.982808835646848E-001 -0.693147180559945E+000 -0.154955850087419E+002
  0.196116848442323E-001  0.393635841241406E+002  0.942268478673529E-001  0.280817055589399E-001 -0.693147180559945E+000 -0.215760321474139E+002
  0.196116848442323E-001  0.303243815284870E+002  0.765430690218376E-001  0.111895584515809E+000 -0.693147180559945E+000 -0.170564308495870E+002
  0.196116848442323E-001  0.378403074280068E+002  0.798246879759661E-001  0.441686081175315E-001 -0.693147180559945E+000 -0.208143937993470E+002
  0.196116848442323E-001  0.430613302619538E+002  0.523603872521807E-001  0.222642555770706E-001 -0.693147180559945E+000 -0.234249052163205E+002
  0.196116848442323E-001  0.425906316631542E+002  0.800883234866339E-001  0.316458789812200E-001 -0.693147180559945E+000 -0.231895559169206E+002
  0.196116848442323E-001  0.280982328078014E+002  0.398944061572448E-001  0.952217063730532E-001 -0.693147180559945E+000 -0.159433564892443E+002
  0.196116848442323E-001  0.425422279216129E+002  0.905571986722256E-001  0.608633620576019E-001 -0.693147180559945E+000 -0.231653540461500E+002
  0.196116848442323E-001  0.321710944397010E+002  0.330664687959956E-001  0.652623924777528E-001 -0.693147180559945E+000 -0.179797873051941E+002
  0.196116848442323E-001  0.302568504845599E+002  0.392610329668763E-001  0.565652725782270E-001 -0.693147180559945E+000 -0.170226653276235E+002
  0.196116848442323E-001  0.308514857097099E+002  0.603679163903876E-001  0.801506263230007E-001 -0.693147180559945E+000 -0.173199829401985E+002
  0.196116848442323E-001  0.327509892351811E+002  0.503439129555139E-001  0.875615697950468E-001 -0.693147180559945E+000 -0.182697347029341E+002
  0.196116848442323E-001  0.356122092824538E+002  0.216396517687409E-001  0.543556484575401E-001 -0.693147180559945E+000 -0.197003447265705E+002
  0.196116848442323E-001  0.272493694898754E+002  0.538789177811008E-001  0.898530613659482E-001 -0.693147180559945E+000 -0.155189248302813E+002
  0.196116848442323E-001  0.280162844597336E+002  0.442241274553510E-001  0.880280963848724E-001 -0.693147180559945E+000 -0.159023823152104E+002
  0.196116848442323E-001  0.296027524057646E+002  0.515811627646214E-001  0.869438343141285E-001 -0.693147180559945E+000 -0.166956162882258E+002
  0.196116848442323E-001  0.361901241940066E+002  0.567877657959650E-001  0.118369479604331E+000 -0.693147180559945E+000 -0.199893021823468E+002
  0.196116848442323E-001  0.322016197747614E+002  0.636259626085180E-001  0.727892162062603E-001 -0.693147180559945E+000 -0.179950499727243E+002
  0.196116848442323E-001  0.301798345252813E+002  0.470975253723758E-001  0.879091079728121E-001 -0.693147180559945E+000 -0.169841573479842E+002
  0.196116848442323E-001  0.326960144105652E+002  0.301118758872900E-001  0.119602974638942E+000 -0.693147180559945E+000 -0.182422472906262E+002
  0.196116848442323E-001  0.298203362470273E+002  0.128000833189601E-001  0.812226450096667E-001 -0.693147180559945E+000 -0.168044082088572E+002
  0.196116848442323E-001  0.362013816493458E+002  0.739096919223730E-001  0.153031699468422E+000 -0.693147180559945E+000 -0.199949309100165E+002
  0.196116848442323E-001  0.422565720215526E+002  0.195942691603612E-001  0.911642561702729E-001 -0.693147180559945E+000 -0.230225260961199E+002
  0.196116848442323E-001  0.398681443768704E+002  0.961797810694316E-001  0.836704563818733E-001 -0.693147180559945E+000 -0.218283122737788E+002
  0.196116848442323E-001  0.406109847747908E+002  0.531253064754484E-001  0.707196993903441E-001 -0.693147180559945E+000 -0.221997324727389E+002
  0.196116848442323E-001  0.273719217873850E+002  0.420249353901052E-001  0.946549600527706E-001 -0.693147180559945E+000 -0.155802009790361E+002
  0.196116848442323E-001  0.341393655559453E+002  0.423679994045423E-001  0.478782557895751E-001 -0.693147180559945E+000 -0.189639228633162E+002
  0.196116848442323E-001  0.311119933176114E+002  0.282130880404430E-001  0.126630742510583E+000 -0.693147180559945E+000 -0.174502367441493E+002
  0.196116848442323E-001  0.308499476789781E+002  0.910559994798388E-001  0.117142645699248E+000 -0.693147180559945E+000 -0.173192139248326E+002
  0.196116848442323E-001  0.334234156057131E+002  0.659433088896513E-001  0.103222469231541E+000 -0.693147180559945E+000 -0.186059478882001E+002
  0.196116848442323E-001  0.317406696776690E+002  0.301703234932282E-001  0.100955698403849E+000 -0.693147180559945E+000 -0.177645749241781E+002
  0.196116848442323E-001  0.390018494166910E+002  0.978954057386798E-001  0.937726164458854E-001 -0.693147180559945E+000 -0.213951647936891E+002
  0.196116848442323E-001  0.323394609048604E+002  0.531747933691187E-001  0.111038879615163E+000 -0.693147180559945E+000 -0.180639705377737E+002
  0.196116848442323E-001  0.278962022007979E+002  0.538545090342322E-001  0.898196113001173E-001 -0.693147180559945E+000 -0.158423411857425E+002
  0.196116848442323E-001  0.278606160755732E+002  0.719573839178167E-001  0.129563143250285E+000 -0.693147180559945E+000 -0.158245481231302E+002
  0.196116848442323E-001  0.342176699566706E+002  0.897360172060526E-001  0.635569220829398E-001 -0.693147180559945E+000 -0.190030750636788E+002
  0.196116848442323E-001  0.401958955694927E+002  0.531499231023151E-001  0.394752378510056E-001 -0.693147180559945E+000 -0.219921878700899E+002
  0.196116848442323E-001  0.285261583008232E+002  0.719354940493404E-001  0.100138849256121E+000 -0.693147180559945E+000 -0.161573192357551E+002
  0.196116848442323E-001  0.323331432365658E+002  0.490844863801589E-001  0.114670693089873E+000 -0.693147180559945E+000 -0.180608117036265E+002
  0.196116848442323E-001  0.299736487776921E+002  0.276813855460081E-001  0.116187912855312E+000 -0.693147180559945E+000 -0.168810644741896E+002
  0.196116848442323E-001  0.307832749090801E+002  0.775239713175429E-001  0.117955482137932E+000 -0.693147180559945E+000 -0.172858775398836E+002
  0.196116848442323E-001  0.315142826327486E+002 -0.652418109507202E-002  0.888824473143861E-001 -0.693147180559945E+000 -0.176513814017178E+002
  0.196116848442323E-001  0.273936766326408E+002  0.293008118257163E-001  0.118297011557308E+000 -0.693147180559945E+000 -0.155910784016640E+002
  0.196116848442323E-001  0.319528845407413E+002  0.846463760925111E-001  0.129339086262576E+000 -0.693147180559945E+000 -0.178706823557142E+002
  0.196116848442323E-001  0.278228475882053E+002  0.502583850845970E-001  0.951886258517428E-001 -0.693147180559945E+000 -0.158056638794462E+002
  0.196116848442323E-001  0.293261303613444E+002  0.910590725377238E-001  0.117146862718703E+000 -0.693147180559945E+000 -0.165573052660158E+002
  0.196116848442323E-001  0.323256338468036E+002  0.392755588714322E-001  0.565686445470161E-001 -0.693147180559945E+000 -0.180570570087454E+002
  0.196116848442323E-001  0.274094103968125E+002  0.915252189184146E-001  0.116698664417668E+000 -0.693147180559945E+000 -0.155989452837498E+002
  0.196116848442323E-001  0.307536143932588E+002  0.394845201798979E-001  0.885193088781854E-001 -0.693147180559945E+000 -0.172710472819730E+002
  0.196116848442323E-001  0.419348739529470E+002  0.110765488192562E+000  0.166103167399202E+000 -0.693147180559945E+000 -0.228616770618171E+002
  0.196116848442323E-001  0.300011068300884E+002  0.896693996700877E-001  0.112966839212971E+000 -0.693147180559945E+000 -0.168947935003878E+002
  0.196116848442323E-001  0.444899169412731E+002 -0.532277386172164E-002  0.419802858280810E-001 -0.693147180559945E+000 -0.241391985559801E+002
  0.196116848442323E-001  0.277725862502782E+002  0.402991593365261E-001  0.906922733023025E-001 -0.693147180559945E+000 -0.157805332104827E+002
  0.196116848442323E-001  0.286499261421642E+002  0.609612669184159E-001  0.748518493337425E-001 -0.693147180559945E+000 -0.162192031564257E+002
  0.196116848442323E-001  0.296765303469182E+002  0.602774880104096E-001  0.754629050953798E-001 -0.693147180559945E+000 -0.167325052588026E+002
  0.196116848442323E-001  0.325028004432606E+002  0.483357894748926E-001  0.106196715452782E+000 -0.693147180559945E+000 -0.181456403069738E+002
  0.196116848442323E-001  0.286655953354560E+002  0.609615189231862E-001  0.748519501838151E-001 -0.693147180559945E+000 -0.162270377530716E+002
  0.196116848442323E-001  0.344249034984229E+002 -0.281776850284660E-001  0.164526872283258E+000 -0.693147180559945E+000 -0.191066918345550E+002
  0.196116848442323E-001  0.286714570393954E+002  0.252073075075274E-001  0.790389703770777E-001 -0.693147180559945E+000 -0.162299686050412E+002
  0.196116848442323E-001  0.286725213771865E+002  0.557720558977186E-001  0.119256385153733E+000 -0.693147180559945E+000 -0.162305007739368E+002
  0.196116848442323E-001  0.287361071771212E+002  0.635834598811837E-001  0.128905723195300E+000 -0.693147180559945E+000 -0.162622936739042E+002
  0.196116848442323E-001  0.364935905183974E+002  0.578595326335101E-001  0.858446092773529E-001 -0.693147180559945E+000 -0.201410353445422E+002
  0.196116848442323E-001  0.344633833058486E+002  0.329577511622692E-001  0.122971715048546E+000 -0.693147180559945E+000 -0.191259317382679E+002
  0.196116848442323E-001  0.276640257556476E+002  0.420985914392531E-001  0.942809747528417E-001 -0.693147180559945E+000 -0.157262529631674E+002
  0.196116848442323E-001  0.292270841649937E+002  0.442447287883485E-001  0.880494126003554E-001 -0.693147180559945E+000 -0.165077821678404E+002
  0.196116848442323E-001  0.333243481891856E+002  0.187924376375470E-001  0.839483065611986E-001 -0.693147180559945E+000 -0.185564141799364E+002
  0.196116848442323E-001  0.291906867878830E+002  0.502595105196686E-001  0.951883156805462E-001 -0.693147180559945E+000 -0.164895834792850E+002
  0.196116848442323E-001  0.291878826108232E+002  0.677697552951058E-001  0.768836074111942E-001 -0.693147180559945E+000 -0.164881813907552E+002
  0.196116848442323E-001  0.288109811757347E+002  0.770873535620462E-001  0.859569237584676E-001 -0.693147180559945E+000 -0.162997306732109E+002
  0.196116848442323E-001  0.288128852838468E+002  0.381142027483807E-001  0.863592042292591E-001 -0.693147180559945E+000 -0.163006827272670E+002
  0.196116848442323E-001  0.274921134530967E+002  0.644928393291102E-001  0.703565234075496E-001 -0.693147180559945E+000 -0.156402968118919E+002
  0.196116848442323E-001  0.288496633018665E+002  0.690313951462669E-001  0.770273793604775E-001 -0.693147180559945E+000 -0.163190717362768E+002
  0.196116848442323E-001  0.288525341358417E+002  0.534232823010508E-001  0.962942102839202E-001 -0.693147180559945E+000 -0.163205071532644E+002
  0.196116848442323E-001  0.288561579043287E+002  0.239058120826896E-001  0.774205326866863E-001 -0.693147180559945E+000 -0.163223190375079E+002
  0.196116848442323E-001  0.276158143671820E+002  0.783866649178986E-001  0.104039425098322E+000 -0.693147180559945E+000 -0.157021472689346E+002
  0.196116848442323E-001  0.299781679710973E+002  0.759754508463133E-001  0.979223351710980E-001 -0.693147180559945E+000 -0.168833240708922E+002
  0.196116848442323E-001  0.276018106157310E+002  0.199695141038254E-001  0.825099901154092E-001 -0.693147180559945E+000 -0.156951453932091E+002
  0.196116848442323E-001  0.351933716896489E+002  0.238855877621078E-001  0.882697081609594E-001 -0.693147180559945E+000 -0.194909259301680E+002
  0.196116848442323E-001  0.275018720348772E+002  0.670816199575990E-001  0.121136013534472E+000 -0.693147180559945E+000 -0.156451761027822E+002
  0.196116848442323E-001  0.350899927910190E+002  0.334695588157481E-001  0.122154327524721E+000 -0.693147180559945E+000 -0.194392364808531E+002
  0.196116848442323E-001  0.291645899190847E+002  0.410411495042802E-001  0.950882049528670E-001 -0.693147180559945E+000 -0.164765350448859E+002
  0.196116848442323E-001  0.291299011244866E+002  0.561494992912548E-001  0.687584378868076E-001 -0.693147180559945E+000 -0.164591906475869E+002
  0.196116848442323E-001  0.331715233688613E+002  0.387861472760989E-001  0.719836354535059E-001 -0.693147180559945E+000 -0.184800017697742E+002
  0.196116848442323E-001  0.331782952728106E+002  0.749652615987473E-001  0.997621505210002E-001 -0.693147180559945E+000 -0.184833877217489E+002
  0.196116848442323E-001  0.366023599071714E+002  0.301688698579587E-001  0.998434413380944E-001 -0.693147180559945E+000 -0.201954200389293E+002
  0.196116848442323E-001  0.322882884420487E+002  0.298974784910202E-001  0.117729416580132E+000 -0.693147180559945E+000 -0.180383843063679E+002
  0.196116848442323E-001  0.315810671986199E+002  0.602698537424082E-001  0.754577654389344E-001 -0.693147180559945E+000 -0.176847736846535E+002
  0.196116848442323E-001  0.290533486610940E+002  0.910559780981830E-001  0.117142683863625E+000 -0.693147180559945E+000 -0.164209144158906E+002
  0.196116848442323E-001  0.318600010261560E+002  0.143837934307247E-001  0.837000405830856E-001 -0.693147180559945E+000 -0.178242405984216E+002
  0.196116848442323E-001  0.290266230016348E+002  0.749554707493418E-001  0.759156850379768E-001 -0.693147180559945E+000 -0.164075515861610E+002
  0.196116848442323E-001  0.415932827885029E+002  0.632676667124230E-001  0.601800132631258E-001 -0.693147180559945E+000 -0.226908814795950E+002
  0.196116848442323E-001  0.365454298946580E+002  0.557578104861869E-001  0.716781109197989E-001 -0.693147180559945E+000 -0.201669550326726E+002
  0.196116848442323E-001  0.312464620968640E+002  0.453304456300181E-001  0.112521610341430E+000 -0.693147180559945E+000 -0.175174711337756E+002
  0.196116848442323E-001  0.370026097709113E+002  0.101800394498387E+000  0.620303003707354E-001 -0.693147180559945E+000 -0.203955449707992E+002
  0.196116848442323E-001  0.369869809461497E+002  0.725611001675122E-001  0.552260986012568E-001 -0.693147180559945E+000 -0.203877305584184E+002
  0.196116848442323E-001  0.289339541631480E+002  0.561439967952171E-001  0.687604126598339E-001 -0.693147180559945E+000 -0.163612171669176E+002
  0.196116848442323E-001  0.227276831679618E+002  0.293240928080114E-001  0.109839484678755E+000 -0.693147180559945E+000 -0.113638415839809E+002
