  0.219929257732882E-001  0.248577933113642E+002  0.766010896922569E-001  0.111950874901260E+000 -0.693147180559945E+000 -0.124288966556821E+002
  0.219929257732882E-001  0.235147773937916E+002  0.766011513119000E-001  0.111950930633627E+000 -0.693147180559945E+000 -0.117573886968958E+002
  0.219929257732882E-001  0.293988299166936E+002  0.705108347311558E-001  0.107915245283858E+000 -0.693147180559945E+000 -0.165866171337026E+002
  0.219929257732882E-001  0.250679250378031E+002  0.765795019173838E-001  0.111913371680691E+000 -0.693147180559945E+000 -0.125339625189016E+002
  0.219929257732882E-001  0.251201948658427E+002  0.397646913290939E-001  0.100844741728109E+000 -0.693147180559945E+000 -0.142943028795458E+002
  0.219929257732882E-001  0.244423869633420E+002  0.765785520085154E-001  0.111911659997725E+000 -0.693147180559945E+000 -0.122211934816710E+002
  0.219929257732882E-001  0.255391879706526E+002  0.766011517055272E-001  0.111950930663548E+000 -0.693147180559945E+000 -0.127695939853263E+002
  0.219929257732882E-001  0.344127850933548E+002  0.684082672164923E-001  0.125894637574420E+000 -0.693147180559945E+000 -0.190935947220332E+002
  0.219929257732882E-001  0.256939076810731E+002  0.765785520085256E-001  0.111911659997892E+000 -0.693147180559945E+000 -0.128469538405365E+002
  0.219929257732882E-001  0.256942981761608E+002  0.765785520085138E-001  0.111911659997887E+000 -0.693147180559945E+000 -0.128471490880804E+002
  0.219929257732882E-001  0.251626917251167E+002  0.480548087297776E-001  0.106662478014834E+000 -0.693147180559945E+000 -0.143155513091829E+002
  0.219929257732882E-001  0.305018642286077E+002  0.480599420998622E-001  0.879628083849352E-001 -0.693147180559945E+000 -0.171381342896596E+002
  0.219929257732882E-001  0.337905590728813E+002  0.491839537940473E-001  0.867644566733559E-001 -0.693147180559945E+000 -0.187824817117965E+002
  0.219929257732882E-001  0.347386513884884E+002  0.854197238622305E-001  0.103763604149931E+000 -0.693147180559945E+000 -0.192565278696000E+002
  0.219929257732882E-001  0.269397528609914E+002  0.765785520085149E-001  0.111911659997725E+000 -0.693147180559945E+000 -0.134698764304957E+002
  0.219929257732882E-001  0.252339707119436E+002  0.509648752942076E-001  0.948641375444348E-001 -0.693147180559945E+000 -0.143511908025963E+002
  0.219929257732882E-001  0.277866620702537E+002  0.402991593365261E-001  0.906922733023025E-001 -0.693147180559945E+000 -0.157805332104827E+002
  0.219929257732882E-001  0.252543019892006E+002  0.746106781865696E-001  0.944470869135532E-001 -0.693147180559945E+000 -0.143613564412248E+002
  0.219929257732882E-001  0.252819160130588E+002  0.507168610340130E-001  0.949220909584135E-001 -0.693147180559945E+000 -0.143751634531539E+002
  0.219929257732882E-001  0.252999562759969E+002  0.442446413037441E-001  0.880495834112436E-001 -0.693147180559945E+000 -0.143841835846230E+002
  0.219929257732882E-001  0.278470722614732E+002  0.765785459126516E-001  0.111911655674868E+000 -0.693147180559945E+000 -0.139235361307366E+002
  0.219929257732882E-001  0.344416327579028E+002  0.121994271131366E+000  0.103604037779163E+000 -0.693147180559945E+000 -0.191080185543072E+002
  0.219929257732882E-001  0.285661618352856E+002  0.765785520095177E-001  0.111911659998282E+000 -0.693147180559945E+000 -0.142830809176428E+002
  0.219929257732882E-001  0.275072689478067E+002  0.910219166988355E-001  0.117136780745752E+000 -0.693147180559945E+000 -0.156408366492592E+002
  0.219929257732882E-001  0.253348937066434E+002  0.372951150043843E-001  0.961933623765512E-001 -0.693147180559945E+000 -0.144016522999462E+002
  0.219929257732882E-001  0.337130839629593E+002  0.490844750655195E-001  0.114670690596183E+000 -0.693147180559945E+000 -0.187437441568355E+002
  0.219929257732882E-001  0.304862742237163E+002  0.608227086740769E-001  0.746739476869063E-001 -0.693147180559945E+000 -0.171303392872140E+002
  0.219929257732882E-001  0.327417671173225E+002  0.266064917390767E-001  0.724430322832361E-001 -0.693147180559945E+000 -0.182580857340170E+002
  0.219929257732882E-001  0.347524074222957E+002  0.812695655598816E-001  0.662857631923512E-001 -0.693147180559945E+000 -0.192634058865037E+002
  0.219929257732882E-001  0.347531863603585E+002  0.862797880542792E-001  0.644969236852558E-001 -0.693147180559945E+000 -0.192637953555351E+002
  0.219929257732882E-001  0.253774260151225E+002  0.361029829093544E-001  0.917732591049898E-001 -0.693147180559945E+000 -0.144229184541858E+002
  0.219929257732882E-001  0.253914268036376E+002  0.839971320165211E-001  0.892963333577248E-001 -0.693147180559945E+000 -0.144299188484433E+002
  0.219929257732882E-001  0.253955437130011E+002  0.602570461344574E-001  0.108219807194707E+000 -0.693147180559945E+000 -0.144319773031251E+002
  0.219929257732882E-001  0.254015964649759E+002  0.648353634026630E-001  0.103857834564956E+000 -0.693147180559945E+000 -0.144350036791124E+002
  0.219929257732882E-001  0.254087655951106E+002  0.502583850992064E-001  0.951886258784684E-001 -0.693147180559945E+000 -0.144385882441798E+002
  0.219929257732882E-001  0.254336889954106E+002  0.557029853915239E-001  0.103147435780020E+000 -0.693147180559945E+000 -0.144510499443298E+002
  0.219929257732882E-001  0.304830964621392E+002  0.420957115829064E-001  0.772111091337956E-001 -0.693147180559945E+000 -0.171287504064254E+002
  0.219929257732882E-001  0.288369212025869E+002  0.563349924559480E-001  0.724013404658057E-001 -0.693147180559945E+000 -0.163056627766492E+002
  0.219929257732882E-001  0.287576159171713E+002  0.602760316682767E-001  0.754674020117851E-001 -0.693147180559945E+000 -0.162660101339415E+002
  0.219929257732882E-001  0.288663794657445E+002  0.375075247216472E-001  0.916016430852907E-001 -0.693147180559945E+000 -0.163203919082280E+002
  0.219929257732882E-001  0.327650650551566E+002  0.503439129555139E-001  0.875615697950468E-001 -0.693147180559945E+000 -0.182697347029341E+002
  0.219929257732882E-001  0.412520264489126E+002  0.896350611845764E-001  0.146034802562365E+000 -0.693147180559945E+000 -0.225132153998121E+002
  0.219929257732882E-001  0.327675241180283E+002  0.684112170541258E-001  0.947266615517988E-001 -0.693147180559945E+000 -0.182709642343700E+002
  0.219929257732882E-001  0.317980522047411E+002  0.586039110667882E-001  0.114567254752879E+000 -0.693147180559945E+000 -0.177862282777264E+002
  0.219929257732882E-001  0.297592364080792E+002  0.662379679184306E-001  0.803420666251824E-001 -0.693147180559945E+000 -0.167668203793954E+002
  0.219929257732882E-001  0.327999930975298E+002  0.609264134184797E-001  0.539452178529392E-001 -0.693147180559945E+000 -0.182871987241207E+002
  0.219929257732882E-001  0.343605877018380E+002  0.846212661024557E-001  0.104813683709492E+000 -0.693147180559945E+000 -0.190674960262748E+002
  0.219929257732882E-001  0.255570001524010E+002  0.695320180806671E-001  0.716059034223279E-001 -0.693147180559945E+000 -0.145127055228250E+002
  0.219929257732882E-001  0.304624851229010E+002  0.817194650289810E-001  0.134859892826054E+000 -0.693147180559945E+000 -0.171184447368063E+002
  0.219929257732882E-001  0.317574403219883E+002  0.293011260638671E-001  0.118297004195129E+000 -0.693147180559945E+000 -0.177659223363499E+002
  0.219929257732882E-001  0.381315695625337E+002  0.851221426751831E-001  0.700033170686156E-001 -0.693147180559945E+000 -0.209529869566226E+002
  0.219929257732882E-001  0.279733104739735E+002  0.108197454699698E+000  0.766775516497194E-001 -0.693147180559945E+000 -0.158738574123425E+002
  0.219929257732882E-001  0.288956565751564E+002  0.705108318297467E-001  0.107915239788760E+000 -0.693147180559945E+000 -0.163350304629340E+002
  0.219929257732882E-001  0.349481856881630E+002  0.454321066301242E-001  0.916061836544655E-001 -0.693147180559945E+000 -0.193612950194373E+002
  0.219929257732882E-001  0.381605233658769E+002  0.620749940447030E-002  0.580971974463445E-001 -0.693147180559945E+000 -0.209674638582943E+002
  0.219929257732882E-001  0.279732342503176E+002  0.508997101145494E-001  0.949312549649349E-001 -0.693147180559945E+000 -0.158738193005146E+002
  0.219929257732882E-001  0.301058280974784E+002  0.758097594070422E-001  0.926994646262239E-001 -0.693147180559945E+000 -0.169401162240950E+002
  0.219929257732882E-001  0.318200603408743E+002  0.438119158772754E-001  0.807040141155536E-001 -0.693147180559945E+000 -0.177972323457930E+002
  0.219929257732882E-001  0.255818952690799E+002  0.766598100272178E-001  0.895518405315583E-001 -0.693147180559945E+000 -0.145251530811645E+002
  0.219929257732882E-001  0.336969656791605E+002  0.225812840843949E-001  0.943315591892681E-001 -0.693147180559945E+000 -0.187356850149361E+002
  0.219929257732882E-001  0.445039927612486E+002 -0.532277386172164E-002  0.419802858280810E-001 -0.693147180559945E+000 -0.241391985559801E+002
  0.219929257732882E-001  0.304573550294243E+002  0.605015439671057E-001  0.800696488862856E-001 -0.693147180559945E+000 -0.171158796900680E+002
  0.219929257732882E-001  0.286436831843366E+002  0.616465882681634E-001  0.976669063147205E-001 -0.693147180559945E+000 -0.162090437675241E+002
  0.219929257732882E-001  0.274935600962693E+002  0.473782208722702E-001  0.936133129765037E-001 -0.693147180559945E+000 -0.156339822234905E+002
  0.219929257732882E-001  0.413306929568070E+002  0.927421526218954E-001  0.362104728714299E-001 -0.693147180559945E+000 -0.225525486537593E+002
  0.219929257732882E-001  0.274927713295852E+002  0.465730080674953E-001  0.935267559243171E-001 -0.693147180559945E+000 -0.156335878401484E+002
  0.219929257732882E-001  0.304148973276807E+002  0.360683538594992E-001  0.843540716359535E-001 -0.693147180559945E+000 -0.170946508391962E+002
  0.219929257732882E-001  0.304123750162079E+002  0.602760391735169E-001  0.754673864776643E-001 -0.693147180559945E+000 -0.170933896834597E+002
  0.219929257732882E-001  0.257047967420010E+002  0.439699465155645E-001  0.880126486436089E-001 -0.693147180559945E+000 -0.145866038176250E+002
  0.219929257732882E-001  0.257141010104266E+002  0.508667856662424E-001  0.768653950182533E-001 -0.693147180559945E+000 -0.145912559518378E+002
  0.219929257732882E-001  0.328555805123935E+002  0.759919634851987E-001  0.926452458590620E-001 -0.693147180559945E+000 -0.183149924315525E+002
  0.219929257732882E-001  0.382603239458217E+002  0.793182063578264E-001  0.509792564205760E-001 -0.693147180559945E+000 -0.210173641482666E+002
  0.219929257732882E-001  0.317375622430987E+002  0.740541938390031E-001  0.866395475745281E-001 -0.693147180559945E+000 -0.177559832969052E+002
  0.219929257732882E-001  0.323162138995914E+002  0.505701692945022E-001  0.106873683476979E+000 -0.693147180559945E+000 -0.180453091251515E+002
  0.219929257732882E-001  0.258306919545100E+002  0.712459478772516E-001  0.958517698157994E-001 -0.693147180559945E+000 -0.146495514238795E+002
  0.219929257732882E-001  0.304085033080464E+002  0.556998799316180E-001  0.103130932518252E+000 -0.693147180559945E+000 -0.170914538293790E+002
  0.219929257732882E-001  0.276528798819415E+002  0.712452446357268E-001  0.958489016307536E-001 -0.693147180559945E+000 -0.157136421163266E+002
  0.219929257732882E-001  0.272227696342982E+002  0.743181524176382E-001  0.874269067493670E-001 -0.693147180559945E+000 -0.154985869925049E+002
  0.219929257732882E-001  0.328613405848740E+002  0.117474333965896E+000  0.449732016629765E-001 -0.693147180559945E+000 -0.183178724677928E+002
  0.219929257732882E-001  0.286359905223554E+002  0.416421088907215E-001  0.141980803890300E+000 -0.693147180559945E+000 -0.162051974365335E+002
  0.219929257732882E-001  0.325759038766421E+002  0.609614602655786E-001  0.748520409214987E-001 -0.693147180559945E+000 -0.181751541136769E+002
  0.219929257732882E-001  0.325631377038816E+002  0.771759982635398E-001  0.982946468640139E-001 -0.693147180559945E+000 -0.181687710272966E+002
  0.219929257732882E-001  0.336923748806614E+002  0.873871893837364E-002  0.794512803197287E-001 -0.693147180559945E+000 -0.187333896156865E+002
  0.219929257732882E-001  0.294606329239904E+002  0.640110906114002E-001  0.732868807530979E-001 -0.693147180559945E+000 -0.166175186373510E+002
  0.219929257732882E-001  0.275280720705481E+002  0.101298270429486E+000  0.788646225987747E-001 -0.693147180559945E+000 -0.156512382106298E+002
  0.219929257732882E-001  0.383162557256725E+002  0.654005364190557E-001  0.625324338789804E-001 -0.693147180559945E+000 -0.210453300381921E+002
  0.219929257732882E-001  0.273939261538069E+002  0.716347301856357E-001  0.973631437274697E-001 -0.693147180559945E+000 -0.155841652522593E+002
  0.219929257732882E-001  0.276660554370926E+002  0.671035556453063E-001  0.121114905659754E+000 -0.693147180559945E+000 -0.157202298939021E+002
  0.219929257732882E-001  0.303250278799175E+002  0.462636273194055E-001  0.875413130197046E-001 -0.693147180559945E+000 -0.170497161153146E+002
  0.219929257732882E-001  0.336183080709534E+002  0.921181427098205E-001  0.672704062595997E-001 -0.693147180559945E+000 -0.186963562108325E+002
  0.219929257732882E-001  0.303240208158137E+002  0.719577474795527E-001  0.129557680505898E+000 -0.693147180559945E+000 -0.170492125832627E+002
  0.219929257732882E-001  0.273859976073605E+002  0.420249353901052E-001  0.946549600527706E-001 -0.693147180559945E+000 -0.155802009790361E+002
  0.219929257732882E-001  0.259810342270662E+002  0.765785519917865E-001  0.111911659998313E+000 -0.693147180559945E+000 -0.147247225601576E+002
  0.219929257732882E-001  0.330177820319100E+002  0.777357107705947E-001  0.792949752457724E-001 -0.693147180559945E+000 -0.183960931913108E+002
  0.219929257732882E-001  0.324073031776980E+002  0.480164195047794E-002  0.109456807822280E+000 -0.693147180559945E+000 -0.180908537642048E+002
  0.219929257732882E-001  0.322156955947369E+002  0.636259626085180E-001  0.727892162062603E-001 -0.693147180559945E+000 -0.179950499727243E+002
  0.219929257732882E-001  0.259961958686959E+002  0.538545090340965E-001  0.898196112996469E-001 -0.693147180559945E+000 -0.147323033809725E+002
  0.219929257732882E-001  0.362042000139821E+002  0.567877657959650E-001  0.118369479604331E+000 -0.693147180559945E+000 -0.199893021823468E+002
  0.219929257732882E-001  0.260404715202870E+002  0.760115719173093E-001  0.929494398791191E-001 -0.693147180559945E+000 -0.147544412067680E+002
  0.219929257732882E-001  0.260660154089560E+002  0.563350537810201E-001  0.724014518834172E-001 -0.693147180559945E+000 -0.147672131511025E+002
  0.219929257732882E-001  0.330344776710287E+002  0.239984921530974E-001  0.126336097748553E+000 -0.693147180559945E+000 -0.184044410108702E+002
  0.219929257732882E-001  0.260896715132309E+002  0.768006072794976E-001  0.104738706742856E+000 -0.693147180559945E+000 -0.147790412032399E+002
  0.219929257732882E-001  0.330447687173384E+002  0.295066828284287E-001  0.811552100546597E-001 -0.693147180559945E+000 -0.184095865340250E+002
  0.219929257732882E-001  0.303021777710381E+002  0.670824444352158E-001  0.121145110403472E+000 -0.693147180559945E+000 -0.170382910608749E+002
  0.219929257732882E-001  0.261624679903368E+002  0.380344671690735E-001  0.995662295763175E-001 -0.693147180559945E+000 -0.148154394417929E+002
  0.219929257732882E-001  0.261690746398164E+002  0.584126347008409E-001  0.735033447041471E-001 -0.693147180559945E+000 -0.148187427665327E+002
  0.219929257732882E-001  0.279617366854838E+002  0.462525039908039E-001  0.875318023049625E-001 -0.693147180559945E+000 -0.158680705180977E+002
  0.219929257732882E-001  0.278423204264264E+002  0.398949314196086E-001  0.952188859637709E-001 -0.693147180559945E+000 -0.158083623885690E+002
  0.219929257732882E-001  0.289295915407345E+002  0.325145990687765E-001  0.852835467201400E-001 -0.693147180559945E+000 -0.163519979457231E+002
  0.219929257732882E-001  0.299128316015770E+002  0.985072118191408E-001  0.885462473451677E-001 -0.693147180559945E+000 -0.168436179761443E+002
  0.219929257732882E-001  0.306528851689145E+002  0.266094810277697E-001  0.724484570156239E-001 -0.693147180559945E+000 -0.172136447598130E+002
  0.219929257732882E-001  0.376710328248036E+002  0.183079426164030E-001  0.711280901663446E-001 -0.693147180559945E+000 -0.207227185877576E+002
  0.219929257732882E-001  0.318831327848891E+002  0.425213303569680E-001  0.141916683457394E+000 -0.693147180559945E+000 -0.178287685678004E+002
  0.219929257732882E-001  0.306797260808220E+002  0.716193136399645E-001  0.972598586244961E-001 -0.693147180559945E+000 -0.172270652157668E+002
  0.219929257732882E-001  0.323602664432931E+002  0.410270934166754E-001  0.114654149595834E+000 -0.693147180559945E+000 -0.180673353970024E+002
  0.219929257732882E-001  0.262868079180247E+002  0.731350764680596E-001  0.105554578098779E+000 -0.693147180559945E+000 -0.148776094056369E+002
  0.219929257732882E-001  0.306989959818400E+002  0.602377812356152E-001  0.820260873023191E-001 -0.693147180559945E+000 -0.172367001662758E+002
  0.219929257732882E-001  0.417223275994624E+002  0.976842996091154E-001  0.131793606515113E+000 -0.693147180559945E+000 -0.227483659750870E+002
  0.219929257732882E-001  0.262984102829625E+002  0.761363431768944E-001  0.926346548857712E-001 -0.693147180559945E+000 -0.148834105881057E+002
  0.219929257732882E-001  0.335614674295547E+002  0.650477485700207E-001  0.123321738895617E+000 -0.693147180559945E+000 -0.186679358901332E+002
  0.219929257732882E-001  0.263860791875965E+002  0.543539093173462E-001  0.902482260573893E-001 -0.693147180559945E+000 -0.149272450404227E+002
  0.219929257732882E-001  0.299596441469315E+002  0.404642348558795E-001  0.954774730941091E-001 -0.693147180559945E+000 -0.168670242488216E+002
  0.219929257732882E-001  0.263930696525438E+002  0.765785520085149E-001  0.111911659997725E+000 -0.693147180559945E+000 -0.149307402728964E+002
  0.219929257732882E-001  0.264069384752127E+002  0.740483591744636E-001  0.110328454804744E+000 -0.693147180559945E+000 -0.149376746842309E+002
  0.219929257732882E-001  0.365612822956237E+002  0.117599004265578E-002  0.135161891378246E+000 -0.693147180559945E+000 -0.201678433231677E+002
  0.219929257732882E-001  0.316736845414260E+002  0.678862284989148E-001  0.877923966179679E-001 -0.693147180559945E+000 -0.177240444460688E+002
  0.219929257732882E-001  0.316621853698888E+002  0.251691556521347E-001  0.106373454438174E+000 -0.693147180559945E+000 -0.177182948603002E+002
  0.219929257732882E-001  0.300935471279643E+002  0.748815342706921E-001  0.762115397759712E-001 -0.693147180559945E+000 -0.169339757393379E+002
  0.219929257732882E-001  0.452363554132109E+002  0.188537952518957E-001  0.728056976077489E-002 -0.693147180559945E+000 -0.245053798819612E+002
  0.219929257732882E-001  0.385858168588988E+002  0.547972135652153E-001  0.708142711569541E-001 -0.693147180559945E+000 -0.211801106048052E+002
  0.219929257732882E-001  0.322908359219858E+002  0.440547545167533E-001  0.920718379131698E-001 -0.693147180559945E+000 -0.180326201363487E+002
  0.219929257732882E-001  0.299612351297069E+002  0.505953280252662E-001  0.862227734001814E-001 -0.693147180559945E+000 -0.168678197402092E+002
  0.219929257732882E-001  0.265392346081419E+002  0.610282255435037E-001  0.946903493747867E-001 -0.693147180559945E+000 -0.150038227506955E+002
  0.219929257732882E-001  0.265642901139784E+002  0.539334659195880E-001  0.897688644067692E-001 -0.693147180559945E+000 -0.150163505036137E+002
  0.219929257732882E-001  0.302107824423924E+002  0.261258069201986E-001  0.799684269340646E-001 -0.693147180559945E+000 -0.169925933965520E+002
  0.219929257732882E-001  0.285451893455728E+002  0.420955581685021E-001  0.772108674815791E-001 -0.693147180559945E+000 -0.161597968481422E+002
  0.219929257732882E-001  0.276768829158173E+002  0.538545090340963E-001  0.898196112996476E-001 -0.693147180559945E+000 -0.157256436332645E+002
  0.219929257732882E-001  0.302059439819438E+002  0.465486327872160E-001  0.935322427574328E-001 -0.693147180559945E+000 -0.169901741663277E+002
  0.219929257732882E-001  0.285014333868185E+002  0.695301935167953E-001  0.751833089943290E-001 -0.693147180559945E+000 -0.161379188687650E+002
  0.219929257732882E-001  0.386952869960994E+002  0.619425768714652E-001  0.464437988100223E-001 -0.693147180559945E+000 -0.212348456734055E+002
  0.219929257732882E-001  0.265866388501246E+002  0.404635839546426E-001  0.954849729122541E-001 -0.693147180559945E+000 -0.150275248716868E+002
  0.219929257732882E-001  0.352703754721196E+002  0.966004452376512E-001  0.699937202924251E-001 -0.693147180559945E+000 -0.195223899114156E+002
  0.219929257732882E-001  0.301959985958592E+002  0.567904286844068E-001  0.788672556214912E-001 -0.693147180559945E+000 -0.169852014732854E+002
  0.219929257732882E-001  0.307350490220605E+002  0.441474027547053E-001  0.803585819621553E-001 -0.693147180559945E+000 -0.172547266863860E+002
  0.219929257732882E-001  0.408305493573442E+002  0.703668683905316E-001  0.641846650486970E-001 -0.693147180559945E+000 -0.223024768540279E+002
  0.219929257732882E-001  0.276776244837148E+002  0.619101035409879E-001  0.125849443991686E+000 -0.693147180559945E+000 -0.157260144172132E+002
  0.219929257732882E-001  0.315914806994969E+002  0.394842634757162E-001  0.885171439296430E-001 -0.693147180559945E+000 -0.176829425251043E+002
  0.219929257732882E-001  0.284688481268441E+002  0.272474376431751E-001  0.125280429441974E+000 -0.693147180559945E+000 -0.161216262387778E+002
  0.219929257732882E-001  0.267710754643335E+002  0.504344805384684E-001  0.864585705858256E-001 -0.693147180559945E+000 -0.151197431787913E+002
  0.219929257732882E-001  0.307429288252696E+002  0.648424332055553E-001  0.103856566366201E+000 -0.693147180559945E+000 -0.172586665879906E+002
  0.219929257732882E-001  0.353373058947253E+002  0.978216853882123E-001  0.940461677454686E-001 -0.693147180559945E+000 -0.195558551227185E+002
  0.219929257732882E-001  0.309783571415810E+002  0.576126170920834E-001  0.110387525978557E+000 -0.693147180559945E+000 -0.173763807461463E+002
  0.219929257732882E-001  0.277559449256246E+002  0.780243289518101E-001  0.818681469129226E-001 -0.693147180559945E+000 -0.157651746381681E+002
  0.219929257732882E-001  0.315795344995186E+002  0.273796819587648E-001  0.775430125887443E-001 -0.693147180559945E+000 -0.176769694251151E+002
  0.219929257732882E-001  0.331680256878191E+002  0.604091417049166E-001  0.800827073956210E-001 -0.693147180559945E+000 -0.184712150192654E+002
  0.219929257732882E-001  0.272920015332143E+002  0.602760170004435E-001  0.754673722345966E-001 -0.693147180559945E+000 -0.155332029419629E+002
  0.219929257732882E-001  0.341534413759208E+002  0.423679994045423E-001  0.478782557895751E-001 -0.693147180559945E+000 -0.189639228633162E+002
  0.219929257732882E-001  0.331754929208080E+002  0.333090031481464E-001  0.652464896242122E-001 -0.693147180559945E+000 -0.184749486357598E+002
  0.219929257732882E-001  0.315707067096149E+002  0.109805482140505E+000  0.928567143448374E-001 -0.693147180559945E+000 -0.176725555301632E+002
  0.219929257732882E-001  0.268061116932612E+002  0.590939233295551E-001  0.755434374497846E-001 -0.693147180559945E+000 -0.151372612932551E+002
  0.219929257732882E-001  0.370342614661601E+002  0.337673931335807E-001  0.126478467602441E+000 -0.693147180559945E+000 -0.204043329084358E+002
  0.219929257732882E-001  0.331923710927861E+002  0.749652615987473E-001  0.997621505210002E-001 -0.693147180559945E+000 -0.184833877217489E+002
  0.219929257732882E-001  0.284225458484146E+002  0.705108318296213E-001  0.107915239788525E+000 -0.693147180559945E+000 -0.160984750995631E+002
  0.219929257732882E-001  0.268389389234092E+002  0.532955336277652E-001  0.911786960388874E-001 -0.693147180559945E+000 -0.151536749083291E+002
  0.219929257732882E-001  0.268938593876216E+002  0.712543778328674E-001  0.958484007956720E-001 -0.693147180559945E+000 -0.151811351404353E+002
  0.219929257732882E-001  0.332177825348035E+002  0.746017316142251E-001  0.929179795861261E-001 -0.693147180559945E+000 -0.184960934427576E+002
  0.219929257732882E-001  0.289702933843081E+002  0.381109318310879E-001  0.863525113857224E-001 -0.693147180559945E+000 -0.163723488675099E+002
  0.219929257732882E-001  0.284188565984866E+002  0.491129753517665E-001  0.990586043066160E-001 -0.693147180559945E+000 -0.160966304745991E+002
  0.219929257732882E-001  0.309668882365114E+002  0.851917069784889E-001  0.671741693279878E-001 -0.693147180559945E+000 -0.173706462936115E+002
  0.219929257732882E-001  0.332180137728231E+002  0.705126463586152E-001  0.107922562460988E+000 -0.693147180559945E+000 -0.184962090617674E+002
  0.219929257732882E-001  0.341490969111692E+002  0.254210710360891E-001  0.106285087775852E+000 -0.693147180559945E+000 -0.189617506309404E+002
  0.219929257732882E-001  0.277152958161556E+002  0.760770954556109E-001  0.926244981157774E-001 -0.693147180559945E+000 -0.157448500834336E+002
  0.219929257732882E-001  0.355070624923519E+002  0.310607344281701E-001  0.153382249739082E+000 -0.693147180559945E+000 -0.196407334215317E+002
  0.219929257732882E-001  0.289867248297786E+002  0.765785520085605E-001  0.111911659997724E+000 -0.693147180559945E+000 -0.163805645902451E+002
  0.219929257732882E-001  0.315573863865589E+002  0.645295534417585E-001  0.105333957305753E+000 -0.693147180559945E+000 -0.176658953686352E+002
  0.219929257732882E-001  0.390159252366665E+002  0.978954057386798E-001  0.937726164458854E-001 -0.693147180559945E+000 -0.213951647936891E+002
  0.219929257732882E-001  0.315455109827488E+002  0.459013846215961E-001  0.873733813666473E-001 -0.693147180559945E+000 -0.176599576667302E+002
  0.219929257732882E-001  0.270432444393249E+002  0.442446413029003E-001  0.880495834105315E-001 -0.693147180559945E+000 -0.152558276662869E+002
  0.219929257732882E-001  0.278822948725304E+002  0.602757240593728E-001  0.754661969607583E-001 -0.693147180559945E+000 -0.158283496116210E+002
  0.219929257732882E-001  0.283546409833942E+002  0.350806563699120E-001  0.112353788897373E+000 -0.693147180559945E+000 -0.160645226670529E+002
  0.219929257732882E-001  0.295173238952068E+002  0.503213960591256E-001  0.123624220723047E+000 -0.693147180559945E+000 -0.166458641229592E+002
  0.219929257732882E-001  0.422279673227594E+002  0.923230502650265E-001  0.598402239792273E-001 -0.693147180559945E+000 -0.230011858367355E+002
  0.219929257732882E-001  0.274275082390697E+002  0.697002687444599E-001  0.712564500187345E-001 -0.693147180559945E+000 -0.156009562948906E+002
  0.219929257732882E-001  0.279085784276447E+002  0.490716021615538E-001  0.871270042473062E-001 -0.693147180559945E+000 -0.158414913891782E+002
  0.219929257732882E-001  0.365196668911453E+002  0.786181697867949E-001  0.100484079461098E+000 -0.693147180559945E+000 -0.201470356209285E+002
  0.219929257732882E-001  0.334997792696496E+002  0.599366699561568E-001  0.806500051727276E-001 -0.693147180559945E+000 -0.186370918101806E+002
  0.219929257732882E-001  0.312011339575353E+002  0.752826145216159E-001  0.944848486434621E-001 -0.693147180559945E+000 -0.174877691541234E+002
  0.219929257732882E-001  0.291092021643701E+002  0.462652243679149E-001  0.875389680618068E-001 -0.693147180559945E+000 -0.164418032575409E+002
  0.219929257732882E-001  0.422706478415281E+002  0.195942691603612E-001  0.911642561702729E-001 -0.693147180559945E+000 -0.230225260961199E+002
  0.219929257732882E-001  0.341229086939555E+002  0.421284713504146E-001  0.715518400350672E-001 -0.693147180559945E+000 -0.189486565223336E+002
  0.219929257732882E-001  0.279337080839122E+002  0.360683538594901E-001  0.843540716366204E-001 -0.693147180559945E+000 -0.158540562173119E+002
  0.219929257732882E-001  0.307649026841553E+002  0.636150367271382E-002  0.601711304684014E-001 -0.693147180559945E+000 -0.172696535174335E+002
  0.219929257732882E-001  0.332881293742796E+002  0.236528481897433E-001  0.117390117556876E+000 -0.693147180559945E+000 -0.185312668624956E+002
  0.219929257732882E-001  0.272036799309294E+002  0.504114576357695E-001  0.864011947786858E-001 -0.693147180559945E+000 -0.153360454120892E+002
  0.219929257732882E-001  0.272251436190259E+002  0.538630313855191E-001  0.898159377926675E-001 -0.693147180559945E+000 -0.153467772561375E+002
  0.219929257732882E-001  0.391174768963691E+002  0.908044746340542E-003  0.413318820424186E-001 -0.693147180559945E+000 -0.214459406235404E+002
  0.219929257732882E-001  0.297009835139554E+002  0.544668467476386E-001  0.938548513523865E-001 -0.693147180559945E+000 -0.167376939323335E+002
  0.219929257732882E-001  0.307652881601925E+002  0.404584945953228E-001  0.954784333146424E-001 -0.693147180559945E+000 -0.172698462554521E+002
  0.219929257732882E-001  0.321461056773918E+002  0.709969033251339E-001  0.127860853826271E+000 -0.693147180559945E+000 -0.179602550140517E+002
  0.219929257732882E-001  0.312030436364971E+002  0.532455772600500E-001  0.911697658421076E-001 -0.693147180559945E+000 -0.174887239936043E+002
  0.219929257732882E-001  0.272752334548407E+002  0.762181779120645E-001  0.926579860154618E-001 -0.693147180559945E+000 -0.153718221740449E+002
  0.219929257732882E-001  0.356018579230085E+002  0.943115118073270E-001  0.281644238193441E-001 -0.693147180559945E+000 -0.196881311368601E+002
  0.219929257732882E-001  0.313651077671701E+002  0.991692036818270E-001  0.132430778661934E+000 -0.693147180559945E+000 -0.175697560589408E+002
  0.219929257732882E-001  0.273946128295579E+002  0.539589908658873E-001  0.103567060934068E+000 -0.693147180559945E+000 -0.155845085901348E+002
  0.219929257732882E-001  0.307676902132343E+002  0.394845201798979E-001  0.885193088781854E-001 -0.693147180559945E+000 -0.172710472819730E+002
  0.219929257732882E-001  0.273377079098690E+002  0.458033133813467E-001  0.895165362271342E-001 -0.693147180559945E+000 -0.154030594015590E+002
  0.219929257732882E-001  0.273389574229442E+002  0.293011252389430E-001  0.118297003824528E+000 -0.693147180559945E+000 -0.155566808868279E+002
  0.219929257732882E-001  0.300151826500639E+002  0.896693996700877E-001  0.112966839212971E+000 -0.693147180559945E+000 -0.168947935003878E+002
  0.219929257732882E-001  0.434264492942000E+002  0.619230792506369E-001  0.130873161085812E-001 -0.693147180559945E+000 -0.236004268224558E+002
  0.219929257732882E-001  0.282324877608803E+002  0.128583583758144E-001  0.817730043759710E-001 -0.693147180559945E+000 -0.160034460557960E+002
  0.219929257732882E-001  0.425271266877909E+002 -0.274817956037692E-001  0.805160047718945E-001 -0.693147180559945E+000 -0.231507655192512E+002
  0.219929257732882E-001  0.273509639410949E+002  0.743181524762544E-001  0.874269067646459E-001 -0.693147180559945E+000 -0.154096874171720E+002
  0.219929257732882E-001  0.358568702503745E+002  0.465355547485951E-001  0.728050113916412E-001 -0.693147180559945E+000 -0.198156373005430E+002
  0.219929257732882E-001  0.356969210532904E+002  0.261872702350434E-001  0.679312160169596E-001 -0.693147180559945E+000 -0.197356627020010E+002
  0.219929257732882E-001  0.313318573781746E+002  0.453266789744735E-001  0.924152407949726E-001 -0.693147180559945E+000 -0.175531308644431E+002
  0.219929257732882E-001  0.312406233073853E+002  0.752825993781312E-001  0.944846432030179E-001 -0.693147180559945E+000 -0.175075138290485E+002
  0.219929257732882E-001  0.313313168212740E+002  0.602924874275439E-001  0.816361823618422E-001 -0.693147180559945E+000 -0.175528605859928E+002
  0.219929257732882E-001  0.282046513663824E+002  0.609616139432592E-001  0.748519798945078E-001 -0.693147180559945E+000 -0.159895278585470E+002
  0.219929257732882E-001  0.274021941666097E+002  0.627501201618517E-001  0.105505250029783E+000 -0.693147180559945E+000 -0.154353025299294E+002
  0.219929257732882E-001  0.324054839821449E+002  0.349467801376693E-001  0.936105280585205E-001 -0.693147180559945E+000 -0.180899441664283E+002
  0.219929257732882E-001  0.274257557754759E+002  0.480548087238313E-001  0.106662478012125E+000 -0.693147180559945E+000 -0.154470833343625E+002
  0.219929257732882E-001  0.372872726767014E+002  0.425108898834261E-001  0.479563519502372E-001 -0.693147180559945E+000 -0.205308385137065E+002
  0.219929257732882E-001  0.321278816518689E+002  0.670210364712023E-001  0.103726777685018E+000 -0.693147180559945E+000 -0.179511430012903E+002
  0.219929257732882E-001  0.430933975800031E+002  0.153208476593773E+000  0.100750753413114E+000 -0.693147180559945E+000 -0.234339009653574E+002
  0.219929257732882E-001  0.321249251946260E+002  0.263742387617347E-001  0.719980689497229E-001 -0.693147180559945E+000 -0.179496647726688E+002
  0.219929257732882E-001  0.296906061668937E+002  0.602774880104096E-001  0.754629050953798E-001 -0.693147180559945E+000 -0.167325052588026E+002
  0.219929257732882E-001  0.312916548475445E+002  0.576126170920834E-001  0.110387525978557E+000 -0.693147180559945E+000 -0.175330295991281E+002
  0.219929257732882E-001  0.279148509832084E+002  0.440261954595451E-001  0.127568829731494E+000 -0.693147180559945E+000 -0.158446276669600E+002
  0.219929257732882E-001  0.280580279551175E+002  0.746106781866913E-001  0.944470869135409E-001 -0.693147180559945E+000 -0.159162161529146E+002
  0.219929257732882E-001  0.280785299865243E+002  0.886112888352852E-001  0.113470166489981E+000 -0.693147180559945E+000 -0.159264671686179E+002
  0.219929257732882E-001  0.291999444367891E+002  0.502583850843679E-001  0.951886258517011E-001 -0.693147180559945E+000 -0.164871743937504E+002
  0.219929257732882E-001  0.281073702035928E+002  0.697002636732358E-001  0.712564013303650E-001 -0.693147180559945E+000 -0.159408872771522E+002
  0.219929257732882E-001  0.339450644659497E+002  0.401066451974590E-001  0.114157841232660E+000 -0.693147180559945E+000 -0.188597344083307E+002
  0.219929257732882E-001  0.281379721906719E+002  0.403285188747422E-001  0.949000834065293E-001 -0.693147180559945E+000 -0.159561882706918E+002
  0.219929257732882E-001  0.281535808072923E+002  0.604416674431634E-001  0.801557900932602E-001 -0.693147180559945E+000 -0.159639925790020E+002
  0.219929257732882E-001  0.427321361533309E+002  0.522522288724481E-001  0.674330399105268E-001 -0.693147180559945E+000 -0.232532702520213E+002
  0.219929257732882E-001  0.334003068320394E+002  0.440926158240365E-001  0.693828171682403E-001 -0.693147180559945E+000 -0.185873555913755E+002
  0.219929257732882E-001  0.394512959172373E+002  0.374919725185181E-001  0.906714354125214E-001 -0.693147180559945E+000 -0.216128501339745E+002
  0.219929257732882E-001  0.229826314130923E+002  0.765785520085154E-001  0.111911659997724E+000 -0.693147180559945E+000 -0.114913157065462E+002
