  0.374284798241683E-001  0.351766669502724E+002  0.111935039568491E-001  0.534258932348132E-001 -0.693147180559945E+000 -0.192287666228838E+002
  0.374284798241683E-001  0.316196071928033E+002  0.282130880404430E-001  0.126630742510583E+000 -0.693147180559945E+000 -0.174502367441493E+002
  0.374284798241683E-001  0.314374529052941E+002  0.622297791330260E-001  0.933181839136999E-001 -0.693147180559945E+000 -0.173591596003947E+002
  0.374284798241683E-001  0.283289185262993E+002  0.653413833024117E-001  0.105458622229056E+000 -0.693147180559945E+000 -0.158048924108973E+002
  0.374284798241683E-001  0.278557085186707E+002  0.541081630584970E-001  0.126942038319512E+000 -0.693147180559945E+000 -0.144364875839424E+002
  0.374284798241683E-001  0.439199873494164E+002  0.619230792506369E-001  0.130873161085812E-001 -0.693147180559945E+000 -0.236004268224558E+002
  0.374284798241683E-001  0.287750333161790E+002  0.420955282011306E-001  0.772108602233233E-001 -0.693147180559945E+000 -0.160279498058371E+002
  0.374284798241683E-001  0.303902063461775E+002  0.519298126528795E-001  0.908082861089481E-001 -0.693147180559945E+000 -0.168355363208364E+002
  0.374284798241683E-001  0.280716817187461E+002  0.272226532585482E-001  0.125276082464679E+000 -0.693147180559945E+000 -0.145444741839801E+002
  0.374284798241683E-001  0.517243355135257E+002 -0.108673250916169E-001  0.163887586438837E-001 -0.693147180559945E+000 -0.275026009045105E+002
  0.374284798241683E-001  0.317123187486785E+002  0.796553085701284E-001  0.832322468745884E-001 -0.693147180559945E+000 -0.174965925220869E+002
  0.374284798241683E-001  0.339752719526752E+002  0.130878336661592E+000  0.872037964893208E-001 -0.693147180559945E+000 -0.186280691240852E+002
  0.374284798241683E-001  0.312189995857321E+002  0.908784067185746E-001  0.116984447802979E+000 -0.693147180559945E+000 -0.172499329406137E+002
  0.374284798241683E-001  0.302578909357679E+002  0.496451859714300E-001  0.809366269268068E-001 -0.693147180559945E+000 -0.167693786156316E+002
  0.374284798241683E-001  0.346333845664184E+002  0.541390759247391E-001  0.914442970933611E-001 -0.693147180559945E+000 -0.189571254309568E+002
  0.374284798241683E-001  0.383534053513286E+002  0.102929745441494E+000  0.680839709877164E-001 -0.693147180559945E+000 -0.208171358234119E+002
  0.374284798241683E-001  0.292967413190463E+002  0.399091099925508E-001  0.782752149633070E-001 -0.693147180559945E+000 -0.162888038072708E+002
  0.374284798241683E-001  0.247510326498258E+002  0.273218293940125E-001  0.125013398317630E+000 -0.693147180559945E+000 -0.123755163249129E+002
  0.374284798241683E-001  0.358560019279336E+002  0.885174871821299E-001  0.879559136605298E-001 -0.693147180559945E+000 -0.195684341117144E+002
  0.374284798241683E-001  0.293039941922927E+002  0.100827632034697E+000  0.111907418988351E+000 -0.693147180559945E+000 -0.162924302438940E+002
  0.374284798241683E-001  0.305870851831807E+002  0.748815342706921E-001  0.762115397759712E-001 -0.693147180559945E+000 -0.169339757393379E+002
  0.374284798241683E-001  0.279852868753316E+002  0.352731068541206E-001  0.122955054950267E+000 -0.693147180559945E+000 -0.139926434376658E+002
  0.374284798241683E-001  0.336008423060177E+002  0.757877720684248E-001  0.851456929817339E-001 -0.693147180559945E+000 -0.184408543007565E+002
  0.374284798241683E-001  0.423822534274049E+002  0.838234294967259E-001  0.506830035963183E-001 -0.693147180559945E+000 -0.228315598614501E+002
  0.374284798241683E-001  0.383978550949672E+002  0.923253046494603E-001  0.694872518860102E-001 -0.693147180559945E+000 -0.208393606952312E+002
  0.374284798241683E-001  0.346164467491719E+002  0.421284713504146E-001  0.715518400350672E-001 -0.693147180559945E+000 -0.189486565223336E+002
  0.374284798241683E-001  0.285793305706516E+002  0.619107068973064E-001  0.125850139633028E+000 -0.693147180559945E+000 -0.147982986099329E+002
  0.374284798241683E-001  0.304812626528840E+002  0.276813855460081E-001  0.116187912855312E+000 -0.693147180559945E+000 -0.168810644741896E+002
  0.374284798241683E-001  0.249663869893821E+002  0.272436385478028E-001  0.125273419542570E+000 -0.693147180559945E+000 -0.124831934946910E+002
  0.374284798241683E-001  0.282228008379982E+002  0.507170159546269E-001  0.949220489615550E-001 -0.693147180559945E+000 -0.157518335667467E+002
  0.374284798241683E-001  0.288124682205720E+002  0.555997432323148E-001  0.103688717663240E+000 -0.693147180559945E+000 -0.160466672580336E+002
  0.374284798241683E-001  0.342032980456227E+002  0.624526140431956E-001  0.967606127792070E-001 -0.693147180559945E+000 -0.187420821705590E+002
  0.374284798241683E-001  0.301103662809565E+002  0.515811627646214E-001  0.869438343141285E-001 -0.693147180559945E+000 -0.166956162882258E+002
  0.374284798241683E-001  0.320012669484690E+002  0.370802748260157E-001  0.998032087427828E-001 -0.693147180559945E+000 -0.176410666219821E+002
  0.374284798241683E-001  0.375102236461031E+002  0.101800394498387E+000  0.620303003707354E-001 -0.693147180559945E+000 -0.203955449707992E+002
  0.374284798241683E-001  0.334785197414381E+002  0.420955323537509E-001  0.772108605974825E-001 -0.693147180559945E+000 -0.183796930184667E+002
  0.374284798241683E-001  0.329510073924844E+002  0.897349985220854E-001  0.635566058136161E-001 -0.693147180559945E+000 -0.181159368439898E+002
  0.374284798241683E-001  0.351675408558302E+002  0.284025393374343E-001  0.456801695496868E-001 -0.693147180559945E+000 -0.192242035756627E+002
  0.374284798241683E-001  0.286346998037162E+002  0.465486676202209E-001  0.935324173589892E-001 -0.693147180559945E+000 -0.159577830496057E+002
  0.374284798241683E-001  0.277517644425678E+002  0.436963732847473E-001  0.118040158899533E+000 -0.693147180559945E+000 -0.155163153690315E+002
  0.374284798241683E-001  0.333814014560448E+002  0.436190049848948E-001  0.842305546426895E-001 -0.693147180559945E+000 -0.183311338757700E+002
  0.374284798241683E-001  0.417455645041290E+002  0.896350611845764E-001  0.146034802562365E+000 -0.693147180559945E+000 -0.225132153998121E+002
  0.374284798241683E-001  0.230756018724040E+002  0.272474376435534E-001  0.125280429442017E+000 -0.693147180559945E+000 -0.115378009362020E+002
  0.374284798241683E-001  0.293251880398447E+002  0.740654193795576E-001  0.850897832610254E-001 -0.693147180559945E+000 -0.163030271676700E+002
  0.374284798241683E-001  0.320140292412541E+002  0.282131530904497E-001  0.126630439168818E+000 -0.693147180559945E+000 -0.176474477683747E+002
  0.374284798241683E-001  0.296332257918872E+002  0.561495018435763E-001  0.687584878800702E-001 -0.693147180559945E+000 -0.164570460436912E+002
  0.374284798241683E-001  0.296309618761716E+002  0.300335784633838E-001  0.119470028114604E+000 -0.693147180559945E+000 -0.164559140858334E+002
  0.374284798241683E-001  0.417810224206777E+002  0.488807905749702E-001  0.401537800086993E-001 -0.693147180559945E+000 -0.225309443580865E+002
  0.374284798241683E-001  0.310178676453770E+002  0.592250818347340E-001  0.735348636214039E-001 -0.693147180559945E+000 -0.171493669704361E+002
  0.374284798241683E-001  0.296983006630748E+002  0.502595105196686E-001  0.951883156805462E-001 -0.693147180559945E+000 -0.164895834792850E+002
  0.374284798241683E-001  0.347224726807268E+002  0.100884726309494E+000  0.875357163626880E-001 -0.693147180559945E+000 -0.190016694881110E+002
  0.374284798241683E-001  0.309766345173555E+002  0.420957115829064E-001  0.772111091337956E-001 -0.693147180559945E+000 -0.171287504064254E+002
  0.374284798241683E-001  0.330885045524001E+002  0.835862978017361E-001  0.387785084055558E-001 -0.693147180559945E+000 -0.181846854239477E+002
  0.374284798241683E-001  0.422422000530238E+002  0.104132972835147E+000  0.152393992706126E+000 -0.693147180559945E+000 -0.227615331742595E+002
  0.374284798241683E-001  0.362670922564243E+002  0.111035146837222E-001  0.535148228187483E-001 -0.693147180559945E+000 -0.197739792759598E+002
  0.374284798241683E-001  0.345386333021643E+002  0.172588912984724E-001  0.829008158457827E-001 -0.693147180559945E+000 -0.189097497988298E+002
  0.374284798241683E-001  0.422405178255325E+002 -0.341515343632137E-003  0.988743047120657E-001 -0.693147180559945E+000 -0.227606920605139E+002
  0.374284798241683E-001  0.309409144347384E+002  0.853030155868244E-001  0.705388620454626E-001 -0.693147180559945E+000 -0.171108903651168E+002
  0.374284798241683E-001  0.375556235273143E+002  0.710900396569043E-001  0.766806992556498E-001 -0.693147180559945E+000 -0.204182449114047E+002
  0.374284798241683E-001  0.332935311527462E+002  0.609264134184797E-001  0.539452178529392E-001 -0.693147180559945E+000 -0.182871987241207E+002
  0.374284798241683E-001  0.309107571561037E+002  0.507090123413503E-001  0.949371159609352E-001 -0.693147180559945E+000 -0.170958117257995E+002
  0.374284798241683E-001  0.309084353828971E+002  0.360683538594992E-001  0.843540716359535E-001 -0.693147180559945E+000 -0.170946508391962E+002
  0.374284798241683E-001  0.364645988861996E+002  0.208913372159987E-001  0.810151307126798E-001 -0.693147180559945E+000 -0.198727325908474E+002
  0.374284798241683E-001  0.264036924645945E+002  0.272434761253169E-001  0.125273347656784E+000 -0.693147180559945E+000 -0.132018462322972E+002
  0.374284798241683E-001  0.293637717795205E+002  0.239058120826896E-001  0.774205326866863E-001 -0.693147180559945E+000 -0.163223190375079E+002
  0.374284798241683E-001  0.308725992989854E+002  0.503439051874812E-001  0.875615376549870E-001 -0.693147180559945E+000 -0.170767327972403E+002
  0.374284798241683E-001  0.320642447648312E+002  0.109805482140505E+000  0.928567143448374E-001 -0.693147180559945E+000 -0.176725555301632E+002
  0.374284798241683E-001  0.290387274007891E+002  0.420955581685021E-001  0.772108674815791E-001 -0.693147180559945E+000 -0.161597968481422E+002
  0.374284798241683E-001  0.300445576534445E+002  0.420955282368083E-001  0.772108601538865E-001 -0.693147180559945E+000 -0.166627119744699E+002
  0.374284798241683E-001  0.298719631499174E+002  0.496459013840111E-001  0.809384600045478E-001 -0.693147180559945E+000 -0.165764147227063E+002
  0.374284798241683E-001  0.286036440427223E+002  0.354253775355249E-001  0.119422063518577E+000 -0.693147180559945E+000 -0.159422551691088E+002
  0.374284798241683E-001  0.274859496864640E+002  0.272436385477230E-001  0.125273419542672E+000 -0.693147180559945E+000 -0.137429748432320E+002
  0.374284798241683E-001  0.289278204545299E+002  0.605018370228985E-001  0.800696437032117E-001 -0.693147180559945E+000 -0.161043433750126E+002
  0.374284798241683E-001  0.323574502899234E+002  0.699832387926118E-001  0.956542963913238E-001 -0.693147180559945E+000 -0.178191582927093E+002
  0.374284798241683E-001  0.294802628849950E+002  0.765785520085605E-001  0.111911659997724E+000 -0.693147180559945E+000 -0.163805645902451E+002
  0.374284798241683E-001  0.308154209604360E+002  0.509027064770857E-001  0.952989666614739E-001 -0.693147180559945E+000 -0.170481436279656E+002
  0.374284798241683E-001  0.329000417712756E+002  0.722820316904398E-001  0.585565963069741E-001 -0.693147180559945E+000 -0.180904540333854E+002
  0.374284798241683E-001  0.308060512170335E+002  0.540267282509101E-001  0.901786493177567E-001 -0.693147180559945E+000 -0.170434587562644E+002
  0.374284798241683E-001  0.320850187547133E+002  0.394842634757162E-001  0.885171439296430E-001 -0.693147180559945E+000 -0.176829425251043E+002
  0.374284798241683E-001  0.278500697933758E+002  0.760935303583057E-001  0.926356091861850E-001 -0.693147180559945E+000 -0.155654680444355E+002
  0.374284798241683E-001  0.420000826214843E+002  0.157048505130160E-001  0.702745728397241E-001 -0.693147180559945E+000 -0.226404744584898E+002
  0.374284798241683E-001  0.268280099246088E+002  0.272224412253510E-001  0.125259570900219E+000 -0.693147180559945E+000 -0.134140049623044E+002
  0.374284798241683E-001  0.355914355749163E+002  0.858881888377325E-001  0.649773606588666E-001 -0.693147180559945E+000 -0.194361509352058E+002
  0.374284798241683E-001  0.427641858967445E+002  0.195942691603612E-001  0.911642561702729E-001 -0.693147180559945E+000 -0.230225260961199E+002
  0.374284798241683E-001  0.370012043935893E+002  0.578595326335101E-001  0.858446092773529E-001 -0.693147180559945E+000 -0.201410353445422E+002
  0.374284798241683E-001  0.329008412329144E+002  0.480164195047794E-002  0.109456807822280E+000 -0.693147180559945E+000 -0.180908537642048E+002
  0.374284798241683E-001  0.293891946303728E+002  0.705108318297467E-001  0.107915239788760E+000 -0.693147180559945E+000 -0.163350304629340E+002
  0.374284798241683E-001  0.307829130524421E+002  0.599758843572087E-001  0.757193139782794E-001 -0.693147180559945E+000 -0.170318896739687E+002
  0.374284798241683E-001  0.380387322121679E+002  0.771644089472798E-001  0.532361370330895E-001 -0.693147180559945E+000 -0.206597992538316E+002
  0.374284798241683E-001  0.279997273282886E+002  0.644928393291102E-001  0.703565234075496E-001 -0.693147180559945E+000 -0.156402968118919E+002
  0.374284798241683E-001  0.216369873186508E+002  0.219648839159510E-001  0.118355652993403E+000 -0.693147180559945E+000 -0.108184936593254E+002
