  0.151309811654644E-001  0.227794147835136E+002  0.602575000690804E-001  0.108220298252018E+000 -0.693147180559945E+000 -0.113897073917568E+002
  0.151309811654644E-001  0.312496401444762E+002  0.630495344553497E-001  0.790683122290604E-001 -0.693147180559945E+000 -0.177674350594769E+002
  0.151309811654644E-001  0.368016305296125E+002  0.571306997614707E-001  0.186451127688559E+000 -0.693147180559945E+000 -0.205434302520450E+002
  0.151309811654644E-001  0.326747735650708E+002  0.387861472760989E-001  0.719836354535059E-001 -0.693147180559945E+000 -0.184800017697742E+002
  0.151309811654644E-001  0.270795773008739E+002  0.731479951659901E-001  0.105566318906674E+000 -0.693147180559945E+000 -0.156824036376758E+002
  0.151309811654644E-001  0.326572000640531E+002  0.604091417049166E-001  0.800827073956210E-001 -0.693147180559945E+000 -0.184712150192654E+002
  0.151309811654644E-001  0.273611795414038E+002  0.503634519272753E-001  0.849690597922840E-001 -0.693147180559945E+000 -0.158232047579407E+002
  0.151309811654644E-001  0.358911476848218E+002  0.236939005188597E-001  0.117421142294127E+000 -0.693147180559945E+000 -0.200881888296497E+002
  0.151309811654644E-001  0.273714692487644E+002  0.602757240593728E-001  0.754661969607583E-001 -0.693147180559945E+000 -0.158283496116210E+002
  0.151309811654644E-001  0.367495287611607E+002  0.108589068183052E+000  0.100707499651939E+000 -0.693147180559945E+000 -0.205173793678192E+002
  0.151309811654644E-001  0.320099623765809E+002  0.101808914706842E+000  0.967475192816026E-001 -0.693147180559945E+000 -0.181475961755292E+002
  0.151309811654644E-001  0.272758364464877E+002  0.402991593365261E-001  0.906922733023025E-001 -0.693147180559945E+000 -0.157805332104827E+002
  0.151309811654644E-001  0.253687625352036E+002  0.499434970566097E-001  0.917703757639301E-001 -0.693147180559945E+000 -0.146739995261093E+002
  0.151309811654644E-001  0.304564701901612E+002  0.576126196246014E-001  0.110387525836937E+000 -0.693147180559945E+000 -0.173708500823194E+002
  0.151309811654644E-001  0.296174776283907E+002  0.561495019497327E-001  0.687584878176666E-001 -0.693147180559945E+000 -0.169513538014341E+002
  0.151309811654644E-001  0.325798509058890E+002  0.604094773895310E-001  0.800829629479244E-001 -0.693147180559945E+000 -0.184325404401833E+002
  0.151309811654644E-001  0.325626414631742E+002 -0.115357833621288E-001  0.966863702034542E-001 -0.693147180559945E+000 -0.184239357188259E+002
  0.151309811654644E-001  0.297601006807694E+002  0.392610329668763E-001  0.565652725782270E-001 -0.693147180559945E+000 -0.170226653276235E+002
  0.151309811654644E-001  0.358419448262579E+002  0.636275392843308E-001  0.966401946631411E-001 -0.693147180559945E+000 -0.200635874003677E+002
  0.151309811654644E-001  0.304517604482916E+002  0.273025488390561E-001  0.774793859460153E-001 -0.693147180559945E+000 -0.173684952113846E+002
  0.151309811654644E-001  0.253925098715560E+002  0.882726865055323E-001  0.112480888251239E+000 -0.693147180559945E+000 -0.146858731942855E+002
  0.151309811654644E-001  0.253988990618110E+002  0.543539093173471E-001  0.902482260573897E-001 -0.693147180559945E+000 -0.146890677894130E+002
  0.151309811654644E-001  0.373874256092210E+002  0.755755060878305E-002  0.798578136369769E-001 -0.693147180559945E+000 -0.208363277918493E+002
  0.151309811654644E-001  0.327323111809833E+002  0.743973923487360E-001  0.114862444591907E+000 -0.693147180559945E+000 -0.185087705777305E+002
  0.151309811654644E-001  0.297621955811532E+002  0.263692242358073E-001  0.880447144766065E-001 -0.693147180559945E+000 -0.170237127778154E+002
  0.151309811654644E-001  0.254163060411254E+002  0.648771779278967E-001  0.103996099524658E+000 -0.693147180559945E+000 -0.146977712790702E+002
  0.151309811654644E-001  0.254276723635434E+002  0.394341013687289E-001  0.829720654896807E-001 -0.693147180559945E+000 -0.147034544402792E+002
  0.151309811654644E-001  0.359804386573111E+002  0.787069833945382E-001  0.966971579288283E-001 -0.693147180559945E+000 -0.201328343158943E+002
  0.151309811654644E-001  0.325339430935724E+002  0.295066828284287E-001  0.811552100546597E-001 -0.693147180559945E+000 -0.184095865340250E+002
  0.151309811654644E-001  0.250439215678285E+002  0.442446410808826E-001  0.880495893873200E-001 -0.693147180559945E+000 -0.145115790424217E+002
  0.151309811654644E-001  0.304330892263118E+002  0.622297791330260E-001  0.933181839136999E-001 -0.693147180559945E+000 -0.173591596003947E+002
  0.151309811654644E-001  0.325236520472627E+002  0.239984921530974E-001  0.126336097748553E+000 -0.693147180559945E+000 -0.184044410108702E+002
  0.151309811654644E-001  0.407031151920848E+002  0.550158300040362E-001  0.365684655350103E-001 -0.693147180559945E+000 -0.224941725832812E+002
  0.151309811654644E-001  0.291546232609394E+002  0.712670561587800E-001  0.958077709473386E-001 -0.693147180559945E+000 -0.167199266177085E+002
  0.151309811654644E-001  0.312785756973972E+002  0.740677639919352E-001  0.850944044666707E-001 -0.693147180559945E+000 -0.177819028359374E+002
  0.151309811654644E-001  0.335892234573472E+002  0.986254975870495E-001  0.132433329461860E+000 -0.693147180559945E+000 -0.189372267159124E+002
  0.151309811654644E-001  0.288675994709350E+002  0.496459013840111E-001  0.809384600045478E-001 -0.693147180559945E+000 -0.165764147227063E+002
  0.151309811654644E-001  0.319919650624550E+002  0.596691775577589E-001  0.186287455250324E+000 -0.693147180559945E+000 -0.181385975184663E+002
  0.151309811654644E-001  0.396916615661618E+002  0.953349420858016E-001  0.360407594363026E-001 -0.693147180559945E+000 -0.219884457703197E+002
  0.151309811654644E-001  0.297913521472721E+002  0.670824444352158E-001  0.121145110403472E+000 -0.693147180559945E+000 -0.170382910608749E+002
  0.151309811654644E-001  0.278110124835125E+002  0.524333033051165E-001  0.916149503224805E-001 -0.693147180559945E+000 -0.160481212289951E+002
  0.151309811654644E-001  0.336120830701895E+002  0.421284713504146E-001  0.715518400350672E-001 -0.693147180559945E+000 -0.189486565223336E+002
  0.151309811654644E-001  0.399544037241704E+002  0.338613543466606E-001  0.659630324912323E-001 -0.693147180559945E+000 -0.221198168493240E+002
  0.151309811654644E-001  0.312872265809751E+002  0.586039110667882E-001  0.114567254752879E+000 -0.693147180559945E+000 -0.177862282777264E+002
  0.151309811654644E-001  0.376068595062097E+002  0.334264852107395E-001  0.122367111820540E+000 -0.693147180559945E+000 -0.209460447403436E+002
  0.151309811654644E-001  0.343866226053689E+002  0.394314208244702E-001  0.977336349071317E-001 -0.693147180559945E+000 -0.193359262899232E+002
  0.151309811654644E-001  0.395366646880069E+002  0.593858806935617E-001  0.422749789690954E-001 -0.693147180559945E+000 -0.219109473312422E+002
  0.151309811654644E-001  0.336426157521548E+002  0.423679994045423E-001  0.478782557895751E-001 -0.693147180559945E+000 -0.189639228633162E+002
  0.151309811654644E-001  0.298016875380511E+002  0.540267282509101E-001  0.901786493177567E-001 -0.693147180559945E+000 -0.170434587562644E+002
  0.151309811654644E-001  0.303924875947385E+002  0.746050777973775E-001  0.944485482712803E-001 -0.693147180559945E+000 -0.173388587846080E+002
  0.151309811654644E-001  0.376207439387677E+002  0.851221426751831E-001  0.700033170686156E-001 -0.693147180559945E+000 -0.209529869566226E+002
  0.151309811654644E-001  0.255264545155472E+002  0.310621547919714E-001  0.890712295191054E-001 -0.693147180559945E+000 -0.147528455162811E+002
  0.151309811654644E-001  0.343942056263335E+002  0.444834881071807E-001  0.706134876628680E-001 -0.693147180559945E+000 -0.193397178004055E+002
  0.151309811654644E-001  0.333273073807441E+002  0.759446370984247E-001  0.611480418329730E-001 -0.693147180559945E+000 -0.188062686776108E+002
  0.151309811654644E-001  0.357230421330440E+002  0.608188178381739E-001  0.484293187911138E-001 -0.693147180559945E+000 -0.200041360537608E+002
  0.151309811654644E-001  0.284103641041109E+002  0.397766204979872E-001  0.100837762209222E+000 -0.693147180559945E+000 -0.163477970392943E+002
  0.151309811654644E-001  0.365854724982382E+002  0.290119958548269E-001  0.423848660068628E-001 -0.693147180559945E+000 -0.204353512363579E+002
  0.151309811654644E-001  0.357101734716041E+002  0.289653877237339E-002  0.653945501705366E-001 -0.693147180559945E+000 -0.199977017230408E+002
  0.151309811654644E-001  0.291081580656002E+002  0.648336123224165E-001  0.103858229309186E+000 -0.693147180559945E+000 -0.166966940200389E+002
  0.151309811654644E-001  0.255562151038171E+002  0.606680306333840E-001  0.807139851998599E-001 -0.693147180559945E+000 -0.147677258104160E+002
  0.151309811654644E-001  0.277551687768898E+002  0.535220055648944E-001  0.762084167010070E-001 -0.693147180559945E+000 -0.160201993756837E+002
  0.151309811654644E-001  0.284099758393163E+002  0.772161509203015E-001  0.982808842925074E-001 -0.693147180559945E+000 -0.163476029068969E+002
  0.151309811654644E-001  0.277216621371143E+002  0.128583583758144E-001  0.817730043759710E-001 -0.693147180559945E+000 -0.160034460557960E+002
  0.151309811654644E-001  0.323505149611080E+002  0.117474333965896E+000  0.449732016629765E-001 -0.693147180559945E+000 -0.183178724677928E+002
  0.151309811654644E-001  0.408198673330410E+002  0.927421526218954E-001  0.362104728714299E-001 -0.693147180559945E+000 -0.225525486537593E+002
  0.151309811654644E-001  0.277212271549796E+002  0.516380604179170E-001  0.115177144529722E+000 -0.693147180559945E+000 -0.160032285647286E+002
  0.151309811654644E-001  0.273260977844148E+002  0.502583850845970E-001  0.951886258517428E-001 -0.693147180559945E+000 -0.158056638794462E+002
  0.151309811654644E-001  0.281445168771830E+002  0.532955336259433E-001  0.911786960396493E-001 -0.693147180559945E+000 -0.162148734258303E+002
  0.151309811654644E-001  0.336987687668930E+002  0.907039089859243E-001  0.116991221947042E+000 -0.693147180559945E+000 -0.189919993706853E+002
  0.151309811654644E-001  0.323255314813026E+002  0.288267205480803E-001  0.100960739663112E+000 -0.693147180559945E+000 -0.183053807278901E+002
  0.151309811654644E-001  0.295732010970705E+002  0.667108849599110E-001  0.177949591174688E+000 -0.693147180559945E+000 -0.169292155357741E+002
  0.151309811654644E-001  0.252598660159961E+002  0.760770646144657E-001  0.926244945685568E-001 -0.693147180559945E+000 -0.146195512665055E+002
  0.151309811654644E-001  0.318494408195271E+002  0.410270934166754E-001  0.114654149595834E+000 -0.693147180559945E+000 -0.180673353970024E+002
  0.151309811654644E-001  0.328224833563720E+002  0.111685182461007E+000  0.145653260771224E+000 -0.693147180559945E+000 -0.185538566654248E+002
  0.151309811654644E-001  0.409377301013109E+002  0.366571536187281E-001  0.245742303171766E-001 -0.693147180559945E+000 -0.226114800378942E+002
  0.151309811654644E-001  0.322566984942624E+002  0.684112170541258E-001  0.947266615517988E-001 -0.693147180559945E+000 -0.182709642343700E+002
  0.151309811654644E-001  0.322542394313906E+002  0.503439129555139E-001  0.875615697950468E-001 -0.693147180559945E+000 -0.182697347029341E+002
  0.151309811654644E-001  0.276822991192043E+002  0.749554793834644E-001  0.759156884567709E-001 -0.693147180559945E+000 -0.159837645468409E+002
  0.151309811654644E-001  0.252431066128969E+002  0.381298538943871E-001  0.995329290712350E-001 -0.693147180559945E+000 -0.146111715649560E+002
  0.151309811654644E-001  0.345437416846706E+002  0.111772771824135E+000  0.143007186869296E+000 -0.693147180559945E+000 -0.194144858295741E+002
  0.151309811654644E-001  0.365058599671208E+002  0.101800394498387E+000  0.620303003707354E-001 -0.693147180559945E+000 -0.203955449707992E+002
  0.151309811654644E-001  0.290986590181704E+002  0.602760169510377E-001  0.754673721545127E-001 -0.693147180559945E+000 -0.166919444963240E+002
  0.151309811654644E-001  0.257971685043056E+002  0.556994250789418E-001  0.103130606238285E+000 -0.693147180559945E+000 -0.148882025106603E+002
  0.151309811654644E-001  0.332846542073310E+002  0.661515084106739E-001  0.163051436812324E+000 -0.693147180559945E+000 -0.187849420909043E+002
  0.151309811654644E-001  0.391549906570154E+002  0.553611606184143E-001  0.331612639442032E-001 -0.693147180559945E+000 -0.217201103157465E+002
  0.151309811654644E-001  0.287962853971362E+002  0.609615157258305E-001  0.748519513401425E-001 -0.693147180559945E+000 -0.165407576858069E+002
  0.151309811654644E-001  0.292850888289809E+002  0.607070634487117E-001  0.808077411548557E-001 -0.693147180559945E+000 -0.167851594017292E+002
  0.151309811654644E-001  0.354326647130797E+002  0.102491905261371E+000  0.695485762327788E-001 -0.693147180559945E+000 -0.198589473437786E+002
  0.151309811654644E-001  0.322309414935565E+002  0.266064917390767E-001  0.724430322832361E-001 -0.693147180559945E+000 -0.182580857340170E+002
  0.151309811654644E-001  0.328797546049951E+002  0.975135088586716E-001  0.868476535767309E-001 -0.693147180559945E+000 -0.185824922897364E+002
  0.151309811654644E-001  0.274624086265516E+002  0.508997101145494E-001  0.949312549649349E-001 -0.693147180559945E+000 -0.158738193005146E+002
  0.151309811654644E-001  0.259233455226538E+002  0.504475022740976E-001  0.863966820354088E-001 -0.693147180559945E+000 -0.149512910198344E+002
  0.151309811654644E-001  0.364501587455109E+002  0.421478084116753E-001  0.334822577126521E-001 -0.693147180559945E+000 -0.203676943599943E+002
  0.151309811654644E-001  0.353460446266085E+002  0.465355547485951E-001  0.728050113916412E-001 -0.693147180559945E+000 -0.198156373005430E+002
  0.151309811654644E-001  0.390716800434979E+002  0.644114897928354E-001  0.155444163043800E+000 -0.693147180559945E+000 -0.216784550089878E+002
  0.151309811654644E-001  0.283952107803272E+002  0.710894999089857E-001  0.119446912221065E+000 -0.693147180559945E+000 -0.163402203774024E+002
  0.151309811654644E-001  0.422845026372625E+002  0.493348576300625E-001  0.594099632369664E-001 -0.693147180559945E+000 -0.232848663058701E+002
  0.151309811654644E-001  0.269103782619249E+002  0.404635839546579E-001  0.954849729122541E-001 -0.693147180559945E+000 -0.154448073894700E+002
  0.151309811654644E-001  0.286105119973718E+002  0.420955320946952E-001  0.772108603844384E-001 -0.693147180559945E+000 -0.164478709859247E+002
  0.151309811654644E-001  0.274228824601462E+002  0.360683538594901E-001  0.843540716366204E-001 -0.693147180559945E+000 -0.158540562173119E+002
  0.151309811654644E-001  0.290546561290834E+002  0.449344888332113E-001  0.109553834580725E+000 -0.693147180559945E+000 -0.166699430517805E+002
  0.151309811654644E-001  0.269056474611005E+002  0.688600082471957E-001  0.976708782955030E-001 -0.693147180559945E+000 -0.154424419890578E+002
  0.151309811654644E-001  0.353332996564995E+002  0.897222564344691E-001  0.567761325803015E-001 -0.693147180559945E+000 -0.198092648154886E+002
  0.151309811654644E-001  0.307419707498797E+002  0.662885319155577E-001  0.992773639322626E-001 -0.693147180559945E+000 -0.175136003621787E+002
  0.151309811654644E-001  0.248410937428270E+002  0.490716443901740E-001  0.871270809189929E-001 -0.693147180559945E+000 -0.144101651299210E+002
  0.151309811654644E-001  0.268917141288268E+002  0.379098480858482E-001  0.806180438162653E-001 -0.693147180559945E+000 -0.154354753229209E+002
  0.151309811654644E-001  0.294307699874808E+002  0.109180156718350E+000  0.751569726811936E-001 -0.693147180559945E+000 -0.168579999809792E+002
  0.151309811654644E-001  0.307688786731104E+002  0.562363272063555E-001  0.721700723145271E-001 -0.693147180559945E+000 -0.175270543237940E+002
  0.151309811654644E-001  0.339042596208550E+002  0.501649540478846E-001  0.897091900252034E-001 -0.693147180559945E+000 -0.190947447976663E+002
  0.151309811654644E-001  0.268815632441729E+002  0.567837217352913E-001  0.102728542204622E+000 -0.693147180559945E+000 -0.154303998805940E+002
  0.151309811654644E-001  0.352818941659418E+002  0.884444794221180E-001  0.418274265077447E-001 -0.693147180559945E+000 -0.197835620702097E+002
  0.151309811654644E-001  0.283607400272141E+002  0.425180695849106E-001  0.141919794542006E+000 -0.693147180559945E+000 -0.163229850008458E+002
  0.151309811654644E-001  0.250750249943293E+002  0.509648826844116E-001  0.948641612707710E-001 -0.693147180559945E+000 -0.145271307556722E+002
  0.151309811654644E-001  0.312333517951349E+002  0.500795747616083E-001  0.117531099224171E+000 -0.693147180559945E+000 -0.177592908848063E+002
  0.151309811654644E-001  0.448488565070425E+002  0.969864247522656E-003  0.963558295104141E-001 -0.693147180559945E+000 -0.245670432407601E+002
  0.151309811654644E-001  0.312306197280415E+002  0.603679164012565E-001  0.801506263394196E-001 -0.693147180559945E+000 -0.177579248512595E+002
  0.151309811654644E-001  0.287607210386389E+002  0.521319160502003E-001  0.613370560660535E-001 -0.693147180559945E+000 -0.165229755065583E+002
  0.151309811654644E-001  0.388477055306664E+002  0.495128791087407E-001  0.568238735173284E-001 -0.693147180559945E+000 -0.215664677525720E+002
  0.151309811654644E-001  0.360486800908675E+002  0.557578104861869E-001  0.716781109197989E-001 -0.693147180559945E+000 -0.201669550326726E+002
  0.151309811654644E-001  0.260338277797043E+002  0.513707299191395E-001  0.909882383813831E-001 -0.693147180559945E+000 -0.150065321483596E+002
  0.151309811654644E-001  0.286717726223501E+002  0.688085317987033E-001  0.107497256578902E+000 -0.693147180559945E+000 -0.164785012984139E+002
  0.151309811654644E-001  0.251757820949641E+002  0.647994339756579E-001  0.103703566973833E+000 -0.693147180559945E+000 -0.145775093059896E+002
  0.151309811654644E-001  0.267543055339377E+002  0.499836419724116E-001  0.917913166251045E-001 -0.693147180559945E+000 -0.153667710254764E+002
  0.151309811654644E-001  0.260576080227011E+002  0.262809232625656E-001  0.880262202543438E-001 -0.693147180559945E+000 -0.150184222698580E+002
  0.151309811654644E-001  0.302568645894683E+002  0.394845201798979E-001  0.885193088781854E-001 -0.693147180559945E+000 -0.172710472819730E+002
  0.151309811654644E-001  0.251600605368582E+002  0.261258069201786E-001  0.799684269340760E-001 -0.693147180559945E+000 -0.145696485269366E+002
  0.151309811654644E-001  0.308256639242490E+002  0.651411049158057E-001  0.123460291566112E+000 -0.693147180559945E+000 -0.175554469493633E+002
  0.151309811654644E-001  0.301144215992741E+002  0.111772608733774E+000  0.143007059663636E+000 -0.693147180559945E+000 -0.171998257868759E+002
  0.151309811654644E-001  0.286939369840925E+002  0.502595105196686E-001  0.951883156805462E-001 -0.693147180559945E+000 -0.164895834792850E+002
  0.151309811654644E-001  0.260908485881725E+002  0.406982192662950E-001  0.867923007906788E-001 -0.693147180559945E+000 -0.150350425525937E+002
  0.151309811654644E-001  0.275032924985362E+002  0.648336123221027E-001  0.103858229308253E+000 -0.693147180559945E+000 -0.158942612365069E+002
  0.151309811654644E-001  0.271552298133266E+002  0.671035556453063E-001  0.121114905659754E+000 -0.693147180559945E+000 -0.157202298939021E+002
  0.151309811654644E-001  0.294488185231655E+002  0.404642348558795E-001  0.954774730941091E-001 -0.693147180559945E+000 -0.168670242488216E+002
  0.151309811654644E-001  0.301239506908076E+002  0.261257697769417E-001  0.799673609554405E-001 -0.693147180559945E+000 -0.172045903326426E+002
  0.151309811654644E-001  0.340276128766697E+002  0.710746670491824E-001  0.978002950617294E-001 -0.693147180559945E+000 -0.191564214255737E+002
  0.151309811654644E-001  0.311513597461228E+002  0.251691556521347E-001  0.106373454438174E+000 -0.693147180559945E+000 -0.177182948603002E+002
  0.151309811654644E-001  0.274814723078162E+002  0.503833998005963E-001  0.864547442835323E-001 -0.693147180559945E+000 -0.158833511411469E+002
  0.151309811654644E-001  0.274961541314648E+002  0.508997100409370E-001  0.949312550849646E-001 -0.693147180559945E+000 -0.158906920529712E+002
  0.151309811654644E-001  0.381428224655394E+002  0.689749067866818E-001  0.550290011557681E-001 -0.693147180559945E+000 -0.212140262200085E+002
  0.151309811654644E-001  0.381844613723334E+002  0.619425768714652E-001  0.464437988100223E-001 -0.693147180559945E+000 -0.212348456734055E+002
  0.151309811654644E-001  0.445838749538089E+002  0.134900637679090E+000  0.537378458240746E-001 -0.693147180559945E+000 -0.244345524641433E+002
  0.151309811654644E-001  0.282923776400639E+002  0.399091099925508E-001  0.782752149633070E-001 -0.693147180559945E+000 -0.162888038072708E+002
  0.151309811654644E-001  0.269827344725033E+002  0.473782208722702E-001  0.936133129765037E-001 -0.693147180559945E+000 -0.156339822234905E+002
  0.151309811654644E-001  0.287351899000839E+002  0.562441961366076E-001  0.703758085239321E-001 -0.693147180559945E+000 -0.165102099372808E+002
  0.151309811654644E-001  0.302276191854185E+002  0.758097723201310E-001  0.926994395556667E-001 -0.693147180559945E+000 -0.172564245799480E+002
  0.151309811654644E-001  0.282748453281188E+002  0.740330921675967E-001  0.850214275794180E-001 -0.693147180559945E+000 -0.162800376512982E+002
  0.151309811654644E-001  0.329709082736928E+002  0.130878336661592E+000  0.872037964893208E-001 -0.693147180559945E+000 -0.186280691240852E+002
  0.151309811654644E-001  0.319334380023376E+002  0.740113677564782E-001  0.850787099003899E-001 -0.693147180559945E+000 -0.181093339884076E+002
  0.151309811654644E-001  0.301446115320547E+002  0.926062425241958E-002  0.853344556884515E-001 -0.693147180559945E+000 -0.172149207532662E+002
  0.151309811654644E-001  0.262331937922242E+002  0.715458776117879E-001  0.972294294909656E-001 -0.693147180559945E+000 -0.151062151546196E+002
  0.151309811654644E-001  0.348264802709593E+002  0.978216853882123E-001  0.940461677454686E-001 -0.693147180559945E+000 -0.195558551227185E+002
  0.151309811654644E-001  0.268358609731121E+002  0.466627229965184E-001  0.118252224073087E+000 -0.693147180559945E+000 -0.155605454737948E+002
  0.151309811654644E-001  0.429412842841912E+002  0.478804223379254E-001  0.116095570675382E-002 -0.693147180559945E+000 -0.236132571293344E+002
  0.151309811654644E-001  0.348516382489512E+002  0.885174871821299E-001  0.879559136605298E-001 -0.693147180559945E+000 -0.195684341117144E+002
  0.151309811654644E-001  0.294508537879134E+002  0.399017843676541E-001  0.952074607736193E-001 -0.693147180559945E+000 -0.168680418811955E+002
  0.151309811654644E-001  0.302146359067498E+002  0.908784067185746E-001  0.116984447802979E+000 -0.693147180559945E+000 -0.172499329406137E+002
  0.151309811654644E-001  0.289897031895458E+002  0.617152101394915E-001  0.747077642159437E-001 -0.693147180559945E+000 -0.166374665820117E+002
  0.151309811654644E-001  0.348722830284854E+002  0.324226385384294E-001  0.121869207517862E+000 -0.693147180559945E+000 -0.195787565014815E+002
  0.151309811654644E-001  0.309989338879028E+002  0.421292230484573E-001  0.715516245031796E-001 -0.693147180559945E+000 -0.176420819311902E+002
  0.151309811654644E-001  0.340971293105905E+002  0.517036242389672E-001  0.612980722422181E-001 -0.693147180559945E+000 -0.191911796425341E+002
  0.151309811654644E-001  0.262614355453647E+002  0.695474181693589E-001  0.716711508290450E-001 -0.693147180559945E+000 -0.151203360311898E+002
  0.151309811654644E-001  0.351154594786634E+002  0.216396517687409E-001  0.543556484575401E-001 -0.693147180559945E+000 -0.197003447265705E+002
  0.151309811654644E-001  0.360681186355376E+002  0.536181987409490E-001  0.764231700737864E-001 -0.693147180559945E+000 -0.201766743050076E+002
  0.151309811654644E-001  0.418722643991041E+002  0.428215053190140E-001  0.184347034630436E-001 -0.693147180559945E+000 -0.230787471867908E+002
  0.151309811654644E-001  0.269426726123253E+002  0.684081199867126E-001  0.125894940230871E+000 -0.693147180559945E+000 -0.156139512934015E+002
  0.151309811654644E-001  0.301950571824583E+002  0.503389370006375E-001  0.874310748102451E-001 -0.693147180559945E+000 -0.172401435784680E+002
  0.151309811654644E-001  0.267818005168824E+002  0.602758903574245E-001  0.754675007846225E-001 -0.693147180559945E+000 -0.155335152456800E+002
  0.151309811654644E-001  0.262927192182624E+002  0.442428005349120E-001  0.880495625304611E-001 -0.693147180559945E+000 -0.151359778676387E+002
  0.151309811654644E-001  0.293265089686884E+002  0.398953245026643E-001  0.952179387874774E-001 -0.693147180559945E+000 -0.168058694715830E+002
  0.151309811654644E-001  0.263309706023913E+002  0.538630314145203E-001  0.898159374186605E-001 -0.693147180559945E+000 -0.151551035597031E+002
  0.151309811654644E-001  0.295827215041983E+002  0.748815342706921E-001  0.762115397759712E-001 -0.693147180559945E+000 -0.169339757393379E+002
  0.151309811654644E-001  0.282277050948187E+002  0.519085019233474E-001  0.614405759789979E-001 -0.693147180559945E+000 -0.162564675346482E+002
  0.151309811654644E-001  0.265554511495995E+002  0.462651002051910E-001  0.875392448254085E-001 -0.693147180559945E+000 -0.152673438333072E+002
  0.151309811654644E-001  0.311016132600334E+002  0.272957671324099E-001  0.125419612631184E+000 -0.693147180559945E+000 -0.176934216172555E+002
  0.151309811654644E-001  0.271667988599488E+002  0.619101035409879E-001  0.125849443991686E+000 -0.693147180559945E+000 -0.157260144172132E+002
  0.151309811654644E-001  0.330131835768002E+002  0.400024824945016E-001  0.774618718325686E-001 -0.693147180559945E+000 -0.186492067756389E+002
  0.151309811654644E-001  0.310806550757309E+002  0.394842634757162E-001  0.885171439296430E-001 -0.693147180559945E+000 -0.176829425251043E+002
  0.151309811654644E-001  0.310800235781383E+002  0.678877515653782E-001  0.877955911161207E-001 -0.693147180559945E+000 -0.176826267763080E+002
  0.151309811654644E-001  0.247231450881776E+002  0.509648752942076E-001  0.948641375444348E-001 -0.693147180559945E+000 -0.143511908025963E+002
  0.151309811654644E-001  0.310465607627929E+002  0.645295534417585E-001  0.105333957305753E+000 -0.693147180559945E+000 -0.176658953686352E+002
  0.151309811654644E-001  0.385162699455479E+002  0.111484876251150E+000  0.902646573877626E-001 -0.693147180559945E+000 -0.214007499600128E+002
  0.151309811654644E-001  0.417171416989934E+002  0.923230502650265E-001  0.598402239792273E-001 -0.693147180559945E+000 -0.230011858367355E+002
  0.151309811654644E-001  0.431592063432856E+002  0.519630216023390E-001  0.283176199691825E-001 -0.693147180559945E+000 -0.237222181588816E+002
  0.151309811654644E-001  0.264657515687112E+002  0.383852243570828E-001  0.997655612119370E-001 -0.693147180559945E+000 -0.152224940428631E+002
  0.151309811654644E-001  0.310598810858489E+002  0.109805482140505E+000  0.928567143448374E-001 -0.693147180559945E+000 -0.176725555301632E+002
  0.151309811654644E-001  0.265204431295694E+002  0.644928419697537E-001  0.703565206097192E-001 -0.693147180559945E+000 -0.152498398232922E+002
  0.151309811654644E-001  0.310508074740919E+002  0.503025652780049E-001  0.952576251562800E-001 -0.693147180559945E+000 -0.176680187242847E+002
  0.151309811654644E-001  0.213885993549064E+002  0.602575016551907E-001  0.108220296954399E+000 -0.693147180559945E+000 -0.106942996774532E+002
