  0.110707767405474E-001  0.266627773797066E+002  0.451142590904832E-001  0.119341146609363E+000 -0.693147180559945E+000 -0.143739423294610E+002
  0.110707767405474E-001  0.259987354455070E+002  0.631124781788843E-001  0.127102030213268E+000 -0.693147180559945E+000 -0.129993677227535E+002
  0.110707767405474E-001  0.262567750726750E+002  0.630623485437589E-001  0.127112466844537E+000 -0.693147180559945E+000 -0.131283875363375E+002
  0.110707767405474E-001  0.267862423330038E+002  0.411103019745418E-001  0.115198798511574E+000 -0.693147180559945E+000 -0.144356748061096E+002
  0.110707767405474E-001  0.266045847267372E+002  0.630731347244691E-001  0.127081810569657E+000 -0.693147180559945E+000 -0.133022923633686E+002
  0.110707767405474E-001  0.268391050421466E+002  0.272226532583588E-001  0.125276082464730E+000 -0.693147180559945E+000 -0.144621061606811E+002
  0.110707767405474E-001  0.266157772736710E+002  0.463490138064326E-001  0.881200986313325E-001 -0.693147180559945E+000 -0.154822420995838E+002
  0.110707767405474E-001  0.270085656517829E+002  0.397671740398748E-001  0.115243403470636E+000 -0.693147180559945E+000 -0.145468364654992E+002
  0.110707767405474E-001  0.277352508006990E+002  0.648424336478890E-001  0.103856552719853E+000 -0.693147180559945E+000 -0.160419788630978E+002
  0.110707767405474E-001  0.319858083128465E+002  0.349452912371984E-003  0.113539543216899E+000 -0.693147180559945E+000 -0.181672576191716E+002
  0.110707767405474E-001  0.277557650165938E+002  0.529333025478680E-001  0.766761337465019E-001 -0.693147180559945E+000 -0.160522359710452E+002
  0.110707767405474E-001  0.271994507530856E+002  0.630945392315196E-001  0.127103823143708E+000 -0.693147180559945E+000 -0.146422790161505E+002
  0.110707767405474E-001  0.277071926861777E+002  0.420955282011306E-001  0.772108602233233E-001 -0.693147180559945E+000 -0.160279498058371E+002
  0.110707767405474E-001  0.293385290267920E+002  0.985072118191408E-001  0.885462473451677E-001 -0.693147180559945E+000 -0.168436179761443E+002
  0.110707767405474E-001  0.266558758819248E+002  0.877321265678466E-001  0.959195571961898E-001 -0.693147180559945E+000 -0.155022914037107E+002
  0.110707767405474E-001  0.273486140252644E+002  0.272268199434844E-001  0.125226141314172E+000 -0.693147180559945E+000 -0.147168606522400E+002
  0.110707767405474E-001  0.326112966140519E+002  0.387861472760989E-001  0.719836354535059E-001 -0.693147180559945E+000 -0.184800017697742E+002
  0.110707767405474E-001  0.324601750962437E+002  0.239984921530974E-001  0.126336097748553E+000 -0.693147180559945E+000 -0.184044410108702E+002
  0.110707767405474E-001  0.373206938911984E+002  0.530457423780317E-001  0.226875690238719E-001 -0.693147180559945E+000 -0.208347004083475E+002
  0.110707767405474E-001  0.436446226917688E+002  0.905216072691184E-001  0.415407809752881E-001 -0.693147180559945E+000 -0.239966648086327E+002
  0.110707767405474E-001  0.405205761797019E+002  0.251847887554102E-001  0.992607325882841E-001 -0.693147180559945E+000 -0.224346415525993E+002
  0.110707767405474E-001  0.405295953081463E+002  0.374171024521059E-001  0.857750192325651E-001 -0.693147180559945E+000 -0.224391511168214E+002
  0.110707767405474E-001  0.275114899406502E+002  0.619107068973064E-001  0.125850139633028E+000 -0.693147180559945E+000 -0.147982986099329E+002
  0.110707767405474E-001  0.276043296645889E+002  0.630945412890758E-001  0.127103828743352E+000 -0.693147180559945E+000 -0.148447184719022E+002
  0.110707767405474E-001  0.326437111980381E+002  0.705126463586152E-001  0.107922562460988E+000 -0.693147180559945E+000 -0.184962090617674E+002
  0.110707767405474E-001  0.324390483322349E+002 -0.210652205742345E-003  0.596583173799255E-001 -0.693147180559945E+000 -0.183938776288657E+002
  0.110707767405474E-001  0.324160823271857E+002  0.747833648383445E-001  0.544082263305293E-001 -0.693147180559945E+000 -0.183823946263411E+002
  0.110707767405474E-001  0.282050435421606E+002  0.451142583033439E-001  0.119341147230666E+000 -0.693147180559945E+000 -0.151450754106880E+002
  0.110707767405474E-001  0.283840842736744E+002  0.272234226256669E-001  0.125276002742802E+000 -0.693147180559945E+000 -0.152345957764449E+002
  0.110707767405474E-001  0.293114654650018E+002  0.565133790539643E-001  0.710306786069208E-001 -0.693147180559945E+000 -0.168300861952492E+002
  0.110707767405474E-001  0.319284881114360E+002  0.596691775577589E-001  0.186287455250324E+000 -0.693147180559945E+000 -0.181385975184663E+002
  0.110707767405474E-001  0.288810314754786E+002  0.516380633273505E-001  0.115177144312736E+000 -0.693147180559945E+000 -0.166148692004876E+002
  0.110707767405474E-001  0.285827240153694E+002  0.602760391147030E-001  0.754673864633468E-001 -0.693147180559945E+000 -0.164657154704330E+002
  0.110707767405474E-001  0.327445973389280E+002  0.699850680633813E-001  0.956566532679145E-001 -0.693147180559945E+000 -0.185466521322123E+002
  0.110707767405474E-001  0.277957444502673E+002  0.350806697658526E-001  0.112353766244601E+000 -0.693147180559945E+000 -0.160722256878820E+002
  0.110707767405474E-001  0.327590064053530E+002  0.111685182461007E+000  0.145653260771224E+000 -0.693147180559945E+000 -0.185538566654248E+002
  0.110707767405474E-001  0.327641214343761E+002  0.187924376375470E-001  0.839483065611986E-001 -0.693147180559945E+000 -0.185564141799364E+002
  0.110707767405474E-001  0.342137813174338E+002  0.355160196615270E-001  0.893795109353035E-001 -0.693147180559945E+000 -0.192812441214652E+002
  0.110707767405474E-001  0.276562195071808E+002  0.760764749058784E-001  0.926252654186929E-001 -0.693147180559945E+000 -0.160024632163387E+002
  0.110707767405474E-001  0.266839238125665E+002  0.436963732847473E-001  0.118040158899533E+000 -0.693147180559945E+000 -0.155163153690315E+002
  0.110707767405474E-001  0.286256418620041E+002  0.502583850843679E-001  0.951886258517011E-001 -0.693147180559945E+000 -0.164871743937504E+002
  0.110707767405474E-001  0.286276558560137E+002  0.677697552951058E-001  0.768836074111942E-001 -0.693147180559945E+000 -0.164881813907552E+002
  0.110707767405474E-001  0.266857108349697E+002  0.670824444091496E-001  0.121145110280453E+000 -0.693147180559945E+000 -0.155172088802332E+002
  0.110707767405474E-001  0.323135608260434E+002  0.436190049848948E-001  0.842305546426895E-001 -0.693147180559945E+000 -0.183311338757700E+002
  0.110707767405474E-001  0.266871250988379E+002  0.705108318297469E-001  0.107915239788760E+000 -0.693147180559945E+000 -0.155179160121672E+002
  0.110707767405474E-001  0.286304600330735E+002  0.502595105196686E-001  0.951883156805462E-001 -0.693147180559945E+000 -0.164895834792850E+002
  0.110707767405474E-001  0.464708975677039E+002 -0.463999225398626E-002  0.967486409899405E-001 -0.693147180559945E+000 -0.254098022466002E+002
  0.110707767405474E-001  0.323025598589208E+002  0.459312754670431E-001  0.162969442061130E+000 -0.693147180559945E+000 -0.183256333922087E+002
  0.110707767405474E-001  0.278003820691437E+002  0.326280361431890E-001  0.651872503806617E-001 -0.693147180559945E+000 -0.160745444973201E+002
  0.110707767405474E-001  0.278177216011482E+002  0.350806697658526E-001  0.112353766244601E+000 -0.693147180559945E+000 -0.160832142633224E+002
  0.110707767405474E-001  0.320206639223988E+002  0.835862978017361E-001  0.387785084055558E-001 -0.693147180559945E+000 -0.181846854239477E+002
  0.110707767405474E-001  0.322560565052847E+002  0.442241279931905E-001  0.880280872903936E-001 -0.693147180559945E+000 -0.183023817153907E+002
  0.110707767405474E-001  0.343307286753145E+002  0.444834881071807E-001  0.706134876628680E-001 -0.693147180559945E+000 -0.193397178004055E+002
  0.110707767405474E-001  0.320438038502277E+002  0.554564325283500E-001  0.916488130174700E-001 -0.693147180559945E+000 -0.181962553878621E+002
  0.110707767405474E-001  0.276303487915975E+002  0.609616139432592E-001  0.748519798945078E-001 -0.693147180559945E+000 -0.159895278585470E+002
  0.110707767405474E-001  0.329480220508538E+002  0.943984333160031E-001  0.546177278020820E-001 -0.693147180559945E+000 -0.186483644881752E+002
  0.110707767405474E-001  0.320626032313359E+002  0.531674021107782E-001  0.111036007420513E+000 -0.693147180559945E+000 -0.182056550784163E+002
  0.110707767405474E-001  0.312457577660894E+002  0.438119158772754E-001  0.807040141155536E-001 -0.693147180559945E+000 -0.177972323457930E+002
  0.110707767405474E-001  0.329793609100594E+002  0.870402575243154E-001  0.887124738342571E-001 -0.693147180559945E+000 -0.186640339177780E+002
  0.110707767405474E-001  0.329871648547697E+002  0.650477485700207E-001  0.123321738895617E+000 -0.693147180559945E+000 -0.186679358901332E+002
  0.110707767405474E-001  0.330116449324835E+002  0.117599003485602E-002  0.135161891376192E+000 -0.693147180559945E+000 -0.186801759289901E+002
  0.110707767405474E-001  0.321786318827934E+002  0.410270936695463E-001  0.114654149882361E+000 -0.693147180559945E+000 -0.182636694041450E+002
  0.110707767405474E-001  0.266958438740120E+002  0.761358894562192E-001  0.965742414879121E-001 -0.693147180559945E+000 -0.155222753997543E+002
  0.110707767405474E-001  0.330440054961684E+002  0.921181427098205E-001  0.672704062595997E-001 -0.693147180559945E+000 -0.186963562108325E+002
  0.110707767405474E-001  0.278445540237016E+002  0.491129753517665E-001  0.990586043066160E-001 -0.693147180559945E+000 -0.160966304745991E+002
  0.110707767405474E-001  0.344090350159959E+002  0.421183769518034E-001  0.614965431319270E-001 -0.693147180559945E+000 -0.193788709707463E+002
  0.110707767405474E-001  0.286717129490650E+002  0.562441961366076E-001  0.703758085239321E-001 -0.693147180559945E+000 -0.165102099372808E+002
  0.110707767405474E-001  0.344167506447360E+002 -0.281776854144425E-001  0.164526872325243E+000 -0.693147180559945E+000 -0.193827287851163E+002
  0.110707767405474E-001  0.267181139510157E+002  0.908276519901987E-001  0.117034864295414E+000 -0.693147180559945E+000 -0.155334104382561E+002
  0.110707767405474E-001  0.439523006587974E+002  0.346352923508069E-001  0.173806261146343E-001 -0.693147180559945E+000 -0.241505037921470E+002
  0.110707767405474E-001  0.321169510361100E+002  0.123932579247708E-001  0.810909210831723E-001 -0.693147180559945E+000 -0.182328289808033E+002
  0.110707767405474E-001  0.376860213710367E+002  0.793182063578264E-001  0.509792564205760E-001 -0.693147180559945E+000 -0.210173641482666E+002
  0.110707767405474E-001  0.311804429228596E+002  0.301703234932282E-001  0.100955698403849E+000 -0.693147180559945E+000 -0.177645749241781E+002
  0.110707767405474E-001  0.331988175467900E+002  0.740123938372292E-001  0.850795604305047E-001 -0.693147180559945E+000 -0.187737622361433E+002
  0.110707767405474E-001  0.284915556523696E+002  0.710894999016918E-001  0.119446912234047E+000 -0.693147180559945E+000 -0.164201312889331E+002
  0.110707767405474E-001  0.275636696158869E+002  0.403285188747422E-001  0.949000834065293E-001 -0.693147180559945E+000 -0.159561882706918E+002
  0.110707767405474E-001  0.332640461028061E+002  0.133950777808121E+000  0.111332645457559E+000 -0.693147180559945E+000 -0.188063765141513E+002
  0.110707767405474E-001  0.267565452885475E+002  0.602570694118449E-001  0.108219782073941E+000 -0.693147180559945E+000 -0.155526261070220E+002
  0.110707767405474E-001  0.332680372026483E+002  0.524192564415971E-001  0.785950021019713E-001 -0.693147180559945E+000 -0.188083720640725E+002
  0.110707767405474E-001  0.267646548481592E+002  0.293011252389430E-001  0.118297003824528E+000 -0.693147180559945E+000 -0.155566808868279E+002
  0.110707767405474E-001  0.292501256574866E+002  0.507169983161158E-001  0.949221220042328E-001 -0.693147180559945E+000 -0.167994162914916E+002
  0.110707767405474E-001  0.287366086004759E+002  0.410428274085450E-001  0.950919197460472E-001 -0.693147180559945E+000 -0.165426577629862E+002
  0.110707767405474E-001  0.345235949449149E+002  0.858881888377325E-001  0.649773606588666E-001 -0.693147180559945E+000 -0.194361509352058E+002
  0.110707767405474E-001  0.311649295150369E+002  0.851917055690607E-001  0.671741686927538E-001 -0.693147180559945E+000 -0.177568182202667E+002
  0.110707767405474E-001  0.278945455520591E+002  0.272474376431751E-001  0.125280429441974E+000 -0.693147180559945E+000 -0.161216262387778E+002
  0.110707767405474E-001  0.279440319193570E+002  0.644928393282145E-001  0.703565234144086E-001 -0.693147180559945E+000 -0.161463694224268E+002
  0.110707767405474E-001  0.275358034127210E+002  0.354253775355249E-001  0.119422063518577E+000 -0.693147180559945E+000 -0.159422551691088E+002
  0.110707767405474E-001  0.345254942604277E+002  0.505382555634166E-001  0.586912095785827E-001 -0.693147180559945E+000 -0.194371005929621E+002
  0.110707767405474E-001  0.318311814073599E+002  0.349467801376693E-001  0.936105280585205E-001 -0.693147180559945E+000 -0.180899441664283E+002
  0.110707767405474E-001  0.335257465063282E+002  0.986254975870495E-001  0.132433329461860E+000 -0.693147180559945E+000 -0.189372267159124E+002
  0.110707767405474E-001  0.293853415721465E+002  0.404642348558795E-001  0.954774730941091E-001 -0.693147180559945E+000 -0.168670242488216E+002
  0.110707767405474E-001  0.318122292748900E+002  0.671892030850865E-001  0.121281983346754E+000 -0.693147180559945E+000 -0.180804681001933E+002
  0.110707767405474E-001  0.284895469595553E+002  0.398949391307069E-001  0.952188959275983E-001 -0.693147180559945E+000 -0.164191269425260E+002
  0.110707767405474E-001  0.310878827951038E+002  0.251691556521347E-001  0.106373454438174E+000 -0.693147180559945E+000 -0.177182948603002E+002
  0.110707767405474E-001  0.318021383540923E+002  0.404635839697201E-001  0.954849729458931E-001 -0.693147180559945E+000 -0.180754226397945E+002
  0.110707767405474E-001  0.293869325549219E+002  0.505953280252662E-001  0.862227734001814E-001 -0.693147180559945E+000 -0.168678197402092E+002
  0.110707767405474E-001  0.335886698196253E+002  0.191741284520359E-001  0.108739794950309E+000 -0.693147180559945E+000 -0.189686883725609E+002
  0.110707767405474E-001  0.335907005804645E+002  0.650477362224877E-001  0.123321730801341E+000 -0.693147180559945E+000 -0.189697037529806E+002
  0.110707767405474E-001  0.336141675784608E+002  0.746027366235866E-001  0.929182885339238E-001 -0.693147180559945E+000 -0.189814372519787E+002
  0.110707767405474E-001  0.288041225199160E+002  0.496459013840111E-001  0.809384600045478E-001 -0.693147180559945E+000 -0.165764147227063E+002
  0.110707767405474E-001  0.267822291633745E+002  0.760935303583057E-001  0.926356091861850E-001 -0.693147180559945E+000 -0.155654680444355E+002
  0.110707767405474E-001  0.317923832102076E+002  0.840744138117506E-001  0.585323072633749E-001 -0.693147180559945E+000 -0.180705450678521E+002
  0.110707767405474E-001  0.336352918158740E+002  0.907039089859243E-001  0.116991221947042E+000 -0.693147180559945E+000 -0.189919993706853E+002
  0.110707767405474E-001  0.288096928238057E+002  0.261258071106574E-001  0.799684266331460E-001 -0.693147180559945E+000 -0.165791998746511E+002
  0.110707767405474E-001  0.275042274117393E+002  0.886112888352852E-001  0.113470166489981E+000 -0.693147180559945E+000 -0.159264671686179E+002
  0.110707767405474E-001  0.312896096599220E+002  0.699832387926118E-001  0.956542963913238E-001 -0.693147180559945E+000 -0.178191582927093E+002
  0.110707767405474E-001  0.284275892078544E+002  0.716193950562718E-001  0.972598816318373E-001 -0.693147180559945E+000 -0.163881480666755E+002
  0.110707767405474E-001  0.292216118779619E+002  0.607070634487117E-001  0.808077411548557E-001 -0.693147180559945E+000 -0.167851594017292E+002
  0.110707767405474E-001  0.310171781247119E+002  0.394842634757162E-001  0.885171439296430E-001 -0.693147180559945E+000 -0.176829425251043E+002
  0.110707767405474E-001  0.309873305230729E+002  0.503025652780049E-001  0.952576251562800E-001 -0.693147180559945E+000 -0.176680187242847E+002
  0.110707767405474E-001  0.346223154676685E+002  0.726772277438135E-001  0.447404492548040E-001 -0.693147180559945E+000 -0.194855111965825E+002
  0.110707767405474E-001  0.309743082331188E+002  0.969034193017977E-001  0.120504828133757E+000 -0.693147180559945E+000 -0.176615075793077E+002
  0.110707767405474E-001  0.313088302101042E+002  0.425213303569680E-001  0.141916683457394E+000 -0.693147180559945E+000 -0.178287685678004E+002
  0.110707767405474E-001  0.280239051559499E+002  0.128583583758062E-001  0.817730043759696E-001 -0.693147180559945E+000 -0.161863060407233E+002
  0.110707767405474E-001  0.295792027477790E+002  0.397671755014828E-001  0.115243403983087E+000 -0.693147180559945E+000 -0.169639548366378E+002
  0.110707767405474E-001  0.346331449348395E+002  0.238855877621078E-001  0.882697081609594E-001 -0.693147180559945E+000 -0.194909259301680E+002
  0.110707767405474E-001  0.293873768368944E+002  0.399017843676541E-001  0.952074607736193E-001 -0.693147180559945E+000 -0.168680418811955E+002
  0.110707767405474E-001  0.309221212965453E+002  0.752826049545541E-001  0.944846402482491E-001 -0.693147180559945E+000 -0.176354141110209E+002
  0.110707767405474E-001  0.295956658848865E+002  0.637411575231650E-002  0.601581381279186E-001 -0.693147180559945E+000 -0.169721864051916E+002
  0.110707767405474E-001  0.338673301831178E+002  0.121994271131366E+000  0.103604037779163E+000 -0.693147180559945E+000 -0.191080185543072E+002
  0.110707767405474E-001  0.379407157668702E+002  0.273032250957845E-001  0.316127825790670E-001 -0.693147180559945E+000 -0.211447113461834E+002
  0.110707767405474E-001  0.317515798190506E+002  0.420944379209369E-001  0.715588249110616E-001 -0.693147180559945E+000 -0.180501433722736E+002
  0.110707767405474E-001  0.379514998675443E+002  0.366302975075408E-001  0.222353596036415E-001 -0.693147180559945E+000 -0.211501033965204E+002
  0.110707767405474E-001  0.313541176617240E+002  0.874696292908617E-002  0.794600601387572E-001 -0.693147180559945E+000 -0.178514122936103E+002
  0.110707767405474E-001  0.274694394953144E+002  0.408542925140511E-001  0.911181576358385E-001 -0.693147180559945E+000 -0.159090732104055E+002
  0.110707767405474E-001  0.274645435805195E+002  0.648424469932065E-001  0.103856555819461E+000 -0.693147180559945E+000 -0.159066252530081E+002
  0.110707767405474E-001  0.296196077704718E+002  0.470975253723758E-001  0.879091079728121E-001 -0.693147180559945E+000 -0.169841573479842E+002
  0.110707767405474E-001  0.274616664939872E+002  0.684551649585281E-001  0.987491498655410E-001 -0.693147180559945E+000 -0.159051867097419E+002
  0.110707767405474E-001  0.291849338332942E+002  0.662379679184306E-001  0.803420666251824E-001 -0.693147180559945E+000 -0.167668203793954E+002
  0.110707767405474E-001  0.380115142841138E+002  0.547972135652153E-001  0.708142711569541E-001 -0.693147180559945E+000 -0.211801106048052E+002
  0.110707767405474E-001  0.309012746818037E+002  0.252073507119768E-001  0.790390161596348E-001 -0.693147180559945E+000 -0.176249908036502E+002
  0.110707767405474E-001  0.283782436007183E+002  0.103327025031165E+000  0.247191716383990E+000 -0.693147180559945E+000 -0.163634752631074E+002
  0.110707767405474E-001  0.268491836420030E+002  0.915252189184146E-001  0.116698664417668E+000 -0.693147180559945E+000 -0.155989452837498E+002
  0.110707767405474E-001  0.339641359256507E+002  0.710746670491824E-001  0.978002950617294E-001 -0.693147180559945E+000 -0.191564214255737E+002
  0.110707767405474E-001  0.308946484422887E+002  0.660764023989568E-001  0.943798671491957E-001 -0.693147180559945E+000 -0.176216776838926E+002
  0.110707767405474E-001  0.308800116836941E+002  0.127718516823812E-001  0.812161797036836E-001 -0.693147180559945E+000 -0.176143593045954E+002
  0.110707767405474E-001  0.274398155475173E+002  0.648336123221027E-001  0.103858229308253E+000 -0.693147180559945E+000 -0.158942612365069E+002
  0.110707767405474E-001  0.283641582628446E+002  0.765430690206665E-001  0.111895584516697E+000 -0.693147180559945E+000 -0.163564325941706E+002
  0.110707767405474E-001  0.339767186780485E+002  0.124053659004785E+000  0.157585714552923E+000 -0.693147180559945E+000 -0.191627128017725E+002
  0.110707767405474E-001  0.274326771804458E+002  0.508997100409370E-001  0.949312550849646E-001 -0.693147180559945E+000 -0.158906920529712E+002
  0.110707767405474E-001  0.308533524055189E+002  0.701164322290591E-001  0.862338556460706E-001 -0.693147180559945E+000 -0.176010296655078E+002
  0.110707767405474E-001  0.294134220228826E+002  0.276813855460081E-001  0.116187912855312E+000 -0.693147180559945E+000 -0.168810644741896E+002
  0.110707767405474E-001  0.317353173389515E+002  0.111861925690354E+000  0.925511222677311E-001 -0.693147180559945E+000 -0.180420121322240E+002
  0.110707767405474E-001  0.347052176337315E+002  0.722543117705943E-001  0.104418309389474E+000 -0.693147180559945E+000 -0.195269622796140E+002
  0.110707767405474E-001  0.296820522218026E+002  0.130961502215888E+000  0.869309807413243E-001 -0.693147180559945E+000 -0.170153795736496E+002
  0.110707767405474E-001  0.308044350478632E+002  0.441704753096903E-001  0.111816697847850E+000 -0.693147180559945E+000 -0.175765709866799E+002
  0.110707767405474E-001  0.307929459030949E+002  0.957128076138600E-001  0.707541684573152E-001 -0.693147180559945E+000 -0.175708264142958E+002
  0.110707767405474E-001  0.307908051923851E+002  0.991692036818270E-001  0.132430778661934E+000 -0.693147180559945E+000 -0.175697560589408E+002
  0.110707767405474E-001  0.360421331523619E+002  0.301688698579587E-001  0.998434413380944E-001 -0.693147180559945E+000 -0.201954200389293E+002
  0.110707767405474E-001  0.347340563313034E+002  0.456093120259629E-001  0.707518119718172E-001 -0.693147180559945E+000 -0.195413816284000E+002
  0.110707767405474E-001  0.307575548033896E+002  0.453266789744735E-001  0.924152407949726E-001 -0.693147180559945E+000 -0.175531308644431E+002
  0.110707767405474E-001  0.347818324529671E+002  0.978936225214613E-001  0.779111754207842E-001 -0.693147180559945E+000 -0.195652696892318E+002
  0.110707767405474E-001  0.307173522727596E+002  0.576126170920834E-001  0.110387525978557E+000 -0.693147180559945E+000 -0.175330295991281E+002
  0.110707767405474E-001  0.363378622984411E+002  0.981751189518838E-001  0.754256183393609E-001 -0.693147180559945E+000 -0.203432846119689E+002
  0.110707767405474E-001  0.413746471981376E+002  0.110765488192562E+000  0.166103167399202E+000 -0.693147180559945E+000 -0.228616770618171E+002
  0.110707767405474E-001  0.363550193837735E+002  0.469842852683122E-001  0.750953921320823E-001 -0.693147180559945E+000 -0.203518631546350E+002
  0.110707767405474E-001  0.268622490286035E+002  0.697002718863982E-001  0.712564496120107E-001 -0.693147180559945E+000 -0.156054779770500E+002
  0.110707767405474E-001  0.348088060774664E+002  0.324226385384294E-001  0.121869207517862E+000 -0.693147180559945E+000 -0.195787565014815E+002
  0.110707767405474E-001  0.283261293218777E+002  0.423275149602937E-001  0.798312090026165E-001 -0.693147180559945E+000 -0.163374181236872E+002
  0.110707767405474E-001  0.273810566329181E+002  0.749554793834644E-001  0.759156884567709E-001 -0.693147180559945E+000 -0.158648817792074E+002
  0.110707767405474E-001  0.280513418356935E+002  0.420956138913129E-001  0.772107019940697E-001 -0.693147180559945E+000 -0.162000243805951E+002
  0.110707767405474E-001  0.383229889436583E+002  0.536045947355115E-001  0.384428497005369E-001 -0.693147180559945E+000 -0.213358479345775E+002
  0.110707767405474E-001  0.307031109079341E+002  0.523365678628216E-001  0.899937353366227E-001 -0.693147180559945E+000 -0.175259089167154E+002
  0.110707767405474E-001  0.283094193280549E+002  0.684551649276832E-001  0.987491498593989E-001 -0.693147180559945E+000 -0.163290631267757E+002
  0.110707767405474E-001  0.280515992960452E+002  0.761006349069058E-001  0.926353249966655E-001 -0.693147180559945E+000 -0.162001531107709E+002
  0.110707767405474E-001  0.297259526538107E+002  0.668158222000022E-001  0.821650280796433E-001 -0.693147180559945E+000 -0.170373297896536E+002
  0.110707767405474E-001  0.364449262727644E+002  0.143350798453727E-001  0.713907538374877E-001 -0.693147180559945E+000 -0.203968165991305E+002
  0.110707767405474E-001  0.364522812434723E+002  0.239974456091958E-001  0.126336416779179E+000 -0.693147180559945E+000 -0.204004940844844E+002
  0.110707767405474E-001  0.273594055091272E+002  0.360683538594901E-001  0.843540716366204E-001 -0.693147180559945E+000 -0.158540562173119E+002
  0.110707767405474E-001  0.349216361446638E+002  0.358720347073049E-002  0.111088237643778E+000 -0.693147180559945E+000 -0.196351715350802E+002
  0.110707767405474E-001  0.294284481590385E+002  0.465829562143325E-001  0.935309551623691E-001 -0.693147180559945E+000 -0.168885775422675E+002
  0.110707767405474E-001  0.297283378264927E+002  0.276548512572325E-001  0.116188936006555E+000 -0.693147180559945E+000 -0.170385223759947E+002
  0.110707767405474E-001  0.294408800752790E+002  0.896693996700877E-001  0.112966839212971E+000 -0.693147180559945E+000 -0.168947935003878E+002
  0.110707767405474E-001  0.306444781186772E+002  0.796553085701284E-001  0.832322468745884E-001 -0.693147180559945E+000 -0.174965925220869E+002
  0.110707767405474E-001  0.297475803304347E+002  0.509027064770857E-001  0.952989666614739E-001 -0.693147180559945E+000 -0.170481436279656E+002
  0.110707767405474E-001  0.384416226618815E+002  0.978954057386798E-001  0.937726164458854E-001 -0.693147180559945E+000 -0.213951647936891E+002
  0.110707767405474E-001  0.349648557342491E+002  0.598940459285715E-001  0.728996297687870E-001 -0.693147180559945E+000 -0.196567813298728E+002
  0.110707767405474E-001  0.297497182410287E+002  0.719577474795527E-001  0.129557680505898E+000 -0.693147180559945E+000 -0.170492125832627E+002
  0.110707767405474E-001  0.297507253051325E+002  0.462636273194055E-001  0.875413130197046E-001 -0.693147180559945E+000 -0.170497161153146E+002
  0.110707767405474E-001  0.359647097497469E+002  0.739355662430221E-001  0.623102625458701E-001 -0.693147180559945E+000 -0.201567083376218E+002
  0.110707767405474E-001  0.291448269253662E+002  0.740654196896096E-001  0.850897828491691E-001 -0.693147180559945E+000 -0.167467669254314E+002
  0.110707767405474E-001  0.305458746960802E+002  0.739644036803775E-001  0.866889734098403E-001 -0.693147180559945E+000 -0.174472908107884E+002
  0.110707767405474E-001  0.273079922977454E+002  0.602757240593728E-001  0.754661969607583E-001 -0.693147180559945E+000 -0.158283496116210E+002
  0.110707767405474E-001  0.314413602928893E+002 -0.115183255443131E-001  0.966812547315220E-001 -0.693147180559945E+000 -0.178950336091929E+002
  0.110707767405474E-001  0.273003893207637E+002  0.719573839178167E-001  0.129563143250285E+000 -0.693147180559945E+000 -0.158245481231302E+002
  0.110707767405474E-001  0.269314532760999E+002  0.749198905926252E-001  0.945989414625243E-001 -0.693147180559945E+000 -0.156400801007983E+002
  0.110707767405474E-001  0.367129701019164E+002  0.425108898834261E-001  0.479563519502372E-001 -0.693147180559945E+000 -0.205308385137065E+002
  0.110707767405474E-001  0.316855295428979E+002  0.425212469654344E-001  0.141916705742909E+000 -0.693147180559945E+000 -0.180171182341972E+002
  0.110707767405474E-001  0.272783497681257E+002  0.262780105018934E-001  0.880263818493127E-001 -0.693147180559945E+000 -0.158135283468111E+002
  0.110707767405474E-001  0.304904056786712E+002  0.516282725687149E-001  0.109914831818888E+000 -0.693147180559945E+000 -0.174195563020839E+002
  0.110707767405474E-001  0.272688576970930E+002  0.660118586358840E-001  0.834072502586231E-001 -0.693147180559945E+000 -0.158087823112948E+002
  0.110707767405474E-001  0.291146731914294E+002  0.483214614273588E-001  0.916368973957473E-001 -0.693147180559945E+000 -0.167316900584630E+002
  0.110707767405474E-001  0.298730738047371E+002  0.853030155868244E-001  0.705388620454626E-001 -0.693147180559945E+000 -0.171108903651168E+002
  0.110707767405474E-001  0.272668939504067E+002  0.504010266303334E-001  0.864503123160786E-001 -0.693147180559945E+000 -0.158078004379516E+002
  0.110707767405474E-001  0.304623590211768E+002  0.601467962614366E-001  0.759673482775691E-001 -0.693147180559945E+000 -0.174055329733367E+002
  0.110707767405474E-001  0.304246450767382E+002  0.648684578039309E-001  0.103878641742546E+000 -0.693147180559945E+000 -0.173866760011174E+002
  0.110707767405474E-001  0.369708915821666E+002  0.771644089472798E-001  0.532361370330895E-001 -0.693147180559945E+000 -0.206597992538316E+002
  0.110707767405474E-001  0.357949963287572E+002  0.343268766468123E-001  0.495004395974151E-001 -0.693147180559945E+000 -0.200718516271269E+002
  0.110707767405474E-001  0.272610778962980E+002  0.653413833024117E-001  0.105458622229056E+000 -0.693147180559945E+000 -0.158048924108973E+002
  0.110707767405474E-001  0.294992067898960E+002  0.671195032257139E-001  0.975338028059132E-001 -0.693147180559945E+000 -0.169239568576963E+002
  0.110707767405474E-001  0.272279189997265E+002  0.635660312528110E-001  0.709540939812756E-001 -0.693147180559945E+000 -0.157883129626116E+002
  0.110707767405474E-001  0.290911463099204E+002  0.712670561587800E-001  0.958077709473386E-001 -0.693147180559945E+000 -0.167199266177085E+002
  0.110707767405474E-001  0.270026429388053E+002  0.592689391270858E-001  0.869469780629092E-001 -0.693147180559945E+000 -0.156756749321510E+002
  0.110707767405474E-001  0.290615314605981E+002  0.452293436941165E-001  0.827830304153309E-001 -0.693147180559945E+000 -0.167051191930474E+002
  0.110707767405474E-001  0.304190000150819E+002  0.230834680856571E-001  0.108155297016822E+000 -0.693147180559945E+000 -0.173838534702893E+002
  0.110707767405474E-001  0.356835483239270E+002  0.864911482412305E-001  0.454141414101870E-001 -0.693147180559945E+000 -0.200161276247118E+002
  0.110707767405474E-001  0.398909267731514E+002  0.338613543466606E-001  0.659630324912323E-001 -0.693147180559945E+000 -0.221198168493240E+002
  0.110707767405474E-001  0.356616540593788E+002  0.290119960283735E-001  0.423848661238275E-001 -0.693147180559945E+000 -0.200051804924377E+002
  0.110707767405474E-001  0.394731877369879E+002  0.593858806935617E-001  0.422749789690954E-001 -0.693147180559945E+000 -0.219109473312422E+002
  0.110707767405474E-001  0.270161003498549E+002  0.731479951659901E-001  0.105566318906674E+000 -0.693147180559945E+000 -0.156824036376758E+002
  0.110707767405474E-001  0.270293034103112E+002  0.749198819521144E-001  0.945989448059753E-001 -0.693147180559945E+000 -0.156890051679039E+002
  0.110707767405474E-001  0.350866162402095E+002  0.866101325738715E-001  0.970998922697361E-001 -0.693147180559945E+000 -0.197176615828530E+002
  0.110707767405474E-001  0.303671735656452E+002  0.470882000971047E-001  0.875900729446648E-001 -0.693147180559945E+000 -0.173579402455709E+002
  0.110707767405474E-001  0.351226184785054E+002  0.261872702350434E-001  0.679312160169596E-001 -0.693147180559945E+000 -0.197356627020010E+002
  0.110707767405474E-001  0.351433357972265E+002  0.673052932165177E-001  0.733710786185518E-001 -0.693147180559945E+000 -0.197460213613616E+002
  0.110707767405474E-001  0.303598678369846E+002  0.749072852726302E-001  0.542613550989462E-001 -0.693147180559945E+000 -0.173542873812406E+002
  0.110707767405474E-001  0.270328806604323E+002  0.236781867489013E-001  0.785742637548146E-001 -0.693147180559945E+000 -0.156907937929645E+002
  0.110707767405474E-001  0.300130648948754E+002  0.736368833966945E-001  0.858909289267722E-001 -0.693147180559945E+000 -0.171808859101860E+002
  0.110707767405474E-001  0.282626186278019E+002  0.563349924559480E-001  0.724013404658057E-001 -0.693147180559945E+000 -0.163056627766492E+002
  0.110707767405474E-001  0.295060097840160E+002  0.492722437741921E-001  0.523032901610815E-001 -0.693147180559945E+000 -0.169273583547563E+002
  0.110707767405474E-001  0.303290106437195E+002  0.746050777973775E-001  0.944485482712803E-001 -0.693147180559945E+000 -0.173388587846080E+002
  0.110707767405474E-001  0.420117668860695E+002  0.261206942230503E-001  0.123687208250305E-001 -0.693147180559945E+000 -0.231802369057830E+002
  0.110707767405474E-001  0.300290523790953E+002  0.378070071096921E-001  0.114753672563202E+000 -0.693147180559945E+000 -0.171888796522960E+002
  0.110707767405474E-001  0.271947721875033E+002  0.602524660184189E-001  0.108238199871111E+000 -0.693147180559945E+000 -0.157717395564999E+002
  0.110707767405474E-001  0.290446811145812E+002  0.648336123224165E-001  0.103858229309186E+000 -0.693147180559945E+000 -0.166966940200389E+002
  0.110707767405474E-001  0.270415838609216E+002  0.199695141038254E-001  0.825099901154092E-001 -0.693147180559945E+000 -0.156951453932091E+002
  0.110707767405474E-001  0.303163289593866E+002  0.271954677116708E-001  0.125362884357496E+000 -0.693147180559945E+000 -0.173325179424416E+002
  0.110707767405474E-001  0.281122946223770E+002  0.557720558977186E-001  0.119256385153733E+000 -0.693147180559945E+000 -0.162305007739368E+002
  0.110707767405474E-001  0.300317488076560E+002  0.261257697727497E-001  0.799673609360049E-001 -0.693147180559945E+000 -0.171902278665763E+002
  0.110707767405474E-001  0.302921839685644E+002  0.896693999262266E-001  0.112966839165887E+000 -0.693147180559945E+000 -0.173204454470305E+002
  0.110707767405474E-001  0.282560624873805E+002  0.586787595029827E-001  0.113613773153766E+000 -0.693147180559945E+000 -0.163023847064385E+002
  0.110707767405474E-001  0.302779073826977E+002  0.749026525538088E-001  0.541264363638571E-001 -0.693147180559945E+000 -0.173133071540972E+002
  0.110707767405474E-001  0.271376675506664E+002  0.902418924035955E-001  0.118031803221325E+000 -0.693147180559945E+000 -0.157431872380815E+002
  0.110707767405474E-001  0.270457155114553E+002  0.905549454172752E-001  0.116967735826672E+000 -0.693147180559945E+000 -0.156972112184760E+002
  0.110707767405474E-001  0.402583580385215E+002  0.116418094249224E-001  0.515009981100933E-001 -0.693147180559945E+000 -0.223035324820091E+002
  0.110707767405474E-001  0.355450324178695E+002  0.671825077254005E-001  0.489284701124329E-001 -0.693147180559945E+000 -0.199468696716831E+002
  0.110707767405474E-001  0.289767170234432E+002  0.420955282368083E-001  0.772108601538865E-001 -0.693147180559945E+000 -0.166627119744699E+002
  0.110707767405474E-001  0.388769933424523E+002  0.374919725185181E-001  0.906714354125214E-001 -0.693147180559945E+000 -0.216128501339745E+002
  0.110707767405474E-001  0.302230481542706E+002  0.775239713175429E-001  0.117955482137932E+000 -0.693147180559945E+000 -0.172858775398836E+002
  0.110707767405474E-001  0.352643868893823E+002  0.574078859537586E-001  0.461645902906465E-001 -0.693147180559945E+000 -0.198065469074395E+002
  0.110707767405474E-001  0.354993579469729E+002  0.678105569284713E-001  0.160251419967412E+000 -0.693147180559945E+000 -0.199240324362347E+002
  0.110707767405474E-001  0.289851836226456E+002  0.508876015723398E-001  0.124219138658786E+000 -0.693147180559945E+000 -0.166669452740711E+002
  0.110707767405474E-001  0.301971068856177E+002  0.421657135578506E-001  0.719212652931245E-001 -0.693147180559945E+000 -0.172729069055571E+002
  0.110707767405474E-001  0.270653188689577E+002  0.695301934615278E-001  0.751833083363237E-001 -0.693147180559945E+000 -0.157070128972272E+002
  0.110707767405474E-001  0.282507544209253E+002  0.770873535620462E-001  0.859569237584676E-001 -0.693147180559945E+000 -0.162997306732109E+002
  0.110707767405474E-001  0.281605323148601E+002  0.502595105196686E-001  0.951883156805462E-001 -0.693147180559945E+000 -0.162546196201783E+002
  0.110707767405474E-001  0.281758804223117E+002  0.635834598811837E-001  0.128905723195300E+000 -0.693147180559945E+000 -0.162622936739042E+002
  0.110707767405474E-001  0.301686262504846E+002  0.648424332055553E-001  0.103856566366201E+000 -0.693147180559945E+000 -0.172586665879906E+002
  0.110707767405474E-001  0.282394111103105E+002  0.262774922317031E-001  0.880253302260832E-001 -0.693147180559945E+000 -0.162940590179035E+002
  0.110707767405474E-001  0.390082030924789E+002  0.644114897928354E-001  0.155444163043800E+000 -0.693147180559945E+000 -0.216784550089878E+002
  0.110707767405474E-001  0.270917528623077E+002  0.671035556453063E-001  0.121114905659754E+000 -0.693147180559945E+000 -0.157202298939021E+002
  0.110707767405474E-001  0.353735821565045E+002  0.673672432066406E-001  0.113550503289390E+000 -0.693147180559945E+000 -0.198611445410006E+002
  0.110707767405474E-001  0.270905818087774E+002  0.372951166083002E-001  0.961933568695035E-001 -0.693147180559945E+000 -0.157196443671370E+002
  0.110707767405474E-001  0.290004145068703E+002  0.252073507119768E-001  0.790390161596348E-001 -0.693147180559945E+000 -0.166745607161835E+002
  0.110707767405474E-001  0.315704349748094E+002  0.130961347378846E+000  0.869279326605290E-001 -0.693147180559945E+000 -0.179595709501530E+002
  0.110707767405474E-001  0.352946441359529E+002  0.896370606512664E-002  0.971414523335128E-001 -0.693147180559945E+000 -0.198216755307248E+002
  0.110707767405474E-001  0.270831025205213E+002  0.293240896566305E-001  0.109839480416379E+000 -0.693147180559945E+000 -0.157159047230090E+002
  0.110707767405474E-001  0.241367711533699E+002  0.630945392315803E-001  0.127103823143720E+000 -0.693147180559945E+000 -0.120683855766850E+002
