  0.418855710538411E-002  0.276419575107470E+002  0.423234294562276E-001  0.798449060881566E-001 -0.693147180559945E+000 -0.172612809003316E+002
  0.418855710538411E-002  0.267723220802274E+002  0.670816202433098E-001  0.121136014944116E+000 -0.693147180559945E+000 -0.144462928082138E+002
  0.418855710538411E-002  0.276554976071824E+002  0.470504281833146E-001  0.785084402863174E-001 -0.693147180559945E+000 -0.172680509485493E+002
  0.418855710538411E-002  0.240638257601745E+002  0.538630311673240E-001  0.898159375522706E-001 -0.693147180559945E+000 -0.154722150250453E+002
  0.418855710538411E-002  0.276114910376916E+002 -0.410719324161404E-001  0.156257978703092E+000 -0.693147180559945E+000 -0.172460476638039E+002
  0.418855710538411E-002  0.277439716411609E+002  0.111861925690379E+000  0.925511222677195E-001 -0.693147180559945E+000 -0.173122879655386E+002
  0.418855710538411E-002  0.278606882973069E+002  0.851917069784889E-001  0.671741693279878E-001 -0.693147180559945E+000 -0.173706462936115E+002
  0.418855710538411E-002  0.244707455743857E+002  0.592689391270858E-001  0.869469780629092E-001 -0.693147180559945E+000 -0.156756749321510E+002
  0.418855710538411E-002  0.275370548200502E+002  0.505702227885161E-001  0.106873618069694E+000 -0.693147180559945E+000 -0.172088295549832E+002
  0.418855710538411E-002  0.275190472838355E+002  0.111772608733774E+000  0.143007059663636E+000 -0.693147180559945E+000 -0.171998257868759E+002
  0.418855710538411E-002  0.379683874735345E+002  0.367103810790883E-001  0.421218139958906E-001 -0.693147180559945E+000 -0.224244958817253E+002
  0.418855710538411E-002  0.244842029854353E+002  0.731479951659901E-001  0.105566318906674E+000 -0.693147180559945E+000 -0.156824036376758E+002
  0.418855710538411E-002  0.275155266892952E+002  0.130256256300778E-001  0.820650392919965E-001 -0.693147180559945E+000 -0.171980654896057E+002
  0.418855710538411E-002  0.275064998018824E+002  0.442446792910887E-001  0.880495456043337E-001 -0.693147180559945E+000 -0.171935520458993E+002
  0.418855710538411E-002  0.280198691983824E+002  0.282130880404430E-001  0.126630742510583E+000 -0.693147180559945E+000 -0.174502367441493E+002
  0.418855710538411E-002  0.280944242878721E+002  0.379230915142044E-001  0.859526865499965E-001 -0.693147180559945E+000 -0.174875142888941E+002
  0.418855710538411E-002  0.274811675304558E+002  0.736368833966945E-001  0.858909289267722E-001 -0.693147180559945E+000 -0.171808859101860E+002
  0.418855710538411E-002  0.269089827108594E+002  0.896693996700877E-001  0.112966839212971E+000 -0.693147180559945E+000 -0.168947935003878E+002
  0.418855710538411E-002  0.281741954448829E+002  0.108251204017145E+000  0.764848782331045E-001 -0.693147180559945E+000 -0.175273998673995E+002
  0.418855710538411E-002  0.282221225407379E+002  0.852878526880099E-001  0.127173239750873E+000 -0.693147180559945E+000 -0.175513634153270E+002
  0.418855710538411E-002  0.273562851836964E+002  0.817194650289810E-001  0.134859892826054E+000 -0.693147180559945E+000 -0.171184447368063E+002
  0.418855710538411E-002  0.272191093709736E+002  0.616253174787513E-001  0.857306456718142E-001 -0.693147180559945E+000 -0.170498568304449E+002
  0.418855710538411E-002  0.284554331586533E+002  0.503025652780049E-001  0.952576251562800E-001 -0.693147180559945E+000 -0.176680187242847E+002
  0.418855710538411E-002  0.271830487900223E+002  0.320465757709882E-001  0.901874102136351E-001 -0.693147180559945E+000 -0.170318265399692E+002
  0.418855710538411E-002  0.285735932567781E+002  0.239983465615217E-001  0.126336420740275E+000 -0.693147180559945E+000 -0.177270987733471E+002
  0.418855710538411E-002  0.286362423540583E+002  0.399017740979009E-001  0.952074525075083E-001 -0.693147180559945E+000 -0.177584233219872E+002
  0.418855710538411E-002  0.316454481722554E+002  0.661689085306214E-001  0.735374007305080E-001 -0.693147180559945E+000 -0.192630262310858E+002
  0.418855710538411E-002  0.268353956720422E+002  0.109180156718350E+000  0.751569726811936E-001 -0.693147180559945E+000 -0.168579999809792E+002
  0.418855710538411E-002  0.243193224518589E+002  0.375046231083132E-001  0.915968029471114E-001 -0.693147180559945E+000 -0.155999633708876E+002
  0.418855710538411E-002  0.270813825036040E+002  0.261257697727690E-001  0.799673609360276E-001 -0.693147180559945E+000 -0.169809933967601E+002
  0.418855710538411E-002  0.299071509678153E+002 -0.210652205742345E-003  0.596583173799255E-001 -0.693147180559945E+000 -0.183938776288657E+002
  0.418855710538411E-002  0.262009110816976E+002  0.609615157258305E-001  0.748519513401425E-001 -0.693147180559945E+000 -0.165407576858069E+002
  0.418855710538411E-002  0.261958802728593E+002  0.409761769840895E-001  0.114622692007387E+000 -0.693147180559945E+000 -0.165382422813877E+002
  0.418855710538411E-002  0.299414861379033E+002  0.159153042952476E-001  0.820536078829903E-001 -0.693147180559945E+000 -0.184110452139098E+002
  0.418855710538411E-002  0.242221147569938E+002  0.503212326093196E-001  0.123624296812618E+000 -0.693147180559945E+000 -0.155513595234550E+002
  0.418855710538411E-002  0.300618257486146E+002  0.604091417049166E-001  0.800827073956210E-001 -0.693147180559945E+000 -0.184712150192654E+002
  0.418855710538411E-002  0.316816985069642E+002  0.118684484318604E+000  0.595643431395650E-001 -0.693147180559945E+000 -0.192811513984402E+002
  0.418855710538411E-002  0.301171960418396E+002  0.716511671224744E-001  0.959315042702732E-001 -0.693147180559945E+000 -0.184989001658779E+002
  0.418855710538411E-002  0.301351774397149E+002 -0.115182992211054E-001  0.966812568191770E-001 -0.693147180559945E+000 -0.185078908648155E+002
  0.418855710538411E-002  0.267837581136155E+002  0.404635839546426E-001  0.954849729122541E-001 -0.693147180559945E+000 -0.168321812017659E+002
  0.418855710538411E-002  0.260030022251656E+002  0.462652243679149E-001  0.875389680618068E-001 -0.693147180559945E+000 -0.164418032575409E+002
  0.418855710538411E-002  0.245714245445102E+002  0.619101035409879E-001  0.125849443991686E+000 -0.693147180559945E+000 -0.157260144172132E+002
  0.418855710538411E-002  0.258322608984250E+002  0.765430690206665E-001  0.111895584516697E+000 -0.693147180559945E+000 -0.163564325941706E+002
  0.418855710538411E-002  0.241032020662631E+002  0.490716021586408E-001  0.871270042530520E-001 -0.693147180559945E+000 -0.154919031780896E+002
  0.418855710538411E-002  0.350114851907711E+002  0.334264852107395E-001  0.122367111820540E+000 -0.693147180559945E+000 -0.209460447403436E+002
  0.418855710538411E-002  0.257894566359519E+002  0.705108318297467E-001  0.107915239788760E+000 -0.693147180559945E+000 -0.163350304629340E+002
  0.418855710538411E-002  0.309676021408386E+002  0.272474534610601E-001  0.125280500400837E+000 -0.693147180559945E+000 -0.189241032153774E+002
  0.418855710538411E-002  0.310567724552057E+002  0.191741284520359E-001  0.108739794950309E+000 -0.693147180559945E+000 -0.189686883725609E+002
  0.418855710538411E-002  0.257577249317180E+002  0.538630311616104E-001  0.898159375462742E-001 -0.693147180559945E+000 -0.163191646108171E+002
  0.418855710538411E-002  0.311405480239155E+002  0.788749426173312E-001  0.937904349836638E-001 -0.693147180559945E+000 -0.190105761569159E+002
  0.418855710538411E-002  0.312890112345223E+002  0.272471264571614E-001  0.125279980568968E+000 -0.693147180559945E+000 -0.190848077622192E+002
  0.418855710538411E-002  0.313712591866196E+002  0.329577511622692E-001  0.122971715048546E+000 -0.693147180559945E+000 -0.191259317382679E+002
  0.418855710538411E-002  0.257207611646177E+002  0.381142027483807E-001  0.863592042292591E-001 -0.693147180559945E+000 -0.163006827272670E+002
  0.418855710538411E-002  0.257201512881710E+002  0.644928393281985E-001  0.703565234144196E-001 -0.693147180559945E+000 -0.163003777890436E+002
  0.418855710538411E-002  0.257075137458909E+002  0.262774922317031E-001  0.880253302260832E-001 -0.693147180559945E+000 -0.162940590179035E+002
  0.418855710538411E-002  0.334550823564191E+002  0.117599004265578E-002  0.135161891378246E+000 -0.693147180559945E+000 -0.201678433231677E+002
  0.418855710538411E-002  0.291846359827813E+002  0.440547545167533E-001  0.920718379131698E-001 -0.693147180559945E+000 -0.180326201363487E+002
  0.418855710538411E-002  0.266095679708287E+002  0.480598771162879E-001  0.879629018351422E-001 -0.693147180559945E+000 -0.167450861303724E+002
  0.418855710538411E-002  0.265947044069708E+002  0.897205848154905E-001  0.112971255390427E+000 -0.693147180559945E+000 -0.167376543484435E+002
  0.418855710538411E-002  0.255491425617445E+002  0.532955336259433E-001  0.911786960396493E-001 -0.693147180559945E+000 -0.162148734258303E+002
  0.418855710538411E-002  0.291559626447818E+002  0.696085885281088E-001  0.951369333436346E-001 -0.693147180559945E+000 -0.180182834673490E+002
  0.418855710538411E-002  0.255197019316256E+002  0.761006349069058E-001  0.926353249966655E-001 -0.693147180559945E+000 -0.162001531107709E+002
  0.418855710538411E-002  0.243921546667301E+002  0.473778942018694E-001  0.936132841896004E-001 -0.693147180559945E+000 -0.156363794783231E+002
  0.418855710538411E-002  0.342610450421605E+002  0.890127570912691E-002  0.795280470557609E-001 -0.693147180559945E+000 -0.205708246660383E+002
  0.418855710538411E-002  0.254884293197462E+002  0.615397386365164E-001  0.117315208400292E+000 -0.693147180559945E+000 -0.161845168048312E+002
  0.418855710538411E-002  0.254714647342721E+002  0.300523211216333E-001  0.957493970441704E-001 -0.693147180559945E+000 -0.161760345120941E+002
  0.418855710538411E-002  0.332465705108193E+002  0.636275392843308E-001  0.966401946631411E-001 -0.693147180559945E+000 -0.200635874003677E+002
  0.418855710538411E-002  0.370962872507232E+002  0.953349420858016E-001  0.360407594363026E-001 -0.693147180559945E+000 -0.219884457703197E+002
  0.418855710538411E-002  0.373590294087318E+002  0.338613543466606E-001  0.659630324912323E-001 -0.693147180559945E+000 -0.221198168493240E+002
  0.418855710538411E-002  0.374082084375800E+002  0.382741397999469E-001  0.271933236565749E-001 -0.693147180559945E+000 -0.221444063637481E+002
  0.418855710538411E-002  0.375188606555617E+002  0.531253064754484E-001  0.707196993903441E-001 -0.693147180559945E+000 -0.221997324727389E+002
  0.418855710538411E-002  0.253126566592820E+002  0.491129753517665E-001  0.990586043066160E-001 -0.693147180559945E+000 -0.160966304745991E+002
  0.418855710538411E-002  0.330131350534499E+002  0.671825077254005E-001  0.489284701124329E-001 -0.693147180559945E+000 -0.199468696716831E+002
  0.418855710538411E-002  0.253073366132336E+002  0.509788918210354E-001  0.911331582739646E-001 -0.693147180559945E+000 -0.160939704515749E+002
  0.418855710538411E-002  0.383423557858723E+002  0.366571536187281E-001  0.245742303171766E-001 -0.693147180559945E+000 -0.226114800378942E+002
  0.418855710538411E-002  0.252758697207104E+002  0.760770960098329E-001  0.926244982958038E-001 -0.693147180559945E+000 -0.160782370053133E+002
  0.418855710538411E-002  0.399210368016218E+002  0.668894350778961E-001  0.260870818168639E-001 -0.693147180559945E+000 -0.234008205457690E+002
  0.418855710538411E-002  0.290399057381872E+002  0.709969033251339E-001  0.127860853826271E+000 -0.693147180559945E+000 -0.179602550140517E+002
  0.418855710538411E-002  0.252365217962734E+002  0.513174661220033E-001  0.910211769638709E-001 -0.693147180559945E+000 -0.160585630430948E+002
  0.418855710538411E-002  0.290216817126644E+002  0.670210364712023E-001  0.103726777685018E+000 -0.693147180559945E+000 -0.179511430012903E+002
  0.418855710538411E-002  0.264532862582260E+002  0.508876015723398E-001  0.124219138658786E+000 -0.693147180559945E+000 -0.166669452740711E+002
  0.418855710538411E-002  0.244043557405950E+002  0.372951174774594E-001  0.961933579781961E-001 -0.693147180559945E+000 -0.156424800152556E+002
  0.418855710538411E-002  0.326441296816342E+002  0.113116681137830E-001  0.193611221864826E+000 -0.693147180559945E+000 -0.197623669857752E+002
  0.418855710538411E-002  0.250984514271779E+002  0.609616139432592E-001  0.748519798945078E-001 -0.693147180559945E+000 -0.159895278585470E+002
  0.418855710538411E-002  0.250896927992376E+002  0.765665302993908E-001  0.510863342649869E-001 -0.693147180559945E+000 -0.159851485445769E+002
  0.418855710538411E-002  0.352100557864680E+002  0.654005364190557E-001  0.625324338789804E-001 -0.693147180559945E+000 -0.210453300381921E+002
  0.418855710538411E-002  0.403459099687526E+002  0.478804223379254E-001  0.116095570675382E-002 -0.693147180559945E+000 -0.236132571293344E+002
  0.418855710538411E-002  0.360789258390197E+002  0.326646085819220E-001  0.632796795177551E-001 -0.693147180559945E+000 -0.214797650644679E+002
  0.418855710538411E-002  0.392768900836655E+002  0.428215053190140E-001  0.184347034630436E-001 -0.693147180559945E+000 -0.230787471867908E+002
  0.418855710538411E-002  0.249960378333856E+002  0.710613014982229E-001  0.963642906103384E-001 -0.693147180559945E+000 -0.159383210616509E+002
  0.418855710538411E-002  0.359358062844941E+002  0.270519585631515E-001  0.744413135168101E-001 -0.693147180559945E+000 -0.214082052872051E+002
  0.418855710538411E-002  0.249894831198665E+002  0.490716507534157E-001  0.871270799105010E-001 -0.693147180559945E+000 -0.159350437048914E+002
  0.418855710538411E-002  0.249746900576383E+002  0.518453501793688E-001  0.916462960390103E-001 -0.693147180559945E+000 -0.159276471737772E+002
  0.418855710538411E-002  0.249723300473197E+002  0.886112888352852E-001  0.113470166489981E+000 -0.693147180559945E+000 -0.159264671686179E+002
  0.418855710538411E-002  0.359175890182367E+002  0.909155359752574E-001  0.190882225122422E+000 -0.693147180559945E+000 -0.213990966540764E+002
  0.418855710538411E-002  0.391201171194558E+002  0.179122275981387E-001  0.103940791844867E+000 -0.693147180559945E+000 -0.230003607046860E+002
  0.418855710538411E-002  0.249668646496376E+002  0.380861476778365E-001  0.863645228479132E-001 -0.693147180559945E+000 -0.159237344697769E+002
  0.418855710538411E-002  0.359097252974619E+002  0.978954057386798E-001  0.937726164458854E-001 -0.693147180559945E+000 -0.213951647936891E+002
  0.418855710538411E-002  0.249079181830977E+002  0.648336123221027E-001  0.103858229308253E+000 -0.693147180559945E+000 -0.158942612365069E+002
  0.418855710538411E-002  0.248860979923777E+002  0.503833998005963E-001  0.864547442835323E-001 -0.693147180559945E+000 -0.158833511411469E+002
  0.418855710538411E-002  0.322562639335126E+002  0.885174871821299E-001  0.879559136605298E-001 -0.693147180559945E+000 -0.195684341117144E+002
  0.418855710538411E-002  0.248671105347689E+002  0.108197454699698E+000  0.766775516497194E-001 -0.693147180559945E+000 -0.158738574123425E+002
  0.418855710538411E-002  0.353213612774964E+002  0.847136448856904E-001  0.615914331627179E-001 -0.693147180559945E+000 -0.211009827837063E+002
  0.418855710538411E-002  0.288513409081645E+002  0.896987695365126E-001  0.568431619704591E-001 -0.693147180559945E+000 -0.178659725990404E+002
  0.418855710538411E-002  0.353594290383597E+002  0.404149266995184E-001  0.864716195564197E-001 -0.693147180559945E+000 -0.211200166641379E+002
  0.418855710538411E-002  0.320592647911730E+002  0.556640142134832E-001  0.785355789809031E-001 -0.693147180559945E+000 -0.194699345405446E+002
  0.418855710538411E-002  0.241459275344098E+002  0.473778912443568E-001  0.936132504303759E-001 -0.693147180559945E+000 -0.155132659121630E+002
  0.418855710538411E-002  0.197514303031447E+002  0.670866183811196E-001  0.121134248102003E+000 -0.693147180559945E+000 -0.987571515157236E+001
