  0.141398512058896E-001  0.246661008646104E+002  0.451142590904796E-001  0.119341146609365E+000 -0.693147180559945E+000 -0.123330504323052E+002
  0.141398512058896E-001  0.269157012601792E+002  0.541081630584970E-001  0.126942038319512E+000 -0.693147180559945E+000 -0.144364875839424E+002
  0.141398512058896E-001  0.250201423137989E+002  0.451149871457270E-001  0.119340890565783E+000 -0.693147180559945E+000 -0.125100711568994E+002
  0.141398512058896E-001  0.271622208257312E+002  0.436964902025372E-001  0.118040127578504E+000 -0.693147180559945E+000 -0.135811104128656E+002
  0.141398512058896E-001  0.273715265751182E+002  0.436964902025407E-001  0.118040127578505E+000 -0.693147180559945E+000 -0.136857632875591E+002
  0.141398512058896E-001  0.267261190338135E+002  0.381127945501918E-001  0.863583639547817E-001 -0.693147180559945E+000 -0.154734962939001E+002
  0.141398512058896E-001  0.274021220779231E+002  0.630945406351555E-001  0.127103831317837E+000 -0.693147180559945E+000 -0.146796979928143E+002
  0.141398512058896E-001  0.342887099029954E+002  0.294948544016360E-001  0.118890052183763E+000 -0.693147180559945E+000 -0.192547917284910E+002
  0.141398512058896E-001  0.275019946371253E+002  0.506703843547469E-001  0.950133683164066E-001 -0.693147180559945E+000 -0.158614340955560E+002
  0.141398512058896E-001  0.318443667187107E+002  0.440547545167533E-001  0.920718379131698E-001 -0.693147180559945E+000 -0.180326201363487E+002
  0.141398512058896E-001  0.277321630360988E+002  0.630945412890758E-001  0.127103828743352E+000 -0.693147180559945E+000 -0.148447184719022E+002
  0.141398512058896E-001  0.364401043005126E+002  0.332045696579788E-001  0.124401371270543E+000 -0.693147180559945E+000 -0.203304889272497E+002
  0.141398512058896E-001  0.283328769136705E+002  0.451142583033439E-001  0.119341147230666E+000 -0.693147180559945E+000 -0.151450754106880E+002
  0.141398512058896E-001  0.342921821852133E+002  0.854197238622305E-001  0.103763604149931E+000 -0.693147180559945E+000 -0.192565278696000E+002
  0.141398512058896E-001  0.341184311367667E+002  0.131618524275289E+000  0.871810527453295E-001 -0.693147180559945E+000 -0.191696523453767E+002
  0.141398512058896E-001  0.275676489190271E+002  0.648336123221027E-001  0.103858229308253E+000 -0.693147180559945E+000 -0.158942612365069E+002
  0.141398512058896E-001  0.283531035706413E+002  0.219260639146426E-001  0.118384409961806E+000 -0.693147180559945E+000 -0.151551887391735E+002
  0.141398512058896E-001  0.289995104072521E+002  0.886078226684370E-001  0.113469019313121E+000 -0.693147180559945E+000 -0.166101919806194E+002
  0.141398512058896E-001  0.287585679379972E+002  0.219648838969413E-001  0.118355652997572E+000 -0.693147180559945E+000 -0.153579209228514E+002
  0.141398512058896E-001  0.437724560632787E+002  0.905216072691184E-001  0.415407809752881E-001 -0.693147180559945E+000 -0.239966648086327E+002
  0.141398512058896E-001  0.275838910764340E+002  0.442241274553510E-001  0.880280963848724E-001 -0.693147180559945E+000 -0.159023823152104E+002
  0.141398512058896E-001  0.318716028006976E+002  0.788197488195810E-001  0.630784837939156E-001 -0.693147180559945E+000 -0.180462381773422E+002
  0.141398512058896E-001  0.286932185333957E+002  0.561495018435763E-001  0.687584878800702E-001 -0.693147180559945E+000 -0.164570460436912E+002
  0.141398512058896E-001  0.318794131905605E+002  0.420944379209369E-001  0.715588249110616E-001 -0.693147180559945E+000 -0.180501433722736E+002
  0.141398512058896E-001  0.287321965357851E+002  0.410411495042802E-001  0.950882049528670E-001 -0.693147180559945E+000 -0.164765350448859E+002
  0.141398512058896E-001  0.287554892275236E+002  0.677697552951058E-001  0.768836074111942E-001 -0.693147180559945E+000 -0.164881813907552E+002
  0.141398512058896E-001  0.287659371598586E+002  0.747823872236004E-001  0.944948722529545E-001 -0.693147180559945E+000 -0.164934053569227E+002
  0.141398512058896E-001  0.339663158900797E+002  0.684082672164923E-001  0.125894637574420E+000 -0.693147180559945E+000 -0.190935947220332E+002
  0.141398512058896E-001  0.337984892249709E+002  0.431303599112796E-001  0.904413302850936E-001 -0.693147180559945E+000 -0.190096813894788E+002
  0.141398512058896E-001  0.368138851816516E+002  0.108589068183052E+000  0.100707499651939E+000 -0.693147180559945E+000 -0.205173793678192E+002
  0.141398512058896E-001  0.368192246946090E+002  0.111758474575128E-001  0.535468819825901E-001 -0.693147180559945E+000 -0.205200491242979E+002
  0.141398512058896E-001  0.290088648469885E+002  0.516380633273505E-001  0.115177144312736E+000 -0.693147180559945E+000 -0.166148692004876E+002
  0.141398512058896E-001  0.286209552777944E+002  0.910559780981830E-001  0.117142683863625E+000 -0.693147180559945E+000 -0.164209144158906E+002
  0.141398512058896E-001  0.319070675215608E+002  0.531747933691187E-001  0.111038879615163E+000 -0.693147180559945E+000 -0.180639705377737E+002
  0.141398512058896E-001  0.274282226922736E+002  0.719573839178167E-001  0.129563143250285E+000 -0.693147180559945E+000 -0.158245481231302E+002
  0.141398512058896E-001  0.286178169131094E+002  0.410428240009753E-001  0.950919181920280E-001 -0.693147180559945E+000 -0.164193452335481E+002
  0.141398512058896E-001  0.317953173669507E+002  0.452033268652579E-001  0.127398501724099E+000 -0.693147180559945E+000 -0.180080954604687E+002
  0.141398512058896E-001  0.337069721726457E+002  0.423679994045423E-001  0.478782557895751E-001 -0.693147180559945E+000 -0.189639228633162E+002
  0.141398512058896E-001  0.319299717256022E+002  0.404635839697201E-001  0.954849729458931E-001 -0.693147180559945E+000 -0.180754226397945E+002
  0.141398512058896E-001  0.370706981365702E+002  0.669145974195788E-001  0.120878993498333E+000 -0.693147180559945E+000 -0.206457858452785E+002
  0.141398512058896E-001  0.370841603894282E+002  0.860105492202980E-001  0.148835905101552E+000 -0.693147180559945E+000 -0.206525169717075E+002
  0.141398512058896E-001  0.293662335151777E+002  0.377921963897274E-001  0.866997445175598E-001 -0.693147180559945E+000 -0.167935535345822E+002
  0.141398512058896E-001  0.288790121997220E+002 -0.313653377054790E-002  0.110936939793659E+000 -0.693147180559945E+000 -0.165499428768543E+002
  0.141398512058896E-001  0.334677114012318E+002  0.387866004121160E-001  0.852047440854025E-001 -0.693147180559945E+000 -0.188442924776093E+002
  0.141398512058896E-001  0.333916638012350E+002  0.759446370984247E-001  0.611480418329730E-001 -0.693147180559945E+000 -0.188062686776108E+002
  0.141398512058896E-001  0.344509790258598E+002  0.394314208244702E-001  0.977336349071317E-001 -0.693147180559945E+000 -0.193359262899232E+002
  0.141398512058896E-001  0.288900584701683E+002  0.115747090292437E-001  0.696776357578825E-001 -0.693147180559945E+000 -0.165554660120775E+002
  0.141398512058896E-001  0.273585405093976E+002  0.740483554895255E-001  0.110328452800804E+000 -0.693147180559945E+000 -0.157897070316922E+002
  0.141398512058896E-001  0.268169761065759E+002  0.538789177811008E-001  0.898530613659482E-001 -0.693147180559945E+000 -0.155189248302813E+002
  0.141398512058896E-001  0.332666147596842E+002  0.490844750655195E-001  0.114670690596183E+000 -0.693147180559945E+000 -0.187437441568355E+002
  0.141398512058896E-001  0.376851003592586E+002  0.851221426751831E-001  0.700033170686156E-001 -0.693147180559945E+000 -0.209529869566226E+002
  0.141398512058896E-001  0.376894120770737E+002 -0.380732641168802E-002  0.602326181786700E-001 -0.693147180559945E+000 -0.209551428155302E+002
  0.141398512058896E-001  0.292189796814303E+002  0.712670561587800E-001  0.958077709473386E-001 -0.693147180559945E+000 -0.167199266177085E+002
  0.141398512058896E-001  0.291893648321080E+002  0.452293436941165E-001  0.827830304153309E-001 -0.693147180559945E+000 -0.167051191930474E+002
  0.141398512058896E-001  0.331718388676783E+002  0.921181427098205E-001  0.672704062595997E-001 -0.693147180559945E+000 -0.186963562108325E+002
  0.141398512058896E-001  0.286173803310652E+002  0.398949391307069E-001  0.952188959275983E-001 -0.693147180559945E+000 -0.164191269425260E+002
  0.141398512058896E-001  0.273401928669786E+002  0.402991593365261E-001  0.906922733023025E-001 -0.693147180559945E+000 -0.157805332104827E+002
  0.141398512058896E-001  0.313735911375992E+002  0.438119158772754E-001  0.807040141155536E-001 -0.693147180559945E+000 -0.177972323457930E+002
  0.141398512058896E-001  0.400078858332370E+002  0.620742034789996E-001  0.595032018498441E-001 -0.693147180559945E+000 -0.221143796936118E+002
  0.141398512058896E-001  0.289319558914259E+002  0.496459013840111E-001  0.809384600045478E-001 -0.693147180559945E+000 -0.165764147227063E+002
  0.141398512058896E-001  0.440575235579735E+002 -0.532277386172164E-002  0.419802858280810E-001 -0.693147180559945E+000 -0.241391985559801E+002
  0.141398512058896E-001  0.273342666707908E+002  0.466398391382619E-001  0.934331608863300E-001 -0.693147180559945E+000 -0.157775701123888E+002
  0.141398512058896E-001  0.285554225793643E+002  0.716193950562718E-001  0.972598816318373E-001 -0.693147180559945E+000 -0.163881480666755E+002
  0.141398512058896E-001  0.331149982262796E+002  0.650477485700207E-001  0.123321738895617E+000 -0.693147180559945E+000 -0.186679358901332E+002
  0.141398512058896E-001  0.285429507627147E+002  0.710524867710647E-001  0.119440014902526E+000 -0.693147180559945E+000 -0.163819121583507E+002
  0.141398512058896E-001  0.396467950826148E+002 -0.354332293198748E-001  0.685250998683966E-001 -0.693147180559945E+000 -0.219338343183007E+002
  0.141398512058896E-001  0.331071942815693E+002  0.870402575243154E-001  0.887124738342571E-001 -0.693147180559945E+000 -0.186640339177780E+002
  0.141398512058896E-001  0.330887713272996E+002  0.584976519593137E-001  0.113416478172933E+000 -0.693147180559945E+000 -0.186548224406431E+002
  0.141398512058896E-001  0.297312886631795E+002  0.772161452668989E-001  0.982808838258598E-001 -0.693147180559945E+000 -0.169760811085831E+002
  0.141398512058896E-001  0.273274832681446E+002  0.716508190178045E-001  0.959311061497620E-001 -0.693147180559945E+000 -0.157741784110657E+002
  0.141398512058896E-001  0.293908653891793E+002  0.398953245026643E-001  0.952179387874774E-001 -0.693147180559945E+000 -0.168058694715830E+002
  0.141398512058896E-001  0.378138547425466E+002  0.793182063578264E-001  0.509792564205760E-001 -0.693147180559945E+000 -0.210173641482666E+002
  0.141398512058896E-001  0.297474411419817E+002  0.470975253723758E-001  0.879091079728121E-001 -0.693147180559945E+000 -0.169841573479842E+002
  0.141398512058896E-001  0.357873985535349E+002  0.608188178381739E-001  0.484293187911138E-001 -0.693147180559945E+000 -0.200041360537608E+002
  0.141398512058896E-001  0.330008989769795E+002  0.516325894821836E-001  0.134706381478746E+000 -0.693147180559945E+000 -0.186108862654831E+002
  0.141398512058896E-001  0.329593869308021E+002  0.624418187759475E-001  0.967676918975476E-001 -0.693147180559945E+000 -0.185901302423944E+002
  0.141398512058896E-001  0.285015607798484E+002  0.561439967952171E-001  0.687604126598339E-001 -0.693147180559945E+000 -0.163612171669176E+002
  0.141398512058896E-001  0.294043016227081E+002  0.739623260908946E-001  0.865509613649529E-001 -0.693147180559945E+000 -0.168125875883474E+002
  0.141398512058896E-001  0.284670237611590E+002  0.602760070839836E-001  0.754674152995448E-001 -0.693147180559945E+000 -0.163439486575728E+002
  0.141398512058896E-001  0.298244571012603E+002  0.392610329668763E-001  0.565652725782270E-001 -0.693147180559945E+000 -0.170226653276235E+002
  0.141398512058896E-001  0.410600753629929E+002  0.157048505130160E-001  0.702745728397241E-001 -0.693147180559945E+000 -0.226404744584898E+002
  0.141398512058896E-001  0.320110001339930E+002  0.897349985220854E-001  0.635566058136161E-001 -0.693147180559945E+000 -0.181159368439898E+002
  0.141398512058896E-001  0.273094757223495E+002  0.780243289518101E-001  0.818681469129226E-001 -0.693147180559945E+000 -0.157651746381681E+002
  0.141398512058896E-001  0.284491873718813E+002  0.705108318297467E-001  0.107915239788760E+000 -0.693147180559945E+000 -0.163350304629340E+002
  0.141398512058896E-001  0.328919548058860E+002  0.187924376375470E-001  0.839483065611986E-001 -0.693147180559945E+000 -0.185564141799364E+002
  0.141398512058896E-001  0.328724307104379E+002  0.699850680633813E-001  0.956566532679145E-001 -0.693147180559945E+000 -0.185466521322123E+002
  0.141398512058896E-001  0.328632576054293E+002  0.111679430387583E-001  0.534182342272656E-001 -0.693147180559945E+000 -0.185420655797080E+002
  0.141398512058896E-001  0.298557085677630E+002  0.670824444352158E-001  0.121145110403472E+000 -0.693147180559945E+000 -0.170382910608749E+002
  0.141398512058896E-001  0.328416601710045E+002  0.236528481897433E-001  0.117390117556876E+000 -0.693147180559945E+000 -0.185312668624956E+002
  0.141398512058896E-001  0.356809069777280E+002  0.799785420880934E-001  0.641949482022172E-001 -0.693147180559945E+000 -0.199508902658574E+002
  0.141398512058896E-001  0.403861914100314E+002  0.116418094249224E-001  0.515009981100933E-001 -0.693147180559945E+000 -0.223035324820091E+002
  0.141398512058896E-001  0.298754137019446E+002  0.509027064770857E-001  0.952989666614739E-001 -0.693147180559945E+000 -0.170481436279656E+002
  0.141398512058896E-001  0.272334206061963E+002  0.466398393840672E-001  0.934331605674857E-001 -0.693147180559945E+000 -0.157271470800915E+002
  0.141398512058896E-001  0.298970025036301E+002  0.761868792645986E-001  0.928931858994795E-001 -0.693147180559945E+000 -0.170589380288084E+002
  0.141398512058896E-001  0.299002291184806E+002  0.710894999016918E-001  0.119446912234047E+000 -0.693147180559945E+000 -0.170605513362336E+002
  0.141398512058896E-001  0.356271913184827E+002  0.678105569284713E-001  0.160251419967412E+000 -0.693147180559945E+000 -0.199240324362347E+002
  0.141398512058896E-001  0.356009068171435E+002  0.751444073821343E-001  0.484430885920638E-001 -0.693147180559945E+000 -0.199108901855651E+002
  0.141398512058896E-001  0.284237645210291E+002  0.239058120826896E-001  0.774205326866863E-001 -0.693147180559945E+000 -0.163223190375079E+002
  0.141398512058896E-001  0.299684281244056E+002  0.360683538594992E-001  0.843540716359535E-001 -0.693147180559945E+000 -0.170946508391962E+002
  0.141398512058896E-001  0.411608894052033E+002  0.632676667124230E-001  0.601800132631258E-001 -0.693147180559945E+000 -0.226908814795950E+002
  0.141398512058896E-001  0.294434888495450E+002  0.404635839546426E-001  0.954849729122541E-001 -0.693147180559945E+000 -0.168321812017659E+002
  0.141398512058896E-001  0.269215907550489E+002  0.557722758030188E-001  0.103178664963295E+000 -0.693147180559945E+000 -0.155712321545178E+002
  0.141398512058896E-001  0.299707498976122E+002  0.507090123413503E-001  0.949371159609352E-001 -0.693147180559945E+000 -0.170958117257995E+002
  0.141398512058896E-001  0.300398050204412E+002  0.608227086740769E-001  0.746739476869063E-001 -0.693147180559945E+000 -0.171303392872140E+002
  0.141398512058896E-001  0.320567662177572E+002  0.508359121643889E-001  0.767947684797194E-001 -0.693147180559945E+000 -0.181388198858719E+002
  0.141398512058896E-001  0.278123889172344E+002  0.462652243679240E-001  0.875389680617727E-001 -0.693147180559945E+000 -0.160166312356106E+002
  0.141398512058896E-001  0.355245916277081E+002  0.208913372159987E-001  0.810151307126798E-001 -0.693147180559945E+000 -0.198727325908474E+002
  0.141398512058896E-001  0.272195862338175E+002  0.671035556453063E-001  0.121114905659754E+000 -0.693147180559945E+000 -0.157202298939021E+002
  0.141398512058896E-001  0.300753647147314E+002  0.421433966385385E-001  0.715749751643013E-001 -0.693147180559945E+000 -0.171481191343590E+002
  0.141398512058896E-001  0.326269978836651E+002 -0.115357833621288E-001  0.966863702034542E-001 -0.693147180559945E+000 -0.184239357188259E+002
  0.141398512058896E-001  0.347501488391783E+002  0.726772277438135E-001  0.447404492548040E-001 -0.693147180559945E+000 -0.194855111965825E+002
  0.141398512058896E-001  0.294663623983019E+002  0.985072118191408E-001  0.885462473451677E-001 -0.693147180559945E+000 -0.168436179761443E+002
  0.141398512058896E-001  0.314366635816140E+002  0.425213303569680E-001  0.141916683457394E+000 -0.693147180559945E+000 -0.178287685678004E+002
  0.141398512058896E-001  0.380191597742891E+002  0.404149266995184E-001  0.864716195564197E-001 -0.693147180559945E+000 -0.211200166641379E+002
  0.141398512058896E-001  0.449132129275334E+002  0.969864247522656E-003  0.963558295104141E-001 -0.693147180559945E+000 -0.245670432407601E+002
  0.141398512058896E-001  0.301306758279464E+002  0.659574631311686E-001  0.118675399894004E+000 -0.693147180559945E+000 -0.171757746909666E+002
  0.141398512058896E-001  0.325982995140633E+002  0.295066828284287E-001  0.811552100546597E-001 -0.693147180559945E+000 -0.184095865340250E+002
  0.141398512058896E-001  0.325713128286349E+002  0.777357107705947E-001  0.792949752457724E-001 -0.693147180559945E+000 -0.183960931913108E+002
  0.141398512058896E-001  0.325466395288145E+002  0.578745100165019E-001  0.844010683941332E-001 -0.693147180559945E+000 -0.183837565414006E+002
  0.141398512058896E-001  0.283804919005472E+002  0.381142027483807E-001  0.863592042292591E-001 -0.693147180559945E+000 -0.163006827272670E+002
  0.141398512058896E-001  0.325332462510006E+002  0.258693026958741E-001  0.981146901426990E-001 -0.693147180559945E+000 -0.183770599024937E+002
  0.141398512058896E-001  0.426289368786542E+002  0.523603872521807E-001  0.222642555770706E-001 -0.693147180559945E+000 -0.234249052163205E+002
  0.141398512058896E-001  0.301883071112985E+002  0.261257697769417E-001  0.799673609554405E-001 -0.693147180559945E+000 -0.172045903326426E+002
  0.141398512058896E-001  0.283798820241005E+002  0.644928393281985E-001  0.703565234144196E-001 -0.693147180559945E+000 -0.163003777890436E+002
  0.141398512058896E-001  0.302365567845146E+002  0.607068187327287E-001  0.808087616952532E-001 -0.693147180559945E+000 -0.172287151692507E+002
  0.141398512058896E-001  0.324114519299304E+002  0.359059496639231E-001  0.119558038139716E+000 -0.693147180559945E+000 -0.183161627419586E+002
  0.141398512058896E-001  0.321484972939086E+002  0.835862978017361E-001  0.387785084055558E-001 -0.693147180559945E+000 -0.181846854239477E+002
  0.141398512058896E-001  0.302660872613959E+002  0.736946822714986E-001  0.858046756324666E-001 -0.693147180559945E+000 -0.172434804076913E+002
  0.141398512058896E-001  0.283627736103436E+002  0.503213959885740E-001  0.123624220655842E+000 -0.693147180559945E+000 -0.162918235821651E+002
  0.141398512058896E-001  0.321716372217375E+002  0.554564325283500E-001  0.916488130174700E-001 -0.693147180559945E+000 -0.181962553878621E+002
  0.141398512058896E-001  0.323396790936448E+002  0.294969923901021E-001  0.118896270963636E+000 -0.693147180559945E+000 -0.182802763238158E+002
  0.141398512058896E-001  0.316784559913509E+002  0.263742387617347E-001  0.719980689497229E-001 -0.693147180559945E+000 -0.179496647726688E+002
  0.141398512058896E-001  0.322952979140474E+002  0.266064917390767E-001  0.724430322832361E-001 -0.693147180559945E+000 -0.182580857340170E+002
  0.141398512058896E-001  0.291130169941554E+002  0.508876015723398E-001  0.124219138658786E+000 -0.693147180559945E+000 -0.166669452740711E+002
  0.141398512058896E-001  0.269780324691495E+002  0.293240896566309E-001  0.109839480416379E+000 -0.693147180559945E+000 -0.155994530115681E+002
  0.141398512058896E-001  0.279878131960384E+002  0.605018370228985E-001  0.800696437032117E-001 -0.693147180559945E+000 -0.161043433750126E+002
  0.141398512058896E-001  0.353462505864327E+002  0.884444794221180E-001  0.418274265077447E-001 -0.693147180559945E+000 -0.197835620702097E+002
  0.141398512058896E-001  0.389735521095714E+002  0.785315072662649E-001  0.600577254266767E-001 -0.693147180559945E+000 -0.215972128317791E+002
  0.141398512058896E-001  0.312910708562400E+002  0.637580199656875E-001  0.754373312876382E-001 -0.693147180559945E+000 -0.177559722051134E+002
  0.141398512058896E-001  0.388968583070414E+002  0.781350209268215E-001  0.114027460034520E+000 -0.693147180559945E+000 -0.215588659305141E+002
  0.141398512058896E-001  0.269790531877884E+002  0.375046231083132E-001  0.915968029471114E-001 -0.693147180559945E+000 -0.155999633708876E+002
  0.141398512058896E-001  0.303508815257805E+002  0.775239713175429E-001  0.117955482137932E+000 -0.693147180559945E+000 -0.172858775398836E+002
  0.141398512058896E-001  0.271694172324314E+002  0.199695141038254E-001  0.825099901154092E-001 -0.693147180559945E+000 -0.156951453932091E+002
  0.141398512058896E-001  0.312397719532723E+002  0.644862847567631E-001  0.516330139202443E-001 -0.693147180559945E+000 -0.177303227536295E+002
  0.141398512058896E-001  0.280778057373611E+002  0.780243278688606E-001  0.818681471162856E-001 -0.693147180559945E+000 -0.161493396456739E+002
  0.141398512058896E-001  0.304200173400743E+002  0.896693999262266E-001  0.112966839165887E+000 -0.693147180559945E+000 -0.173204454470305E+002
  0.141398512058896E-001  0.304289613891364E+002  0.468789452049416E-001  0.438865402490371E-001 -0.693147180559945E+000 -0.173249174715616E+002
  0.141398512058896E-001  0.290499808414150E+002  0.644928393279369E-001  0.703565234066767E-001 -0.693147180559945E+000 -0.166354271977009E+002
  0.141398512058896E-001  0.304360404890007E+002  0.503842559850465E-001  0.850683022831831E-001 -0.693147180559945E+000 -0.173284570214937E+002
  0.141398512058896E-001  0.304877012084944E+002  0.749072852726302E-001  0.542613550989462E-001 -0.693147180559945E+000 -0.173542873812406E+002
  0.141398512058896E-001  0.316445393664747E+002  0.622245933447370E-001  0.933184936245108E-001 -0.693147180559945E+000 -0.179327064602307E+002
  0.141398512058896E-001  0.349096658244769E+002  0.978936225214613E-001  0.779111754207842E-001 -0.693147180559945E+000 -0.195652696892318E+002
  0.141398512058896E-001  0.445449479744298E+002  0.304106820123045E-001  0.879198790540734E-002 -0.693147180559945E+000 -0.243829107642083E+002
  0.141398512058896E-001  0.311151638945828E+002  0.503025652780049E-001  0.952576251562800E-001 -0.693147180559945E+000 -0.176680187242847E+002
  0.141398512058896E-001  0.271607140319422E+002  0.236781867489013E-001  0.785742637548146E-001 -0.693147180559945E+000 -0.156907937929645E+002
  0.141398512058896E-001  0.305161168687825E+002  0.273025488390561E-001  0.774793859460153E-001 -0.693147180559945E+000 -0.173684952113846E+002
  0.141398512058896E-001  0.310740219827626E+002  0.282131530904497E-001  0.126630439168818E+000 -0.693147180559945E+000 -0.176474477683747E+002
  0.141398512058896E-001  0.310612596899775E+002  0.370802748260157E-001  0.998032087427828E-001 -0.693147180559945E+000 -0.176410666219821E+002
  0.141398512058896E-001  0.305208266106521E+002  0.576126196246014E-001  0.110387525836937E+000 -0.693147180559945E+000 -0.173708500823194E+002
  0.141398512058896E-001  0.420601567261731E+002  0.538141776800958E-001  0.648428980056394E-001 -0.693147180559945E+000 -0.231405151400799E+002
  0.141398512058896E-001  0.271398670114706E+002  0.441113442725971E-001  0.102479210417288E+000 -0.693147180559945E+000 -0.156803702827287E+002
  0.141398512058896E-001  0.384508223151682E+002  0.536045947355115E-001  0.384428497005369E-001 -0.693147180559945E+000 -0.213358479345775E+002
  0.141398512058896E-001  0.309186385638950E+002  0.991692036818270E-001  0.132430778661934E+000 -0.693147180559945E+000 -0.175697560589408E+002
  0.141398512058896E-001  0.308853881748995E+002  0.453266789744735E-001  0.924152407949726E-001 -0.693147180559945E+000 -0.175531308644431E+002
  0.141398512058896E-001  0.270816028672730E+002  0.101298270429486E+000  0.788646225987747E-001 -0.693147180559945E+000 -0.156512382106298E+002
  0.141398512058896E-001  0.308848476179989E+002  0.602924874275439E-001  0.816361823618422E-001 -0.693147180559945E+000 -0.175528605859928E+002
  0.141398512058896E-001  0.351138934602948E+002  0.121994270980372E+000  0.103604036655570E+000 -0.693147180559945E+000 -0.196673835071408E+002
  0.141398512058896E-001  0.386710076930940E+002  0.908044746340542E-003  0.413318820424186E-001 -0.693147180559945E+000 -0.214459406235404E+002
  0.141398512058896E-001  0.308339261808123E+002  0.108251204017145E+000  0.764848782331045E-001 -0.693147180559945E+000 -0.175273998673995E+002
  0.141398512058896E-001  0.270626520666495E+002  0.743181524773182E-001  0.874269067601290E-001 -0.693147180559945E+000 -0.156417628103181E+002
  0.141398512058896E-001  0.308309442794440E+002  0.523365678628216E-001  0.899937353366227E-001 -0.693147180559945E+000 -0.175259089167154E+002
  0.141398512058896E-001  0.306194624275293E+002  0.459013846215961E-001  0.873733813666474E-001 -0.693147180559945E+000 -0.174201679907580E+002
  0.141398512058896E-001  0.295457745877977E+002  0.759754508463133E-001  0.979223351710980E-001 -0.693147180559945E+000 -0.168833240708922E+002
  0.141398512058896E-001  0.290650333967824E+002  0.602820470106218E-001  0.754596061273710E-001 -0.693147180559945E+000 -0.166429534753845E+002
  0.141398512058896E-001  0.290681617432259E+002  0.294973721642020E-001  0.118896433900426E+000 -0.693147180559945E+000 -0.166445176486063E+002
  0.141398512058896E-001  0.306445797544136E+002 -0.185063077357306E-002  0.129894588465069E+000 -0.693147180559945E+000 -0.174327266542002E+002
  0.141398512058896E-001  0.306447400157572E+002  0.399016594180979E-001  0.952053113409482E-001 -0.693147180559945E+000 -0.174328067848719E+002
  0.141398512058896E-001  0.306610063945634E+002  0.695302087412635E-001  0.751833025622976E-001 -0.693147180559945E+000 -0.174409399742751E+002
  0.141398512058896E-001  0.306809239812555E+002  0.741411266484795E-001  0.996749621218018E-001 -0.693147180559945E+000 -0.174508987676211E+002
  0.141398512058896E-001  0.385773197541662E+002  0.909155359752574E-001  0.190882225122422E+000 -0.693147180559945E+000 -0.213990966540764E+002
  0.141398512058896E-001  0.281972139810615E+002  0.616465882681634E-001  0.976669063147205E-001 -0.693147180559945E+000 -0.162090437675241E+002
  0.141398512058896E-001  0.295562815305483E+002  0.465829562143325E-001  0.935309551623691E-001 -0.693147180559945E+000 -0.168885775422675E+002
  0.141398512058896E-001  0.433179595632529E+002  0.745821158234088E-001  0.325027751359094E-001 -0.693147180559945E+000 -0.237694165586198E+002
  0.141398512058896E-001  0.307941541041102E+002  0.752825993781312E-001  0.944846432030179E-001 -0.693147180559945E+000 -0.175075138290485E+002
  0.141398512058896E-001  0.234521442110663E+002  0.450772712609155E-001  0.119357944292966E+000 -0.693147180559945E+000 -0.117260721055332E+002
  0.141398512058896E-001  0.233505180968000E+002  0.451142590904827E-001  0.119341146609363E+000 -0.693147180559945E+000 -0.116752590484000E+002
