  0.279329983446659E-003  0.279215851766431E+002 -0.506233136211455E-001  0.749176065889335E-001 -0.693147180559945E+000 -0.163319190669732E+002
  0.279329983446659E-003  0.297239808691143E+002  0.416765342922203E-001  0.180434784522885E-001 -0.693147180559945E+000 -0.172331169132088E+002
  0.279329983446659E-003  0.280195040775632E+002 -0.300348885389092E-001  0.211314252786609E-001 -0.693147180559945E+000 -0.163808785174332E+002
  0.279329983446659E-003  0.280607416362957E+002  0.201481194401376E-002  0.652609435754388E-001 -0.693147180559945E+000 -0.164014972967995E+002
  0.279329983446659E-003  0.281099790741862E+002 -0.693641995709954E-001  0.740742977089280E-001 -0.693147180559945E+000 -0.164261160157447E+002
  0.279329983446659E-003  0.257946744661392E+002  0.367361832835322E-001  0.133953564519947E-001 -0.693147180559945E+000 -0.152684637117212E+002
  0.279329983446659E-003  0.257947443860696E+002  0.452806537802473E-001  0.145420985902900E-001 -0.693147180559945E+000 -0.152684986716864E+002
  0.279329983446659E-003  0.281204191795359E+002  0.164776799968231E-001  0.120185150758449E+000 -0.693147180559945E+000 -0.164313360684195E+002
  0.279329983446659E-003  0.257976642896533E+002 -0.103826334515827E-001  0.190603750450949E-001 -0.693147180559945E+000 -0.152699586234782E+002
  0.279329983446659E-003  0.297846613097954E+002  0.214779645981424E-001  0.133330391957090E-001 -0.693147180559945E+000 -0.172634571335493E+002
  0.279329983446659E-003  0.278573130597830E+002 -0.357471733885473E-002  0.218623148936212E-002 -0.693147180559945E+000 -0.162997830085431E+002
  0.279329983446659E-003  0.278100585117582E+002 -0.237626960122327E-001  0.350091062956585E-001 -0.693147180559945E+000 -0.162761557345307E+002
  0.279329983446659E-003  0.282836003140458E+002  0.304629702414174E-001  0.153976646258645E-001 -0.693147180559945E+000 -0.165129266356745E+002
  0.279329983446659E-003  0.277067349153175E+002  0.665267918685197E-001  0.618072385841575E-001 -0.693147180559945E+000 -0.162244939363103E+002
  0.279329983446659E-003  0.341119713941514E+002 -0.426314328963849E-001  0.263856773672607E-001 -0.693147180559945E+000 -0.194271121757273E+002
  0.279329983446659E-003  0.283676344103342E+002  0.123121243194599E-001  0.163896071726484E-001 -0.693147180559945E+000 -0.165549436838187E+002
  0.279329983446659E-003  0.274602177438432E+002 -0.126310321519811E+000  0.170546573904091E+000 -0.693147180559945E+000 -0.161012353505732E+002
  0.279329983446659E-003  0.284450613292772E+002  0.340606606068299E-001  0.689555225753593E-001 -0.693147180559945E+000 -0.165936571432902E+002
  0.279329983446659E-003  0.273957748496337E+002  0.976181496338275E-001  0.908796839668113E-001 -0.693147180559945E+000 -0.160690139034685E+002
  0.279329983446659E-003  0.260222252788601E+002 -0.113023818820577E-001  0.144518668046455E+000 -0.693147180559945E+000 -0.153822391180816E+002
  0.279329983446659E-003  0.285344752851947E+002 -0.124228540189790E-001  0.531400504497791E-002 -0.693147180559945E+000 -0.166383641212490E+002
  0.279329983446659E-003  0.285826690150080E+002  0.313629819729129E-001  0.135793915150258E-001 -0.693147180559945E+000 -0.166624609861556E+002
  0.279329983446659E-003  0.285836595439358E+002  0.469534862553487E-001  0.336229752409164E-001 -0.693147180559945E+000 -0.166629562506195E+002
  0.279329983446659E-003  0.261545149693923E+002  0.586541704918901E-001  0.139610108512253E+000 -0.693147180559945E+000 -0.154483839633478E+002
  0.279329983446659E-003  0.331004642672911E+002  0.139069243892012E+000  0.595621007828058E-001 -0.693147180559945E+000 -0.189213586122972E+002
  0.279329983446659E-003  0.261804913874832E+002  0.139156046734484E+000  0.147488362298699E+000 -0.693147180559945E+000 -0.154613721723932E+002
  0.279329983446659E-003  0.302211317045936E+002  0.769488874484365E-001  0.126845275080793E+000 -0.693147180559945E+000 -0.174816923309484E+002
  0.279329983446659E-003  0.285894152662067E+002  0.915171363820200E-002  0.111153815603398E-001 -0.693147180559945E+000 -0.166658341117549E+002
  0.279329983446659E-003  0.285940439511996E+002  0.505424702446722E-001  0.747622533988084E-001 -0.693147180559945E+000 -0.166681484542514E+002
  0.279329983446659E-003  0.262261016525503E+002  0.431001345720767E-001  0.131038545755622E+000 -0.693147180559945E+000 -0.154841773049268E+002
  0.279329983446659E-003  0.273129122327459E+002  0.150854618486889E-001  0.741767076929616E-001 -0.693147180559945E+000 -0.160275825950245E+002
  0.279329983446659E-003  0.262669466282929E+002  0.229873424256009E-001  0.168203740559731E-001 -0.693147180559945E+000 -0.155045997927981E+002
  0.279329983446659E-003  0.286186568535802E+002  0.927489012124050E-002  0.271894304483224E-001 -0.693147180559945E+000 -0.166804549054417E+002
  0.279329983446659E-003  0.272280035109934E+002  0.871473446116398E-001  0.656507801201237E-001 -0.693147180559945E+000 -0.159851282341483E+002
  0.279329983446659E-003  0.286722099416126E+002 -0.117769271075602E+000  0.177164852996381E+000 -0.693147180559945E+000 -0.167072314494579E+002
  0.279329983446659E-003  0.322811007141130E+002 -0.345296684339532E-001  0.821482479166395E-001 -0.693147180559945E+000 -0.185116768357081E+002
  0.279329983446659E-003  0.305249713486835E+002  0.136186455386814E+000  0.402508974740004E-001 -0.693147180559945E+000 -0.176336121529934E+002
  0.279329983446659E-003  0.263555580741982E+002 -0.374360896098320E-001  0.339741630340224E-001 -0.693147180559945E+000 -0.155489055157507E+002
  0.279329983446659E-003  0.286733705299716E+002 -0.921483532634215E-003  0.552330039781856E-001 -0.693147180559945E+000 -0.167078117436374E+002
  0.279329983446659E-003  0.271874624457264E+002 -0.725463075999371E-001  0.113778137891735E+000 -0.693147180559945E+000 -0.159648577015148E+002
  0.279329983446659E-003  0.306357523957222E+002 -0.209706765182243E-001  0.853811940766439E-001 -0.693147180559945E+000 -0.176890026765127E+002
  0.279329983446659E-003  0.271321128324583E+002  0.720633665723653E-001  0.320980862692192E-001 -0.693147180559945E+000 -0.159371828948808E+002
  0.279329983446659E-003  0.287357312205202E+002  0.110729854172344E-001  0.578226280297176E-001 -0.693147180559945E+000 -0.167389920889117E+002
  0.279329983446659E-003  0.288900000224780E+002 -0.293299174736447E-001  0.334584205240923E-001 -0.693147180559945E+000 -0.168161264898906E+002
  0.279329983446659E-003  0.288936208351530E+002 -0.559429568380787E-002  0.242786771588632E-002 -0.693147180559945E+000 -0.168179368962281E+002
  0.279329983446659E-003  0.264506265080671E+002  0.655882422845340E-001  0.980053488978325E-001 -0.693147180559945E+000 -0.155964397326852E+002
  0.279329983446659E-003  0.269777268643328E+002 -0.477426825998173E-002  0.119684674237154E-001 -0.693147180559945E+000 -0.158599899108180E+002
  0.279329983446659E-003  0.289422088799986E+002  0.427384660700305E-001  0.507534347496064E-001 -0.693147180559945E+000 -0.168422309186509E+002
  0.279329983446659E-003  0.312837965505273E+002 -0.151240141149187E-001  0.875541748916554E-001 -0.693147180559945E+000 -0.180130247539153E+002
  0.279329983446659E-003  0.315396073712920E+002 -0.492544759318563E-001  0.626359050358274E-001 -0.693147180559945E+000 -0.181409301642976E+002
  0.279329983446659E-003  0.269742009931987E+002 -0.276040714964354E-002  0.467225798362843E-001 -0.693147180559945E+000 -0.158582269752509E+002
  0.279329983446659E-003  0.296700701907618E+002  0.351718373800978E-001  0.214586478405227E-001 -0.693147180559945E+000 -0.172061615740325E+002
  0.279329983446659E-003  0.269523842806266E+002  0.145083963273462E-002  0.150635007858807E-001 -0.693147180559945E+000 -0.158473186189649E+002
  0.279329983446659E-003  0.265450588218886E+002  0.260037327375400E-001  0.226790574629943E-001 -0.693147180559945E+000 -0.156436558895959E+002
  0.279329983446659E-003  0.269336833774996E+002 -0.573307347819225E-001  0.107247735307963E+000 -0.693147180559945E+000 -0.158379681674014E+002
  0.279329983446659E-003  0.295252097256801E+002  0.332319297139341E-001  0.116907035370829E+000 -0.693147180559945E+000 -0.171337313414917E+002
  0.279329983446659E-003  0.266133121531032E+002 -0.669246663228706E-002  0.388937886327923E-001 -0.693147180559945E+000 -0.156777825552032E+002
  0.279329983446659E-003  0.290008768054704E+002 -0.196632710820174E-001  0.279222708505634E-001 -0.693147180559945E+000 -0.168715648813868E+002
  0.279329983446659E-003  0.266214262814409E+002  0.555680542517136E-001  0.224003691565933E+000 -0.693147180559945E+000 -0.156818396193720E+002
  0.279329983446659E-003  0.294644829492898E+002 -0.144208218642855E-001  0.923508998795381E-001 -0.693147180559945E+000 -0.171033679532965E+002
  0.279329983446659E-003  0.266288970462796E+002  0.564861550648637E-001  0.441623193403345E-001 -0.693147180559945E+000 -0.156855750017914E+002
  0.279329983446659E-003  0.269242564667839E+002  0.694761248550000E-001  0.270511162623269E-001 -0.693147180559945E+000 -0.158332547120435E+002
  0.279329983446659E-003  0.266890576619207E+002  0.767268600135687E-001  0.818476105676859E-001 -0.693147180559945E+000 -0.157156553096120E+002
  0.279329983446659E-003  0.267740747645685E+002  0.427118092731329E-001  0.746765876181306E-001 -0.693147180559945E+000 -0.157581638609359E+002
  0.279329983446659E-003  0.290665118915754E+002 -0.581997063058375E-001  0.345498047662989E-001 -0.693147180559945E+000 -0.169043824244393E+002
  0.279329983446659E-003  0.261931744291796E+002 -0.133735216220608E+000  0.160209924220419E+000 -0.693147180559945E+000 -0.130965872145898E+002
