  0.485186603688161E+000  0.163951853937567E+002  0.322634995505099E-001  0.000000000000000E+000 -0.819759269687836E+001
  0.485186603688161E+000  0.168785536425623E+002  0.100629292567687E+000  0.000000000000000E+000 -0.843927682128115E+001
  0.485186603688161E+000  0.168995951452130E+002  0.909566567932306E-001  0.000000000000000E+000 -0.844979757260652E+001
  0.485186603688161E+000  0.169112139433656E+002  0.996764544395617E-001  0.000000000000000E+000 -0.845560697168280E+001
  0.485186603688161E+000  0.169183518213248E+002  0.513683620025341E-001  0.000000000000000E+000 -0.845917591066240E+001
  0.485186603688161E+000  0.169413140510054E+002  0.974654203984279E-001  0.000000000000000E+000 -0.847065702550269E+001
  0.485186603688161E+000  0.170425733454860E+002  0.122752149557188E-001  0.000000000000000E+000 -0.852128667274301E+001
  0.485186603688161E+000  0.170969067318318E+002  0.228086133194141E-001  0.000000000000000E+000 -0.854845336591589E+001
  0.485186603688161E+000  0.172302150786022E+002  0.223766606444215E-001  0.000000000000000E+000 -0.861510753930112E+001
  0.485186603688161E+000  0.172522644643899E+002  0.950030580425925E-001  0.000000000000000E+000 -0.862613223219494E+001
  0.485186603688161E+000  0.174717749017682E+002  0.104553471271259E+000  0.000000000000000E+000 -0.873588745088409E+001
  0.485186603688161E+000  0.177497009552931E+002  0.128519448585093E-001  0.000000000000000E+000 -0.887485047764655E+001
  0.485186603688161E+000  0.177966346538141E+002  0.174380096949804E-001  0.000000000000000E+000 -0.889831732690704E+001
  0.485186603688161E+000  0.178221400601056E+002  0.446493725393526E-001  0.000000000000000E+000 -0.891107003005278E+001
  0.485186603688161E+000  0.178303913614150E+002  0.271836304945776E-001  0.000000000000000E+000 -0.891519568070749E+001
  0.485186603688161E+000  0.175020180107466E+002  0.875936091441011E-001  0.000000000000000E+000 -0.894848230733179E+001
  0.485186603688161E+000  0.175138206646887E+002  0.132053712349382E-001  0.000000000000000E+000 -0.895438363430281E+001
  0.485186603688161E+000  0.175159506382107E+002  0.111686142598414E-001  0.000000000000000E+000 -0.895544862106382E+001
  0.485186603688161E+000  0.175686294254977E+002  0.264503848181866E-001  0.000000000000000E+000 -0.898178801470731E+001
  0.485186603688161E+000  0.212190577762195E+002  0.798765950907812E-001  0.000000000000000E+000 -0.108070021900682E+002
  0.485186603688161E+000  0.177337605287889E+002  0.144655034506594E-001  0.000000000000000E+000 -0.906435356635293E+001
  0.485186603688161E+000  0.210460876908969E+002  0.386847927022013E-001  0.000000000000000E+000 -0.107205171474069E+002
  0.485186603688161E+000  0.178293196637325E+002  0.911129643294351E-002  0.000000000000000E+000 -0.911213313382471E+001
  0.485186603688161E+000  0.178535235637946E+002  0.410435605878894E-002  0.000000000000000E+000 -0.912423508385576E+001
  0.485186603688161E+000  0.178671674356957E+002  0.635290979299773E-002  0.000000000000000E+000 -0.913105701980634E+001
  0.485186603688161E+000  0.178829244782992E+002  0.190555584840171E-001  0.000000000000000E+000 -0.913893554110807E+001
  0.485186603688161E+000  0.202825951655017E+002  0.674747137931018E-001  0.000000000000000E+000 -0.103387708847093E+002
  0.485186603688161E+000  0.179365042650476E+002  0.728175844225690E-001  0.000000000000000E+000 -0.916572543448226E+001
  0.485186603688161E+000  0.182732255600123E+002  0.292015189996028E-001  0.000000000000000E+000 -0.933408608196463E+001
  0.485186603688161E+000  0.184098461253972E+002  0.254079096238219E-001  0.000000000000000E+000 -0.940239636465710E+001
  0.485186603688161E+000  0.185491526100928E+002  0.593474629336022E-001  0.000000000000000E+000 -0.947204960700489E+001
  0.485186603688161E+000  0.187742569707618E+002  0.151219906451532E+000  0.000000000000000E+000 -0.958460178733936E+001
  0.485186603688161E+000  0.188515004172910E+002  0.733580045717756E-001  0.000000000000000E+000 -0.962322351060396E+001
  0.485186603688161E+000  0.198038259869229E+002  0.105809825486586E+000  0.000000000000000E+000 -0.100993862954199E+002
  0.485186603688161E+000  0.197929174179440E+002  0.597985105164837E-001  0.000000000000000E+000 -0.100939320109305E+002
  0.485186603688161E+000  0.192306888287033E+002  0.293209619392364E-001  0.000000000000000E+000 -0.981281771631011E+001
  0.485186603688161E+000  0.192660789813985E+002  0.441092554256162E-001  0.000000000000000E+000 -0.983051279265774E+001
  0.485186603688161E+000  0.194273815703675E+002  0.188154398480486E+000  0.000000000000000E+000 -0.991116408714225E+001
  0.485186603688161E+000  0.163281365260101E+002  0.923113039335877E-001  0.000000000000000E+000 -0.816406826300505E+001
  0.485186603688161E+000  0.161232944911367E+002  0.535719300437288E-001  0.000000000000000E+000 -0.806164724556834E+001
  0.485186603688161E+000  0.161053762914748E+002  0.607130558746631E-001  0.000000000000000E+000 -0.805268814573739E+001
  0.485186603688161E+000  0.158908834422839E+002  0.356841653269549E-001  0.000000000000000E+000 -0.794544172114193E+001
  0.485186603688161E+000  0.156400780597064E+002  0.512001709846889E-001  0.000000000000000E+000 -0.782003902985319E+001
  0.485186603688161E+000  0.156374296295576E+002  0.624657778257501E-001  0.000000000000000E+000 -0.781871481477880E+001
  0.485186603688161E+000  0.155366008581769E+002  0.490497853725058E-001  0.000000000000000E+000 -0.776830042908847E+001
  0.485186603688161E+000  0.154634460337173E+002  0.744910498300781E-001  0.000000000000000E+000 -0.773172301685866E+001
  0.485186603688161E+000  0.152101211264751E+002  0.104473196664777E+000  0.000000000000000E+000 -0.760506056323753E+001
  0.485186603688161E+000  0.149089008942612E+002  0.646322574891756E-001  0.000000000000000E+000 -0.745445044713060E+001
  0.485186603688161E+000  0.146916230915139E+002  0.889181938718189E-001  0.000000000000000E+000 -0.734581154575694E+001
  0.485186603688161E+000  0.146840786192329E+002  0.798256094304481E-001  0.000000000000000E+000 -0.734203930961644E+001
  0.485186603688161E+000  0.146554341897759E+002  0.100409146641776E+000  0.000000000000000E+000 -0.732771709488794E+001
  0.485186603688161E+000  0.144600845611126E+002  0.567125653068044E-001  0.000000000000000E+000 -0.723004228055629E+001
  0.485186603688161E+000  0.139772439849074E+002  0.908521522389222E-001  0.000000000000000E+000 -0.698862199245369E+001
  0.485186603688161E+000  0.138393215123300E+002  0.973097183986360E-001  0.000000000000000E+000 -0.691966075616500E+001
  0.485186603688161E+000  0.117152109261263E+002  0.804930601932853E-001  0.000000000000000E+000 -0.585760546306316E+001
  0.485186603688161E+000  0.110977038654101E+002  0.877589878416608E-001  0.000000000000000E+000 -0.554885193270506E+001
  0.485186603688161E+000  0.108415525597617E+002  0.910844500820956E-001  0.000000000000000E+000 -0.542077627988083E+001
  0.485186603688161E+000  0.103172421575602E+002  0.850953308570730E-001  0.000000000000000E+000 -0.515862107878011E+001
  0.485186603688161E+000  0.953104371472379E+001  0.986161836243322E-001  0.000000000000000E+000 -0.476552185736190E+001
