  0.100000000000000E+001  0.119485674492163E+002  0.123603973991408E+000  0.000000000000000E+000 -0.597428372460817E+001
  0.100000000000000E+001  0.168231050048794E+002  0.155411533710180E+000  0.000000000000000E+000 -0.841155250243971E+001
  0.100000000000000E+001  0.168579094095651E+002  0.126852390579489E+000  0.000000000000000E+000 -0.842895470478257E+001
  0.100000000000000E+001  0.130939186114372E+002  0.244482575340153E+000  0.000000000000000E+000 -0.654695930571858E+001
  0.100000000000000E+001  0.143228264992168E+002  0.218563954240812E+000  0.000000000000000E+000 -0.716141324960838E+001
  0.100000000000000E+001  0.150280222029115E+002  0.152338402536064E+000  0.000000000000000E+000 -0.751401110145576E+001
  0.100000000000000E+001  0.158729041704033E+002  0.108538571655442E+000  0.000000000000000E+000 -0.793645208520165E+001
  0.100000000000000E+001  0.169322608011610E+002  0.442762003519373E-001  0.000000000000000E+000 -0.846613040058048E+001
  0.100000000000000E+001  0.133780689827893E+002  0.792608059792748E-001  0.000000000000000E+000 -0.668903449139467E+001
  0.100000000000000E+001  0.138393215123300E+002  0.973097183986360E-001  0.000000000000000E+000 -0.691966075616500E+001
  0.100000000000000E+001  0.152175399211367E+002  0.914105374829171E-001  0.000000000000000E+000 -0.760876996056834E+001
  0.100000000000000E+001  0.157486028498976E+002  0.843031615197564E-001  0.000000000000000E+000 -0.787430142494882E+001
  0.100000000000000E+001  0.174725333960938E+002  0.979061325839315E-001  0.000000000000000E+000 -0.873626669804689E+001
  0.100000000000000E+001  0.159381532650634E+002  0.540707833150515E-001  0.000000000000000E+000 -0.796907663253171E+001
  0.100000000000000E+001  0.199911427014638E+002  0.276550077253619E+000  0.000000000000000E+000 -0.999557135073190E+001
  0.100000000000000E+001  0.189440992140098E+002  0.593474629336022E-001  0.000000000000000E+000 -0.947204960700489E+001
  0.100000000000000E+001  0.186377692881368E+002  0.497645999432115E-001  0.000000000000000E+000 -0.931888464406840E+001
  0.100000000000000E+001  0.184823870027127E+002  0.246316250085474E-001  0.000000000000000E+000 -0.924119350135637E+001
  0.100000000000000E+001  0.182532193387658E+002  0.120537542753822E-001  0.000000000000000E+000 -0.912660966938288E+001
  0.100000000000000E+001  0.207277083687711E+002  0.129675430531473E+000  0.000000000000000E+000 -0.103638541843856E+002
  0.100000000000000E+001  0.211409390993318E+002  0.321065145960811E+000  0.000000000000000E+000 -0.105704695496659E+002
  0.100000000000000E+001  0.182242662676494E+002  0.911129643294351E-002  0.000000000000000E+000 -0.911213313382471E+001
  0.100000000000000E+001  0.661816907800700E+001  0.160861824734765E+000  0.000000000000000E+000 -0.330908453900350E+001
